tree
version=v4
num_class=1
num_tree_per_iteration=1
label_index=0
max_feature_idx=13
objective=regression
feature_names=hour day_of_week month is_weekend hour_sin hour_cos import_price_sek_kwh export_price_sek_kwh load_kwh pv_kwh import_kwh soc_start_percent soc_end_percent battery_masked
feature_infos=[0:23] [0:6] [7:10] [0:1] [-1:1] [-1:1] [0.62:6.5599999999999996] [-0.19:4.5599999999999996] [0:2.5749999999999886] [0:2.6000000000000227] [0:2.2750000000000057] none none none
tree_sizes=2922 3053 3061 3047 3047 3035 3062 3059 3016 3040 3080 3087 3073 3096 3059 3106 3098 3028 3057 3076 3066 3092 3091 3072 3057 3075 3084 3082 3070 3076 3115 3081 3088 3122 3075 3066 3088 3097 3077 3085 3099 3093 3086 3089 3110 3121 3127 3120 3120 3114 3126 3111 3126 3109 3149 3111 3138 3133 3089 3150 3116 3144 3147 3127 3166 3083 3117 3129 3085 3141 3117 3176 3163 3047 3133 3061 3113 3126 3139 3136 3163 3173 3073 3161 3126 3133 3175 3132 3210 3186 3162 3154 3111 3125 3145 3147 3067 3141 3136 3133 3108 3108 3187 3194 3138 3146 3199 3145 3129 3086 3125 3188 3139 3117 3113 3108 3097 3126 3166 3088 3225 3102 3123 3173 3115 3133 3167 3134 3161 3162 3164 3119 3147 3123 3145 3124 3122 3130 3176 3147 3086 3121 3089 3159 3136 3119 3147 3101 3137 3161 3182 3148 3160 3085 3204 3125 3148 3112 3121 3086 3159 3164 3199 3144 3127 3181 3178 3110 3147 3071 3176 3115 3107 3171 3134 3128 3161 3188 3118 3141 3154 3150 3124 3132 3169 3123 3161 3137 3150 3101 3156 3204 3184 3109 3123 3144 3162 3134 3127 3179

Tree=0
num_leaves=31
num_cat=0
split_feature=9 8 9 8 5 6 8 8 0 1 8 8 7 1 9 6 9 9 1 8 8 7 6 5 8 8 1 1 8 4
split_gain=27975.5 2797.92 2132.46 1680.92 1165.04 880.899 774.917 711.815 767.512 831.535 924.917 656.666 591.535 1492.71 577.065 563.56 505.895 367.419 917.772 330.546 289.05 361.369 281.14 273.96 1609.35 1043.4 900.449 697.463 488.6 342.563
threshold=0.35000000000001569 0.32500000000000112 0.76249999999998874 1.949999999999996 -0.9159756150367534 0.9850000000000001 0.10000000000000099 0.11250000000001138 3.5000000000000004 5.5000000000000009 0.18750000000000003 0.68750000000000011 0.085000000000000006 4.5000000000000009 0.2375000000000114 1.905 0.40000000000001995 0.41249999999999437 4.5000000000000009 0.73750000000001148 0.19999999999996024 0.045000000000000005 1.8450000000000004 0.78656609248549303 0.26249999999998869 0.40000000000000219 4.5000000000000009 1.0000000180025095e-35 0.10000000000001565 0.12940952255126045
decision_type=2 2 2 2 2 2 2 2 2 2 2 2 2 2 2 2 2 2 2 2 2 2 2 2 2 2 2 2 2 2
left_child=4 2 16 11 6 7 15 -6 9 10 12 -3 -9 -14 23 -1 -2 18 -18 -8 -12 -22 -21 -7 28 26 27 -26 -25 -30
right_child=1 3 -4 -5 5 14 19 8 -10 -11 20 -13 13 -15 -16 -17 17 -19 -20 22 21 -23 -24 24 25 -27 -28 -29 29 -31
leaf_value=0.13446221019785531 0.13204493171010204 0.13404219999166425 0.15152618385763694 0.22696220274727472 0.11894986182243314 0.11887518557455054 0.12490803274410248 0.11821220960180885 0.12395861289610098 0.11821220960180885 0.19071221347611078 0.12414862158784044 0.12592054328283594 0.19946221109192497 0.12501987233123513 0.17487887835463808 0.19821221228401786 0.14035270663068466 0.12758720960326406 0.13462202750114377 0.1379593198470091 0.15982879737964584 0.17571220989983208 0.11834543879313365 0.11821220960180885 0.12583196690012496 0.11821220960180885 0.18517799036388755 0.12058177428056463 0.12778995109896521
leaf_weight=2300 19901 56585 50834 460 48612 574936 56034 5300 78751 5929 460 23837 2760 920 49239 1380 920 100319 920 4380 3460 4160 460 133792 460 4363 920 2513 40039 28016
leaf_count=2300 19901 56585 50834 460 48612 574936 56034 5300 78751 5929 460 23837 2760 920 49239 1380 920 100319 920 4380 3460 4160 460 133792 460 4363 920 2513 40039 28016
internal_value=0.124434 0.139331 0.142922 0.131655 0.120831 0.120404 0.127338 0.123927 0.126305 0.134343 0.139949 0.13111 0.128905 0.144306 0.119769 0.149618 0.139338 0.140759 0.1629 0.125991 0.152222 0.149899 0.138527 0.11944 0.120985 0.142622 0.16144 0.174817 0.1201 0.123549
internal_weight=1.30296e+06 253776 172894 80882 1.04918e+06 984630 64554 150352 101740 22989 17060 80422 8980 3680 834278 3680 122060 102159 1840 60874 8080 7620 4840 785039 210103 8256 3893 2973 201847 68055
internal_count=1302960 253776 172894 80882 1049184 984630 64554 150352 101740 22989 17060 80422 8980 3680 834278 3680 122060 102159 1840 60874 8080 7620 4840 785039 210103 8256 3893 2973 201847 68055
is_linear=0
shrinkage=1


Tree=1
num_leaves=31
num_cat=0
split_feature=10 9 10 8 9 9 8 10 8 10 10 9 8 8 10 9 10 8 0 9 4 10 9 10 9 8 8 10 10 10
split_gain=36146.2 23965.7 3160.7 2653.62 2028.3 1808.08 1157.83 1138.91 1074 1004.75 651.597 493.747 436.074 432.675 362.288 341.932 340.797 307.293 305.602 304.789 257.059 253.49 248.597 247.229 227.446 163.06 158.373 145.195 141.806 121.989
threshold=0.98750000000000082 0.42499999999999011 1.6625000000000087 0.32500000000000112 0.69999999999999585 0.17500000000000784 0.38749999999998869 0.28749999999999437 0.26249999999998869 0.31250000000000006 0.38749999999999579 0.36250000000001142 0.43750000000000006 0.68750000000000011 0.45000000000001 1.0500000000000045 1.1125000000000116 0.32499999999996027 9.5000000000000018 0.89999999999999158 0.37940952255126054 0.43750000000000006 0.31250000000000006 0.45000000000001 0.52500000000002001 0.26249999999998869 0.225000000000005 1.9375000000000144 1.5375000000000087 1.3500000000000016
decision_type=2 2 2 2 2 2 2 2 2 2 2 2 2 2 2 2 2 2 2 2 2 2 2 2 2 2 2 2 2 2
left_child=1 5 6 4 9 7 16 -1 14 24 22 12 27 19 -9 21 -2 -12 -17 23 28 25 -7 -5 -3 -6 -24 -4 -8 -18
right_child=2 3 11 13 15 10 20 8 -10 -11 17 -13 -14 -15 -16 18 29 -19 -20 -21 -22 -23 26 -25 -26 -27 -28 -29 -30 -31
leaf_value=-0.0058041373077728645 0.036278317251787276 0.0080022221797101736 0.06575710202386012 0.0057848636143752507 0.023322797943176741 -0.0018033098506420866 0.02191191481219398 0.0047839388837692919 -0.0039552700256274553 0.03528272836860611 0.023117920541506312 0.088662003619330271 0.047067129611968996 9.4848882054152886e-05 0.017917780692483527 0.03405412451728531 0.049062591934647543 0.0028422799227493154 -0.0075763091444969177 0.016735389567911624 -0.00057293064892292021 0.048673689365386963 0.0042802865071026389 0.024547890573740006 0.013511236575829026 0.015297734015621246 -0.0013973202232604575 0.080761831352385238 0.036918755192456285 0.060558794443866609
leaf_weight=835480 3983 34055 3653 38288 45221 100019 4140 12420 33791 4527 4453 3220 2300 21997 9096 10580 5753 3220 460 9200 920 920 36665 1840 41650 7360 18470 2886 2540 3853
leaf_count=835480 3983 34055 3653 38288 45221 100019 4140 12420 33791 4527 4453 3220 2300 21997 9096 10580 5753 3220 460 9200 920 920 36665 1840 41650 7360 18470 2886 2540 3853
internal_value=3.28945e-11 -0.00134762 0.0514643 0.0138204 0.0177094 -0.00445859 0.0398343 -0.00534415 0.00160457 0.0124013 0.000386049 0.0718994 0.0657929 0.00592655 0.0103363 0.0243079 0.0485751 0.0146092 0.0323195 0.0085271 0.0242055 0.0226547 -0.000317343 0.00664521 0.0110331 0.0221995 0.00237831 0.0723795 0.0276181 0.0536738
internal_weight=1.30296e+06 1.26971e+06 33248 216098 144773 1.05361e+06 21189 890787 55307 80232 162827 12059 8839 71325 21516 64541 13589 7673 11040 49328 7600 53501 155154 40128 75705 52581 55135 6539 6680 9606
internal_count=1302960 1269712 33248 216098 144773 1053614 21189 890787 55307 80232 162827 12059 8839 71325 21516 64541 13589 7673 11040 49328 7600 53501 155154 40128 75705 52581 55135 6539 6680 9606
is_linear=0
shrinkage=0.05


Tree=2
num_leaves=31
num_cat=0
split_feature=10 9 10 8 9 9 8 10 8 10 10 9 10 8 8 9 10 8 9 10 10 9 9 0 10 1 8 10 8 8
split_gain=32622 21629 2852.53 2423.74 1812.22 1653.45 1044.94 1030.58 903.841 820.672 585.905 445.607 402.591 399.173 390.489 387.317 307.57 277.332 275.265 234.168 232.566 230.895 217.481 275.806 207.474 169.994 165.496 151.172 144.625 118.65
threshold=0.98750000000000082 0.42499999999999988 1.6625000000000087 0.32500000000000112 0.76249999999998874 0.17500000000000784 0.38749999999998869 0.27499999999999508 0.26249999999998869 0.31250000000000006 0.38749999999999579 0.36250000000001142 0.45000000000001 0.45000000000003132 0.68750000000000011 0.61250000000001148 1.1125000000000116 0.32499999999996027 0.85000000000001219 1.5125000000000031 0.45000000000001 0.31250000000000006 1.0500000000000045 9.5000000000000018 0.43750000000000006 1.0000000180025095e-35 0.28750000000002279 1.9375000000000144 0.225000000000005 0.24999999999998582
decision_type=2 2 2 2 2 2 2 2 2 2 2 2 2 2 2 2 2 2 2 2 2 2 2 2 2 2 2 2 2 2
left_child=1 5 6 4 9 7 16 -1 12 15 21 13 -9 27 18 -3 29 -12 20 -8 -5 -7 24 -24 26 -20 -6 -4 -23 -2
right_child=2 3 11 14 22 10 19 8 -10 -11 17 -13 -14 -15 -16 -17 -18 -19 25 -21 -22 28 23 -25 -26 -27 -28 -29 -30 -31
leaf_value=-0.0055317167748676968 0.042460848213744067 0.0089001949421536365 0.061795908266281285 0.0050899981841297341 0.023271411885525135 -0.0017131443588424091 0.014971714052889083 0.0037195022316706006 -0.0038391710097943443 0.03351859211862443 0.021962024518446577 0.08422890305519104 0.017021891559091649 0.041780037432909013 9.0106437381527759e-05 0.015611325577285968 0.050990070310168639 0.0027001659918044294 0.00072300210595130929 0.03259562970585906 0.023320496827363969 0.0040758424791539271 0.032351419378233992 -0.007197494059801102 0.046240004897117618 0.017244649305939674 0.01212755385786295 0.076723740097556115 -0.001327454223843119 0.025151148438453674
leaf_weight=831340 2143 51678 4113 35528 35194 100019 4140 15180 35171 4527 4453 3220 9096 1840 21997 36814 9606 3220 1840 3460 1840 37585 10580 460 920 10120 3680 2886 18470 1840
leaf_count=831340 2143 51678 4113 35528 35194 100019 4140 15180 35171 4527 4453 3220 9096 1840 21997 36814 9606 3220 1840 3460 1840 37585 10580 460 920 10120 3680 2886 18470 1840
internal_value=2.12227e-11 -0.00128023 0.0488911 0.0131664 0.016903 -0.00422808 0.0378426 -0.00507694 0.00128292 0.0127544 0.000389729 0.0683045 0.00870379 0.0625033 0.00563022 0.0116921 0.0461463 0.0138787 0.00810074 0.0229952 0.00598767 -0.000273425 0.0244945 0.0307035 0.0227719 0.0147029 0.0222165 0.0679513 0.00229547 0.0344644
internal_weight=1.30296e+06 1.26971e+06 33248 215178 143853 1.05453e+06 21189 890787 59447 93019 163747 12059 24276 8839 71325 88492 13589 7673 49328 7600 37368 156074 50834 11040 39794 11960 38874 6999 56055 3983
internal_count=1302960 1269712 33248 215178 143853 1054534 21189 890787 59447 93019 163747 12059 24276 8839 71325 88492 13589 7673 49328 7600 37368 156074 50834 11040 39794 11960 38874 6999 56055 3983
is_linear=0
shrinkage=0.05


Tree=3
num_leaves=31
num_cat=0
split_feature=10 9 10 9 9 10 10 9 10 9 6 9 1 10 1 9 0 10 9 10 10 4 9 10 10 1 6 0 10 0
split_gain=29441.3 19520.4 2574.41 1472.63 1237.17 985.935 931.128 620.281 530.739 447.072 450.848 405.95 312.185 282.725 277.366 205.667 178.977 175.266 169.033 159.146 151.882 162.769 144.087 141.274 140.493 135.976 125.049 123.505 119.018 117.457
threshold=0.98750000000000082 0.42499999999999011 1.6625000000000087 0.17500000000000784 0.68750000000000011 0.45000000000001 0.28749999999999437 0.2375000000000114 0.38749999999999579 1.0500000000000045 0.90500000000000014 0.40000000000001995 4.5000000000000009 1.9375000000000144 3.5000000000000004 0.29999999999996879 9.5000000000000018 1.1374999999999889 1.0250000000000201 0.7125000000000058 1.5625000000000002 0.37940952255126054 0.51249999999998874 0.024999999999984372 0.92500000000000437 3.5000000000000004 1.8250000000000004 13.500000000000002 0.7125000000000058 11.500000000000002
decision_type=2 2 2 2 2 2 2 2 2 2 2 2 2 2 2 2 2 2 2 2 2 2 2 2 2 2 2 2 2 2
left_child=1 3 7 6 5 22 -1 12 15 10 -6 13 17 25 24 -5 23 -2 19 -12 21 -14 -3 -11 -8 -4 -25 -10 -7 -24
right_child=2 4 11 8 9 28 14 -9 27 16 18 -13 20 -15 -16 -17 -18 -19 -20 -21 -22 -23 29 26 -26 -27 -28 -29 -30 -31
leaf_value=-0.0052390125712309414 0.026670052962643759 0.004918890533427255 0.060371246561102113 -0.0019615911276107414 0.0087060205837935205 0.023662025895383625 0.0052111395801426354 0.053730935676894603 0.015526183279208849 0.02809221368768941 0.016921284369177562 0.081728165348370879 0.022554179174559458 0.072887552088114926 -0.0012304922416440747 0.0016918483910011385 -0.0068376190960407262 0.040414574383309365 -0.0044571260455995802 0.046428003907203676 0.035591002172296923 -0.0012928700074553491 0.010104741554675622 0.013120974404591835 0.025209944695234299 0.045666687190532684 0.030770079294840498 -0.0040015844628214841 0.038945342600345614 0.0052021240837774796
leaf_weight=835480 3220 35748 3653 84017 22457 4140 19323 3983 6753 10580 69528 2760 3220 2886 35064 71137 460 8293 920 460 1553 920 48584 3680 920 2760 1380 920 1840 16321
leaf_count=835480 3220 35748 3653 84017 22457 4140 19323 3983 6753 10580 69528 2760 3220 2886 35064 71137 460 8293 920 460 1553 920 48584 3680 920 2760 1380 920 1840 16321
internal_value=-4.04436e-11 -0.00121622 0.0464465 -0.0040239 0.012473 0.00863985 -0.00482309 0.0359504 0.000348301 0.0162069 0.01488 0.0648892 0.0318344 0.0598914 0.00145989 -0.000286515 0.0239018 0.0365705 0.0168353 0.0171152 0.0222568 0.0172548 0.00746797 0.0248059 0.00612004 0.0540428 0.0179344 0.0131848 0.0283646 0.00887193
internal_weight=1.30296e+06 1.26971e+06 33248 1.05361e+06 216098 106633 890787 21189 162827 109465 93365 12059 17206 9299 55307 155154 16100 11513 70908 69988 5693 4140 100653 15640 20243 6413 5060 7673 5980 64905
internal_count=1302960 1269712 33248 1053614 216098 106633 890787 21189 162827 109465 93365 12059 17206 9299 55307 155154 16100 11513 70908 69988 5693 4140 100653 15640 20243 6413 5060 7673 5980 64905
is_linear=0
shrinkage=0.05


Tree=4
num_leaves=31
num_cat=0
split_feature=10 9 10 8 9 9 8 10 8 10 10 8 9 8 10 9 9 10 8 9 4 9 10 2 7 1 9 10 1 2
split_gain=26570.8 17617.4 2323.4 2155.2 1584.07 1346.65 893.207 842.71 802.842 674.446 477.238 399.638 366.37 353.838 353.152 328.284 258.85 256.355 242.719 212.837 196.32 191.65 181.469 160.707 398.595 245.69 181.538 152.882 147.522 130.374
threshold=0.98750000000000082 0.42499999999999988 1.6625000000000087 0.29999999999996879 0.76249999999998874 0.17500000000000784 0.38749999999998869 0.27499999999999508 0.26249999999998869 0.31250000000000006 0.38749999999999579 0.68750000000000011 0.40000000000001995 0.73750000000001148 0.45000000000001 0.61250000000001148 0.85000000000001219 1.3500000000000016 0.32499999999996027 0.062500000000000014 0.37940952255126054 0.31250000000000006 0.45000000000001 7.5000000000000009 0.115 5.5000000000000009 0.97499999999998022 0.43750000000000006 1.0000000180025095e-35 7.5000000000000009
decision_type=2 2 2 2 2 2 2 2 2 2 2 2 2 2 2 2 2 2 2 2 2 2 2 2 2 2 2 2 2 2
left_child=1 5 6 4 9 7 17 -1 14 15 21 16 13 -4 -9 -3 22 19 -12 -2 -8 -7 -5 24 25 -6 27 -25 -18 -30
right_child=2 3 12 11 23 10 20 8 -10 -11 18 -13 -14 -15 -16 -17 28 -19 -20 -21 -22 -23 -24 26 -26 -27 -28 -29 29 -31
leaf_value=-0.0049931802426307556 0.030063854287727856 0.0081826201728983777 0.060968325395207169 0.0047138524917980486 -0.0092728067189455036 -0.0015586332042626186 0.023408143005952866 0.0034948521124368369 -0.0036583292123966923 0.030574399154853001 0.020087614286730272 -0.00045202087714096882 0.077641759316126505 0.033532647291819255 0.015953717944470275 0.014490016903501369 -0.00019615795463323593 0.052746750448018034 0.0020678166167012284 0.044849651238029892 -0.0012282265350222589 0.0020934540723371478 0.020780328847467902 0.021597969079664599 0.023758295476436615 0.022372917085886002 0.029952632697920006 0.042344273626804353 0.0025488954037427903 0.016883503258228304
leaf_weight=831340 4833 50298 7919 39208 1840 100019 6680 15180 35171 4527 4453 21997 2760 1380 9096 34974 1840 3853 3220 4903 920 56055 1840 25534 6900 920 11040 920 1840 11500
leaf_count=831340 4833 50298 7919 39208 1840 100019 6680 15180 35171 4527 4453 21997 2760 1380 9096 34974 1840 3853 3220 4903 920 56055 1840 25534 6900 920 11040 920 1840 11500
internal_value=6.3654e-11 -0.00115541 0.0441242 0.0118828 0.0156647 -0.00381587 0.0341529 -0.00458194 0.0011691 0.011768 0.000351543 0.00526178 0.0616448 0.0568968 0.00816308 0.0107696 0.00749708 0.0418301 0.0125255 0.0375099 0.0204258 -0.000246962 0.00543404 0.0230854 0.0173347 0.00127577 0.024567 0.0223195 0.0130757 0.0149063
internal_weight=1.30296e+06 1.26971e+06 33248 215178 136953 1.05453e+06 21189 890787 59447 89799 163747 78225 12059 9299 24276 85272 56228 13589 7673 9736 7600 156074 41048 47154 9660 2760 37494 26454 15180 13340
internal_count=1302960 1269712 33248 215178 136953 1054534 21189 890787 59447 89799 163747 78225 12059 9299 24276 85272 56228 13589 7673 9736 7600 156074 41048 47154 9660 2760 37494 26454 15180 13340
is_linear=0
shrinkage=0.05


Tree=5
num_leaves=31
num_cat=0
split_feature=9 8 9 8 2 5 5 8 2 4 4 9 8 8 9 6 8 6 6 1 4 6 4 6 6 9 2 4 1 6
split_gain=16844.8 1854.23 1312.81 1054.23 1027.01 1610.89 1076.11 1007.19 551.278 488.57 551.063 789.21 447.079 436.369 414.059 406.874 403.715 481.753 382.816 417.448 500.447 358.118 487.307 331.246 296.411 269.348 258.881 317.712 258.452 247.185
threshold=0.35000000000001569 0.32500000000000112 0.76249999999998874 1.949999999999996 9.5000000000000018 0.78656609248549303 -0.9159756150367534 0.26249999999998869 8.5000000000000018 0.78656609248549325 0.37940952255126054 0.51249999999998874 0.10000000000000099 0.59999999999998022 0.19999999999999399 1.0350000000000004 0.13749999999998866 0.8650000000000001 2.1450000000000005 2.5000000000000004 0.60355339059327384 1.6050000000000002 -1.0000000180025095e-35 1.8250000000000004 1.905 0.53750000000000864 7.5000000000000009 0.60355339059327384 4.5000000000000009 1.2350000000000001
decision_type=2 2 2 2 2 2 2 2 2 2 2 2 2 2 2 2 2 2 2 2 2 2 2 2 2 2 2 2 2 2
left_child=4 2 8 13 6 15 12 16 25 10 -10 18 24 -3 -8 28 17 -7 19 -12 -21 22 -9 -23 -1 -2 27 -4 -6 -19
right_child=1 3 26 -5 5 7 14 21 9 -11 11 -13 -14 -15 -16 -17 -18 29 -20 20 -22 23 -24 -25 -26 -27 -28 -29 -30 -31
leaf_value=0.0094227256253361716 0.0061938064259766988 0.0077516121598981691 0.0024097261484712362 0.080788844823837289 0.014015264611013913 0.062959814071655282 -0.0045168930064448986 0.052519170112080051 0.014928415524813327 0.0093636765320374935 0.067028236389160153 0.016367506608366968 0.0030186729802545108 0.00015680291226919472 -0.00052410900900853993 -0.0032184245639095589 0.001977894920314346 0.0020810882002115249 0.0021071682800538837 0.05411936342716217 0.0065114248543977739 -0.003846446474200594 0.020624644057036432 0.027799962460994723 0.040077376365661624 0.012358641281349357 0.023063311382070198 0.02060176948706309 0.0010554527343629042 0.017774703462297717
leaf_weight=1840 40756 50004 3680 460 4400 460 669263 1620 20940 18880 1840 5520 32146 30418 71907 175775 41628 4600 480 1380 920 2063 4593 1380 1380 31344 40254 6900 30609 5520
leaf_count=1840 40756 50004 3680 460 4400 460 669263 1620 20940 18880 1840 5520 32146 30418 71907 175775 41628 4600 480 1380 920 2063 4593 1380 1380 31344 40254 6900 30609 5520
internal_value=-2.26867e-11 0.0115595 0.0144827 0.00531075 -0.00279599 -0.000155951 -0.00372294 0.00693821 0.011671 0.0157077 0.0195614 0.0291289 0.00479791 0.00487903 -0.00412952 -0.00223805 0.0041945 0.012916 0.0443763 0.0492771 0.0350762 0.0217729 0.0289409 0.00883785 0.0225604 0.00887384 0.021234 0.0142741 0.00268427 0.0106412
internal_weight=1.30296e+06 253776 172894 80882 1.04918e+06 272648 776536 61864 122060 49960 31080 10140 35366 80422 741170 210784 52208 10580 4620 4140 2300 9656 6213 3443 3220 72100 50834 10580 35009 10120
internal_count=1302960 253776 172894 80882 1049184 272648 776536 61864 122060 49960 31080 10140 35366 80422 741170 210784 52208 10580 4620 4140 2300 9656 6213 3443 3220 72100 50834 10580 35009 10120
is_linear=0
shrinkage=0.05


Tree=6
num_leaves=31
num_cat=0
split_feature=10 9 10 8 9 9 8 10 8 10 10 10 8 9 8 9 10 8 10 10 10 9 8 2 6 1 9 10 1 0
split_gain=22980.8 14419.4 1976.03 1773.95 1292.94 1099.14 776.324 736.775 872.084 594.987 413.12 343.845 325.205 283.607 261.552 249.926 233.504 212.278 192.237 176.748 155.909 155.822 143.38 129.32 343.576 218.393 163.838 137.976 111.572 117.526
threshold=0.98750000000000082 0.42499999999999988 1.6625000000000087 0.29999999999996879 0.76249999999998874 0.17500000000000784 0.38749999999998869 0.33750000000000574 0.32500000000003132 0.31250000000000006 0.38749999999999579 1.9250000000000045 0.77499999999998448 0.61250000000001148 0.43750000000000006 0.93750000000000011 1.1125000000000116 0.32499999999996027 0.66250000000000864 1.5375000000000087 0.33750000000000574 0.26249999999998869 0.30000000000000787 7.5000000000000009 1.0050000000000001 5.5000000000000009 0.97499999999998022 0.43750000000000006 5.5000000000000009 8.5000000000000018
decision_type=2 2 2 2 2 2 2 2 2 2 2 2 2 2 2 2 2 2 2 2 2 2 2 2 2 2 2 2 2 2
left_child=1 5 6 4 9 7 16 -1 18 13 21 14 15 -3 -4 20 -2 -12 -9 -8 -5 -7 -23 24 25 -6 27 -25 -26 -30
right_child=2 3 11 12 23 10 19 8 -10 -11 17 -13 -14 -15 -16 -17 -18 -19 -20 -21 -22 22 -24 26 28 -27 -28 -29 29 -31
leaf_value=-0.0044849614159067656 0.028818238627033678 0.0072894989943989548 0.056873648717454199 0.0045633021169796065 -0.0091570531018078331 -0.0021448026684776651 0.013639786026694559 0.0078722790865719938 -0.0035095478822204152 0.028295619346683645 0.018682290319844416 0.068604464907909973 -0.0011161371303381909 0.013152008463540235 0.036790460348129272 0.014310849859918418 0.043217302438755129 0.001830296657447304 0.019762999740902024 0.029804262495416359 0.017884060889482498 0.0021335251255386123 -0.0026047960192447008 0.019364905079503267 0.025495618581771851 0.020678983628749849 0.027301835392912227 0.039073894917964938 0.018413663903872172 -0.010769200325012208
leaf_weight=850876 3983 50298 5493 48868 1840 64941 5060 10820 24135 4527 4453 4266 18317 34974 2300 8740 9606 3220 4956 2540 2300 70493 20640 25534 5060 920 11040 920 1380 460
leaf_count=850876 3983 50298 5493 48868 1840 64941 5060 10820 24135 4527 4453 4266 18317 34974 2300 8740 9606 3220 4956 2540 2300 70493 20640 25534 5060 920 11040 920 1380 460
internal_value=-2.12725e-11 -0.00107453 0.0410353 0.0107211 0.0141522 -0.00348143 0.0318396 -0.00417353 0.002466 0.0106317 0.000283582 0.0571931 0.00471416 0.00969399 0.0509464 0.00649679 0.0389969 0.0116103 0.0116077 0.0190421 0.00516207 -0.000273268 0.00106038 0.0208564 0.0156978 0.000788292 0.0221855 0.0200503 0.0216616 0.0111179
internal_weight=1.30296e+06 1.26971e+06 33248 215178 136953 1.05453e+06 21189 890787 39911 89799 163747 12059 78225 85272 7793 59908 13589 7673 15776 7600 51168 156074 91133 47154 9660 2760 37494 26454 6900 1840
internal_count=1302960 1269712 33248 215178 136953 1054534 21189 890787 39911 89799 163747 12059 78225 85272 7793 59908 13589 7673 15776 7600 51168 156074 91133 47154 9660 2760 37494 26454 6900 1840
is_linear=0
shrinkage=0.05


Tree=7
num_leaves=31
num_cat=0
split_feature=10 9 10 10 9 9 10 9 9 10 6 6 1 9 9 10 10 4 9 10 10 4 9 10 10 6 10 4 5 2
split_gain=20740.2 13014 1783.37 986.469 902.811 894.725 740.465 451.277 338.086 310.32 300.754 269.443 228.663 179.981 162.95 140.008 131.915 125.282 122.88 126.284 114.756 120.434 111.226 100.787 95.7569 93.1759 91.3173 91.2799 85.1093 174.7
threshold=0.98750000000000082 0.42499999999999011 1.6625000000000087 0.36250000000000077 0.21250000000000571 0.68750000000000011 0.45000000000001 0.2375000000000114 1.0500000000000045 1.9250000000000045 0.90500000000000014 1.7950000000000002 4.5000000000000009 0.36250000000001142 0.17500000000000784 1.1374999999999889 0.43750000000000006 0.60355339059327384 1.0250000000000201 0.07500000000000108 1.5625000000000002 0.37940952255126054 0.51249999999998874 0.7125000000000058 0.22499999999999878 0.90500000000000014 0.024999999999984372 0.25881904510252091 0.25881904510252057 8.5000000000000018
decision_type=2 2 2 2 2 2 2 2 2 2 2 2 2 2 2 2 2 2 2 2 2 2 2 2 2 2 2 2 2 2
left_child=1 3 7 4 24 6 22 12 10 13 -7 14 15 -4 28 -2 18 -10 19 -12 21 -14 -3 -8 -1 -17 -19 -24 -5 -30
right_child=2 5 9 11 -6 8 23 -9 17 -11 16 -13 20 -15 -16 25 -18 26 -20 -21 -22 -23 27 -25 -26 -27 -28 -29 29 -31
leaf_value=-0.0043054985007071308 0.021941388079098293 0.0036416322346041006 0.044174578017433935 -0.0019072734131013666 0.00032365432806998859 0.0071354378050115814 0.019663208723068239 0.045413595936330098 -0.0056947313249111177 0.065174242085657155 0.014190679801288554 0.011295916216580996 0.018750422767230445 0.062066572904586795 0.0088870380788172131 0.01922229826450348 0.029082742333412171 0.023422049860591473 -0.004680722765624523 0.0040479690900870734 0.030130391677809162 -0.0017622686922550202 0.003879631127506836 0.033727379888296126 -0.0015399789920966154 0.036097987440601546 0.015255347461524335 0.008201549446464106 -0.0053508017677813772 0.0078722226703894001
leaf_weight=849734 3220 35748 5953 17689 125824 22457 4140 3983 460 4266 65388 9660 3220 1840 6753 920 1380 10580 920 3220 1553 920 16321 1840 32498 7373 5060 48584 3680 7776
leaf_count=849734 3220 35748 5953 17689 125824 22457 4140 3983 460 4266 65388 9660 3220 1840 6753 920 1380 10580 920 3220 1553 920 16321 1840 32498 7373 5060 48584 3680 7776
internal_value=-3.41341e-11 -0.0010208 0.0389835 -0.00331329 -0.00363854 0.0101565 0.00689682 0.0302476 0.0133319 0.0543335 0.012178 0.00388337 0.0267368 0.048399 0.00188868 0.0307901 0.0137751 0.0200235 0.0134712 0.0137146 0.0185399 0.014192 0.00588124 0.0239906 -0.00420363 0.0342259 0.0207799 0.00711476 0.000267137 0.0036246
internal_weight=1.30296e+06 1.26971e+06 33248 1.05361e+06 1.00806e+06 216098 106633 21189 109465 12059 93365 45558 17206 7793 35898 11513 70908 16100 69528 68608 5693 4140 100653 5980 882232 8293 15640 64905 29145 11456
internal_count=1302960 1269712 33248 1053614 1008056 216098 106633 21189 109465 12059 93365 45558 17206 7793 35898 11513 70908 16100 69528 68608 5693 4140 100653 5980 882232 8293 15640 64905 29145 11456
is_linear=0
shrinkage=0.05


Tree=8
num_leaves=31
num_cat=0
split_feature=9 8 9 8 5 6 8 8 8 0 1 8 7 1 9 6 9 0 9 0 8 1 9 0 8 9 8 7 1 6
split_gain=12461.3 1502.32 983.795 799.817 526.33 388.72 383.353 360.54 301.244 320.542 387.055 385.121 288.174 664.722 269.608 264.029 219.365 182.754 202.688 293.67 187.676 212.489 318.988 218.556 200.056 176.982 153.132 180.139 139.235 138.919
threshold=0.35000000000001569 0.32500000000000112 0.77499999999998448 1.949999999999996 -0.9159756150367534 0.9850000000000001 0.10000000000000099 0.59999999999998022 0.11250000000001138 3.5000000000000004 5.5000000000000009 0.18750000000000003 0.085000000000000006 4.5000000000000009 0.2375000000000114 1.905 0.40000000000001995 8.5000000000000018 0.41249999999999437 11.500000000000002 0.26249999999998869 5.5000000000000009 0.43750000000000006 12.500000000000002 0.19999999999996024 0.89999999999999158 0.19999999999996024 0.045000000000000005 5.5000000000000009 0.87500000000000011
decision_type=2 2 2 2 2 2 2 2 2 2 2 2 2 2 2 2 2 2 2 2 2 2 2 2 2 2 2 2 2 2
left_child=4 2 16 7 6 8 15 25 -6 10 11 12 -10 -14 -7 28 -2 -18 19 -19 21 -20 24 -24 -23 -3 -13 -28 -1 -8
right_child=1 3 -4 -5 5 14 29 -9 9 -11 -12 26 13 -15 -16 -17 17 18 20 -21 -22 22 23 -25 -26 -27 27 -29 -30 -31
leaf_value=0.0011148594785481691 0.0054379593831516528 0.0053169941826124332 0.018703666903297632 0.070060467720031744 -0.0035891762550424896 -0.0033384376047970103 0.0088076052550124014 -0.00035067559702428315 -0.004374802192708231 -0.00032069545518431875 -0.0046150822045404362 0.046149805188179016 0.001568964372078578 0.05064453631639481 0.00047565763002684937 0.034930028021335602 0.0085996852518342784 0.048114237189292912 0.012188611340377504 -0.00081475060433149342 0.0027122942358255389 0.070183974504470822 0.010691283410415054 0.04009509682655335 0.029799652844667436 0.013712936104275287 0.008013714188871356 0.023454417890081042 0.031870171427726746 0.00028875334600798576
leaf_weight=1840 19901 42644 47477 460 48612 785039 5236 30418 5300 78751 5929 460 2760 920 49239 1380 41951 920 51762 460 4600 460 3680 763 920 7360 3460 4160 460 55638
leaf_count=1840 19901 42644 47477 460 48612 785039 5236 30418 5300 78751 5929 460 2760 920 49239 1380 41951 920 51762 460 4600 460 3680 763 920 7360 3460 4160 460 55638
internal_value=2.61791e-11 0.0099423 0.0125735 0.00431772 -0.00240484 -0.00269158 0.00196885 0.00394169 -0.000351384 0.00119565 0.00639005 0.0102147 0.00308874 0.0138379 -0.00311333 0.01764 0.010253 0.0111611 0.0128516 0.0318046 0.012431 0.0132073 0.0222629 0.0157408 0.0432611 0.00655278 0.0181345 0.0164433 0.00726592 0.00102149
internal_weight=1.30296e+06 253776 172894 80882 1.04918e+06 984630 64554 80422 150352 101740 22989 17060 8980 3680 834278 3680 125417 105516 63565 1380 62185 57585 5823 4443 1380 50004 8080 7620 2300 60874
internal_count=1302960 253776 172894 80882 1049184 984630 64554 80422 150352 101740 22989 17060 8980 3680 834278 3680 125417 105516 63565 1380 62185 57585 5823 4443 1380 50004 8080 7620 2300 60874
is_linear=0
shrinkage=0.05


Tree=9
num_leaves=31
num_cat=0
split_feature=9 8 9 8 2 5 5 8 2 0 0 9 0 8 8 6 1 0 9 6 6 0 6 1 6 8 2 9 2 9
split_gain=11246.3 1355.84 895.143 721.835 717.757 1150.16 740.132 698.697 440.289 397.477 550.404 404.707 333.763 326.226 308.959 285.581 320.234 345.629 275.885 273.439 247.313 380.627 247.588 214.47 543.711 500.603 211.076 205.042 220.466 219.861
threshold=0.35000000000001569 0.32500000000000112 0.69999999999999585 1.949999999999996 9.5000000000000018 0.78656609248549303 -0.9159756150367534 0.26249999999998869 8.5000000000000018 8.5000000000000018 10.500000000000002 0.51249999999998874 1.5000000000000002 0.51249999999998874 0.10000000000000099 2.1450000000000005 2.5000000000000004 9.5000000000000018 0.22500000000001566 1.0350000000000004 1.6050000000000002 21.500000000000004 1.8250000000000004 5.5000000000000009 0.8650000000000001 0.19999999999996024 8.5000000000000018 0.86250000000001148 8.5000000000000018 0.45000000000003132
decision_type=2 2 2 2 2 2 2 2 2 2 2 2 2 2 2 2 2 2 2 2 2 2 2 2 2 2 2 2 2 2
left_child=4 2 8 13 6 19 14 12 -2 -10 11 15 23 27 26 16 -11 -18 -8 -6 21 -9 -22 24 -7 -26 -1 28 -3 -30
right_child=1 3 -4 -5 5 7 18 20 9 10 -12 -13 -14 -15 -16 -17 17 -19 -20 -21 22 -23 -24 -25 25 -27 -28 -29 29 -31
leaf_value=-0.0014678754843771458 0.0065337269416331049 0.0021150360695000067 0.016606403915527864 0.066557443141937261 0.0021983708098996632 0.048112310469150543 -0.0036703844937984128 0.016879461270621367 0.0067753133334881839 0.057134561240673065 0.012242028619847509 0.01426289975643158 0.00045115642928326456 0.00041122069343293532 0.0025279994931159551 0.0008458226919174195 0.005410481616854668 0.044974987705548607 3.4889801937009973e-06 -0.0026405738439983679 -0.0034428846320364009 0.045067509640882047 0.023916982859373093 -0.004314903206000145 0.0051455986540613272 0.030361195125968323 0.026869464293122293 0.01436686022207141 0.02168008958189083 0.00659370401145203
leaf_weight=920 64373 21807 64541 460 35009 920 685957 4593 16120 1840 20020 3220 31972 38375 32146 480 920 1380 55213 175775 2063 1620 1380 2753 14280 2283 2300 7360 3220 9660
leaf_count=920 64373 21807 64541 460 35009 920 685957 4593 16120 1840 20020 3220 31972 38375 32146 480 920 1380 55213 175775 2063 1620 1380 2753 14280 2283 2300 7360 3220 9660
internal_value=1.52303e-11 0.00944518 0.0119449 0.00410184 -0.0022846 -7.75435e-05 -0.00305951 0.00591688 0.0091682 0.0130243 0.0166399 0.0278703 0.00363168 0.0037446 0.00400708 0.0373543 0.0415871 0.0291492 -0.0033967 -0.00183688 0.0182725 0.0242293 0.00752331 0.00865676 0.0106994 0.00862125 0.0187731 0.00678688 0.00517853 0.0103653
internal_weight=1.30296e+06 253776 172894 80882 1.04918e+06 272648 776536 61864 108353 43980 27860 7840 52208 80422 35366 4620 4140 2300 741170 210784 9656 6213 3443 20236 17483 16563 3220 42047 34687 12880
internal_count=1302960 253776 172894 80882 1049184 272648 776536 61864 108353 43980 27860 7840 52208 80422 35366 4620 4140 2300 741170 210784 9656 6213 3443 20236 17483 16563 3220 42047 34687 12880
is_linear=0
shrinkage=0.05


Tree=10
num_leaves=31
num_cat=0
split_feature=10 9 10 8 9 9 8 10 8 10 10 10 8 8 8 10 9 8 9 5 2 6 8 9 8 10 8 10 9 10
split_gain=17312.2 9768.92 1481.14 1396.22 1000.9 621.714 596.409 563.211 703.818 403.274 364.033 272.008 270.523 237.723 207.487 202.798 164.208 158.983 198.835 154.452 150.53 299.01 192.444 138.607 137.164 114.939 230.071 102.541 91.2563 102.579
threshold=0.98750000000000082 0.48750000000001142 1.6625000000000087 0.27500000000001995 0.17500000000000784 0.78749999999999443 0.38749999999998869 0.45000000000001 0.48750000000001142 0.46250000000000574 0.38749999999999579 1.9250000000000045 0.68750000000000011 0.79999999999997595 0.43750000000000006 1.3625000000000045 1.0874999999999917 0.22500000000001566 0.29999999999996879 0.37940952255126048 7.5000000000000009 1.0050000000000001 0.17499999999999008 0.64999999999998448 0.96249999999999158 0.27499999999999508 0.24999999999998582 0.45000000000001 0.97499999999998022 0.43750000000000006
decision_type=2 2 2 2 2 2 2 2 2 2 2 2 2 2 2 2 2 2 2 2 2 2 2 2 2 2 2 2 2 2
left_child=1 4 6 5 7 9 15 25 -9 23 17 14 16 -12 -4 19 27 18 -6 -2 21 22 -7 -3 -8 -1 -27 -5 29 -22
right_child=2 3 11 12 10 20 24 8 -10 -11 13 -13 -14 -15 -16 -17 -18 -19 -20 -21 28 -23 -24 -25 -26 26 -28 -29 -30 -31
leaf_value=-0.003804626033736741 0.036246774257974311 0.0076400366369594828 0.049328613344185909 0.0049996625258719243 -0.001019724957358113 -0.010837480053305627 0.019602077878364797 0.012763396605506233 -0.0037218196587937495 0.029006207237641021 0.015042767816166798 0.05975493997321462 -0.00072021753079654386 -0.0035690998472273348 0.031441118419170376 0.04451684352661564 0.019102284163236619 -0.0023263094916297364 0.0028980099459608435 0.023922261930254464 0.016822865859102462 0.018168558180332185 0.017169997096061707 0.01206260315102247 0.0021775218347708388 0.0042750798784003691 -0.0042038887581879892 0.017025374434888364 0.023202818445861341 0.033900558948516846
leaf_weight=831340 5363 41397 5493 48408 63766 1840 6220 11859 14260 2760 6753 4266 20617 2300 2300 3393 2300 50964 65812 4833 19877 6440 920 30971 1380 13340 19988 1840 11040 920
leaf_count=831340 5363 41397 5493 48408 63766 1840 6220 11859 14260 2760 6753 4266 20617 2300 2300 3393 2300 50964 65812 4833 19877 6440 920 30971 1380 13340 19988 1840 11040 920
internal_value=-9.79839e-12 -0.000932632 0.0356164 0.00954395 -0.00276859 0.0129516 0.0276551 -0.00347069 0.00376308 0.0102481 0.000530166 0.0496054 0.00413363 0.0103142 0.0440494 0.0339284 0.00603801 3.95587e-05 0.000970072 0.0304048 0.0179008 0.0122675 -0.00150165 0.00953274 0.0164381 -0.0036892 -0.000810062 0.00544002 0.0195287 0.0175783
internal_weight=1.30296e+06 1.26971e+06 33248 189330 1.08038e+06 116165 21189 890787 26119 75128 189595 12059 73165 9053 7793 13589 52548 180542 129578 10196 41037 9200 2760 72368 7600 864668 33328 50248 31837 20797
internal_count=1302960 1269712 33248 189330 1080382 116165 21189 890787 26119 75128 189595 12059 73165 9053 7793 13589 52548 180542 129578 10196 41037 9200 2760 72368 7600 864668 33328 50248 31837 20797
is_linear=0
shrinkage=0.05


Tree=11
num_leaves=31
num_cat=0
split_feature=10 5 0 10 8 8 10 10 8 2 2 8 4 10 10 8 2 8 10 10 5 2 1 8 10 6 2 0 0 8
split_gain=15624.2 2606.51 3187.83 1336.73 786.408 538.259 509.537 497.802 470.545 340.926 283.089 316.188 262.471 245.488 240.821 340.254 211.8 191.741 183.025 158.767 139.393 138.068 166.73 160.527 132.456 116.016 109.466 98.4743 98.0466 97.5123
threshold=0.98750000000000082 -0.12940952255126037 12.500000000000002 1.6625000000000087 0.20000000000003129 0.38749999999998869 0.45000000000001 0.43750000000000006 0.48750000000001142 9.5000000000000018 9.5000000000000018 0.51249999999998874 0.98296291314453421 1.9250000000000045 0.22500000000000056 0.22500000000001566 7.5000000000000009 0.78749999999998022 1.3625000000000045 0.63749999999999585 0.37940952255126048 7.5000000000000009 1.5000000000000002 0.050000000000007823 1.5375000000000087 1.155 8.5000000000000018 13.500000000000002 7.5000000000000009 0.17500000000003982
decision_type=2 2 2 2 2 2 2 2 2 2 2 2 2 2 2 2 2 2 2 2 2 2 2 2 2 2 2 2 2 2
left_child=1 2 4 5 7 18 12 9 -8 21 11 16 -3 17 27 -16 -6 -5 20 26 -2 22 25 -23 -7 -1 -18 -4 -25 -14
right_child=3 6 14 13 10 24 8 -9 -10 -11 -12 -13 29 -15 15 -17 19 -19 -20 -21 -22 23 -24 28 -26 -27 -28 -29 -30 -31
leaf_value=-0.0092022880911827084 0.034434435684556911 -0.0034734255979567545 -0.00071050270775094466 0.044716317830917604 0.0018036406962646961 0.010939523272893647 0.012902414483612635 0.022815689850937237 -0.0042309088104714948 0.001633261721368342 -0.0011871243848616787 9.7604944774472193e-05 0.0021090962551913758 0.056767193195521419 0.014272559680937767 -0.0011486998233093512 0.0094050789293025523 0.020410390943288805 0.042291000858717814 0.02438363681236903 0.022726148775453626 -0.0040211413800716397 0.0076921209099457821 0.0064356574780892704 0.024932841440354746 0.0030991491340100767 0.0044413855410477317 -0.0032839836642301178 0.010312877889181379 -0.0022310604595784551
leaf_weight=2300 5363 618175 45370 6873 22951 5060 9559 5060 6900 25883 40777 38938 29527 4266 4997 12586 24616 920 3393 1380 4833 2300 29928 21620 2540 11500 20240 205734 66331 23040
leaf_count=2300 5363 618175 45370 6873 22951 5060 9559 5060 6900 25883 40777 38938 29527 4266 4997 12586 24616 920 3393 1380 4833 2300 29928 21620 2540 11500 20240 205734 66331 23040
internal_value=-1.88032e-11 -0.000886001 0.00157457 0.0338356 0.00499709 0.0262723 -0.00297172 0.00737536 0.00571972 0.00688664 0.00236294 0.00370177 -0.003185 0.0471251 -0.00242289 0.00323394 0.00573018 0.0418469 0.032232 0.00767926 0.0288846 0.00790153 0.00559561 0.00901878 0.0156162 0.00104891 0.00716535 -0.002819 0.00935978 0.000206815
internal_weight=1.30296e+06 1.26971e+06 582511 33248 313824 21189 687201 164922 16459 159862 148902 108125 670742 12059 268687 17583 69187 7793 13589 46236 10196 133979 43728 90251 7600 13800 44856 251104 87951 52567
internal_count=1302960 1269712 582511 33248 313824 21189 687201 164922 16459 159862 148902 108125 670742 12059 268687 17583 69187 7793 13589 46236 10196 133979 43728 90251 7600 13800 44856 251104 87951 52567
is_linear=0
shrinkage=0.05


Tree=12
num_leaves=31
num_cat=0
split_feature=10 9 10 8 9 10 8 9 8 10 8 10 8 10 10 8 10 9 2 6 8 4 9 10 8 9 10 10 8 9
split_gain=14100.9 8261.52 1206.4 1191.22 806.962 581.156 694.414 549.937 485.779 335.819 233.066 221.553 186.393 285.238 183.445 176.697 166.14 137.599 123.58 255.938 162.828 122.607 116.041 106.782 82.1598 81.4092 84.3107 75.443 74.0996 71.4348
threshold=0.98750000000000082 0.48750000000001142 1.6625000000000087 0.27500000000001995 0.26249999999998869 0.28749999999999437 0.26249999999998869 0.78749999999999443 0.38749999999998869 0.48750000000001142 0.80000000000000793 1.9250000000000045 0.30000000000000787 0.2375000000000114 0.47500000000000148 0.43750000000000006 1.1125000000000116 0.92500000000000437 7.5000000000000009 1.0050000000000001 0.17499999999999008 0.37940952255126054 0.64999999999998448 0.33750000000000574 0.24999999999998582 0.97499999999998022 0.43750000000000006 1.3625000000000045 0.23749999999999719 0.15000000000000394
decision_type=2 2 2 2 2 2 2 2 2 2 2 2 2 2 2 2 2 2 2 2 2 2 2 2 2 2 2 2 2 2
left_child=1 4 8 7 5 29 14 9 16 22 17 15 13 -6 -7 -4 24 23 19 20 -9 -10 -3 -5 -2 26 -20 -18 -24 -1
right_child=2 3 11 10 12 6 -8 18 21 -11 -12 -13 -14 -15 -16 -17 27 -19 25 -21 -22 -23 28 -25 -26 -27 -28 -29 -30 -31
leaf_value=-0.0034784763565906106 0.028688790803193715 0.0070868192951842619 0.044626367259780808 0.0036225044408119012 0.0018288735943802516 0.0044817160357100271 -0.0026404132208302043 -0.0098354917019605644 0.017192250932985081 0.028208464384078979 -0.0017391719630510828 0.053928833860385272 -0.0021574902407577104 0.015596271913697703 0.013257267076056983 0.028119365274906161 0.030905843756249926 0.010682789821709907 0.015543004663599931 0.016950391871588571 0.015926891565322877 -0.0022771719843149188 0.011816556818513284 0.014661383479833603 0.014284730330109597 0.021540272080649934 0.031025548279285432 0.040176450771425384 0.0024889531731605531 -0.0019343584818241424
leaf_weight=815646 2143 41857 5493 46108 88124 13800 36551 1840 6680 2300 15097 4266 29380 3930 10476 2300 6213 9660 19877 6440 920 920 28671 2300 1840 11040 920 3393 2300 82475
leaf_count=815646 2143 41857 5493 46108 88124 13800 36551 1840 6680 2300 15097 4266 29380 3930 10476 2300 6213 9660 19877 6440 920 920 28671 2300 1840 11040 920 3393 2300 82475
internal_value=-9.30067e-12 -0.000841701 0.0321438 0.00879274 -0.00253007 -0.00301635 0.0017134 0.0119403 0.0249587 0.00939769 0.00379535 0.0447689 0.00130996 0.00241664 0.00826869 0.0397545 0.0306204 0.00523427 0.0165951 0.0114909 -0.00124803 0.0148354 0.00880362 0.00414699 0.0220346 0.0180701 0.0162279 0.0341804 0.0111239 -0.00333668
internal_weight=1.30296e+06 1.26971e+06 33248 189330 1.08038e+06 958948 60827 116165 21189 75128 73165 12059 121434 92054 24276 7793 13589 58068 41037 9200 2760 7600 72828 48408 3983 31837 20797 9606 30971 898121
internal_count=1302960 1269712 33248 189330 1080382 958948 60827 116165 21189 75128 73165 12059 121434 92054 24276 7793 13589 58068 41037 9200 2760 7600 72828 48408 3983 31837 20797 9606 30971 898121
is_linear=0
shrinkage=0.05


Tree=13
num_leaves=31
num_cat=0
split_feature=10 5 0 10 8 8 10 10 8 4 10 8 10 8 8 10 10 6 10 6 0 8 10 8 0 0 8 8 8 0
split_gain=12726 2123.18 2594.93 1088.78 648.733 438.415 417.266 405.748 390.988 214.598 203.669 281.934 199.951 163.3 151.664 258.999 149.941 127.879 116.38 111.145 94.9393 89.1062 83.6128 81.9097 79.4085 75.8355 74.1492 69.3126 107.659 79.0691
threshold=0.98750000000000082 -0.12940952255126037 12.500000000000002 1.6625000000000087 0.20000000000003129 0.38749999999998869 0.45000000000001 0.43750000000000006 0.48750000000001142 0.98296291314453421 0.22500000000000056 0.22500000000001566 1.9250000000000045 0.78749999999998022 0.51249999999998874 0.45000000000001 1.1125000000000116 2.1950000000000007 1.5375000000000087 0.8650000000000001 11.500000000000002 0.050000000000007823 0.7125000000000058 0.17500000000003982 13.500000000000002 7.5000000000000009 0.24999999999998582 0.27500000000000396 0.27500000000001995 11.500000000000002
decision_type=2 2 2 2 2 2 2 2 2 2 2 2 2 2 2 2 2 2 2 2 2 2 2 2 2 2 2 2 2 2
left_child=1 2 4 5 7 16 9 17 -8 -3 24 -12 13 -5 15 27 26 19 -7 -1 21 -21 -9 -11 -4 -23 -2 -6 29 -29
right_child=3 6 10 12 14 18 8 22 -10 23 11 -13 -14 -15 -16 -17 -18 -19 -20 20 -22 25 -24 -25 -26 -27 -28 28 -30 -31
leaf_value=0.013790632915490693 0.027254350422922832 -0.0031358538948135224 -0.00065634442051983044 0.040414901721014411 0.0011349981043046111 0.0097099294377998874 0.011730549382230006 0.016672968585044145 -0.0038873427097375194 0.0019353434019620639 0.013064895489763591 -0.00097265717665848811 0.051232391719492842 0.017983903735876085 -0.00037475859313892637 0.017441543672455664 0.032471358496560028 0.0021310686951855552 0.022826587496780036 -0.0027652263082563878 0.0032358785348787105 0.0048419411370766753 0.031104691823323566 -0.0020424600387195825 -0.0029673063134380479 0.0078782410009761838 0.013570493832230569 0.014415842201560737 0.0031829456591773546 -0.0019724816083908081
leaf_weight=5344 2143 618175 45370 6873 41548 5060 9559 3680 6900 29527 4997 12586 4266 920 43318 3073 9606 17020 2540 2300 19780 26777 1380 23040 205734 88641 1840 3680 56363 920
leaf_count=5344 2143 618175 45370 6873 41548 5060 9559 3680 6900 29527 4997 12586 4266 920 43318 3073 9606 17020 2540 2300 19780 26777 1380 23040 205734 88641 1840 3680 56363 920
internal_value=2.91143e-11 -0.000799616 0.00142114 0.0305366 0.00450902 0.0237108 -0.00268205 0.00666911 0.00518316 -0.00287505 -0.00218548 0.00301674 0.0425304 0.0377668 0.00211654 0.00313865 0.0290894 0.00622788 0.0140937 0.00671603 0.00644106 0.00697963 0.0206089 0.000191881 -0.00254976 0.00717382 0.0209329 0.00270988 0.00378321 0.0111382
internal_weight=1.30296e+06 1.26971e+06 582511 33248 313824 21189 687201 164922 16459 670742 268687 17583 12059 7793 148902 105584 13589 159862 7600 142842 137498 117718 5060 52567 251104 115418 3983 102511 60963 4600
internal_count=1302960 1269712 582511 33248 313824 21189 687201 164922 16459 670742 268687 17583 12059 7793 148902 105584 13589 159862 7600 142842 137498 117718 5060 52567 251104 115418 3983 102511 60963 4600
is_linear=0
shrinkage=0.05


Tree=14
num_leaves=31
num_cat=0
split_feature=10 9 8 10 9 10 8 9 8 10 2 7 4 10 8 10 10 8 8 10 9 9 9 4 9 8 8 10 9 10
split_gain=11485.3 7024.63 1013.96 982.621 650.562 481.978 587.007 437.478 395.67 319.037 195.067 229.279 225.971 180.456 159.874 235.949 151.695 150.896 150.475 143.573 132.379 129.816 115.868 107.69 96.3834 92.8643 87.2143 82.8605 75.9376 72.4673
threshold=0.98750000000000082 0.48750000000001142 0.36250000000001142 1.6625000000000087 0.26249999999998869 0.28749999999999437 0.26249999999998869 0.76249999999998874 0.38749999999998869 0.20000000000000109 7.5000000000000009 0.51500000000000012 0.60355339059327384 1.9250000000000045 0.30000000000000787 0.2375000000000114 0.61249999999999727 0.80000000000000793 0.43750000000000006 1.3625000000000045 0.9625000000000058 0.92499999999999016 0.17500000000000784 0.37940952255126054 0.61250000000001148 0.10000000000000499 0.24999999999998582 0.43750000000000006 0.84999999999999798 0.64999999999999514
decision_type=2 2 2 2 2 2 2 2 2 2 2 2 2 2 2 2 2 2 2 2 2 2 2 2 2 2 2 2 2 2
left_child=1 4 7 8 5 -1 16 9 19 24 11 12 28 18 15 -6 -7 21 -5 22 27 29 26 -10 -3 -14 -2 -12 -9 -4
right_child=3 2 17 13 14 6 -8 10 23 -11 20 -13 25 -15 -16 -17 -18 -19 -20 -21 -22 -23 -24 -25 -26 -27 -28 -29 -30 -31
leaf_value=-0.003044832094847559 0.02568666420747779 0.0053848518335037655 0.0024830863986364709 0.040374303530869793 0.001621745222835186 0.0052323421681275926 -0.0024487791904206063 0.012298554182052612 0.015597767949461223 0.021021259807976821 0.013385089553675176 0.019568724078791483 -0.010985866189002991 0.048670771466528817 -0.0020799370810000886 0.014143259850811716 0.014231984596229111 -0.0016312246674221069 0.025141271650791171 0.036544060272310393 0.020047179294320254 0.0098032677546143546 0.03132721331141685 -0.0026488099247217178 0.0090549388095239464 0.012576112747192385 0.013761251259837374 0.028621406853199007 -0.0096442964548865973 0.016701272875070571
leaf_weight=898121 3460 33650 34608 5493 88124 17940 36551 460 6680 4527 29674 3220 460 4266 29380 3930 6336 15097 2300 3393 11960 8280 3983 920 38194 4600 2753 920 2760 920
leaf_count=898121 3460 33650 34608 5493 88124 17940 36551 460 6680 4527 29674 3220 460 4266 29380 3930 6336 15097 2300 3393 11960 8280 3983 920 38194 4600 2753 920 2760 920
internal_value=-5.62738e-12 -0.000759635 0.00812436 0.0290098 -0.0023165 -0.00275311 0.00155419 0.0105834 0.0225252 0.00814717 0.0140255 0.00824756 0.00384489 0.0404039 0.00113139 0.00215632 0.00758124 0.00267964 0.0358785 0.0276349 0.0155869 0.00416524 0.0246702 0.013389 0.00733596 0.0104341 0.0204025 0.0138433 -0.0065096 0.00285127
internal_weight=1.30296e+06 1.26971e+06 189330 33248 1.08038e+06 958948 60827 130425 21189 76371 54054 11500 8280 12059 121434 92054 24276 58905 7793 13589 42554 43808 10196 7600 71844 5060 6213 30594 3220 35528
internal_count=1302960 1269712 189330 33248 1080382 958948 60827 130425 21189 76371 54054 11500 8280 12059 121434 92054 24276 58905 7793 13589 42554 43808 10196 7600 71844 5060 6213 30594 3220 35528
is_linear=0
shrinkage=0.05


Tree=15
num_leaves=31
num_cat=0
split_feature=10 5 4 10 2 8 10 8 10 8 2 4 10 8 10 8 10 4 8 10 10 5 1 8 4 4 8 8 4 4
split_gain=10365.4 1734.6 2107.4 886.816 567.941 502.798 384.735 357.092 344.183 326.65 230.8 176.784 172.558 228.175 162.861 139.079 129.575 126.475 114.512 109.252 102.255 102.07 98.1176 157.098 145.84 89.7173 88.6953 71.3415 66.2119 65.3535
threshold=0.98750000000000082 -0.12940952255126037 1.0000000180025095e-35 1.6625000000000087 9.5000000000000018 0.51249999999998874 0.43750000000000006 0.38749999999998869 0.45000000000001 0.48750000000001142 7.5000000000000009 0.98296291314453421 0.22499999999999878 0.19999999999999754 1.9250000000000045 0.78749999999998022 1.3625000000000045 0.25881904510252091 0.050000000000007823 0.7125000000000058 1.5375000000000087 0.78656609248549303 1.5000000000000002 0.14999999999999505 0.60355339059327384 0.91597561503675362 0.16250000000002277 0.15000000000001992 0.78656609248549325 -0.25881904510252113
decision_type=2 2 2 2 2 2 2 2 2 2 2 2 2 2 2 2 2 2 2 2 2 2 2 2 2 2 2 2 2 2
left_child=1 2 12 7 5 6 10 16 11 -10 22 -3 29 -14 15 -5 21 -12 -19 -8 -9 -2 24 28 -4 -20 -6 -13 -24 -1
right_child=3 8 4 14 26 -7 19 20 9 -11 17 27 13 -15 -16 -17 -18 18 25 -21 -22 -23 23 -25 -26 -27 -28 -29 -30 -31
leaf_value=-0.0026895273552316711 0.026661422576454805 -0.0028351287483248094 -0.0041770926350727681 0.036528370303825296 0.0052286097052274272 -1.9024450990295682e-05 0.014113672131029591 0.0086104225028644909 0.010704670577090909 -0.0035705366033168201 0.0033610440839755861 0.0025400775139427009 0.012436426293489979 -0.00046995546895230162 0.046237233350995666 0.015827644616365433 0.034716857256982099 -0.0034046205505728721 0.0086919810145834556 0.028597358986735346 0.020905369543653775 0.015675844606590879 0.01143375868909061 0.002595256998969724 0.0046191414958143256 0.005422188103801847 -0.00058122893959778666 -0.0012555838547327392 0.0047434845105244899 -0.00059218257040219338
leaf_weight=204814 7203 618175 9200 6873 7360 38938 4453 5060 9559 6900 20387 19954 4537 13966 4266 920 3393 2300 83127 1840 2540 2993 9200 31975 9660 28060 61140 32613 6184 45370
leaf_count=204814 7203 618175 9200 6873 7360 38938 4453 5060 9559 6900 20387 19954 4537 13966 4266 920 3393 2300 83127 1840 2540 2993 9200 31975 9660 28060 61140 32613 6184 45370
internal_value=-1.70189e-11 -0.000721653 0.00128562 0.0275593 0.00406836 0.00519232 0.00617553 0.021399 -0.00242313 0.00472017 0.00579268 -0.00259842 -0.00196459 0.00269473 0.0383837 0.0340846 0.0262532 0.00698699 0.00763836 0.0183485 0.0127195 0.0234366 0.00337817 0.00459274 0.000328296 0.00786679 4.30107e-05 0.000185218 0.00874443 -0.00230918
internal_weight=1.30296e+06 1.26971e+06 582511 33248 313824 245324 206386 21189 687201 16459 200093 670742 268687 18503 12059 7793 13589 133874 113487 6293 7600 10196 66219 47359 18860 111187 68500 52567 15384 250184
internal_count=1302960 1269712 582511 33248 313824 245324 206386 21189 687201 16459 200093 670742 268687 18503 12059 7793 13589 133874 113487 6293 7600 10196 66219 47359 18860 111187 68500 52567 15384 250184
is_linear=0
shrinkage=0.05


Tree=16
num_leaves=31
num_cat=0
split_feature=10 5 0 10 8 8 10 10 8 4 10 8 10 8 10 8 10 6 10 6 0 0 8 8 10 10 0 8 8 10
split_gain=9354.81 1565.48 1901.93 800.351 505.783 322.276 312.697 310.625 294.802 159.547 155.868 195.571 146.982 128.145 118.789 114.249 143.698 104.959 95.4291 87.6316 71.0154 70.9798 66.4805 64.6988 64.301 62.2857 57.5924 55.9922 53.1752 53.0933
threshold=0.98750000000000082 -0.12940952255126037 12.500000000000002 1.6625000000000087 0.20000000000003129 0.38749999999998869 0.43750000000000006 0.45000000000001 0.48750000000001142 0.98296291314453421 0.40000000000000308 0.24999999999998582 1.9250000000000045 0.43750000000000006 1.1125000000000116 0.6750000000000399 0.7125000000000058 0.8650000000000001 1.4124999999999999 2.1950000000000007 14.500000000000002 11.500000000000002 0.050000000000007823 0.17500000000003982 0.050000000000007823 0.7125000000000058 1.5000000000000002 0.24999999999998582 0.17500000000000784 0.68750000000000011
decision_type=2 2 2 2 2 2 2 2 2 2 2 2 2 2 2 2 2 2 2 2 2 2 2 2 2 2 2 2 2 2
left_child=1 2 4 5 6 14 17 9 29 -3 20 -12 13 -5 27 16 -6 -1 -7 21 28 22 -19 -11 -24 -8 -16 -2 -4 -9
right_child=3 7 10 12 15 18 25 8 -10 23 11 -13 -14 -15 26 -17 -18 19 -20 -21 -22 -23 24 -25 -26 -27 -28 -29 -30 -31
leaf_value=0.012274028379735007 0.023173814897942201 -0.0026933723239878364 0.00011109099583513913 0.036529169652537101 0.0022335535411404333 0.0055490397715142799 0.014612604118883611 0.0069839802016366682 -0.0033920097475250567 0.0017254624849684774 0.01432219541498593 -0.00031897321083199456 0.043925370925673286 0.022471803724765777 0.020570577328842272 -0.0012974201693478091 0.022068271040916444 -0.0023859735019505024 0.016887454324525243 0.0017622604789967475 -0.0027625852088643283 0.0027941826889121904 0.0065171376393862767 -0.0018098176528696464 0.0018213308881968261 0.027068526049455005 0.029981677068604363 0.011282794922590256 -0.0022260170585450111 0.014528524653932562
leaf_weight=5344 2143 618175 48968 5493 122525 3220 3680 5523 6900 29527 3220 7820 4266 2300 2073 25457 920 2300 4380 17020 160290 19780 107598 23040 7820 1380 7533 1840 48389 4036
leaf_count=5344 2143 618175 48968 5493 122525 3220 3680 5523 6900 29527 3220 7820 4266 2300 2073 25457 920 2300 4380 17020 160290 19780 107598 23040 7820 1380 7533 1840 48389 4036
internal_value=-2.12835e-11 -0.000685571 0.00122134 0.0261813 0.00386494 0.020329 0.00577224 -0.00230198 0.00448416 -0.0024685 -0.00186636 0.00395137 0.0364645 0.0323803 0.0249405 0.00175243 0.00238138 0.0053849 0.0120835 0.00514664 -0.00211565 0.00556557 0.00603124 0.000175957 0.00619898 0.0180097 0.0279507 0.0176806 -0.00105051 0.0101694
internal_weight=1.30296e+06 1.26971e+06 582511 33248 313824 21189 164922 687201 16459 670742 268687 11040 12059 7793 13589 148902 123445 159862 7600 154518 257647 137498 117718 52567 115418 5060 9606 3983 97357 9559
internal_count=1302960 1269712 582511 33248 313824 21189 164922 687201 16459 670742 268687 11040 12059 7793 13589 148902 123445 159862 7600 154518 257647 137498 117718 52567 115418 5060 9606 3983 97357 9559
is_linear=0
shrinkage=0.05


Tree=17
num_leaves=31
num_cat=0
split_feature=0 0 8 8 2 0 2 2 1 1 8 7 8 7 6 0 6 8 1 0 1 2 2 6 6 6 6 7 6 1
split_gain=1652.97 2063.82 385.645 338.231 266.479 377.599 224.998 219.11 179.764 166.221 176.436 179.994 169.934 221.991 209.803 158.077 146.803 131.496 128.3 115.102 145.452 113.81 188.905 112.945 223.85 106.543 98.3405 326.774 94.7623 363.685
threshold=13.500000000000002 6.5000000000000009 0.20000000000003129 1.949999999999996 9.5000000000000018 2.5000000000000004 9.5000000000000018 7.5000000000000009 1.5000000000000002 5.5000000000000009 0.19999999999996024 0.74500000000000011 0.13749999999998866 0.30500000000000005 1.385 5.5000000000000009 1.0150000000000003 0.51249999999998874 1.5000000000000002 1.0000000180025095e-35 3.5000000000000004 9.5000000000000018 7.5000000000000009 1.7050000000000003 1.8650000000000004 1.155 1.2150000000000001 0.27500000000000008 1.2050000000000003 4.5000000000000009
decision_type=2 2 2 2 2 2 2 2 2 2 2 2 2 2 2 2 2 2 2 2 2 2 2 2 2 2 2 2 2 2
left_child=1 4 6 17 15 9 7 18 -9 10 12 -12 13 -6 19 -1 -10 21 25 20 -15 22 -4 -16 -25 -3 27 -14 29 -23
right_child=-2 2 3 -5 5 -7 -8 8 16 -11 11 -13 26 14 23 -17 -18 -19 -20 -21 -22 28 -24 24 -26 -27 -28 -29 -30 -31
leaf_value=-0.002302604241049964 -0.0021084324946659041 -0.0082032704459769398 0.00081452067572204169 0.045203736424446112 -0.0035050304606556895 -0.0015166601426567401 0.0020587685234858522 0.010466100852692027 0.0091661520091328424 -0.0033350537664969351 0.0094134940294116464 0.029144457976023358 0.0015664184663014915 -0.0043669708073139192 -0.0026808840843538448 0.0010183915370197182 0.0046787478982328332 0.00020612734745944768 0.0053266198166893397 0.041421376168727875 0.030067698657512666 0.048982644081115724 0.0060319984328308122 0.044599565863609317 -0.0047273796051740648 0.0019653074035886676 -0.00073034816674933528 0.034495922923088077 -9.8473898385232489e-05 0.0033400137158485195
leaf_weight=250464 542523 3220 25868 460 1840 50264 37163 36418 27880 5036 7116 1380 4160 460 1380 41814 52633 53438 34925 920 920 460 52676 460 460 12880 12393 920 33908 8521
leaf_count=250464 542523 3220 25868 460 1840 50264 37163 36418 27880 5036 7116 1380 4160 460 1380 41814 52633 53438 34925 920 920 460 52676 460 460 12880 12393 920 33908 8521
internal_value=-8.61688e-12 0.00150423 0.00410745 0.00238562 -0.00110216 0.00131494 0.00557922 0.00635818 0.00755115 0.00511591 0.0064291 0.0126184 0.00423012 0.0111729 0.0170441 -0.00182749 0.00623264 0.00227299 0.00362432 0.0277222 0.0185895 0.00318254 0.00431365 0.00636591 0.0199361 -6.84082e-05 0.00167123 0.00753003 0.00111108 0.00567779
internal_weight=1.30296e+06 760437 380450 175331 379987 87709 205119 167956 116931 37445 32409 8496 23913 6440 4600 292278 80513 174871 51025 2300 1380 121433 78544 2300 920 16100 17473 5080 42889 8981
internal_count=1302960 760437 380450 175331 379987 87709 205119 167956 116931 37445 32409 8496 23913 6440 4600 292278 80513 174871 51025 2300 1380 121433 78544 2300 920 16100 17473 5080 42889 8981
is_linear=0
shrinkage=0.05


Tree=18
num_leaves=31
num_cat=0
split_feature=9 8 9 9 5 8 6 8 9 0 9 6 9 0 8 9 6 8 1 9 7 1 0 1 9 5 9 9 0 9
split_gain=5446.8 776.574 438.154 303.212 242.667 166.786 127.315 127.18 126.402 104.635 104.373 330.328 86.9228 121.047 76.2782 136.885 105.469 177.013 100.952 69.8887 69.6282 93.8071 137.445 63.9038 192.527 179.078 67.2133 95.3753 106.201 63.511
threshold=0.40000000000001995 0.27500000000001995 0.79999999999997595 1.2125000000000059 -0.9159756150367534 0.79999999999997595 0.9850000000000001 0.099999999999980119 0.2375000000000114 11.500000000000002 0.45000000000000157 1.925 0.17500000000000784 11.500000000000002 0.11250000000001138 1.0000000180025095e-35 0.90500000000000014 0.24999999999998582 2.5000000000000004 0.92500000000000437 0.85500000000000009 3.5000000000000004 3.5000000000000004 5.5000000000000009 0.47499999999998016 -0.98296291314453399 0.48750000000001142 0.41249999999999437 9.5000000000000018 0.17500000000000784
decision_type=2 2 2 2 2 2 2 2 2 2 2 2 2 2 2 2 2 2 2 2 2 2 2 2 2 2 2 2 2 2
left_child=4 2 23 5 7 9 14 12 -8 10 11 -3 13 -1 -6 16 20 -18 -19 -12 -16 -22 -23 26 25 -25 27 28 -2 -9
right_child=1 3 -4 -5 6 -7 8 29 -10 -11 19 -13 -14 -15 15 -17 17 18 -20 -21 21 22 -24 24 -26 -27 -28 -29 -30 -31
leaf_value=-0.0047473631799221042 0.0035404980182647708 0.032356925308704376 0.01368741896735653 0.031761986762285234 -0.0019872576509441819 -0.0016015869197741747 -0.0021033297073228705 -0.0014796778844679641 0.00036023665801062504 0.00052955231494344695 0.0035936182942131428 -4.0973071008920668e-06 0.0038421254605054858 0.024869393308957419 -0.00046311803466941382 -0.001687581426880817 0.0014323119298176228 0.019638560359077208 0.0070943743976663301 0.0084594662114977834 -0.0031630524899810553 0.027322609722614289 0.0044558633118867872 0.0052920584683306517 0.0074402531596004136 0.032726249560952825 0.0078957692074464476 0.0040934545260518139 0.037516278028488163 0.0015869864943890315
leaf_weight=460 460 1380 40577 920 49429 16477 785039 24705 55766 16174 37294 1840 3220 1380 32445 44636 13820 2320 5196 9200 1840 920 2300 920 8280 1683 68688 21805 460 53326
leaf_count=460 460 1380 40577 920 49429 16477 785039 24705 55766 16174 37294 1840 3220 1380 32445 44636 13820 2320 5196 9200 1840 920 2300 920 8280 1683 68688 21805 460 53326
internal_value=-6.17318e-12 0.00705403 0.00929101 0.00321654 -0.00148154 0.00289769 -0.00169859 0.0011142 -0.00193993 0.00402285 0.00515936 0.0138649 0.00879597 0.0174652 -0.000371452 0.000400388 0.00198429 0.00479089 0.0109664 0.00455645 0.000387666 0.00584294 0.0109892 0.00754713 0.011169 0.02303 0.00711593 0.00475881 0.0205284 0.000616065
internal_weight=1.30296e+06 226158 142873 83285 1.0768e+06 82365 993711 83091 840805 65888 49714 3220 5060 1840 152906 103477 58841 21336 7516 46494 37505 5060 3220 102296 10883 2603 91413 22725 920 78031
internal_count=1302960 226158 142873 83285 1076802 82365 993711 83091 840805 65888 49714 3220 5060 1840 152906 103477 58841 21336 7516 46494 37505 5060 3220 102296 10883 2603 91413 22725 920 78031
is_linear=0
shrinkage=0.05


Tree=19
num_leaves=31
num_cat=0
split_feature=10 9 10 10 9 9 10 9 7 6 6 6 9 5 10 4 9 6 4 10 9 1 2 5 2 10 4 1 4 9
split_gain=7886.74 4804.57 661.769 443.982 324.284 322.248 333.556 222.447 179.687 130.971 124.343 119.942 107.752 96.4425 87.428 74.5794 74.1121 72.1547 71.7931 68.0816 67.4728 58.8422 139.866 54.3307 82.6666 52.7481 52.1321 49.1768 53.3843 48.3698
threshold=0.98750000000000082 0.48750000000001142 1.6625000000000087 0.41250000000000236 0.21250000000000571 1.0500000000000045 0.34999999999999704 0.68750000000000011 0.015000000000000001 0.92500000000000016 1.9550000000000003 0.90500000000000014 0.2375000000000114 -0.9159756150367534 1.1374999999999889 0.37940952255126054 1.0250000000000201 0.95500000000000007 0.60355339059327384 0.21250000000000571 0.42500000000000787 5.5000000000000009 7.5000000000000009 0.25881904510252057 9.5000000000000018 0.7125000000000058 0.78656609248549325 1.0000000180025095e-35 0.78656609248549325 0.32499999999999757
decision_type=2 2 2 2 2 2 2 2 2 2 2 2 2 2 2 2 2 2 2 2 2 2 2 2 2 2 2 2 2 2
left_child=1 3 8 4 19 6 7 26 15 -4 13 -9 14 17 -10 -2 -13 -5 -7 -1 -11 27 -23 -15 -25 -8 -3 28 -20 -6
right_child=2 5 9 10 29 18 25 11 12 20 -12 16 -14 23 -16 -17 -18 -19 21 -21 -22 22 -24 24 -26 -27 -28 -29 -30 -31
leaf_value=-0.002574853054781528 0.012961137441119978 0.0026191251646730455 0.024613620987979236 0.0020702134609789651 -0.00076809875025235248 -0.0059846423566341407 0.013788189974504247 0.0041119122416534643 0.011640102096966335 0.033919189534315608 0.010045995728041117 0.0085039339766129832 0.028186170439189803 -0.0016600871023163318 0.02113102942269289 -0.0031808815896511079 -0.0057821485679596663 0.011490799279676544 0.0026912420988082887 -0.00059366481597568322 0.043860819339752201 -0.01773693859577179 0.01246518347412348 -0.0023097820166084501 0.0067583624459919599 0.023086828887462617 0.0053758779687776599 0.017260129084544523 0.015700613893568516 0.0010273353468817198
leaf_weight=845177 3220 47615 3143 3993 84965 460 4527 22457 3220 6616 5980 68608 3983 12716 9846 920 920 4140 1380 45708 2300 460 2300 4140 6396 2300 26803 9660 1840 67167
leaf_count=845177 3220 47615 3143 3993 84965 460 4527 22457 3220 6616 5980 68608 3983 12716 9846 920 920 4140 1380 45708 2300 460 2300 4140 6396 2300 26803 9660 1840 67167
internal_value=-5.62702e-12 -0.000629482 0.0240394 -0.00191704 -0.00210888 0.00671775 0.00608889 0.00564448 0.0187178 0.03339 0.00343818 0.00728879 0.0209867 0.00217915 0.0187921 0.00937402 0.0083149 0.00686564 0.0134841 -0.00247321 0.0364838 0.0140567 0.0074315 0.000539924 0.00319514 0.0169209 0.00361202 0.0154764 0.0101252 2.45939e-05
internal_weight=1.30296e+06 1.26971e+06 33248 1.08038e+06 1.04302e+06 189330 173230 166403 21189 12059 37365 91985 17049 31385 13066 4140 69528 8133 16100 890885 8916 15640 2760 23252 10536 6827 74418 12880 3220 152132
internal_count=1302960 1269712 33248 1080382 1043017 189330 173230 166403 21189 12059 37365 91985 17049 31385 13066 4140 69528 8133 16100 890885 8916 15640 2760 23252 10536 6827 74418 12880 3220 152132
is_linear=0
shrinkage=0.05


Tree=20
num_leaves=31
num_cat=0
split_feature=10 9 8 10 10 8 9 9 8 10 8 8 10 9 8 9 0 8 10 10 5 2 0 10 8 2 1 2 10 9
split_gain=7117.78 4336.13 698.629 597.247 400.694 495.923 319.428 293.903 252.156 248.024 126.285 117.236 112.158 109.438 103.912 98.9643 85.467 83.7442 79.8699 78.3808 73.503 68.8052 82.9987 63.5396 152.4 62.5698 61.5177 150.303 56.928 55.6249
threshold=0.98750000000000082 0.48750000000001142 0.36250000000001142 1.6625000000000087 0.41250000000000236 0.47500000000001213 0.72499999999998022 0.28749999999999437 0.38749999999998869 0.20000000000000109 0.43750000000000006 0.24999999999998582 1.3625000000000045 1.0500000000000045 0.80000000000000793 0.92499999999999016 9.5000000000000018 0.26249999999998869 1.5375000000000087 0.68750000000000011 0.78656609248549303 7.5000000000000009 11.500000000000002 0.22499999999999878 0.22499999999998013 8.5000000000000018 5.5000000000000009 7.5000000000000009 0.43750000000000006 0.42500000000000787
decision_type=2 2 2 2 2 2 2 2 2 2 2 2 2 2 2 2 2 2 2 2 2 2 2 2 2 2 2 2 2 2
left_child=1 4 6 8 7 19 9 23 12 -3 29 -9 20 17 15 -4 26 28 -10 -6 -2 -19 -23 -1 -25 -12 -15 -28 -8 -5
right_child=3 2 14 10 5 -7 13 11 18 -11 25 -13 -14 16 -16 -17 -18 21 -20 -21 -22 22 -24 24 -26 -27 27 -29 -30 -31
leaf_value=-0.0023638185335168069 0.021977126277289125 0.0050697692592918927 0.0019479340853595301 0.032587382441903748 0.0070084298443213872 -0.0026153923431215375 0.010650478061131017 0.0017601892117406924 0.0068568110466003425 0.017206807887814864 0.039162409305572514 -0.0019652800624931346 0.029735329811319364 0.017806900814175606 -0.0017149342488201513 0.0080178875683082473 -0.0056854102760553367 -0.0016901728510856631 0.017722975134145558 0.014317320665168705 0.012654733780561145 0.0092995842809186265 -0.012554797530174256 0.0035418728422732175 -0.0026466720731763774 0.018961820006370547 -0.016850091516971588 0.01815411224961281 0.023219339549541473 0.042294121533632281
leaf_weight=901661 7203 59977 35528 7459 14116 18293 43381 67668 5060 4527 460 30697 3393 9200 15097 8280 460 2300 2540 4956 2993 7820 460 15633 27358 2300 460 920 920 1840
leaf_count=901661 7203 59977 35528 7459 14116 18293 43381 67668 5060 4527 460 30697 3393 9200 15097 8280 460 2300 2540 4956 2993 7820 460 15633 27358 2300 460 920 920 1840
internal_value=6.92025e-12 -0.000598008 0.00638186 0.0228374 -0.00182119 0.00326627 0.00842303 -0.00200344 0.0177819 0.00592157 0.0317205 0.000597573 0.021861 0.0108707 0.00186239 0.0030952 0.0154129 0.009957 0.0104884 0.0089077 0.0192406 0.00596032 0.00808545 -0.00227428 -0.000396305 0.0223286 0.0163303 0.00648604 0.0109115 0.0345081
internal_weight=1.30296e+06 1.26971e+06 189330 33248 1.08038e+06 37365 130425 1.04302e+06 21189 64504 12059 98365 13589 65921 58905 43808 11040 54881 7600 19072 10196 10580 8280 944652 42991 2760 10580 1380 44301 9299
internal_count=1302960 1269712 189330 33248 1080382 37365 130425 1043017 21189 64504 12059 98365 13589 65921 58905 43808 11040 54881 7600 19072 10196 10580 8280 944652 42991 2760 10580 1380 44301 9299
is_linear=0
shrinkage=0.05


Tree=21
num_leaves=31
num_cat=0
split_feature=10 9 8 10 10 8 9 9 8 10 8 8 9 8 10 9 8 0 9 8 10 10 10 2 10 8 10 9 9 0
split_gain=6423.8 3913.35 630.513 539.015 361.626 447.937 288.938 270.44 230.218 227.313 113.972 112.549 101.082 93.7805 90.9199 89.3152 88.7229 77.134 76.1846 67.9865 64.5173 62.1114 58.2656 56.4692 55.7089 134.426 52.4017 50.93 50.2014 49.3539
threshold=0.98750000000000082 0.48750000000001142 0.36250000000001142 1.6625000000000087 0.41250000000000236 0.32500000000003132 0.69999999999999585 0.21250000000000571 0.24999999999998582 0.20000000000000109 0.43750000000000006 0.96249999999999158 1.0500000000000045 0.80000000000000793 1.212500000000013 0.92499999999999016 0.30000000000000787 9.5000000000000018 1.0499999999999903 0.76249999999998874 0.68750000000000011 0.17499999999999852 0.43750000000000006 8.5000000000000018 0.21250000000000571 0.20000000000003129 0.64999999999999514 0.32500000000001 0.42500000000000787 11.500000000000002
decision_type=2 2 2 2 2 2 2 2 2 2 2 2 2 2 2 2 2 2 2 2 2 2 2 2 2 2 2 2 2 2
left_child=1 4 6 8 7 20 9 24 -2 -3 28 14 18 15 -10 26 21 -14 22 -16 -6 27 29 -12 -1 -26 -4 -9 -5 -8
right_child=3 2 13 10 5 -7 12 16 11 -11 23 -13 17 -15 19 -17 -18 -19 -20 -21 -22 -23 -24 -25 25 -27 -28 -29 -30 -31
leaf_value=-0.002327919480140125 0.023650294405801922 0.0047143299218946368 0.0015374520072399772 0.030958013450480895 0.007336100817082818 -0.0017783171442433258 0.0097697868270425307 -0.00039083227513712481 0.0084556291035066053 0.016346467524497012 0.037204289436340333 -0.00064400720099608115 0.01551375392338504 -0.0016291875493129886 0.020664824556288073 0.0076169932881991077 -0.0022754984082404262 -0.0054011397063732152 -0.010852418839931488 0.010418190509080888 0.014354421216099658 0.0072033895895382621 0.022058372199535371 0.018013729006052019 0.0030616329851909543 -0.0025795867899496682 0.013627992570400239 0.0017408358250276701 0.040179415047168737 0.0037767217494547368
leaf_weight=845177 7903 58137 34608 7459 12053 20816 51661 69008 4140 4527 460 1380 10580 15097 5466 8280 32414 460 460 2300 4496 3534 920 2300 16560 29148 920 47176 1840 3680
leaf_count=845177 7903 58137 34608 7459 12053 20816 51661 69008 4140 4527 460 1380 10580 15097 5466 8280 32414 460 460 2300 4496 3534 920 2300 16560 29148 920 47176 1840 3680
internal_value=-1.00434e-11 -0.000568108 0.00606277 0.0216955 -0.00173013 0.00310296 0.00800188 -0.00190327 0.0168928 0.00555466 0.0301345 0.0128732 0.010265 0.00176927 0.01444 0.00294044 4.50523e-05 0.0146423 0.00941304 0.0176302 0.00924282 0.000673348 0.00957873 0.0212122 -0.00223597 -0.000535774 0.00185054 0.000474722 0.0327827 0.00937127
internal_weight=1.30296e+06 1.26971e+06 189330 33248 1.08038e+06 37365 130425 1.04302e+06 21189 62664 12059 13286 67761 58905 11906 43808 152132 11040 56721 7766 16549 119718 56261 2760 890885 45708 35528 116184 9299 55341
internal_count=1302960 1269712 189330 33248 1080382 37365 130425 1043017 21189 62664 12059 13286 67761 58905 11906 43808 152132 11040 56721 7766 16549 119718 56261 2760 890885 45708 35528 116184 9299 55341
is_linear=0
shrinkage=0.05


Tree=22
num_leaves=31
num_cat=0
split_feature=10 9 8 10 10 8 9 9 8 10 8 6 9 10 8 9 4 10 10 10 9 8 4 8 8 9 9 9 9 10
split_gain=5797.48 3531.8 573.267 486.461 326.368 409.325 292.002 244.222 207.807 151.764 121.621 104.482 104.27 98.0627 85.8023 76.1775 68.4968 64.8549 63.9292 63.9153 62.7917 57.1992 56.5975 53.6033 52.3246 49.7284 47.8772 46.4483 147.256 45.2683
threshold=0.98750000000000082 0.48750000000001142 0.27500000000001995 1.6625000000000087 0.41250000000000236 0.47500000000001213 0.80000000000000793 0.19999999999999399 0.38749999999998869 0.48750000000001142 0.59999999999998022 0.92500000000000016 1.0874999999999917 1.3625000000000045 0.30000000000000254 0.64999999999998448 0.91597561503675362 0.17499999999999852 0.68750000000000011 0.61249999999999727 0.17500000000000784 0.78749999999998022 0.25881904510252091 0.24999999999998582 0.2249999999999375 0.29999999999996879 0.42500000000000787 1.2000000000000102 1.199999999999996 0.21250000000000571
decision_type=2 2 2 2 2 2 2 2 2 2 2 2 2 2 2 2 2 2 2 2 2 2 2 2 2 2 2 2 2 2
left_child=1 4 6 8 7 18 9 29 13 15 12 21 -4 20 17 -3 -10 25 -6 -12 23 -5 -8 -2 -17 -9 -13 28 -24 -1
right_child=3 2 10 11 5 -7 22 14 16 -11 19 26 -14 -15 -16 24 -18 -19 -20 -21 -22 -23 27 -25 -26 -27 -28 -29 -30 -31
leaf_value=-0.0022157340680566307 0.018301976941569004 0.0043378939561265146 0.0033460593314372832 0.025128245856436967 0.006357805202663637 -0.0023957068449620318 -0.00083176344633102423 -0.00080679332891835879 0.010631877865840574 0.018787496984004975 -0.0010000726955279623 0.029230696245343253 0.015489806979894639 0.027114134290876765 -0.002175864209298516 0.008338793422265527 -0.0092741169035434733 0.0068764860423269668 0.012958603090726146 0.010053424164652824 0.022201604204742927 0.010303967073559761 0.011684420558404386 0.0089527556366198208 0.0023193350061774254 0.0012553045277359414 0.037605170607566837 0.019469301775097848 -0.016783274710178375 -0.00056887276989384204
leaf_weight=839064 3460 41857 44944 2223 14116 18293 920 49946 7140 2300 25001 6616 1840 3393 35591 28211 460 3994 4956 1380 3983 920 36437 2753 4140 70511 2300 1840 460 43911
leaf_count=839064 3460 41857 44944 2223 14116 18293 920 49946 7140 2300 25001 6616 1840 3393 35591 28211 460 3994 4956 1380 3983 920 36437 2753 4140 70511 2300 1840 460 43911
internal_value=3.72084e-12 -0.000539702 0.00575963 0.0206108 -0.00164362 0.00294781 0.00794313 -0.0018081 0.0160482 0.00613832 0.00229286 0.0286277 0.00382367 0.0197512 -1.0996e-05 0.00574627 0.00942704 0.000608122 0.00807307 -0.00042186 0.017301 0.020789 0.0114251 0.0141593 0.00756848 0.000400281 0.031391 0.0117161 0.0113295 -0.00213383
internal_weight=1.30296e+06 1.26971e+06 189330 33248 1.08038e+06 37365 116165 1.04302e+06 21189 76508 73165 12059 46784 13589 160042 74208 7600 124451 19072 26381 10196 3143 39657 6213 32351 120457 8916 38737 36897 882975
internal_count=1302960 1269712 189330 33248 1080382 37365 116165 1043017 21189 76508 73165 12059 46784 13589 160042 74208 7600 124451 19072 26381 10196 3143 39657 6213 32351 120457 8916 38737 36897 882975
is_linear=0
shrinkage=0.05


Tree=23
num_leaves=31
num_cat=0
split_feature=10 9 8 10 10 8 9 9 8 10 8 8 8 9 9 8 10 2 6 1 1 4 10 8 9 10 9 9 9 8
split_gain=5232.23 3187.45 517.373 439.031 296.213 388.036 263.532 223.911 189.19 139.76 109.763 96.8889 94.92 94.1033 83.2121 81.8455 76.5984 69.8668 171.887 120.413 99.0897 60.5472 57.6835 56.9936 52.8837 46.5294 44.7547 44.3935 43.6608 42.0587
threshold=0.98750000000000082 0.48750000000001142 0.27500000000001995 1.6625000000000087 0.43750000000000006 0.48750000000001142 0.80000000000000793 0.18750000000000003 0.24999999999998582 0.20000000000000109 0.59999999999998022 0.43750000000000006 0.96249999999999158 1.0874999999999917 0.60000000000001574 0.15000000000001992 1.212500000000013 7.5000000000000009 1.1850000000000003 5.5000000000000009 5.5000000000000009 0.78656609248549325 0.61249999999999727 0.76249999999998874 0.60000000000000508 1.8249999999999889 0.97499999999998022 1.1124999999999974 0.32500000000001 0.2249999999999375
decision_type=2 2 2 2 2 2 2 2 2 2 2 2 2 2 2 2 2 2 2 2 2 2 2 2 2 2 2 2 2 2
left_child=1 4 6 8 7 -6 9 -1 -2 14 13 -5 16 -4 24 28 -10 18 19 -8 -20 -22 27 -18 -3 -13 -19 -12 -9 -16
right_child=3 2 10 11 5 -7 17 15 12 -11 22 25 -14 -15 29 -17 23 26 20 -21 21 -23 -24 -25 -26 -27 -28 -29 -30 -31
leaf_value=-0.0020362652271632697 0.021371579670074938 0.0035806122969389911 0.0031787563643216905 0.029638027309961176 0.0084462501202156245 -0.002215770641452773 -0.010804463736712934 0.00021997317777555067 0.0075478959828615194 0.014850489074881377 -0.0015439252819466891 0.009788769111037255 -0.00081163427482048667 0.014715316891670228 0.0073690634980379506 -0.0010438272562071644 0.018747421150684267 0.010540575544546446 0.014858334288001061 0.011349879205226898 -0.015944111347198486 0.0097097821533679973 0.0095507531116406138 0.009365687072277069 -0.013503250479698182 0.023560402542352678 0.014494850533083081 0.0065250958316028125 0.0026743527905411179 0.0026881498905519646
leaf_weight=873515 7903 29730 44944 9299 16772 17373 1840 48050 4140 4067 23161 920 1380 1840 36731 95583 5466 20337 4600 920 460 460 1380 2300 460 1840 11040 1840 29089 5520
leaf_count=873515 7903 29730 44944 9299 16772 17373 1840 48050 4140 4067 23161 920 1380 1840 36731 95583 5466 20337 4600 920 460 460 1380 2300 460 1840 11040 1840 29089 5520
internal_value=-5.04612e-12 -0.000512717 0.00547165 0.0195802 -0.00156144 0.00302141 0.00754597 -0.001711 0.0152458 0.0058314 0.00217822 0.0271964 0.0116019 0.00363249 0.00532505 -6.60494e-05 0.0130407 0.0108538 0.00676838 -0.00341968 0.0118624 -0.00311716 -0.000400767 0.0159689 0.00332031 0.0189699 0.0119319 -0.000950069 0.00114552 0.00675751
internal_weight=1.30296e+06 1.26971e+06 189330 33248 1.08038e+06 34145 116165 1.04624e+06 21189 76508 73165 12059 13286 46784 72441 172722 11906 39657 8280 2760 5520 920 26381 7766 30190 2760 31377 25001 77139 42251
internal_count=1302960 1269712 189330 33248 1080382 34145 116165 1046237 21189 76508 73165 12059 13286 46784 72441 172722 11906 39657 8280 2760 5520 920 26381 7766 30190 2760 31377 25001 77139 42251
is_linear=0
shrinkage=0.05


Tree=24
num_leaves=31
num_cat=0
split_feature=10 9 10 10 9 10 9 9 7 6 6 9 6 9 10 9 0 10 0 0 10 10 1 1 6 1 0 4 0 9
split_gain=4722.08 2876.68 396.226 267.333 211.539 232.585 203.122 158.162 125.811 88.9804 73.1196 72.8085 69.6769 67.6476 58.2328 54.232 52.2456 50.424 47.6166 44.8294 44.5512 43.0177 35.94 35.5742 98.6954 36.2499 38.8976 34.421 33.5722 34.25
threshold=0.98750000000000082 0.48750000000001142 1.6625000000000087 0.43750000000000006 1.0500000000000045 0.31250000000000006 0.28749999999999437 0.68750000000000011 0.015000000000000001 0.92500000000000016 0.90500000000000014 0.2375000000000114 1.7950000000000002 0.30000000000000787 1.5375000000000087 1.0499999999999903 10.500000000000002 0.22499999999999878 9.5000000000000018 8.5000000000000018 1.9250000000000045 0.7125000000000058 5.5000000000000009 5.5000000000000009 1.3750000000000002 1.0000000180025095e-35 8.5000000000000018 0.37940952255126054 8.5000000000000018 0.97499999999998022
decision_type=2 2 2 2 2 2 2 2 2 2 2 2 2 2 2 2 2 2 2 2 2 2 2 2 2 2 2 2 2 2
left_child=1 3 8 6 5 7 17 19 16 22 -9 14 13 -5 -10 28 -2 -1 23 -3 27 -7 -4 25 -25 26 -6 -11 -12 -30
right_child=2 4 9 12 18 21 -8 10 11 20 15 -13 -14 -15 -16 -17 -18 -19 -20 -21 -22 -23 -24 24 -26 -27 -28 -29 29 -31
leaf_value=-0.0019328128917194703 0.00038511278107762338 0.0041927526902086482 0.016610869144399961 0.00079791131588050979 0.012415293511003256 0.010735040540479183 0.00052611673683624672 0.0031934166939474769 0.012687593503896309 0.022271088191441128 0.0079551358901398649 0.022300068256306108 0.0070144512307117966 0.0092746057867336626 0.02047200951381245 -0.010636039078235626 0.011688854694366455 -0.00022309251669387585 -0.0051750805228948597 0.0016273086196922954 0.032863882585397908 0.01888992100954056 0.032955586910247803 0.010223653763532639 -0.015146906673908235 0.013781915223669439 0.0013104848563671113 0.030307443984741163 0.0062573267148778866 0.0020300464510607224
leaf_weight=901661 1840 26803 2760 23712 1840 5447 99285 22457 9893 3220 27237 3983 7820 2613 3173 460 2300 45291 460 46695 3423 2300 383 2300 460 9660 1380 2273 36311 5520
leaf_count=901661 1840 26803 2760 23712 1840 5447 99285 22457 9893 3220 27237 3983 7820 2613 3173 460 2300 45291 460 46695 3423 2300 383 2300 460 9660 1380 2273 36311 5520
internal_value=-7.90606e-12 -0.000487081 0.0186012 -0.00148337 0.00519807 0.00468855 -0.00162545 0.00429215 0.0144835 0.0258365 0.00567388 0.016382 0.00287034 0.0016393 0.014578 0.00647505 0.00666497 -0.00185104 0.0106803 0.00256287 0.0283866 0.0131561 0.0186026 0.0111466 0.00599523 0.0122505 0.00765609 0.0255965 0.00658901 0.0056995
internal_weight=1.30296e+06 1.26971e+06 33248 1.08038e+06 189330 173230 1.04624e+06 165483 21189 12059 91985 17049 34145 26325 13066 69528 4140 946952 16100 73498 8916 7747 3143 15640 2760 12880 3220 5493 69068 41831
internal_count=1302960 1269712 33248 1080382 189330 173230 1046237 165483 21189 12059 91985 17049 34145 26325 13066 69528 4140 946952 16100 73498 8916 7747 3143 15640 2760 12880 3220 5493 69068 41831
is_linear=0
shrinkage=0.05


Tree=25
num_leaves=31
num_cat=0
split_feature=10 9 10 10 9 10 9 9 7 6 6 9 2 6 9 4 10 0 9 0 10 2 10 9 1 1 2 1 0 10
split_gain=4261.68 2596.2 357.594 241.306 190.914 209.908 185.198 142.741 113.544 80.3048 71.4555 71.3097 69.7832 65.9905 48.9444 47.3282 46.3193 42.974 40.913 40.4586 38.8234 35.1526 33.0116 32.7364 32.4359 32.1057 89.0726 32.7155 35.1051 31.2136
threshold=0.98750000000000082 0.48750000000001142 1.6625000000000087 0.41250000000000236 1.0500000000000045 0.31250000000000006 0.18750000000000003 0.68750000000000011 0.015000000000000001 0.92500000000000016 1.9550000000000003 0.30000000000000787 9.5000000000000018 0.90500000000000014 1.0499999999999903 0.91597561503675362 1.1374999999999889 9.5000000000000018 0.42500000000000787 8.5000000000000018 0.7125000000000058 7.5000000000000009 0.21250000000000571 0.32499999999999757 5.5000000000000009 5.5000000000000009 7.5000000000000009 1.0000000180025095e-35 8.5000000000000018 0.07500000000000108
decision_type=2 2 2 2 2 2 2 2 2 2 2 2 2 2 2 2 2 2 2 2 2 2 2 2 2 2 2 2 2 2
left_child=1 3 8 6 5 7 22 19 15 24 11 -5 -10 -9 29 -2 -14 25 -11 -3 -7 -13 -1 -8 -4 27 -27 28 -6 -15
right_child=2 4 9 10 17 20 23 13 12 18 -12 21 16 14 -16 -17 -18 -19 -20 -21 -22 -23 -24 -25 -26 26 -28 -29 -30 -31
leaf_value=-0.0019170131626658742 0.0082218214403837926 0.0039831150390981307 0.015780325854818027 0.00061526432453304618 0.011794528923928738 0.010198288541666758 -0.00060326902823220154 0.0030337458037366818 0.020004484596355621 0.024970237883269571 0.0075479818508028991 0.0021516494220122696 0.008194775347198759 0.0064946086435243161 -0.010104236751794816 -0.0087890848517417908 0.015295911881474295 -0.0049163263291120531 0.032711721062660216 0.0015459431880222028 0.017945424914360047 0.011173516901411685 -0.00050313258458303822 0.00081116724886628111 0.031307807564735411 -0.014389561116695405 0.0097124709561467182 0.013092819175549917 0.0012449606011311213 0.0014528595376759768
leaf_weight=827764 3680 26803 2760 26932 1840 5447 104635 22457 5823 6616 5980 1840 3220 65848 460 460 8006 460 2300 46695 2300 2613 43451 67167 383 460 2300 9660 1380 3220
leaf_count=827764 3680 26803 2760 26932 1840 5447 104635 22457 5823 6616 5980 1840 3220 65848 460 460 8006 460 2300 46695 2300 2613 43451 67167 383 460 2300 9660 1380 3220
internal_value=-1.54923e-11 -0.000462727 0.0176711 -0.0014092 0.00493816 0.00445412 -0.00155063 0.00407754 0.0137593 0.0245447 0.00253881 0.00158438 0.0155629 0.00539018 0.0061513 0.00633172 0.0132591 0.0101462 0.0269673 0.00243472 0.0124983 0.00744564 -0.0018465 -5.02869e-05 0.0176725 0.0105893 0.00569547 0.0116379 0.00727329 0.00625956
internal_weight=1.30296e+06 1.26971e+06 33248 1.08038e+06 189330 173230 1.04302e+06 165483 21189 12059 37365 31385 17049 91985 69528 4140 11226 16100 8916 73498 7747 4453 871215 171802 3143 15640 2760 12880 3220 69068
internal_count=1302960 1269712 33248 1080382 189330 173230 1043017 165483 21189 12059 37365 31385 17049 91985 69528 4140 11226 16100 8916 73498 7747 4453 871215 171802 3143 15640 2760 12880 3220 69068
is_linear=0
shrinkage=0.05


Tree=26
num_leaves=31
num_cat=0
split_feature=10 5 0 10 4 2 10 10 7 2 1 10 0 10 2 10 2 1 1 1 10 6 0 10 0 6 7 6 1 4
split_gain=3846.17 536.372 534.323 322.728 192.204 177.811 166.53 129.379 102.474 80.4307 90.1649 75.7979 74.8184 73.457 73.4294 70.2951 62.9794 59.0443 56.3284 72.077 54.3719 45.8401 45.3028 41.8032 41.17 40.1133 38.7148 46.4701 34.6361 34.3455
threshold=0.98750000000000082 -0.37940952255126015 12.500000000000002 1.6625000000000087 0.91597561503675362 9.5000000000000018 0.61249999999999727 0.27499999999999508 0.015000000000000001 7.5000000000000009 1.5000000000000002 0.22499999999999878 10.500000000000002 1.9250000000000045 9.5000000000000018 0.92500000000000437 9.5000000000000018 3.5000000000000004 1.0000000180025095e-35 2.5000000000000004 0.76250000000000295 1.2850000000000004 10.500000000000002 1.1374999999999889 6.5000000000000009 1.155 0.015000000000000001 1.8150000000000002 3.5000000000000004 0.12940952255126045
decision_type=2 2 2 2 2 2 2 2 2 2 2 2 2 2 2 2 2 2 2 2 2 2 2 2 2 2 2 2 2 2
left_child=1 2 5 8 7 6 9 -3 22 10 12 -4 25 17 24 -9 -10 29 21 -20 -16 -11 -2 -18 -6 -1 -21 -28 -13 -5
right_child=3 4 11 13 14 -7 -8 15 16 18 -12 28 -14 -15 20 -17 23 -19 19 26 -22 -23 -24 -25 -26 -27 27 -29 -30 -31
leaf_value=-0.008927272446453572 0.00016740229912102223 -0.0017864215673025999 -0.0012434522957067147 0.018212054669857026 0.0002371077053560222 -5.9952530118030661e-05 0.012508505042642355 0.0011510900347812354 0.019004260542495911 -0.001692957791693833 0.0026227689003120659 0.0056424154144689796 -0.0054394597449572762 0.028591871568981159 -0.0019531768847537755 0.015189706534147264 0.0077850366277354109 0.014553059016664824 0.0058210548602893389 0.00036466753508876778 0.01109913660432486 0.0033674121478019787 0.010693320780992508 0.014531116205068223 0.0021584002135882556 0.0019774493740194223 0.004160912432560805 0.00077986153206969491 0.00077157248167402563 0.026788557397135739
leaf_weight=920 1840 602948 196294 1840 83608 56837 4600 28983 5823 8529 44790 5080 7360 4266 35939 920 3220 2760 36340 10865 816 9416 2300 8006 41834 10120 58239 12311 12963 3193
leaf_count=920 1840 602948 196294 1840 83608 56837 4600 28983 5823 8529 44790 5080 7360 4266 35939 920 3220 2760 36340 10865 816 9416 2300 8006 41834 10120 58239 12311 12963 3193
internal_value=8.27897e-12 -0.000439591 0.000890416 0.0167876 -0.00123364 0.0024126 0.00310321 -0.00162721 0.0130713 0.00288569 0.00141222 -0.000958383 -0.00153455 0.0233175 0.00030198 0.001583 0.0147848 0.0204302 0.00357182 0.00396949 -0.0016634 0.000962291 0.00601513 0.0125961 0.000877845 0.00106872 0.00314304 0.00357092 0.00214296 0.0236531
internal_weight=1.30296e+06 1.26971e+06 474664 33248 795048 260327 203490 632851 21189 198890 63190 214337 18400 12059 162197 29903 17049 7793 135700 117755 36755 17945 4140 11226 125442 11040 81415 70550 18043 5033
internal_count=1302960 1269712 474664 33248 795048 260327 203490 632851 21189 198890 63190 214337 18400 12059 162197 29903 17049 7793 135700 117755 36755 17945 4140 11226 125442 11040 81415 70550 18043 5033
is_linear=0
shrinkage=0.05


Tree=27
num_leaves=31
num_cat=0
split_feature=10 9 8 10 10 8 9 8 9 10 8 8 8 8 9 2 7 1 0 9 9 8 9 10 10 7 10 10 10 9
split_gain=3471.17 2198.56 460.598 291.262 202.571 320.853 181.901 153.373 152.27 141.344 74.8974 73.1696 71.9511 69.545 68.1938 66.5964 122.499 138.002 109.643 85.7481 79.5749 59.1825 55.6404 48.5434 39.9756 39.63 38.2475 35.7755 33.3891 33.3402
threshold=0.98750000000000082 0.48750000000001142 0.36250000000001142 1.6625000000000087 0.43750000000000006 0.48750000000001142 0.69999999999999585 0.24999999999998582 0.18750000000000003 0.20000000000000109 0.80000000000000793 0.43750000000000006 0.15000000000001992 0.96249999999999158 0.92499999999999016 7.5000000000000009 0.52500000000000013 1.5000000000000002 8.5000000000000018 0.9625000000000058 1.199999999999996 0.32499999999996027 0.17500000000000784 1.5625000000000002 0.14999999999999505 0.74500000000000011 0.68750000000000011 1.8249999999999889 0.33750000000000574 0.32500000000001
decision_type=2 2 2 2 2 2 2 2 2 2 2 2 2 2 2 2 2 2 2 2 2 2 2 2 2 2 2 2 2 2
left_child=1 4 6 7 8 26 9 -2 -1 -3 14 25 29 22 28 16 17 18 -8 24 21 -19 23 -9 -17 -5 -6 -13 -4 -10
right_child=3 2 10 11 5 -7 15 13 12 -11 -12 27 -14 -15 -16 19 -18 20 -20 -21 -22 -23 -24 -25 -26 -27 -28 -29 -30 -31
leaf_value=-0.0016805020390096397 0.017933328458210888 0.0036054876619924601 0.00061889998179923893 0.026144613158466102 0.0058878185876664697 -0.0022610204359808797 0.0095805227756500244 0.0064660534340481302 0.00027142004843517311 0.012777969923165822 -0.0021542583871842556 0.0069521177560091024 -0.0009725384319024177 -0.0014885922273000082 0.0060158271342515947 0.0074557645898577418 0.013649980085236685 0.0087924402207136161 -0.010350773048897585 0.012557188134927018 -0.013801221549510957 -0.009730163961648941 0.017353855520486832 0.014361507925893214 0.016112367560466131 0.018579447567462919 0.011120966566189872 0.019027888774871826 0.0075357939116656785 0.0024161861595070212
leaf_weight=873515 7903 58137 33688 6999 11816 17373 920 6893 48050 4527 15097 920 95583 1380 8280 39701 3220 6900 2760 11960 460 460 2300 2713 1380 2300 4956 1840 1840 29089
leaf_count=873515 7903 58137 33688 6999 11816 17373 920 6893 48050 4527 15097 920 95583 1380 8280 39701 3220 6900 2760 11960 460 460 2300 2713 1380 2300 4956 1840 1840 29089
internal_value=-5.55972e-12 -0.000417611 0.0045525 0.0159482 -0.00128859 0.00250125 0.00620986 0.0124178 -0.00141228 0.00426813 0.000882838 0.0221516 -5.57657e-05 0.0091369 0.00192947 0.00800553 0.00503005 0.00261647 -0.00536795 0.00883129 0.00637384 0.00763478 0.0103685 0.00869595 0.00774656 0.0242735 0.00743417 0.0150026 0.000977127 0.00108021
internal_weight=1.30296e+06 1.26971e+06 189330 33248 1.08038e+06 34145 130425 21189 1.04624e+06 62664 58905 12059 172722 13286 43808 67761 14720 11500 3680 53041 7820 7360 11906 9606 41081 9299 16772 2760 35528 77139
internal_count=1302960 1269712 189330 33248 1080382 34145 130425 21189 1046237 62664 58905 12059 172722 13286 43808 67761 14720 11500 3680 53041 7820 7360 11906 9606 41081 9299 16772 2760 35528 77139
is_linear=0
shrinkage=0.05


Tree=28
num_leaves=31
num_cat=0
split_feature=10 9 8 8 10 9 10 8 9 2 7 10 4 10 6 9 8 8 8 8 9 9 9 9 9 4 9 1 8 9
split_gain=3132.73 1984.2 417.668 263.156 224.729 217.583 187.173 349.706 127.9 118.412 155.964 117.384 96.2067 82.9536 79.2833 68.986 61.7378 61.7038 58.9772 52.2023 47.3544 45.1503 40.689 39.4636 39.3593 39.0472 37.2078 52.7717 33.5085 31.1686
threshold=0.98750000000000082 0.48750000000001142 0.42499999999999011 0.48750000000001142 1.3625000000000045 0.80000000000000793 0.22499999999999878 0.24999999999998582 0.22500000000001566 7.5000000000000009 0.51500000000000012 0.20000000000000109 0.60355339059327384 0.61249999999999727 1.5550000000000004 0.61250000000001148 0.10000000000000499 0.16250000000002277 0.19999999999996024 0.80000000000000793 0.42500000000000787 0.84999999999999798 0.16249999999999434 0.9625000000000058 0.17500000000000784 0.91597561503675362 1.199999999999996 5.5000000000000009 0.24999999999998582 1.1875000000000002
decision_type=2 2 2 2 2 2 2 2 2 2 2 2 2 2 2 2 2 2 2 2 2 2 2 2 2 2 2 2 2 2
left_child=1 6 5 4 24 11 8 13 -1 10 12 15 21 22 25 -3 -14 -10 -17 -4 -6 -7 -8 -11 28 -5 -18 -28 -2 -21
right_child=3 2 19 14 20 9 7 -9 17 23 -12 -13 16 -15 -16 18 26 -19 -20 29 -22 -23 -24 -25 -26 -27 27 -29 -30 -31
leaf_value=-0.001638505110190651 0.013485264485282018 0.0022289709302894356 0.0014705882769586805 0.0067459032116901317 0.020784074283446037 0.0075826324522495275 0.0028411431744084972 -0.001539203546970541 0.0011222288270486761 0.0085080355612489039 0.012718248260872707 0.012139071612523202 -0.012220132350921632 0.010198791296164873 0.018863473335901895 0.0064049277903697552 0.010761411488056184 -0.0010297352368740145 0.0028361567514244988 -0.002625287488145482 0.028654125928878782 -0.0093371547758579251 0.0076831572086836844 0.011851670971761147 0.016351891649284168 -0.0082835711538791663 0.010838898271322251 -0.013111160695552827 0.0063941421974514122 0.0068717435002326969
leaf_weight=862658 3460 36523 35028 7140 11312 460 21173 51467 65372 24477 3220 4527 460 6336 1380 31431 2300 67919 18327 14177 2300 2760 5457 13800 3983 460 460 460 3213 920
leaf_count=862658 3460 36523 35028 7140 11312 460 21173 51467 65372 24477 3220 4527 460 6336 1380 31431 2300 67919 18327 14177 2300 2760 5457 13800 3983 460 460 460 3213 920
internal_value=-6.37283e-12 -0.000396731 0.00432487 0.0151508 0.0178567 0.00573408 -0.00122416 0.00103613 -0.00141578 0.00844183 0.00363191 0.00429096 -0.000608376 0.00505679 0.00783818 0.00387919 0.00491433 2.56863e-05 0.00509047 0.000411273 0.0221139 -0.00692004 0.00383337 0.00971352 0.0124186 0.00583622 0.00736211 -0.00113613 0.0100709 -0.00204655
internal_weight=1.30296e+06 1.26971e+06 189330 33248 24268 139205 1.08038e+06 84433 995949 48397 10120 90808 6900 32966 8980 86281 3680 133291 49758 50125 13612 3220 26630 38277 10656 7600 3220 920 6673 15097
internal_count=1302960 1269712 189330 33248 24268 139205 1080382 84433 995949 48397 10120 90808 6900 32966 8980 86281 3680 133291 49758 50125 13612 3220 26630 38277 10656 7600 3220 920 6673 15097
is_linear=0
shrinkage=0.05


Tree=29
num_leaves=31
num_cat=0
split_feature=10 9 8 10 9 9 10 8 8 8 10 10 8 10 8 8 10 9 9 8 10 10 0 10 0 1 9 0 9 8
split_gain=2827.29 1793.09 379.215 238.409 213.419 141.409 133.809 280.031 125.801 110.384 148.402 83.3289 61.4592 61.2141 58.3019 52.3214 46.0838 44.8959 44.8107 44.69 40.6602 38.6611 38.4537 35.5049 35.1835 96.7825 32.1006 36.1611 31.5993 31.3305
threshold=0.98750000000000082 0.52500000000002001 0.42500000000000787 1.6625000000000087 0.28749999999999437 0.80000000000000793 0.28749999999999437 0.26249999999998869 0.24999999999998582 0.30000000000000787 0.17499999999999852 0.45000000000001 0.23749999999999719 1.9250000000000045 0.96249999999999158 0.43750000000000006 0.33750000000000574 1.0625000000000002 0.17500000000000784 0.80000000000000793 1.5625000000000002 0.68750000000000011 9.5000000000000018 0.050000000000002494 10.500000000000002 1.5000000000000002 0.92499999999999016 11.500000000000002 0.66249999999999443 0.15000000000000394
decision_type=2 2 2 2 2 2 2 2 2 2 2 2 2 2 2 2 2 2 2 2 2 2 2 2 2 2 2 2 2 2
left_child=1 4 5 8 6 11 -1 21 -2 10 -6 12 28 15 18 -5 19 23 20 -4 -10 -8 29 24 -7 26 27 -26 -3 -19
right_child=3 2 16 13 9 17 7 -9 14 -11 -12 -13 -14 -15 -16 -17 -18 22 -20 -21 -22 -23 -24 -25 25 -27 -28 -29 -30 -31
leaf_value=-0.0015076291024059231 0.016194420361894453 0.0038949380263457417 0.0012719811742088409 0.020020975913372974 0.0011238176825452205 0.0075003336392210256 0.0042475802570374477 -0.0018506830974767453 0.0058136537607316619 -0.0016075764710763289 0.0084481891037276879 0.01503395102918148 0.0014153926147442934 0.024820493487925022 -0.0015009667103489241 0.011038560792803765 0.0074622034281492241 0.017443151399493217 0.015624246299266814 -0.0022171652171113923 0.013039637917506489 0.0098776209290020629 -0.0032397501170635225 0.013988689891994 0.010372035205364227 0.0082300231925078807 -0.012749099358916284 -0.009453600645065308 0.0062817692510985651 0.010230090634690391
leaf_weight=915817 7903 29377 29821 5493 85158 30917 20700 36551 6893 34127 7527 1840 15000 4266 1380 2300 2300 1840 2300 13257 2713 3576 460 1840 460 3220 920 460 26264 8280
leaf_count=915817 7903 29377 29821 5493 85158 30917 20700 36551 6893 34127 7527 1840 15000 4266 1380 2300 2300 1840 2300 13257 2713 3576 460 1840 460 3220 920 460 26264 8280
internal_value=3.73966e-12 -0.000376894 0.00446379 0.0143933 -0.00110623 0.00592689 -0.0013568 0.000914117 0.0111992 0.000823501 0.00171863 0.00452945 0.00425584 0.0200057 0.0082278 0.0173699 0.000566395 0.00801974 0.00935544 0.000198217 0.00785447 0.00507692 0.0108989 0.00721424 0.00686777 0.00300276 -0.00614494 0.000459217 0.00502158 0.0115416
internal_weight=1.30296e+06 1.26971e+06 166256 33248 1.10346e+06 120878 976644 60827 21189 126812 92685 72481 70641 12059 13286 7793 45378 48397 11906 43078 9606 24276 10580 37817 35977 5060 1840 920 55641 10120
internal_count=1302960 1269712 166256 33248 1103456 120878 976644 60827 21189 126812 92685 72481 70641 12059 13286 7793 45378 48397 11906 43078 9606 24276 10580 37817 35977 5060 1840 920 55641 10120
is_linear=0
shrinkage=0.05


Tree=30
num_leaves=31
num_cat=0
split_feature=10 5 4 8 8 10 4 10 10 8 2 6 8 10 8 8 10 2 4 2 5 2 1 6 8 4 6 4 8 10
split_gain=2551.63 355.836 341.275 217.762 216.601 188.396 127.223 112.128 90.5445 87.7271 71.7139 66.0875 62.8498 57.7739 93.0878 57.4449 82.8988 70.6742 54.4569 43.5606 42.5561 35.5598 96.3872 52.7025 35.5946 34.857 54.5328 33.1292 31.9967 30.5333
threshold=0.98750000000000082 -0.37940952255126015 1.0000000180025095e-35 0.22500000000001566 0.48750000000001142 1.3625000000000045 0.91597561503675362 0.43750000000000006 0.45000000000001 0.48750000000001142 9.5000000000000018 1.5550000000000004 0.17500000000003982 0.22499999999999878 0.19999999999999754 0.51249999999998874 0.45000000000001 9.5000000000000018 0.25881904510252091 7.5000000000000009 -0.37940952255126015 7.5000000000000009 1.5000000000000002 0.9850000000000001 0.1499999999999844 0.37940952255126054 1.5650000000000002 0.91597561503675362 0.050000000000007823 0.7125000000000058
decision_type=2 2 2 2 2 2 2 2 2 2 2 2 2 2 2 2 2 2 2 2 2 2 2 2 2 2 2 2 2 2
left_child=1 2 13 7 5 -2 8 10 -3 -10 21 27 29 -1 -15 16 17 18 -5 -20 -7 22 23 -4 -24 26 -25 -6 -23 -8
right_child=4 6 3 15 11 20 12 -9 9 -11 -12 -13 -14 14 -16 -17 -18 -19 19 -21 -22 28 24 25 -26 -27 -28 -29 -30 -31
leaf_value=-0.0010011787257829345 0.011149405837919027 -0.0014096362797211938 -0.010740979264179867 -0.00090330234344189377 0.0060494130839925022 0.023989468480194932 0.00097578426581445502 0.010258624857912462 0.0063846535502075259 -0.002166945825923573 0.00070498032510547077 0.017105321586132049 -0.00094174820565466318 0.0081517355080964107 -0.00012621896386402512 -0.0011319839296840381 0.0099264059670574594 -0.0013959094814349714 0.00040047271177172665 0.0039926584590450577 0.01805419512072574 -0.0022815449163317682 0.0062726355332000071 -0.00042745208367705345 0.0024891090792845921 0.0018286212580278516 -0.014830978214740755 -0.007794343680143357 0.0043992881107051147 0.010369380154697074
leaf_weight=196294 10656 620428 1380 12954 7140 4523 95195 5520 7363 5060 27416 1380 66129 4537 13506 41478 2613 23661 12420 26333 9089 1840 10227 2300 15851 6440 920 460 68974 873
leaf_count=196294 10656 620428 1380 12954 7140 4523 95195 5520 7363 5060 27416 1380 66129 4537 13506 41478 2613 23661 12420 26333 9089 1840 10227 2300 15851 6440 920 460 68974 873
internal_value=-1.57733e-12 -0.00035805 0.000725244 0.00194176 0.0136736 0.0161285 -0.0010048 0.00327345 -0.00132501 0.00290151 0.00298857 0.00703928 0.000244551 -0.0007523 0.00195531 0.000371406 0.00117106 0.000867511 0.00190325 0.00284139 0.0200264 0.00356863 0.00231508 -0.00160089 0.00397289 -0.000295168 -0.00454275 0.0052115 0.0042257 0.00106115
internal_weight=1.30296e+06 1.26971e+06 474664 260327 33248 24268 795048 140868 632851 12423 135348 8980 162197 214337 18043 119459 77981 75368 51707 38753 13612 107932 37118 11040 26078 9660 3220 7600 70814 96068
internal_count=1302960 1269712 474664 260327 33248 24268 795048 140868 632851 12423 135348 8980 162197 214337 18043 119459 77981 75368 51707 38753 13612 107932 37118 11040 26078 9660 3220 7600 70814 96068
is_linear=0
shrinkage=0.05


Tree=31
num_leaves=31
num_cat=0
split_feature=10 9 8 10 9 8 9 10 8 10 8 10 8 10 8 10 10 9 8 0 0 10 8 8 9 9 10 8 8 10
split_gain=2302.84 1545.11 325.035 196.43 174.202 161.918 123.616 107.411 242.075 98.5263 72.7605 69.193 62.3745 76.1763 52.0221 41.8401 40.8195 39.2566 38.7811 34.161 34.0709 32.0652 30.4948 54.9247 39.2279 30.2558 29.4568 28.276 27.9454 27.1804
threshold=0.98750000000000082 0.52500000000002001 0.42500000000000787 1.874999999999986 0.30000000000000787 0.20000000000003129 0.80000000000000793 0.28749999999999437 0.26249999999998869 0.40000000000000308 0.30000000000000787 0.45000000000001 0.76249999999998874 1.1374999999999889 0.23749999999999719 1.312499999999986 0.33750000000000574 1.0625000000000002 0.80000000000000793 9.5000000000000018 1.0000000180025095e-35 0.68750000000000011 0.29999999999999011 0.32499999999996027 1.0499999999999903 1.1875000000000002 0.17499999999999852 0.79999999999997595 0.15000000000000394 0.025000000000003911
decision_type=2 2 2 2 2 2 2 2 2 2 2 2 2 2 2 2 2 2 2 2 2 2 2 2 2 2 2 2 2 2
left_child=1 4 6 5 7 15 11 -1 21 10 26 14 13 -7 -3 -2 18 22 -4 28 -5 -9 29 -24 -25 -20 -6 -11 -19 -8
right_child=3 2 16 20 9 12 17 8 -10 27 -12 -13 -14 -15 -16 -17 -18 19 25 -21 -22 -23 23 24 -26 -27 -28 -29 -30 -31
leaf_value=-0.0013697597471433298 0.01226531042844364 0.0046565264002299414 0.001198851940815494 0.012684138864278794 0.0010157834406235627 0.0045353806474142605 0.0063828187178913785 0.0039184506925650777 -0.001735657127395134 0.0083007246314114793 -0.0017038287713723494 0.013773475028574468 0.0033302631881088024 0.012777057457127703 0.0013387326954832921 0.018834306461137734 0.0070351084321737291 0.01633632890880108 -0.0027037426299830955 -0.0031691938638687134 0.023201137043967673 0.0090457851088020357 -0.012985438108444214 0.005980537344629948 -0.0091718383133411411 0.006695614010095597 0.0060044051296451531 0.00027693230658769606 0.0095240717132886246 0.0095813967997119553
leaf_weight=923514 3983 55641 29821 920 79188 4140 21257 20700 37471 5373 29180 1840 4600 8686 15000 6193 2300 1840 12337 460 4726 3576 460 5980 460 920 3074 1380 8280 9660
leaf_count=923514 3983 55641 29821 920 79188 4140 21257 20700 37471 5373 29180 1840 4600 8686 15000 6193 2300 1840 12337 460 4726 3576 460 5980 460 920 3074 1380 8280 9660
internal_value=3.47036e-12 -0.000340147 0.00415336 0.0129899 -0.00101718 0.0112517 0.00550791 -0.00123477 0.000784214 0.000796647 0.000441285 0.00420135 0.00832533 0.0101168 0.00395202 0.0162631 0.000545101 0.00746467 0.00019859 0.0101569 0.0214874 0.00467374 0.00671146 0.00370598 0.00489822 -0.00205145 0.0012022 0.00666103 0.0107627 0.00738221
internal_weight=1.30296e+06 1.26971e+06 166256 33248 1.10346e+06 27602 120878 985261 61747 118195 111442 72481 17426 12826 70641 10176 45378 48397 43078 10580 5646 24276 37817 6900 6440 13257 82262 6753 10120 30917
internal_count=1302960 1269712 166256 33248 1103456 27602 120878 985261 61747 118195 111442 72481 17426 12826 70641 10176 45378 48397 43078 10580 5646 24276 37817 6900 6440 13257 82262 6753 10120 30917
is_linear=0
shrinkage=0.05


Tree=32
num_leaves=31
num_cat=0
split_feature=10 9 8 8 9 10 9 10 8 8 10 10 10 8 5 10 8 9 1 0 8 10 9 0 1 9 9 9 0 0
split_gain=2079.87 1397.67 293.345 201.105 158.555 153.296 111.563 92.169 238.219 84.9658 111.602 62.4466 59.2808 47.2129 38.0221 37.6752 37.8401 35.4291 31.7588 30.8303 30.6148 28.9962 28.7122 28.5486 79.435 28.1178 26.5233 26.3361 30.0647 25.3567
