tree
version=v4
num_class=1
num_tree_per_iteration=1
label_index=0
max_feature_idx=13
objective=regression
feature_names=hour day_of_week month is_weekend hour_sin hour_cos import_price_sek_kwh export_price_sek_kwh load_kwh pv_kwh import_kwh soc_start_percent soc_end_percent battery_masked
feature_infos=[0:23] [0:6] [7:10] [0:1] [-1:1] [-1:1] [0.62:6.5599999999999996] [-0.19:4.5599999999999996] [0:2.5749999999999886] [0:2.6000000000000227] [0:2.2750000000000057] none none none
tree_sizes=2930 3072 3096 3065 3100 3034 3088 3050 3066 3063 3071 3088 3121 3086 3128 3077 3109 3038 3054 3055 3110 3105 3101 3076 3049 3068 3036 3100 3102 3080 3106 3103 3096 3093 3094 3087 3073 3086 3051 3057 3093 3072 3131 3118 3092 3083 3144 3083 3108 3071 3132 3109 3101 3086 3080 3071 3099 3083 3057 3130 3114 3078 3087 3133 3047 3088 3032 3057 3081 3076 3096 3103 3066 3064 3094 3101 3119 3094 3082 3102 3130 3085 3052 3078 3098 3122 3085 3111 3081 3126 3061 3050 3077 3141 3104 3043 3103 3133 3067 3120 3085 3115 3177 3112 3062 3104 3104 3072 3118 3040 3132 3093 3085 3127 3120 3135 3098 3080 3180 3141 3161 3073 3106 3113 3056 3088 3106 3078 3082 3102 3072 3073 3047 3089 3066 3121 3116 3124 3112 3054 3050 3143 3030 3093 3139 3098 3069 3097 3120 3093 3124 3092 3093 3103 3070 3084 3124 3073 3106 3060 3164 3095 3138 3154 3193 3133 3056 3111 3042 3084 3050 3134 3069 3130 3067 3145 3119 3105 3141 3070 3096 3109 3041 3084 3071 3083 3110 3114 3081 3101 3091 3179 3086 3101 3138 3169 3077 3066 3037 3108

Tree=0
num_leaves=31
num_cat=0
split_feature=6 4 9 6 8 9 8 8 8 6 8 6 0 0 6 8 0 9 6 4 6 1 9 1 1 4 9 0 8 6
split_gain=16292.6 4968.29 1691.73 1241.91 977.618 739.886 896.957 573.1 549.089 602.702 531.562 489.62 754.699 463.455 552.23 361.045 296.853 265.235 240.351 177.971 215.298 585.546 222.38 241.644 176.497 281.394 336.323 173.443 161.875 256.772
threshold=4.0000000000000009 -0.78656609248549292 0.025000000000019899 3.3050000000000002 0.40000000000000219 0.20000000000003129 0.40000000000000219 0.35000000000001569 0.17500000000000784 1.0450000000000002 0.34999999999998016 3.5750000000000006 16.500000000000004 17.500000000000004 4.9850000000000012 0.17500000000000251 15.500000000000002 0.63749999999998874 4.1350000000000007 -0.9159756150367534 2.6850000000000005 5.5000000000000009 1.0000000180025095e-35 3.5000000000000004 2.5000000000000004 -0.9159756150367534 0.10000000000000499 18.500000000000004 0.11250000000001138 2.9350000000000005
decision_type=2 2 2 2 2 2 2 2 2 2 2 2 2 2 2 2 2 2 2 2 2 2 2 2 2 2 2 2 2 2
left_child=1 3 7 4 15 8 -7 13 -3 -10 -11 12 -5 18 -15 24 -4 -8 -2 20 -17 22 -22 -24 25 26 28 -6 -1 -30
right_child=2 5 16 11 27 6 17 -9 9 10 -12 -13 -14 14 -16 19 -18 -19 -20 -21 21 -23 23 -25 -26 -27 -28 -29 29 -31
leaf_value=0.1308716416658724 0.1605304858016284 0.11684236963512991 0.12386381962080167 0.11803048633248227 0.14097886181653912 0.11374277912565635 0.12313622230606751 0.13178048639767484 0.11562930172866066 0.12020762403413209 0.12797986162486633 0.13278048593061659 0.17032215306434151 0.18178048490755871 0.12053048641630131 0.12677007103197949 0.16053048729174452 0.11717463391839754 0.1979412010239871 0.12343163037765392 0.12555548645578937 0.19178048878186066 0.17928048878186065 0.1280304869937213 0.12035986287315964 0.11962289183543569 0.16928048639767485 0.12908148106077103 0.12126766564999389 0.13660191497442525
leaf_weight=11996 460 447838 1380 920 9080 281566 34248 460 61086 137942 26173 4600 2760 1840 460 42486 920 40984 6440 44049 3000 460 460 460 91869 22780 460 4623 17940 3220
leaf_count=11996 460 447838 1380 920 9080 281566 34248 460 61086 137942 26173 4600 2760 1840 460 42486 920 40984 6440 44049 3000 460 460 460 91869 22780 460 4623 17940 3220
internal_value=0.118979 0.118441 0.177069 0.124601 0.123977 0.116879 0.115039 0.186245 0.117855 0.119869 0.121447 0.143655 0.157249 0.188968 0.16953 0.123233 0.13853 0.119889 0.195447 0.125713 0.127858 0.138413 0.13215 0.153655 0.121711 0.123913 0.126821 0.136965 0.126232 0.123601
internal_weight=1.30296e+06 1.291e+06 11960 261163 252883 1.02984e+06 356798 9660 673039 225201 164115 8280 3680 9200 2300 239180 2300 75232 6900 90915 46866 4380 3920 920 148265 56396 33616 13703 33156 21160
internal_count=1302960 1291000 11960 261163 252883 1029837 356798 9660 673039 225201 164115 8280 3680 9200 2300 239180 2300 75232 6900 90915 46866 4380 3920 920 148265 56396 33616 13703 33156 21160
is_linear=0
shrinkage=1


Tree=1
num_leaves=31
num_cat=0
split_feature=6 4 9 6 8 10 9 10 8 8 8 10 8 6 0 8 8 10 0 4 8 9 9 10 8 6 6 3 9 6
split_gain=14704.1 4483.88 1526.78 1120.82 887.862 752.964 676.124 1209.36 1342.84 823.833 582.969 510.89 504.075 441.882 681.116 367.26 362.214 357.612 270.91 268.794 261.982 353.067 238.876 334.363 279.46 217.757 192.38 508.46 205.639 218.083
threshold=4.0000000000000009 -0.78656609248549292 0.025000000000019899 3.3050000000000002 0.29999999999996879 0.025000000000003911 0.17500000000000029 0.074999999999992198 0.27499999999999908 0.40000000000000219 0.35000000000001569 0.22499999999999878 0.15000000000001992 3.5750000000000006 16.500000000000004 0.44999999999996027 0.51249999999998874 0.099999999999980119 14.500000000000002 -0.9159756150367534 0.17500000000000251 0.10000000000000499 0.63749999999998874 0.33750000000000574 0.57500000000000051 4.6550000000000011 2.7050000000000005 1.0000000180025095e-35 1.0000000180025095e-35 2.9350000000000005
decision_type=2 2 2 2 2 2 2 2 2 2 2 2 2 2 2 2 2 2 2 2 2 2 2 2 2 2 2 2 2 2
left_child=1 3 5 4 17 10 7 8 12 -8 25 15 -3 14 -5 -6 -10 19 -4 20 21 -1 23 24 -11 -2 -22 28 -28 -30
right_child=2 6 18 13 11 -7 9 -9 16 22 -12 -13 -14 -15 -16 -17 -18 -19 -20 -21 26 -23 -24 -25 -26 -27 27 -29 29 -31
leaf_value=0.0038691706844378561 0.063180456378243197 -0.001368333148610732 -0.0024431909347185869 -0.00090152407065033921 0.011394006069344043 0.001473475992679596 -0.0047891994029166454 -0.0045553780199396182 0.0088807682653543139 0.0025347000595998151 0.012160975486040115 -0.0006180838124626982 0.0024140885811564853 0.013110975134186449 0.048775557676951097 0.023904398945324777 0.025369900312958934 -0.0040341117565940608 0.032584586739540101 0.0017821960289578895 0.007912832955460785 0.0477859765291214 -0.0017145839260142371 -0.0057729996973648673 0.012519905330525405 0.079165441542863854 0.004972225725650788 0.069160979986190793 0.057285976409912114 0.0085984759032726298
leaf_weight=89684 5060 317703 920 920 20576 460 311716 173609 22147 19627 460 6440 121873 4600 2760 8206 3920 14487 1380 77550 31800 460 40984 7360 10898 3680 2300 460 460 460
leaf_count=89684 5060 317703 920 920 20576 460 311716 173609 22147 19627 460 6440 121873 4600 2760 8206 3920 14487 1380 77550 31800 460 40984 7360 10898 3680 2300 460 460 460
internal_value=3.21375e-11 -0.000511241 0.055185 0.00534019 0.00474749 0.063902 -0.00199514 -0.000993714 0.000334207 -0.00363414 0.0670235 0.0121124 -0.000319652 0.0234422 0.0363563 0.0149608 0.0113604 0.0035557 0.0185735 0.00409688 0.00552577 0.00409328 0.000931046 0.00379309 0.00609961 0.069911 0.00916531 0.0199883 0.0129637 0.0329422
internal_weight=1.30296e+06 1.291e+06 11960 261163 252883 9660 1.02984e+06 639252 465643 390585 9200 35222 439576 8280 3680 28782 26067 217661 2300 203174 125624 90144 78869 37885 30525 8740 35480 3680 3220 920
internal_count=1302960 1291000 11960 261163 252883 9660 1029837 639252 465643 390585 9200 35222 439576 8280 3680 28782 26067 217661 2300 203174 125624 90144 78869 37885 30525 8740 35480 3680 3220 920
is_linear=0
shrinkage=0.05


Tree=2
num_leaves=31
num_cat=0
split_feature=7 4 9 7 8 10 9 10 8 8 8 8 10 8 7 0 10 0 8 9 10 4 9 1 7 8 8 8 8 9
split_gain=13270.4 4046.7 1377.92 1011.54 803.241 679.55 610.496 1093.12 1222.19 748.061 591.783 526.129 427.908 454.399 398.798 614.707 386.866 250.251 240.277 233.856 305.351 210.873 304.284 242.823 196.525 192.561 183.693 180.766 171.88 163.547
threshold=2.5150000000000001 -0.78656609248549292 0.025000000000019899 1.9600000000000002 0.40000000000000219 0.025000000000003911 0.17499999999999807 0.074999999999992198 0.36250000000001142 0.36250000000001142 0.15000000000001992 0.35000000000001569 0.099999999999980119 0.24999999999998582 2.1750000000000003 16.500000000000004 0.48750000000001142 15.500000000000002 1.1625000000000052 0.63749999999998874 0.13749999999998866 -0.9159756150367534 0.10000000000000499 4.5000000000000009 3.0300000000000007 0.70000000000000118 0.57500000000001006 0.24999999999998582 0.20000000000003129 0.02499999999999503
decision_type=2 2 2 2 2 2 2 2 2 2 2 2 2 2 2 2 2 2 2 2 2 2 2 2 2 2 2 2 2 2
left_child=1 3 5 4 12 11 7 8 10 -8 29 24 13 21 15 -5 -6 -4 19 20 26 22 23 -1 27 -10 -11 28 -2 -3
right_child=2 6 17 14 16 -7 9 -9 25 18 -12 -13 -14 -15 -16 -17 -18 -19 -20 -21 -22 -23 -24 -25 -26 -27 -28 -29 -30 -31
leaf_value=0.0061382692517576495 0.064678739309310923 -0.0007635102054531738 0.0041785057750530546 -0.0008564479649066925 0.020056216136806318 0.0013998021371662618 -0.0046720774764088336 -0.0043276092318389253 0.011860809836006431 0.003154857260903469 0.0026691533382221335 0.011552926898002625 -0.0036438480788803344 0.0099306167295850744 0.012455426361411811 0.04633677999178569 -0.0024231700599193573 0.037844248116016388 0.018349546752870084 -0.0025164143814611424 -0.0033217071444843378 0.0013752781770788461 0.045396676659584051 0.0011528847999110448 0.07520716860890389 0.026177200357119242 0.011960172943829376 0.080068919062614444 0.044176059216260916 -0.0036991178444601455
leaf_weight=81854 2300 259651 1380 920 11403 460 298213 173609 10820 24281 133323 460 17707 32139 4600 2760 2300 920 1840 44131 15083 72207 460 34813 3680 3000 7834 920 1840 58052
leaf_count=81854 2300 259651 1380 920 11403 460 298213 173609 10820 24281 133323 460 17707 32139 4600 2760 2300 920 1840 44131 15083 72207 460 34813 3680 3000 7834 920 1840 58052
internal_value=-2.37886e-11 -0.000485679 0.0524258 0.00507318 0.00451011 0.0607069 -0.00189539 -0.000942234 0.000322123 -0.00345025 -0.000126662 0.0636723 0.00383562 0.00443361 0.0222701 0.0345385 0.0162831 0.0176448 0.000460551 0.000100142 0.00254667 0.0035005 0.00481067 0.00465065 0.0664154 0.0149686 0.00530279 0.0600214 0.0555664 -0.00129992
internal_weight=1.30296e+06 1.291e+06 11960 261163 252883 9660 1.02984e+06 638455 464846 391382 451026 9200 239180 221473 8280 3680 13703 2300 93169 91329 47198 189334 117127 116667 8740 13820 32115 5060 4140 317703
internal_count=1302960 1291000 11960 261163 252883 9660 1029837 638455 464846 391382 451026 9200 239180 221473 8280 3680 13703 2300 93169 91329 47198 189334 117127 116667 8740 13820 32115 5060 4140 317703
is_linear=0
shrinkage=0.05


Tree=3
num_leaves=31
num_cat=0
split_feature=6 4 9 6 10 9 10 2 10 6 6 0 0 0 0 9 5 9 1 9 6 6 5 2 6 1 1 0 0 1
split_gain=11976.6 3652.15 1243.58 912.918 613.293 556.902 942.134 458.209 446.529 443.64 359.915 554.773 228.283 195.934 188.152 129.157 127.599 170.388 748.349 124.294 119.97 183.518 117.007 115.014 221.088 480.426 244.609 208.163 196.169 156.906
threshold=4.0000000000000009 -0.78656609248549292 0.025000000000019899 3.3050000000000002 0.025000000000003911 0.22500000000000056 0.074999999999992198 9.5000000000000018 0.099999999999980119 4.1350000000000007 3.5750000000000006 16.500000000000004 14.500000000000002 19.500000000000004 17.500000000000004 0.049999999999968743 -0.78656609248549325 0.15000000000001992 1.5000000000000002 0.10000000000001565 2.0450000000000004 2.1650000000000005 -0.12940952255126037 8.5000000000000018 2.6550000000000007 5.5000000000000009 2.5000000000000004 17.500000000000004 17.500000000000004 4.5000000000000009
decision_type=2 2 2 2 2 2 2 2 2 2 2 2 2 2 2 2 2 2 2 2 2 2 2 2 2 2 2 2 2 2
left_child=1 3 4 8 9 6 7 19 13 14 11 -5 -4 15 -2 23 -9 -18 -19 -3 -17 -22 -11 24 29 26 28 -25 -26 -1
right_child=2 5 12 10 -6 -7 -8 16 -10 22 -12 -13 -14 -15 -16 20 17 18 -20 -21 21 -23 -24 27 25 -27 -28 -29 -30 -31
leaf_value=0.0089128667380252331 0.022540464997291565 -0.00021942535756805574 -0.0025299566739704462 -0.00081362547352910048 0.0013298120349645615 -0.0034461195937806918 -0.0040491788555576339 0.00033196874257689362 -0.002710342845916567 0.069618337353070589 0.011832655165344479 0.04401994148890178 0.029624242087205252 0.0019873934895258492 0.054518014192581177 0.00087859024644986448 0.0036871986181214126 0.053558200597763062 0.00020109167322516442 -0.002513495942020277 0.018531912013815287 0.0039888816196579123 0.055059185624122625 0.0077497616453293039 0.035234609246253969 0.065206396579742434 0.00065339371018732599 0.002793936972757561 0.013129269843921066 0.0033907633451686469
leaf_weight=33245 920 327196 920 920 460 342954 183226 29969 20927 5520 4600 2760 1380 45836 920 23920 71227 920 2300 72045 2651 11937 1840 39832 1380 460 2760 45272 3680 20983
leaf_count=33245 920 327196 920 920 460 342954 183226 29969 20927 5520 4600 2760 1380 45836 920 23920 71227 920 2300 72045 2651 11937 1840 39832 1380 460 2760 45272 3680 20983
internal_value=2.98035e-11 -0.000461395 0.0498045 0.00481952 0.0576716 -0.00180062 -0.000979034 0.000137858 0.00428461 0.0604887 0.0211566 0.0328115 0.0167626 0.00491569 0.0385292 0.00563684 0.00308682 0.00419579 0.015446 -0.000633402 0.00305805 0.00663171 0.0659785 0.00630958 0.00793809 0.015548 0.012627 0.00511346 0.019158 0.00677614
internal_weight=1.30296e+06 1.291e+06 11960 261163 9660 1.02984e+06 686883 503657 252883 9200 8280 3680 2300 231956 1840 186120 104416 74447 3220 399241 38508 14588 7360 147612 62508 8280 7820 85104 5060 54228
internal_count=1302960 1291000 11960 261163 9660 1029837 686883 503657 252883 9200 8280 3680 2300 231956 1840 186120 104416 74447 3220 399241 38508 14588 7360 147612 62508 8280 7820 85104 5060 54228
is_linear=0
shrinkage=0.05


Tree=4
num_leaves=31
num_cat=0
split_feature=7 4 9 7 8 8 9 10 9 8 10 10 8 10 7 0 10 8 8 8 8 0 10 9 7 8 1 4 9 8
split_gain=10808.9 3296.06 1122.33 823.908 731.29 589.119 739.349 711.273 777.822 755.491 593.659 553.497 439.137 345.655 324.824 500.683 290.733 272.956 267.939 262.472 216.28 210.967 184.988 189.975 162.541 158.853 158.32 167.244 247.002 147.185
threshold=2.5150000000000001 -0.78656609248549292 0.025000000000019899 1.9600000000000002 0.32499999999996027 0.22500000000001566 0.099999999999980119 0.26249999999998891 0.39999999999999508 0.57500000000000207 0.049999999999975848 0.025000000000003911 0.35000000000001569 0.22499999999999878 2.1750000000000003 16.500000000000004 0.099999999999980119 0.44999999999996027 0.11250000000001138 0.17500000000000251 0.97499999999998732 15.500000000000002 0.11250000000001138 0.10000000000001565 3.0300000000000007 0.24999999999998582 2.5000000000000004 -0.9159756150367534 0.10000000000000499 0.20000000000003129
decision_type=2 2 2 2 2 2 2 2 2 2 2 2 2 2 2 2 2 2 2 2 2 2 2 2 2 2 2 2 2 2
left_child=1 3 11 4 16 6 10 8 9 22 18 12 24 17 15 -5 19 -6 -3 26 -10 -4 23 -7 25 29 27 28 -1 -2
right_child=2 5 21 14 13 7 -8 -9 20 -11 -12 -13 -14 -15 -16 -17 -18 -19 -20 -21 -22 -23 -24 -25 -26 -27 -28 -29 -30 -31
leaf_value=0.0061872608625653733 0.058411481380462649 -0.0012575369732273579 0.0035601750734106951 -0.00077294418588280678 0.010203981784365107 0.0067594468233188824 -0.0043693540776135048 -0.0041818319049951435 -0.0019183832262074417 0.017790315149303446 -0.0042176749110815299 0.0012633214704692365 0.0098482571542263045 0.00012068166203486425 0.011241022346075625 0.041818944613138842 -0.0035405686338661653 0.021403482082759991 0.0015575150573921414 0.0061820277161657227 0.010449253540718928 0.03447082191705704 -0.0025422587763222239 0.0018795184381566789 0.067965895682573316 0.072948533296585086 0.0010677763358087533 0.00091165034764190004 0.04308291375637055 0.039438790827989581
leaf_weight=32696 2300 215525 1380 920 16143 39526 295311 64939 89682 10214 120347 460 460 5520 4600 2760 15407 8206 139072 66009 3680 920 11285 40256 3680 920 88422 20020 460 1840
leaf_count=32696 2300 215525 1380 920 16143 39526 295311 64939 89682 10214 120347 460 460 5520 4600 2760 15407 8206 139072 66009 3680 920 11285 40256 3680 920 88422 20020 460 1840
internal_value=-4.61612e-12 -0.000438326 0.0473143 0.00457855 0.00407038 -0.00171059 -0.00240482 0.000349414 0.00186118 0.00489585 -0.00118332 0.054788 0.0574643 0.0114174 0.0200988 0.031171 0.00308637 0.0139784 -0.000153481 0.00357817 -0.00143089 0.0159244 0.00344962 0.00429716 0.0599704 0.0541554 0.00236432 0.00452024 0.00669914 0.0499792
internal_weight=1.30296e+06 1.291e+06 11960 261163 252883 1.02984e+06 770255 259582 194643 101281 474944 9660 9200 29869 8280 3680 223014 24349 354597 207607 93362 2300 91067 79782 8740 5060 141598 53176 33156 4140
internal_count=1302960 1291000 11960 261163 252883 1029837 770255 259582 194643 101281 474944 9660 9200 29869 8280 3680 223014 24349 354597 207607 93362 2300 91067 79782 8740 5060 141598 53176 33156 4140
is_linear=0
shrinkage=0.05


Tree=5
num_leaves=31
num_cat=0
split_feature=6 4 9 6 8 8 9 4 8 4 6 6 4 6 8 4 4 7 8 6 4 8 1 8 9 6 2 8 5 1
split_gain=9755 2974.7 1012.9 743.577 662.121 531.68 667.263 364.917 352.14 293.266 323.801 293.153 451.866 240.562 273.545 220.603 192.361 185.588 174.153 170.241 1053.04 242.766 465.092 324.96 162.246 158.231 142.233 211.502 394.876 196.419
threshold=4.0000000000000009 -0.78656609248549292 0.025000000000019899 3.3050000000000002 0.29999999999996879 0.22500000000001566 0.099999999999980119 -1.0000000180025095e-35 0.35000000000001569 -0.98296291314453399 4.9850000000000012 3.5750000000000006 -0.9159756150367534 1.2650000000000003 0.68750000000000011 -0.9159756150367534 0.91597561503675362 1.2350000000000001 1.1625000000000052 2.4050000000000007 -0.98296291314453399 0.17499999999996876 5.5000000000000009 0.17499999999999008 0.10000000000000499 4.1350000000000007 9.5000000000000018 0.19999999999996024 -0.12940952255126037 2.5000000000000004
decision_type=2 2 2 2 2 2 2 2 2 2 2 2 2 2 2 2 2 2 2 2 2 2 2 2 2 2 2 2 2 2
left_child=1 3 8 4 15 6 -3 -7 9 10 -2 12 -5 -6 -15 17 -4 24 -9 20 -19 -21 23 -23 -1 -11 27 28 -25 -30
right_child=2 5 16 11 13 7 -8 18 -10 25 -12 -13 -14 14 -16 -17 -18 19 -20 21 -22 22 -24 26 -26 -27 -28 -29 29 -31
leaf_value=0.0026254007807687218 0.048101452738046648 -0.0011241494190528274 0.026934665938218433 0.039727998028198881 0.00094220310162670344 0.0033142177662993503 -0.004150886317015697 -0.0010176472815487862 0.0093558445572853085 0.031006687879562379 0.0012001553550362587 0.010678971370216459 -0.00073429699987173083 0.010793551357240489 0.030347625583301216 0.00086920489607775718 -0.0025814676715526733 -9.4880380978186932e-05 0.012826687693595887 0.0037469729072847225 0.087259191274642947 0.051431238651275635 0.061636978387832643 0.050278142094612122 0.023731198161840439 0.061360887544495729 0.0010205696572759561 0.0052219060482457287 0.0007272324486014744 0.03845419585704804
leaf_weight=88794 1840 474944 1380 2760 5823 73522 295311 183760 460 460 460 4600 920 27486 1913 86057 920 1380 2300 28737 460 460 460 920 920 6440 3953 3680 1380 460
leaf_count=88794 1840 474944 1380 2760 5823 73522 295311 183760 460 460 460 4600 920 27486 1913 86057 920 1380 2300 28737 460 460 460 920 920 6440 3953 3680 1380 460
internal_value=2.76667e-12 -0.000416409 0.0449485 0.00434962 0.00386686 -0.00162506 -0.00228458 0.000331943 0.0520486 0.0541833 0.0387212 0.0190938 0.0296124 0.0102269 0.0120659 0.00283767 0.0151282 0.00412486 -0.000846509 0.00687266 0.0217436 0.00618945 0.0123938 0.0103066 0.00284184 0.0593373 0.00848642 0.0130691 0.023532 0.010159
internal_weight=1.30296e+06 1.291e+06 11960 261163 252883 1.02984e+06 770255 259582 9660 9200 2300 8280 3680 35222 29399 217661 2300 131604 186060 41890 1840 40050 11313 10853 89714 6900 10393 6440 2760 1840
internal_count=1302960 1291000 11960 261163 252883 1029837 770255 259582 9660 9200 2300 8280 3680 35222 29399 217661 2300 131604 186060 41890 1840 40050 11313 10853 89714 6900 10393 6440 2760 1840
is_linear=0
shrinkage=0.05


Tree=6
num_leaves=31
num_cat=0
split_feature=6 4 9 6 8 8 9 10 10 9 8 10 8 9 10 8 10 6 0 0 8 8 9 6 8 9 6 1 0 1
split_gain=8803.89 2684.66 914.142 671.078 610.363 485.118 687.24 727.906 608.533 879.118 486.434 450.827 357.68 351.799 306.301 344.01 295.644 264.571 407.809 177.853 160.405 156.865 145.431 138.34 137.342 137.164 150.44 310.986 505.388 137.152
threshold=4.0000000000000009 -0.78656609248549292 0.025000000000019899 3.3050000000000002 0.40000000000000219 0.40000000000001995 0.20000000000000998 0.049999999999975848 0.35000000000000059 0.17499999999999008 0.15000000000001992 0.025000000000003911 0.35000000000001569 0.63749999999998874 0.099999999999980119 0.17500000000000251 0.48750000000001142 3.5750000000000006 16.500000000000004 15.500000000000002 0.69999999999999407 0.57500000000000051 0.050000000000007823 4.6550000000000011 0.24999999999998582 0.062500000000000014 2.4950000000000006 1.5000000000000002 7.5000000000000009 2.5000000000000004
decision_type=2 2 2 2 2 2 2 2 2 2 2 2 2 2 2 2 2 2 2 2 2 2 2 2 2 2 2 2 2 2
left_child=1 3 11 4 14 6 7 10 9 20 22 12 23 21 15 29 -6 18 -5 -4 -7 -11 -3 24 -2 -12 -27 28 -28 -1
right_child=2 5 19 17 16 8 -8 -9 -10 13 25 -13 -14 -15 -16 -17 -18 -19 -20 -21 -22 -23 -24 -25 -26 26 27 -29 -30 -31
leaf_value=0.0041180678684456639 0.044875460863113406 -0.00062799347986943084 0.003019304162201782 -0.00069758221507072455 0.017234534901319903 0.011917038112139289 -0.0039642343157350679 -0.0038418274552551729 -0.004116612787345166 0.00288214627893724 0.0036127438609642581 0.0011401476338505745 0.008888052403926849 -0.0014060136536945215 -0.0032424984327980039 0.0062152120468540462 -0.0024166654050350191 0.010145022990182044 0.037741597245136899 0.031400547921657564 0.023804383320079003 0.010428307732381428 -0.0035772170499516025 0.061499554663896561 0.066233062744140633 -0.00032783371625665894 -0.0011024265084415674 -0.0006659528839268855 0.051306304335594181 0.00090469292331826008
leaf_weight=53176 4140 267332 1380 920 11403 8060 285212 166483 33759 17494 89668 460 460 39604 17707 79875 2300 4600 2760 920 4380 11358 49548 3680 920 51879 920 3220 920 88422
leaf_count=53176 4140 267332 1380 920 11403 8060 285212 166483 33759 17494 89668 460 460 39604 17707 79875 2300 4600 2760 920 4380 11358 49548 3680 920 51879 920 3220 920 88422
internal_value=-1.9066e-11 -0.000395589 0.0427011 0.00413214 0.00367351 -0.0015438 -0.00192791 -0.00100599 0.00152216 0.00387529 1.26354e-05 0.0494462 0.0518615 0.00165334 0.00308555 0.00359149 0.0139362 0.0181391 0.0281318 0.0143718 0.0161025 0.0058528 -0.00108914 0.0541232 0.0487587 0.00239404 0.000474815 0.00870419 0.0251019 0.00211145
internal_weight=1.30296e+06 1.291e+06 11960 261163 252883 1.02984e+06 915182 629970 114655 80896 463487 9660 9200 68456 239180 221473 13703 8280 3680 2300 12440 28852 316880 8740 5060 146607 56939 5060 1840 141598
internal_count=1302960 1291000 11960 261163 252883 1029837 915182 629970 114655 80896 463487 9660 9200 68456 239180 221473 13703 8280 3680 2300 12440 28852 316880 8740 5060 146607 56939 5060 1840 141598
is_linear=0
shrinkage=0.05


Tree=7
num_leaves=31
num_cat=0
split_feature=6 4 9 6 10 10 9 10 6 2 6 4 4 5 2 9 2 6 5 1 5 1 4 6 6 6 1 2 9 6
split_gain=7945.51 2422.91 825.014 605.648 406.871 406.622 729.633 323.55 306.183 278.373 238.775 368.048 162.089 137.378 128.188 115.69 139.557 218.459 532.657 170.064 154.082 129.565 166.858 260.126 187.587 184.672 137.855 149.434 162.77 118.947
threshold=4.0000000000000009 -0.78656609248549292 0.025000000000019899 3.3050000000000002 0.025000000000003911 0.074999999999992198 0.11250000000001138 0.099999999999980119 4.1350000000000007 9.5000000000000018 3.5750000000000006 -0.9159756150367534 0.91597561503675362 0.37940952255126048 8.5000000000000018 0.025000000000019899 8.5000000000000018 2.6550000000000007 -0.12940952255126037 1.5000000000000002 -0.12940952255126037 4.5000000000000009 -0.98296291314453399 2.5150000000000001 2.0850000000000004 2.0650000000000004 1.0000000180025095e-35 7.5000000000000009 0.02499999999999503 1.7450000000000003
decision_type=2 2 2 2 2 2 2 2 2 2 2 2 2 2 2 2 2 2 2 2 2 2 2 2 2 2 2 2 2 2
left_child=1 3 4 7 8 6 9 13 14 -3 11 -5 -4 15 -2 16 17 21 19 -19 -18 22 23 26 25 -24 -1 28 29 -28
right_child=2 5 12 10 -6 -7 -8 -9 -10 -11 -12 -13 -14 -15 -16 -17 20 18 -20 -21 -22 -23 24 -25 -26 -27 27 -29 -30 -31
leaf_value=-0.0011094696956682247 0.04422269463539124 -0.00015965759474188986 0.024490924676259362 0.035854518661896394 0.0010831402614712715 -0.0033179753179579403 -0.0025250439800552915 -0.0024644564881787486 0.053829164803028108 0.0030079461537980568 0.0096377715375274425 -0.00066270316019654283 -0.00260335942148231 0.0015750446300977197 0.017828113958239557 0.0024066556790726524 0.0064007013676070758 0.023330186307430268 0.0074672211931707966 0.053731815516948701 0.0020383649293127903 0.002818016478848274 0.009434670115958714 0.030047949310392143 0.0016248316043235391 0.042038983106613165 0.018562481107608397 0.0061939256188608491 0.0071707267371423945 0.042792294919490818
leaf_weight=2313 920 333099 1380 2760 460 230269 378869 20927 7360 87600 4600 920 920 45836 920 44488 36612 920 5520 920 45272 19603 7774 1840 13097 460 1127 3887 1367 920
leaf_count=2313 920 333099 1380 2760 460 230269 378869 20927 7360 87600 4600 920 920 45836 920 44488 36612 920 5520 920 45272 19603 7774 1840 13097 460 1127 3887 1367 920
internal_value=-7.33309e-12 -0.000375809 0.0405661 0.00392553 0.0469739 -0.00146661 -0.000933437 0.00348984 0.0492684 0.000499916 0.0172322 0.0267252 0.0136532 0.00402703 0.0310254 0.00463089 0.00532954 0.00716694 0.0152332 0.038531 0.00398885 0.00603371 0.00795646 0.0128243 0.00534262 0.0112561 0.00952785 0.0128978 0.0205305 0.0294523
internal_weight=1.30296e+06 1.291e+06 11960 261163 9660 1.02984e+06 799568 252883 9200 420699 8280 3680 2300 231956 1840 186120 141632 59748 7360 1840 81884 52388 32785 11454 21331 8234 9614 7301 3414 2047
internal_count=1302960 1291000 11960 261163 9660 1029837 799568 252883 9200 420699 8280 3680 2300 231956 1840 186120 141632 59748 7360 1840 81884 52388 32785 11454 21331 8234 9614 7301 3414 2047
is_linear=0
shrinkage=0.05


Tree=8
num_leaves=31
num_cat=0
split_feature=6 4 9 6 8 8 9 0 8 8 0 6 6 0 8 0 8 7 6 0 7 6 6 8 8 1 8 6 1 8
split_gain=7170.82 2186.67 744.575 546.597 555.206 468.111 511.884 303.303 265.535 223.031 222.633 235.194 215.495 332.163 156.963 149.939 140.351 139.994 197.916 945.393 123.207 119.772 115.577 107.737 297.098 144.083 307.489 109.704 124.559 105.142
threshold=4.0000000000000009 -0.78656609248549292 0.025000000000019899 3.3050000000000002 0.40000000000000219 0.22500000000001566 0.099999999999980119 12.500000000000002 0.35000000000001569 0.22499999999998013 17.500000000000004 4.9850000000000012 3.5750000000000006 16.500000000000004 1.1625000000000052 15.500000000000002 0.91249999999998022 1.2350000000000001 2.4050000000000007 17.500000000000004 1.1150000000000004 4.1350000000000007 1.9150000000000003 0.17499999999996876 0.17499999999999008 2.5000000000000004 0.19999999999996024 2.9350000000000005 1.0000000180025095e-35 0.10000000000001565
decision_type=2 2 2 2 2 2 2 2 2 2 2 2 2 2 2 2 2 2 2 2 2 2 2 2 2 2 2 2 2 2
left_child=1 3 8 4 9 6 29 14 10 17 21 -12 13 -5 20 -4 -6 -1 19 -19 -7 -2 -11 27 -25 -26 -27 -20 -29 -3
right_child=2 5 15 12 16 7 -8 -9 -10 22 11 -13 -14 -15 -16 -17 -18 18 23 -21 -22 -23 -24 24 25 26 -28 28 -30 -31
leaf_value=0.0011271286699156471 0.026321172714233398 -0.0017187714747911643 0.0025469350977800789 -0.00062956791371107104 0.011526346672296501 -0.0012295609684521782 -0.0036467578504397408 0.0031618739289048289 0.0075522437691688538 0.0034782232844859685 0.041001310199499132 0.0010289832018315793 0.0091558828949928287 0.034061793237924576 0.012349492460489274 0.028605975210666656 0.029340863987029533 0.082370293140411388 0.0012684760584284491 -0.00039848652668297293 0.0030530893849002225 0.052730084104197363 0.0082524323254854325 0.047151371836662292 0.0033162811849186697 0.039724381268024446 0.0024066196754574777 0.025967908650636674 0.0053986237384378915 -0.00023028734082754709
leaf_weight=137081 460 244241 1380 920 12490 165064 295311 73522 460 27390 1840 460 4600 2760 2300 920 1213 460 32877 1380 18696 6440 23599 460 9033 920 1380 920 3680 230703
leaf_count=137081 460 244241 1380 920 12490 165064 295311 73522 460 27390 1840 460 4600 2760 2300 920 1213 460 32877 1380 18696 6440 23599 460 9033 920 1380 920 3680 230703
internal_value=3.97717e-11 -0.000357019 0.0385378 0.00372925 0.00331535 -0.00139328 -0.00201213 0.000443002 0.0446252 0.00275458 0.0464788 0.0330068 0.0163706 0.025389 -0.000631365 0.0129706 0.0131033 0.00195983 0.0041932 0.0202937 -0.000793838 0.0509695 0.00568785 0.00359193 0.00775996 0.00616108 0.0173337 0.00228036 0.00951248 -0.000995744
internal_weight=1.30296e+06 1.291e+06 11960 261163 252883 1.02984e+06 770255 259582 9660 239180 9200 2300 8280 3680 186060 2300 13703 188191 51110 1840 183760 6900 50989 49270 11793 11333 2300 37477 4600 474944
internal_count=1302960 1291000 11960 261163 252883 1029837 770255 259582 9660 239180 9200 2300 8280 3680 186060 2300 13703 188191 51110 1840 183760 6900 50989 49270 11793 11333 2300 37477 4600 474944
is_linear=0
shrinkage=0.05


Tree=9
num_leaves=31
num_cat=0
split_feature=6 0 8 6 9 8 9 8 7 8 8 5 6 1 7 8 6 0 8 6 6 9 0 6 6 2 8 6 8 1
split_gain=6471.66 1687.77 733.678 767.005 671.979 340.58 367.589 264.989 255.256 248.696 239.645 201.559 235.074 195.028 192.082 227.711 184.026 853.217 169.279 163.712 160.793 217.721 136.579 125.861 120.437 113.438 254.469 154.073 145.008 114.475
threshold=4.0000000000000009 14.500000000000002 0.20000000000000998 3.3050000000000002 0.025000000000019899 0.40000000000001995 0.22500000000000056 0.15000000000000394 1.2350000000000001 0.91249999999998022 0.35000000000001569 -0.12940952255126037 4.9850000000000012 1.5000000000000002 0.13500000000000004 0.44999999999996027 2.4050000000000007 17.500000000000004 0.16250000000002277 1.2150000000000001 0.96500000000000008 0.5875000000000058 14.500000000000002 2.6550000000000007 4.1350000000000007 8.5000000000000018 0.17499999999996876 2.9350000000000005 0.17499999999999008 2.5000000000000004
decision_type=2 2 2 2 2 2 2 2 2 2 2 2 2 2 2 2 2 2 2 2 2 2 2 2 2 2 2 2 2 2
left_child=1 5 3 8 10 6 18 -5 -3 14 11 24 -13 -9 -4 -16 17 -10 -1 -20 -7 -22 -6 -17 -2 26 27 -18 -28 -29
right_child=4 2 9 7 22 20 -8 13 16 -11 -12 12 -14 -15 15 23 25 -19 19 -21 21 -23 -24 -25 -26 -27 28 29 -30 -31
leaf_value=-0.0019335000401691613 0.025005114078521729 -3.3457810720216486e-05 -0.00017393918190956078 0.0082071847748011358 -0.0026005382300354541 -0.0011610218709009283 -0.0035591564296978892 0.038504535704851156 0.078251779079437256 0.027873820825637319 0.0071746319532394413 0.039584639171759292 0.00097753405570983882 0.01363901055107514 0.0049243753616182578 0.010221952748535879 0.0017352132760301395 -0.0003785621995727221 -0.0026444336442888092 0.0010900497421220052 0.0056192527895159864 -0.00077817436768764679 0.022270397593577705 0.027357170139921123 0.051633938650290173 0.0010161221209758272 0.044793805480003362 0.019638418853282932 0.014471599315099108 -0.0012302991468459369
leaf_weight=288190 460 295469 15014 3680 920 46445 271102 1840 460 1213 460 2760 460 1380 91570 14070 16777 1380 39586 113457 30707 23460 1380 1160 5520 27600 460 2300 2760 920
leaf_count=288190 460 295469 15014 3680 920 46445 271102 1840 460 1213 460 2760 460 1380 91570 14070 16777 1380 39586 113457 30707 23460 1380 1160 5520 27600 460 2300 2760 920
internal_value=-2.1756e-11 -0.000339168 0.00201836 0.000865289 0.0366109 -0.00172551 -0.00211013 0.0173728 0.000538103 0.00534583 0.0423939 0.0441549 0.0340693 0.0278479 0.0051215 0.00586594 0.00374524 0.019279 -0.00121982 0.000124091 0.000997602 0.00284849 0.012322 0.0115271 0.0495856 0.00318279 0.00575849 0.00365796 0.0188033 0.0136759
internal_weight=1.30296e+06 1.291e+06 478053 355026 11960 812947 712335 6900 348126 123027 9660 9200 3220 3220 121814 106800 52657 1840 441233 153043 100612 54167 2300 15230 5980 50817 23217 19997 3220 3220
internal_count=1302960 1291000 478053 355026 11960 812947 712335 6900 348126 123027 9660 9200 3220 3220 121814 106800 52657 1840 441233 153043 100612 54167 2300 15230 5980 50817 23217 19997 3220 3220
is_linear=0
shrinkage=0.05


Tree=10
num_leaves=31
num_cat=0
split_feature=6 4 9 6 8 10 8 9 9 8 10 10 8 8 8 10 9 6 0 4 8 9 2 6 6 8 0 6 0 0
split_gain=5840.68 1811.5 606.461 443.75 464.742 390.946 623.357 634.583 618.375 564.025 299.088 294.145 243.069 224.713 215.088 185.775 180.775 173.697 283.285 156.34 159.693 250.976 157.457 235.22 141.052 136.771 126.409 105.734 105.009 98.6156
threshold=4.0000000000000009 -0.78656609248549292 0.025000000000019899 3.3050000000000002 0.29999999999996879 0.074999999999992198 0.22500000000001566 0.087500000000005698 0.59999999999999998 0.57500000000000207 0.025000000000003911 0.22499999999999878 0.35000000000001569 0.11250000000001138 0.51249999999998874 0.099999999999980119 0.10000000000001565 3.5750000000000006 16.500000000000004 -0.9159756150367534 0.17500000000000251 0.10000000000000499 8.5000000000000018 2.7750000000000004 1.9150000000000003 1.3124999999999789 15.500000000000002 4.4600000000000009 16.500000000000004 5.5000000000000009
decision_type=2 2 2 2 2 2 2 2 2 2 2 2 2 2 2 2 2 2 2 2 2 2 2 2 2 2 2 2 2 2
left_child=1 3 10 4 15 6 7 13 9 16 12 14 27 -3 -6 19 -8 18 -5 20 21 -1 23 24 -22 -7 -4 28 -2 -29
right_child=2 5 26 17 11 25 8 -9 -10 -11 -12 -13 -14 -15 -16 -17 -18 -19 -20 -21 22 -23 -24 -25 -26 -27 -28 29 -30 -31
leaf_value=0.0023342979829666529 0.059022772312164309 -0.0010577134021382039 0.0021350998450846721 -0.0011442444752901794 0.0088401549822495346 -0.0031578989683371875 0.0058247060273321086 -0.0032663645846115873 -0.0020808244485294872 0.015734315230777781 0.00092865740880370144 -0.0013071285061804312 0.0068158999085426338 0.001507262682673664 0.021676079721219568 -0.0033085420657142915 0.0013673010171370294 0.0083098124619573367 0.030893167232473692 0.00078661018706915799 0.0025597871527251459 0.039361289143562322 0.0036896281961563216 0.045643281936645512 0.01299305437087098 0.016159204393625261 0.026062156260013583 0.026141202449798586 0.033219304184118913 0.050321311300451116
leaf_weight=89684 460 223125 1380 920 25029 229349 37686 274067 59188 9797 460 6440 460 138325 3753 14487 57380 4600 2760 77550 5004 460 20829 460 9187 920 920 460 2760 5060
leaf_count=89684 460 223125 1380 920 25029 229349 37686 274067 59188 9797 460 6440 460 138325 3753 14487 57380 4600 2760 77550 5004 460 20829 460 9187 920 920 460 2760 5060
internal_value=-4.51377e-12 -0.00032221 0.0347803 0.00339704 0.0030241 -0.0012654 -0.000742599 -0.00145191 0.0020052 0.00431148 0.0402742 0.00835253 0.0422415 -7.61106e-05 0.0105139 0.00216185 0.0031343 0.0147871 0.0228838 0.0025519 0.00364165 0.00252324 0.00648319 0.0104547 0.0093141 -0.00308072 0.0117059 0.044106 0.0369055 0.0483063
internal_weight=1.30296e+06 1.291e+06 11960 261163 252883 1.02984e+06 799568 635517 164051 104863 9660 35222 9200 361450 28782 217661 95066 8280 3680 203174 125624 90144 35480 14651 14191 230269 2300 8740 3220 5520
internal_count=1302960 1291000 11960 261163 252883 1029837 799568 635517 164051 104863 9660 35222 9200 361450 28782 217661 95066 8280 3680 203174 125624 90144 35480 14651 14191 230269 2300 8740 3220 5520
is_linear=0
shrinkage=0.05


Tree=11
num_leaves=31
num_cat=0
split_feature=6 4 10 6 8 8 10 0 10 6 2 5 10 8 8 6 10 6 0 4 8 1 8 2 6 0 1 1 6 6
split_gain=5271.21 1634.88 414.393 400.484 419.783 373.944 516.289 391.933 329.128 303.514 285.113 275.59 258.157 200.379 194.593 180.938 177.003 157.295 229.549 142.416 144.48 152.731 185.325 395.082 415.828 392.904 599.376 385.563 259.284 174.654
threshold=4.0000000000000009 -0.78656609248549292 0.025000000000003911 3.3050000000000002 0.27500000000006258 0.40000000000001995 0.33750000000000574 13.500000000000002 0.049999999999975848 4.6550000000000011 9.5000000000000018 0.37940952255126048 0.22499999999999878 0.44999999999996027 0.20000000000003129 4.6350000000000007 0.099999999999980119 3.5950000000000002 16.500000000000004 -0.9159756150367534 0.17500000000000251 2.5000000000000004 0.11250000000001138 7.5000000000000009 1.3650000000000004 17.500000000000004 1.5000000000000002 1.5000000000000002 2.4850000000000008 2.9350000000000005
decision_type=2 2 2 2 2 2 2 2 2 2 2 2 2 2 2 2 2 2 2 2 2 2 2 2 2 2 2 2 2 2
left_child=1 3 9 4 16 8 7 -7 10 15 11 14 13 -6 -3 -2 19 18 -5 20 21 22 23 24 -1 26 -25 -26 -29 -24
right_child=2 5 -4 17 12 6 -8 -9 -10 -11 -12 -13 -14 -15 -16 -17 -18 -19 -20 -21 -22 -23 29 25 27 -27 -28 28 -30 -31
leaf_value=0.051617541909217836 0.032381887254970418 -0.0031396116919236066 0.0072713350566724943 -0.0010870322119444608 0.0072815258759962795 0.0022462401148439226 -0.0035575282270065311 0.01208068344595449 -0.0033217721849095813 0.04799885228276253 0.001163017178178053 -0.0003120796324433576 -0.0012417720597503441 0.01645044565369683 -0.00018432045178097396 -7.726633339188993e-05 -0.0033941575595626511 0.0071563158184289937 0.027232489415577484 0.00072620010625218953 0.0061813985200482894 0.00082724363395753921 0.00022434769259569679 -0.0055261511355638509 -0.0021494573913514617 -0.0010296238287496582 0.074222475290298462 0.041055602828661608 -0.0022903533652424814 0.012896373655114854
leaf_weight=920 6440 249381 1380 920 21759 67599 35139 11917 201866 3680 122255 269959 6440 8206 71721 460 14027 4140 3220 77287 35020 56988 17480 483 1840 6913 460 1380 460 3220
leaf_count=920 6440 249381 1380 920 21759 67599 35139 11917 201866 3680 122255 269959 6440 8206 71721 460 14027 4140 3220 77287 35020 56988 17480 483 1840 6913 460 1380 460 3220
internal_value=2.06119e-12 -0.000306099 0.0330413 0.00322718 0.00287289 -0.00120213 0.0014897 0.00372012 -0.00153936 0.0364026 -0.00103495 -0.00148957 0.00784052 0.00979246 -0.00247952 0.0302179 0.00203749 0.0140478 0.0209393 0.00241382 0.00345591 0.00239708 0.0050953 0.00991424 0.0215514 0.00310023 0.0333756 0.0140348 0.0302191 0.00219555
internal_weight=1.30296e+06 1.291e+06 11960 261163 252883 1.02984e+06 114655 79516 915182 10580 713316 591061 36405 29965 321102 6900 216478 8280 4140 202451 125164 90144 33156 12456 4600 7856 943 3680 1840 20700
internal_count=1302960 1291000 11960 261163 252883 1029837 114655 79516 915182 10580 713316 591061 36405 29965 321102 6900 216478 8280 4140 202451 125164 90144 33156 12456 4600 7856 943 3680 1840 20700
is_linear=0
shrinkage=0.05


Tree=12
num_leaves=31
num_cat=0
split_feature=6 4 9 6 8 8 10 9 9 10 8 8 10 8 10 8 10 6 0 8 9 8 6 0 0 9 8 9 6 8
split_gain=4757.27 1475.48 505.238 361.437 379.598 337.485 465.951 663.977 428.161 494.989 348.001 333.905 248.791 215.316 208.919 177.922 169.025 144.567 232.429 143.948 118.293 121.773 125.721 268.978 110.778 98.2981 95.3688 91.717 129.299 283.15
threshold=4.0000000000000009 -0.78656609248549292 0.025000000000019899 3.3050000000000002 0.32499999999996027 0.40000000000001995 0.33750000000000574 0.54999999999999016 0.22500000000000056 0.049999999999975848 0.15000000000006256 0.69999999999999407 0.025000000000003911 0.35000000000001569 0.22499999999999878 0.76249999999998874 0.099999999999980119 3.5750000000000006 16.500000000000004 0.17500000000000251 0.037499999999994323 0.099999999999937486 0.85500000000000009 22.500000000000004 15.500000000000002 0.099999999999980119 0.062500000000000014 0.062500000000000014 2.4950000000000006 0.17500000000000784
decision_type=2 2 2 2 2 2 2 2 2 2 2 2 2 2 2 2 2 2 2 2 2 2 2 2 2 2 2 2 2 2
left_child=1 3 12 4 16 8 7 11 9 10 20 25 13 -2 15 -6 19 18 -5 26 21 -3 23 -23 -4 -7 -1 -12 -29 -30
right_child=2 5 24 17 14 6 -8 -9 -10 -11 27 -13 -14 -15 -16 -17 -18 -19 -20 -21 -22 22 -24 -25 -26 -27 -28 28 29 -31
leaf_value=-0.0053697329186575965 0.039952838420867921 -0.0012630863405267523 0.0013687455755037568 -0.0010326805990189315 0.0090349329092423141 0.011637068105240664 -0.0033796517647138747 -0.00057101786346967505 -0.003127338793510911 -0.0030942668620519615 0.0032923516813836541 0.01670207982297919 0.00051865773275494576 0.0048560108989477158 -0.00075997590708235907 0.028679889482303978 -0.0030326075162930791 0.0074361255811527379 0.027986883620421094 0.0043236031371547161 -0.0026777797157960053 0.00026317377341911197 0.00069231882229876167 0.047090011835098269 0.023767717927694321 0.0041238880459417045 0.0017415878799104307 -8.0347746264615623e-05 0.045695760846138002 0.0045527889160439372
leaf_weight=4883 8740 153286 1380 920 23136 5520 35139 43998 271562 167863 79548 9397 460 460 5520 1213 15407 4600 2760 66009 66902 920 117702 460 920 20601 136715 51879 460 4600
leaf_count=4883 8740 153286 1380 920 23136 5520 35139 43998 271562 167863 79548 9397 460 460 5520 1213 15407 4600 2760 66009 66902 920 117702 460 920 20601 136715 51879 460 4600
internal_value=2.06461e-11 -0.000290794 0.0313892 0.00306582 0.00272925 -0.00114202 0.00141521 0.00353411 -0.00146239 -0.000759905 6.37365e-05 0.00861936 0.0364037 0.038198 0.00802256 0.0100136 0.0020203 0.0133454 0.020732 0.00239528 -0.000793974 -0.000331253 0.000868232 0.0158721 0.0103283 0.0057116 0.00149635 0.00219577 0.000663772 0.00829306
internal_weight=1.30296e+06 1.291e+06 11960 261163 252883 1.02984e+06 114655 79516 915182 643620 475757 35518 9660 9200 29869 24349 223014 8280 3680 207607 339270 272368 119082 1380 2300 26121 141598 136487 56939 5060
internal_count=1302960 1291000 11960 261163 252883 1029837 114655 79516 915182 643620 475757 35518 9660 9200 29869 24349 223014 8280 3680 207607 339270 272368 119082 1380 2300 26121 141598 136487 56939 5060
is_linear=0
shrinkage=0.05


Tree=13
num_leaves=31
num_cat=0
split_feature=6 4 8 6 10 10 8 10 6 8 4 10 5 0 8 8 8 1 8 6 7 6 0 8 1 8 0 6 0 6
split_gain=4293.43 1332.87 411.919 421.928 409.366 339.916 264.661 334.098 260.211 252.48 242.872 219.892 232.821 199.317 183.423 166.549 161.422 218.433 136.448 147.996 120.763 108.392 701.707 149.443 376.813 232.932 102.695 101.264 100.19 96.3553
threshold=4.0000000000000009 -0.60355339059327362 0.27500000000001995 3.3050000000000002 0.2375000000000114 0.025000000000003911 0.45000000000001 0.33750000000000574 4.6550000000000011 0.44999999999996027 -0.9159756150367534 0.049999999999975848 0.25881904510252057 13.500000000000002 0.15000000000001992 0.16250000000002277 0.15000000000001992 1.5000000000000002 0.11250000000001138 3.5750000000000006 1.2350000000000001 2.4050000000000007 17.500000000000004 0.17499999999996876 5.5000000000000009 0.17499999999999008 6.5000000000000009 2.6350000000000002 16.500000000000004 2.4950000000000006
decision_type=2 2 2 2 2 2 2 2 2 2 2 2 2 2 2 2 2 2 2 2 2 2 2 2 2 2 2 2 2 2
left_child=1 2 3 10 9 8 11 13 16 -4 20 12 15 26 -14 -3 -2 -18 -5 28 -1 22 -22 -23 25 -25 -8 -11 -20 -17
right_child=5 6 4 18 -6 -7 7 -9 -10 27 -12 -13 14 -15 -16 29 17 -19 19 -21 21 23 -24 24 -26 -27 -28 -29 -30 -31
leaf_value=0.0018203522111869261 0.037952944040298468 -0.0031832525113265524 0.0060319209383842762 -0.0054763168096542362 -0.0026090648674790967 0.0064801833592355255 0.011009193454300112 -0.0031249288626446913 0.043601267412304884 0.012634127503850394 7.1040476072384259e-06 -0.0030303746794874352 -0.00065781249880281949 0.01482340106740594 0.0026425127567850314 -0.0012942301249621781 0.010834302036091686 0.032625468373298647 0.0013831579126417637 0.0086945081524188728 0.070424276590347293 0.0026157292972069967 -0.00088375819226106016 0.042339101433753967 0.053724032640457157 0.0059802274814213033 0.0022022410129959222 0.0260890359311928 0.026587539414564772 0.0031229241124900251
leaf_weight=88794 2300 160477 35102 920 10863 1380 3547 27733 3680 10223 172614 195556 251452 3680 50566 165711 2300 2300 460 4140 460 28737 1380 460 460 10393 49552 1620 2760 13340
leaf_count=88794 2300 160477 35102 920 10863 1380 3547 27733 3680 10223 172614 195556 251452 3680 50566 165711 2300 2300 460 4140 460 28737 1380 460 460 10393 49552 1620 2760 13340
internal_value=-5.06971e-12 -0.000276255 0.00226142 0.00154222 0.00613779 0.0298198 -0.00129336 0.00137331 0.0328641 0.00816179 0.00123821 -0.00156258 -0.00111517 0.00357043 -0.000105249 -0.00201352 0.0271376 0.0217299 0.0126781 0.0149474 0.00286433 0.00507723 0.0169433 0.00453208 0.00939994 0.00752128 0.00279054 0.0144746 0.0229869 -0.000965135
internal_weight=1.30296e+06 1.291e+06 369386 311578 57808 11960 921614 84512 10580 46945 303298 837102 641546 56779 302018 339528 6900 4600 8280 7360 130684 41890 1840 40050 11313 10853 53099 11843 3220 179051
internal_count=1302960 1291000 369386 311578 57808 11960 921614 84512 10580 46945 303298 837102 641546 56779 302018 339528 6900 4600 8280 7360 130684 41890 1840 40050 11313 10853 53099 11843 3220 179051
is_linear=0
shrinkage=0.05


Tree=14
num_leaves=31
num_cat=0
split_feature=7 4 9 8 7 8 10 9 8 9 10 10 10 8 10 8 8 9 8 8 7 4 9 1 2 9 8 7 8 2
split_gain=3874.82 1206.97 419.436 295.347 320.189 286.199 415.768 504.682 510.987 309.915 304.675 206.953 180.541 179.734 176.883 193.06 172.517 145.826 129.061 123.144 133.566 98.9556 194.462 142.211 130.952 124.965 197.502 217.898 350.911 390.971
threshold=2.5150000000000001 -0.78656609248549292 0.025000000000019899 0.40000000000000219 1.9600000000000002 0.22500000000001566 0.10000000000000499 0.59999999999999998 0.70000000000000118 0.074999999999997527 0.049999999999975848 0.025000000000003911 0.48750000000001142 0.35000000000001569 0.099999999999980119 0.24999999999998582 0.099999999999937486 0.10000000000001565 0.35000000000001569 0.11250000000001138 2.1750000000000003 -0.9159756150367534 0.10000000000000499 4.5000000000000009 8.5000000000000018 0.02499999999999503 0.15000000000001992 0.75500000000000012 0.11250000000001138 7.5000000000000009
decision_type=2 2 2 2 2 2 2 2 2 2 2 2 2 2 2 2 2 2 2 2 2 2 2 2 2 2 2 2 2 2
left_child=1 3 11 4 14 9 7 8 17 10 16 13 -5 -2 15 21 -3 -7 -19 -6 -21 22 23 24 25 26 27 28 29 -1
right_child=2 5 -4 12 19 6 -8 -9 -10 -11 -12 -13 -14 -15 -16 -17 -18 18 -20 20 -22 -23 -24 -25 -26 -27 -28 -29 -30 -31
leaf_value=0.035285815410315995 0.036137445427869501 -0.0011864113943574929 0.0091393732279539102 0.012496336691991693 -0.005202501080930233 0.0053161146235931765 -0.0024425985817569836 -0.0017681224656356355 0.016778086549511143 -0.002737894259117708 -0.0029121503940234507 0.00016871569678187371 -0.0028601682931184771 0.0040714949369430545 -0.0027656965468739673 0.0060106540616564506 0.0010634207618235728 -0.00059388159114066484 0.0039247111687664331 0.021837567857333595 0.0082597826943836272 0.000363531545648512 0.035162347555160525 -8.7824890167888638e-05 0.001590712861891855 0.0023885701564719444 0.015411808319290036 0.0020425925238877112 -0.0021705167073761892 -0.0032808816060423854
leaf_weight=2300 8740 154666 2300 11403 920 39986 85871 62868 7140 310114 115747 460 2300 460 17707 32139 189728 34699 29018 3220 4140 72207 460 34813 38223 17884 6440 14030 2057 920
leaf_count=2300 8740 154666 2300 11403 920 39986 85871 62868 7140 310114 115747 460 2300 460 17707 32139 189728 34699 29018 3220 4140 72207 460 34813 38223 17884 6440 14030 2057 920
internal_value=-7.84281e-12 -0.000262442 0.0283288 0.00277343 0.00237776 -0.00103233 0.000403492 0.00181041 0.00384008 -0.00151621 -0.000692852 0.0328977 0.0099188 0.0345341 0.00204312 0.00242759 5.30299e-05 0.00294929 0.00146398 0.0120442 0.0142001 0.00181938 0.00271688 0.00258895 0.0037274 0.00559925 0.00782941 0.00530024 0.0139614 0.0242668
internal_weight=1.30296e+06 1.291e+06 11960 261163 247460 1.02984e+06 259582 173711 110843 770255 460141 9660 13703 9200 239180 221473 344394 103703 63717 8280 7360 189334 117127 116667 81854 43631 25747 19307 5277 3220
internal_count=1302960 1291000 11960 261163 247460 1029837 259582 173711 110843 770255 460141 9660 13703 9200 239180 221473 344394 103703 63717 8280 7360 189334 117127 116667 81854 43631 25747 19307 5277 3220
is_linear=0
shrinkage=0.05


Tree=15
num_leaves=31
num_cat=0
split_feature=6 4 8 6 10 10 8 10 8 6 4 4 10 5 8 2 8 1 8 6 7 6 4 2 8 1 8 1 6 8
split_gain=3497.03 1090.39 340.917 343.677 341.045 276.854 225.279 284.449 224.575 223.66 198.741 183.255 180.933 193.265 155.242 141.704 135.192 186.047 111.138 120.543 108.553 99.0164 633.016 154.739 205.295 239.003 147.617 98.2762 91.7093 90.936
threshold=4.0000000000000009 -0.60355339059327362 0.27500000000001995 3.3050000000000002 0.2375000000000114 0.025000000000003911 0.45000000000001 0.36250000000000077 0.72500000000000864 4.6550000000000011 -0.9159756150367534 -0.25881904510252113 0.049999999999975848 0.25881904510252057 0.15000000000001992 9.5000000000000018 0.15000000000001992 1.5000000000000002 0.11250000000001138 3.5750000000000006 1.2350000000000001 2.4050000000000007 -0.98296291314453399 8.5000000000000018 0.17499999999996876 5.5000000000000009 0.17499999999999008 1.0000000180025095e-35 3.5550000000000002 0.42500000000000787
decision_type=2 2 2 2 2 2 2 2 2 2 2 2 2 2 2 2 2 2 2 2 2 2 2 2 2 2 2 2 2 2
left_child=1 2 3 10 8 9 12 11 29 16 20 -8 13 15 -15 -3 -2 -18 -5 28 -1 22 -22 24 27 26 -26 -23 -20 -4
right_child=5 6 4 18 -6 -7 7 -9 -10 -11 -12 -13 -14 14 -16 -17 17 -19 19 -21 21 23 -24 -25 25 -27 -28 -29 -30 -31
leaf_value=0.0015984725057767151 0.034248424768447881 -0.0023773433539634437 0.0053487333518557958 -0.0049423759803175933 -0.0024112163774372875 0.0058487167077449463 0.013381885323259566 -0.0030182765139451255 0.021722315667312763 0.039614332467317583 3.6290290203306183e-06 0.00246665234134439 -0.0027490822852602108 -0.00060001267191317638 0.0024362111163787311 7.7016693547270635e-05 0.0093463354557752603 0.029457303285598757 0.01730081601611649 0.0078467938014202664 -0.00090442793443799028 0.015351423341780902 0.066823524236679074 0.0010617007080254519 0.03945155739784241 0.050737297534942633 0.0094090816797688607 0.0030367879203115474 0.041414925456047059 0.010734348765546008
leaf_weight=88794 2300 263851 34182 920 10863 1380 4140 26353 2593 3680 172614 54019 195556 251452 50566 75677 2300 2300 2760 4140 1380 1840 460 20053 460 460 3680 13557 460 10170
leaf_count=88794 2300 263851 34182 920 10863 1380 4140 26353 2593 3680 172614 54019 195556 251452 50566 75677 2300 2300 2760 4140 1380 1840 460 20053 460 460 3680 13557 460 10170
internal_value=1.26343e-11 -0.00024932 0.00204594 0.00139166 0.00557244 0.0269124 -0.00116927 0.00129102 0.00741985 0.0296598 0.00111729 0.00324364 -0.00141765 -0.00101181 -9.16665e-05 -0.00183029 0.0243507 0.0194018 0.011442 0.0134901 0.00258826 0.00468631 0.0160276 0.00416527 0.00727752 0.0165462 0.0127471 0.00450843 0.0207457 0.00658367
internal_weight=1.30296e+06 1.291e+06 369386 311578 57808 11960 921614 84512 46945 10580 303298 58159 837102 641546 302018 339528 6900 4600 8280 7360 130684 41890 1840 40050 19997 4600 4140 15397 3220 44352
internal_count=1302960 1291000 369386 311578 57808 11960 921614 84512 46945 10580 303298 58159 837102 641546 302018 339528 6900 4600 8280 7360 130684 41890 1840 40050 19997 4600 4140 15397 3220 44352
is_linear=0
shrinkage=0.05


Tree=16
num_leaves=31
num_cat=0
split_feature=6 4 10 8 6 8 10 6 8 10 0 5 10 10 8 0 0 8 1 0 8 0 6 8 5 5 6 8 6 0
split_gain=3156.07 989.484 249.861 246.737 258.059 245.811 363.464 201.853 197.987 180.433 169.203 166.168 208.135 159.877 182.344 151.949 128.435 122.011 167.908 121.149 118.435 100.759 175.407 99.1279 87.9916 87.7173 84.7182 83.9928 83.5667 270.898
threshold=4.0000000000000009 -0.78656609248549292 0.025000000000003911 0.44999999999996027 3.3050000000000002 0.20000000000003129 0.10000000000000499 4.6550000000000011 0.57500000000000051 0.48750000000001142 11.500000000000002 0.37940952255126048 0.049999999999975848 0.099999999999980119 0.17500000000000251 13.500000000000002 5.5000000000000009 0.15000000000001992 1.5000000000000002 6.5000000000000009 0.099999999999937486 16.500000000000004 3.5750000000000006 1.1625000000000052 -0.37940952255126015 -0.12940952255126037 2.6350000000000002 0.062500000000000014 0.85500000000000009 22.500000000000004
decision_type=2 2 2 2 2 2 2 2 2 2 2 2 2 2 2 2 2 2 2 2 2 2 2 2 2 2 2 2 2 2
left_child=1 3 7 4 13 11 8 17 15 26 19 -3 20 14 27 16 -7 -2 -19 -10 -13 -6 -23 -21 -20 -4 -5 -1 29 -22
right_child=2 5 25 9 21 6 -8 -9 10 -11 -12 12 -14 -15 -16 -17 -18 18 24 23 28 22 -24 -25 -26 -27 -28 -29 -30 -31
leaf_value=-0.0052714328638814086 0.032536003589630123 -0.0022379209667364327 0.023383681476116181 0.010786474918459682 -0.0014634689937035243 0.0048093017065343295 -0.0022570039148201667 0.037633613497018818 0.020263519883155823 -0.0025965992361307146 0.010390971821074782 -0.0010308390383605046 -0.0026960114182799939 -0.0026178669792699893 0.0041332935237285385 0.003431707726537548 -0.0005533088091399475 0.0088790186494588849 0.047543886303901675 0.00070116087085860164 0.0018460644409060479 0.023100292248030507 0.0068274509148775701 0.014606982469558716 0.023094575479626657 -0.0033574200002476576 0.023467047788478711 0.0014022883552908825 0.00081773525117830211 0.044745230674743654
leaf_weight=4883 2300 338281 460 7046 1380 12363 95387 3680 920 2300 10360 152366 100368 18167 82152 42053 115256 2300 460 17968 1840 2760 4140 1380 1840 920 1620 136715 140835 460
leaf_count=4883 2300 338281 460 7046 1380 12363 95387 3680 920 2300 10360 152366 100368 18167 82152 42053 115256 2300 460 17968 1840 2760 4140 1380 1840 920 1620 136715 140835 460
internal_value=-1.88033e-12 -0.000236854 0.0255667 0.00251192 0.00219018 -0.000933934 0.000283269 0.0281768 0.001493 0.00985281 0.00519293 -0.00142418 -0.000728809 0.0018931 0.00225936 0.000825115 -3.38097e-05 0.0231332 0.0184317 0.00253594 -6.06411e-05 0.0108699 0.0133366 0.001693 0.0279844 0.00555628 0.0131569 0.00117215 0.000972126 0.0104259
internal_weight=1.30296e+06 1.291e+06 11960 261163 250197 1.02984e+06 295687 10580 200300 10966 30628 734150 395869 241917 223750 169672 127619 6900 4600 20268 295501 8280 6900 19348 2300 1380 8666 141598 143135 2300
internal_count=1302960 1291000 11960 261163 250197 1029837 295687 10580 200300 10966 30628 734150 395869 241917 223750 169672 127619 6900 4600 20268 295501 8280 6900 19348 2300 1380 8666 141598 143135 2300
is_linear=0
shrinkage=0.05


Tree=17
num_leaves=31
num_cat=0
split_feature=6 4 8 0 6 0 8 8 5 6 8 6 2 1 8 2 6 1 0 1 6 6 8 0 2 6 8 8 6 7
split_gain=2848.35 901.002 315.815 275.303 250.99 208.886 188.898 165.184 160.653 158.305 132.391 127.212 225.822 117.209 152.787 335.532 356.895 325.855 288.178 450.122 216.737 154.419 114.174 103.359 97.3411 94.572 91.7621 91.3833 157.913 101.629
threshold=4.0000000000000009 -0.9159756150367534 0.20000000000003129 13.500000000000002 3.3050000000000002 15.500000000000002 0.24999999999998582 0.17500000000000251 0.37940952255126048 3.5750000000000006 0.30000000000000787 1.9150000000000003 8.5000000000000018 2.5000000000000004 0.11250000000001138 7.5000000000000009 1.3650000000000004 1.5000000000000002 17.500000000000004 1.5000000000000002 2.4850000000000008 2.9350000000000005 1.1625000000000052 17.500000000000004 8.5000000000000018 4.9850000000000012 0.72500000000000864 0.33749999999997732 2.6350000000000002 0.20500000000000004
decision_type=2 2 2 2 2 2 2 2 2 2 2 2 2 2 2 2 2 2 2 2 2 2 2 2 2 2 2 2 2 2
left_child=1 4 8 22 7 6 -2 13 -3 -6 23 26 -13 14 15 16 -1 -18 19 -17 -19 -16 -4 -7 -23 -25 -9 -5 29 -29
right_child=5 2 3 27 9 10 -8 11 -10 -11 -12 12 -14 -15 21 18 17 20 -20 -21 -22 24 -24 25 -26 -27 -28 28 -30 -31
leaf_value=0.046944236755371099 0.0035817861091345551 -0.0020261689738795201 -0.00047698630028387978 0.0014796533648069163 0.021945277601480486 0.032661238632031846 0.039404651522636419 0.00144287418338984 -0.000606793872211857 0.0064860783931281838 0.0094711922109127055 0.011895237630901391 0.0033413988357882899 0.00027114044944611673 -0.00042365946006985049 -0.0056974072009325031 -0.0027520471718162302 0.036912455161412554 -0.0014507426604527254 0.063412231206893918 -0.0027177851647138596 0.016966111212968826 0.010719157308340074 0.025382766872644427 -0.0022775694727897645 3.571507113520056e-05 0.012292578168810672 -0.000112158550819363 0.022726675534042822 0.0055079162201401655
leaf_weight=920 1840 363548 228062 57929 2760 6440 460 22567 441416 4140 920 14007 17179 58828 17940 483 1840 1380 6913 460 460 2300 2300 1840 920 460 2133 10936 1160 30419
leaf_count=920 1840 363548 228062 57929 2760 6440 460 22567 441416 4140 920 14007 17179 58828 17940 483 1840 1380 6913 460 460 2300 2300 1840 920 460 2133 10936 1160 30419
internal_value=6.21932e-13 -0.000225011 -0.00071334 0.000587257 0.00334794 0.0242884 0.0107464 0.00291431 -0.00124783 0.0126698 0.0275127 0.0050603 0.0071833 0.00161697 0.00397219 0.00836567 0.01909 0.0121264 0.00208615 0.0280146 0.0270049 0.00138593 -0.000365201 0.0294118 0.0114679 0.0203134 0.00237981 0.00277166 0.00453209 0.00402173
internal_weight=1.30296e+06 1.291e+06 1.13577e+06 330806 155230 11960 2300 148330 804964 6900 9660 55886 31186 92444 33616 12456 4600 3680 7856 943 1840 21160 230362 8740 3220 2300 24700 100444 42515 41355
internal_count=1302960 1291000 1135770 330806 155230 11960 2300 148330 804964 6900 9660 55886 31186 92444 33616 12456 4600 3680 7856 943 1840 21160 230362 8740 3220 2300 24700 100444 42515 41355
is_linear=0
shrinkage=0.05


Tree=18
num_leaves=31
num_cat=0
split_feature=6 4 9 8 6 6 8 9 6 8 6 8 6 4 9 9 8 8 1 1 9 0 0 0 8 6 8 6 6 8
split_gain=2570.64 821.555 296.266 262.71 259.866 324.698 179.548 241.663 141.538 115.314 105.728 104.121 109.407 103.588 117.751 198.132 209.592 167.145 177.759 126.196 101.115 675.189 96.6112 95.8095 90.0283 88.4719 88.3332 106.875 87.4103 85.4839
threshold=4.0000000000000009 -0.60355339059327362 0.025000000000019899 0.27500000000001995 2.7050000000000005 2.7150000000000003 0.45000000000003132 0.22500000000000056 2.0150000000000001 0.35000000000001569 3.3050000000000002 0.15000000000001992 2.3150000000000004 -0.98296291314453399 0.024999999999984372 0.02499999999999503 0.11250000000001138 0.099999999999980119 3.5000000000000004 5.5000000000000009 0.15000000000001992 7.5000000000000009 11.500000000000002 17.500000000000004 0.11250000000001138 1.7550000000000001 0.19999999999996024 3.9300000000000002 2.6450000000000005 0.13749999999998866
decision_type=2 2 2 2 2 2 2 2 2 2 2 2 2 2 2 2 2 2 2 2 2 2 2 2 2 2 2 2 2 2
left_child=1 3 9 4 13 -6 7 11 -5 23 -7 -3 -13 14 29 16 -16 18 -17 -18 -14 -22 28 -2 -12 -24 27 -26 -8 -1
right_child=2 6 -4 8 5 10 22 -9 -10 -11 24 12 20 -15 15 17 19 -19 -20 -21 21 -23 25 -25 26 -27 -28 -29 -30 -31
leaf_value=-0.0011768786648561369 0.031081335047880812 -0.0011291007229252837 0.0069463637471199038 0.0032572197361204649 0.047399008274078371 0.0030907081163838905 -0.00023411822911556846 -0.0024085023302855089 0.0086595955333166885 0.0024830929934978488 -0.0049408542923629287 -0.00017249742883698396 0.002036123652959995 0.00035063325008851228 0.039277927577495576 0.044116556644439697 -0.0022233025170862674 -0.00067416257145602938 0.0072329238665347203 0.02985110878944397 -0.0014263110856215159 0.048034130036830908 0.0027512768233063836 0.019297688478254714 0.016909174841235986 0.012558318561632335 0.0021614253753796222 -0.0082631133496761325 0.015307490155100823 0.0040278314475604721
leaf_weight=14526 6900 356294 2300 40505 460 20073 54445 286742 17303 460 920 168760 23926 242025 920 460 920 5060 1127 460 2760 920 24307 2300 5060 2540 1840 460 920 17267
leaf_count=14526 6900 356294 2300 40505 460 20073 54445 286742 17303 460 920 168760 23926 242025 920 460 920 5060 1127 460 2760 920 24307 2300 5060 2540 1840 460 920 17267
internal_value=8.74536e-13 -0.00021376 0.023074 0.00177856 0.00120421 0.00572777 -0.00101229 -0.0012307 0.00487425 0.0269139 0.00505169 -0.000619606 0.000304841 0.00074327 0.00307582 0.00814302 0.0207921 0.00376619 0.0179238 0.00846817 0.00322289 0.0109388 0.0012177 0.0281354 0.00980566 0.00367912 0.011649 0.0148115 2.41366e-05 0.00164984
internal_weight=1.30296e+06 1.291e+06 11960 369386 311578 28813 921614 839402 57808 9660 28353 552660 196366 282765 40740 8947 2300 6647 1587 1380 27606 3680 82212 9200 8280 26847 7360 5520 55365 31793
internal_count=1302960 1291000 11960 369386 311578 28813 921614 839402 57808 9660 28353 552660 196366 282765 40740 8947 2300 6647 1587 1380 27606 3680 82212 9200 8280 26847 7360 5520 55365 31793
is_linear=0
shrinkage=0.05


Tree=19
num_leaves=31
num_cat=0
split_feature=6 4 10 9 9 2 6 10 6 6 10 2 6 5 6 5 9 1 1 1 4 6 6 6 6 4 10 9 2 10
split_gain=2320 747.996 281.929 393.802 267.38 219.008 203.488 135.666 134.719 123.421 97.2578 82.4813 153.805 278.393 202.509 103.793 98.6802 85.7943 111.633 80.6026 80.3629 170.708 90.1899 80.2858 127.378 79.1331 72.8008 71.0217 101.975 67.0803
threshold=4.0000000000000009 -0.9159756150367534 0.074999999999992198 0.16249999999999434 0.025000000000019899 9.5000000000000018 3.3050000000000002 0.025000000000003911 3.5750000000000006 4.1350000000000007 0.099999999999980119 8.5000000000000018 2.6550000000000007 -0.12940952255126037 2.8750000000000004 -0.12940952255126037 0.10000000000000499 4.5000000000000009 1.0000000180025095e-35 5.5000000000000009 -0.98296291314453399 2.5150000000000001 2.1350000000000002 2.0650000000000004 2.2750000000000004 0.91597561503675362 0.02499999999999503 0.025000000000003911 7.5000000000000009 0.025000000000001247
decision_type=2 2 2 2 2 2 2 2 2 2 2 2 2 2 2 2 2 2 2 2 2 2 2 2 2 2 2 2 2 2
left_child=1 6 3 5 7 -3 10 9 -8 -2 11 12 15 14 -14 16 23 18 -17 -18 21 29 -22 -1 -25 -6 -15 28 -23 -20
right_child=4 2 -4 -5 25 -7 8 -9 -10 -11 -12 -13 13 26 -16 17 19 -19 20 -21 22 27 -24 24 -26 -27 -28 -29 -30 -31
leaf_value=-0.0030951417644805128 0.01531067667528987 8.4104258768313668e-05 -0.0021619360090973207 -0.0015826344791899209 0.014171549429496132 0.0025645789132453605 0.020002554574360454 -0.00093095507472753527 0.0057414149968988372 0.029788764659315348 -0.0021889278110826297 0.0017006840160144845 0.042684452235698701 -0.0016600163440064837 0.013953893817961216 -0.0010580661680855939 0.031391036510467533 0.0018736948727623725 0.0066169252106535893 0.0017917988821864129 0.010075537420699433 3.1151561415754262e-06 0.0014480660568809698 0.0095915680809061342 -0.0016808741224499848 -0.0047597097232937816 0.0098241228455056753 0.041910728812217718 0.028835677355527879 0.020895981788635255
leaf_weight=11040 1840 444084 241996 338402 1380 111288 2760 460 4140 7360 9660 64948 920 2760 1840 4156 460 16120 7761 460 5274 460 7117 4314 5980 920 2760 460 920 920
leaf_count=11040 1840 444084 241996 338402 1380 111288 2760 460 4140 7360 9660 64948 920 2760 1840 4156 460 16120 7761 460 5274 460 7117 4314 5980 920 2760 460 920 920
internal_value=-1.84099e-11 -0.000203072 -0.00064801 -0.000238103 0.0219203 0.000581153 0.0030524 0.0255682 0.0114459 0.0268931 0.00266195 0.00299987 0.00414444 0.010565 0.0235307 0.00333209 0.000558108 0.00476147 0.00648125 0.0165914 0.0078488 0.0110624 0.00512019 -0.000133307 0.00304317 0.00659905 0.00408205 0.0248963 0.0192248 0.0081302
internal_weight=1.30296e+06 1.291e+06 1.13577e+06 893774 11960 555372 155230 9660 6900 9200 148330 138670 73722 8280 2760 65442 22254 43188 27068 920 22912 10521 12391 21334 10294 2300 5520 1840 1380 8681
internal_count=1302960 1291000 1135770 893774 11960 555372 155230 9660 6900 9200 148330 138670 73722 8280 2760 65442 22254 43188 27068 920 22912 10521 12391 21334 10294 2300 5520 1840 1380 8681
is_linear=0
shrinkage=0.05


Tree=20
num_leaves=31
num_cat=0
split_feature=6 0 8 6 10 8 9 8 10 9 9 10 8 8 8 10 10 6 1 6 8 8 9 2 6 2 10 0 2 6
split_gain=2093.8 613.083 313.633 280.672 272.726 305.395 241.311 155.164 204.962 374.219 168.265 204.066 159.353 158.337 130.701 122.439 118.982 148.686 177.554 111.388 81.878 76.9893 105.327 81.9859 92.4418 310.992 93.6208 71.4176 66.4128 134.109
threshold=4.0000000000000009 14.500000000000002 0.20000000000000998 2.9350000000000005 0.22500000000000056 0.42500000000000787 0.025000000000019899 0.40000000000001995 0.13749999999998866 0.63749999999998874 0.2375000000000114 0.049999999999975848 0.15000000000006256 0.70000000000000118 0.11250000000001138 0.025000000000003911 0.049999999999975848 0.85500000000000009 1.0000000180025095e-35 4.1350000000000007 0.72500000000000864 0.13749999999998866 0.02499999999999503 8.5000000000000018 2.5850000000000004 7.5000000000000009 0.025000000000001247 14.500000000000002 8.5000000000000018 3.6800000000000002
decision_type=2 2 2 2 2 2 2 2 2 2 2 2 2 2 2 2 2 2 2 2 2 2 2 2 2 2 2 2 2 2
left_child=1 7 3 16 5 -4 15 10 9 13 11 12 -1 -9 -5 19 17 18 -3 -2 -7 -19 23 24 26 -26 -23 -8 -16 -30
right_child=6 2 4 14 -6 20 27 8 -10 -11 -12 -13 -14 -15 28 -17 -18 21 -20 -21 -22 22 -24 -25 25 -27 -28 -29 29 -31
leaf_value=-0.00075612029736880026 0.014545142557471991 -0.0013404892757534982 0.0033538039695086425 -0.0044415648560971023 -0.0021176357711845928 0.009498688729229654 -0.0045217244885861875 0.0046246923519070379 -0.0023597716612182833 -0.00094831960443275275 -0.002284486524598331 -0.0023383153450814015 0.0016789916404534714 0.013362732647867973 0.013471243260741736 -0.00088440738618373877 -0.0022834669189309622 -5.9615237203528084e-05 0.042590558528900146 0.028299327380955221 0.019367783283617247 0.0033094242122418283 -0.0010657993063216474 0.0017744937263389996 -0.0041155017912387851 0.036996249854564671 0.019851183146238328 0.013462971895933151 -0.0001088763919792005 0.018521023293336235
leaf_weight=216422 1840 460 90418 1840 18926 11090 920 23155 33850 36927 265675 132810 97428 6680 5980 460 42087 202959 460 7360 2593 12174 26000 55706 920 920 920 1380 3220 1380
leaf_count=216422 1840 460 90418 1840 18926 11090 920 23155 33850 36927 265675 132810 97428 6680 5980 460 42087 202959 460 7360 2593 12174 26000 55706 920 920 920 1380 3220 1380
internal_value=7.39334e-12 -0.000192919 0.00122797 0.000474069 0.00340354 0.00440731 0.0208243 -0.00102847 0.000809555 0.00241648 -0.00128808 -0.00069541 -1.92033e-07 0.00658112 0.00785781 0.0242898 0.000206397 0.000555097 0.020625 0.0255485 0.0113689 0.000493466 0.00165502 0.00265646 0.00594632 0.0164404 0.00447167 0.00626909 0.00999683 0.00548009
internal_weight=1.30296e+06 1.291e+06 478053 355026 123027 104101 11960 812947 100612 66762 712335 446660 313850 29835 12420 9660 342606 300519 920 9200 13683 299599 96640 70640 14934 1840 13094 2300 10580 4600
internal_count=1302960 1291000 478053 355026 123027 104101 11960 812947 100612 66762 712335 446660 313850 29835 12420 9660 342606 300519 920 9200 13683 299599 96640 70640 14934 1840 13094 2300 10580 4600
is_linear=0
shrinkage=0.05


Tree=21
num_leaves=31
num_cat=0
split_feature=6 4 8 10 9 8 9 9 10 6 8 8 8 9 6 10 8 10 3 2 9 8 6 8 6 6 2 9 6 8
split_gain=1889.66 626.112 251.551 374.332 407.837 482.691 230.037 217.783 213.316 165.608 152.381 131.827 129.2 145.542 119.973 110.501 106.098 100.4 95.8802 91.4019 90.9368 81.9167 147.748 82.281 188.254 160.116 253.601 271.294 123.962 112.718
threshold=4.0000000000000009 -0.9159756150367534 0.22500000000001566 0.26249999999998891 0.52500000000002001 0.68750000000000011 0.049999999999968743 0.025000000000019899 0.049999999999975848 3.3050000000000002 0.11250000000001138 0.35000000000001569 0.24999999999998582 0.10000000000000499 3.5750000000000006 0.025000000000003911 0.35000000000001569 0.075000000000009961 1.0000000180025095e-35 8.5000000000000018 0.074999999999997527 0.17500000000000251 2.7750000000000004 0.11250000000001138 2.5850000000000004 1.7650000000000003 7.5000000000000009 0.02499999999999503 2.6050000000000004 0.10000000000000499
decision_type=2 2 2 2 2 2 2 2 2 2 2 2 2 2 2 2 2 2 2 2 2 2 2 2 2 2 2 2 2 2
left_child=1 9 6 4 5 11 8 15 10 12 -3 20 13 18 -11 16 -2 -14 19 21 -4 23 -23 25 -25 26 27 29 -26 -1
right_child=7 2 3 -5 -6 -7 -8 -9 -10 14 -12 -13 17 -15 -16 -17 -18 -19 -20 -21 -22 22 -24 24 28 -27 -28 -29 -30 -31
leaf_value=0.039531846841176353 0.025502903641838777 -0.00055674350079217027 0.0028544516504987192 -0.0025698568025303561 -0.0013864384777705708 0.014003171339125459 -0.0019892168859067267 0.0059556385874748232 -0.0022363805103549198 0.018442032633659743 0.0015024879310214048 0.0045578553067877467 0.0071712249934839673 0.02982446551322937 0.0049839954409334397 -0.00084018697962164881 0.00086614741012454039 -0.00040350177247698116 -0.00052858847321782059 0.00081402025502037487 -0.00030738396195685396 0.0070895842164349953 0.036355814337730406 -0.0020167862151058576 0.033937060832977296 0.0028770732531888132 -0.0043034212042888011 -0.0016320683062076569 0.006714297275757417 0.016937658563256266
leaf_weight=1380 8740 229835 46698 67699 72798 9637 357462 2300 112044 2760 147488 47783 21083 460 4140 460 460 5520 35733 40063 44326 6900 460 14454 460 13997 1380 920 4600 920
leaf_count=1380 8740 229835 46698 67699 72798 9637 357462 2300 112044 2760 147488 47783 21083 460 4140 460 460 5520 35733 40063 44326 6900 460 14454 460 13997 1380 920 4600 920
internal_value=-5.32251e-12 -0.000183273 -0.000590349 0.000683537 0.00167906 0.0031824 -0.001025 0.0197831 -0.000320686 0.00279518 0.000248169 0.00243115 0.00244294 0.00175309 0.0103672 0.0230753 0.0242711 0.0055995 0.0016466 0.00255532 0.00131473 0.00408952 0.00891872 0.00315691 0.00088891 0.00553674 0.0136296 0.0213152 0.00918909 0.0304942
internal_weight=1.30296e+06 1.291e+06 1.13577e+06 288941 221242 148444 846829 11960 489367 155230 377323 138807 148330 121727 6900 9660 9200 26603 121267 85534 91024 45471 7360 38111 19514 18597 4600 3220 5060 2300
internal_count=1302960 1291000 1135770 288941 221242 148444 846829 11960 489367 155230 377323 138807 148330 121727 6900 9660 9200 26603 121267 85534 91024 45471 7360 38111 19514 18597 4600 3220 5060 2300
is_linear=0
shrinkage=0.05


Tree=22
num_leaves=31
num_cat=0
split_feature=6 4 8 10 9 8 9 9 10 6 8 8 9 10 8 6 6 1 6 1 10 6 8 9 8 1 6 9 1 8
split_gain=1705.41 565.066 227.024 347.449 386.912 383.422 207.608 196.549 192.517 149.461 140.743 117.137 135.857 114.93 113.158 108.276 101.244 107.163 188.028 166.699 99.7269 95.8447 91.1204 85.7972 76.7886 76.7493 165.183 72.1433 69.7159 90.8922
threshold=4.0000000000000009 -0.9159756150367534 0.22500000000001566 0.10000000000000499 0.59999999999999998 0.68750000000000011 0.049999999999968743 0.025000000000019899 0.049999999999975848 3.3050000000000002 0.13749999999998866 0.17500000000000251 0.10000000000000499 0.025000000000003911 0.35000000000001569 3.5750000000000006 1.9150000000000003 2.5000000000000004 2.7050000000000005 3.5000000000000004 0.025000000000003911 4.1350000000000007 0.76249999999998874 0.07500000000000108 0.15000000000000394 4.5000000000000009 2.4750000000000005 0.075000000000009961 2.5000000000000004 0.11250000000001138
decision_type=2 2 2 2 2 2 2 2 2 2 2 2 2 2 2 2 2 2 2 2 2 2 2 2 2 2 2 2 2 2
left_child=1 9 6 4 5 14 8 20 10 11 -3 12 28 16 23 24 22 -18 19 -19 21 -2 -13 -4 -11 26 -21 -16 29 -1
right_child=7 2 3 -5 -6 -7 -8 -9 -10 15 -12 13 -14 -15 27 -17 17 18 -20 25 -22 -23 -24 -25 -26 -27 -28 -29 -30 -31
leaf_value=0.0064032042261477646 0.012850699620321393 -0.00034918464229392507 0.0031739056431065622 -0.001899802998181533 -0.0014100921522264835 0.014071147769157376 -0.0018897560142680299 0.0056578567624092106 -0.0021245614871061732 -0.0011287753470242024 0.0018299455781473661 0.0017033396326554024 0.028333243727684022 0.00012136673467155325 0.0076455525868473042 0.0047347957682278424 0.004480425182672121 0.030086131393909456 0.042368581891059881 0.009552618515278612 -0.00079817762598395354 0.0256092153955251 0.019486988415993542 -7.2970214394980326e-05 0.021249672174453737 0.0044440204280334107 0.041583535075187687 0.0033395673185125292 5.9364714515590828e-05 0.00095518917900651854
leaf_weight=11996 1840 276038 40962 91391 62868 7840 357462 2300 112044 460 101285 16587 460 13557 14103 4140 13719 920 460 3220 460 7360 753 40426 2300 6210 460 31351 58828 21160
leaf_count=11996 1840 276038 40962 91391 62868 7840 357462 2300 112044 460 101285 16587 460 13557 14103 4140 13719 920 460 3220 460 7360 753 40426 2300 6210 460 31351 58828 21160
internal_value=-3.8268e-12 -0.000174109 -0.000560832 0.00064936 0.00182866 0.00334047 -0.000973753 0.0187939 -0.000304652 0.00265542 0.00023576 0.0023208 0.00122831 0.00412793 0.00267722 0.00984885 0.00541114 0.00744812 0.0110607 0.00972844 0.0219215 0.0230575 0.00247561 0.00156116 0.0175199 0.0078347 0.0135565 0.00467558 0.00109277 0.00292631
internal_weight=1.30296e+06 1.291e+06 1.13577e+06 288941 197550 134682 846829 11960 489367 155230 377323 148330 92444 55886 126842 6900 42329 24989 11270 10810 9660 9200 17340 81388 2760 9890 3680 45454 91984 33156
internal_count=1302960 1291000 1135770 288941 197550 134682 846829 11960 489367 155230 377323 148330 92444 55886 126842 6900 42329 24989 11270 10810 9660 9200 17340 81388 2760 9890 3680 45454 91984 33156
is_linear=0
shrinkage=0.05


Tree=23
num_leaves=31
num_cat=0
split_feature=6 4 8 10 9 8 9 10 9 8 6 8 9 10 8 6 2 10 8 8 8 10 4 5 6 6 9 6 8 6
split_gain=1539.14 509.972 207.895 323.267 450.164 248.87 219.906 214.873 177.385 175.117 139.578 129.51 125.219 101.794 100.572 94.971 113.204 90.0036 91.4086 82.2361 74.5297 66.62 65.8558 64.5829 239.313 101.419 90.6874 67.5411 62.8119 71.7749
threshold=4.0000000000000009 -0.9159756150367534 0.27500000000001995 0.26249999999998891 0.39999999999999508 0.69999999999999407 0.074999999999997527 0.049999999999975848 0.025000000000019899 0.13749999999998866 2.9350000000000005 0.17500000000000251 0.10000000000000499 0.025000000000003911 1.1625000000000052 1.9150000000000003 8.5000000000000018 0.025000000000003911 0.35000000000001569 0.76249999999998874 0.11250000000001138 0.13749999999998866 -0.70710678118654735 0.1294095225512602 2.7050000000000005 2.1750000000000003 0.10000000000000499 2.4750000000000005 0.27500000000001995 5.7600000000000007
decision_type=2 2 2 2 2 2 2 2 2 2 2 2 2 2 2 2 2 2 2 2 2 2 2 2 2 2 2 2 2 2
left_child=1 10 6 4 5 21 7 9 17 -3 11 12 -1 15 -6 19 23 18 28 -13 -12 -4 -10 24 25 26 -17 -25 29 -2
right_child=8 2 3 -5 14 -7 -8 -9 22 -11 20 13 -14 -15 -16 16 -18 -19 -20 -21 -22 -23 -24 27 -26 -27 -28 -29 -30 -31
leaf_value=0.00076127382401041852 0.018937030721169253 -0.00041752805992268651 0.0044780811464493137 -0.0023329459037819203 -0.00073009806659206464 0.013822492204813347 -0.0018313679745355048 -0.0019869421493854743 0.015737085044384005 0.00170837688949312 -0.006087267398834229 0.0016181726241329877 0.026916581392288211 6.3918465462112274e-05 0.012885033835967383 0.026588799556096394 0.003810126384583893 -0.00075826873071491727 0.00018030508654192092 0.018512639648727527 0.0087022028453648103 -0.00098921874925382678 -0.0015331166485945385 0.011026161739245977 0.037282079458236694 0.0064674565531291283 0.00095375655218958859 -0.0015502750989980997 0.03540592342615128 0.030229795724153519
leaf_weight=87844 5980 289095 59643 56887 79145 7097 355413 135282 920 145682 920 16587 460 12637 1380 1380 12339 460 460 753 11500 6146 1380 2543 920 5047 460 1840 920 1840
leaf_count=87844 5980 289095 59643 56887 79145 7097 355413 135282 920 145682 920 16587 460 12637 1380 1380 12339 460 460 753 11500 6146 1380 2543 920 5047 460 1840 920 1840
internal_value=-2.94939e-12 -0.000165404 -0.00053279 0.000886305 0.00208005 0.00492694 -0.000855255 -0.000246682 0.0178542 0.000294805 0.00252265 0.0020805 0.000897524 0.003997 -0.000496768 0.00518409 0.00718628 0.0208255 0.0219046 0.00235183 0.00760669 0.00396733 0.00537496 0.0106037 0.0133306 0.010131 0.02018 0.00574653 0.023048 0.0215942
internal_weight=1.30296e+06 1.291e+06 1.13577e+06 210298 153411 72886 925472 570059 11960 434777 155230 142810 88304 54506 80525 41869 24529 9660 9200 17340 12420 65789 2300 12190 7807 6887 1840 4383 8740 7820
internal_count=1302960 1291000 1135770 210298 153411 72886 925472 570059 11960 434777 155230 142810 88304 54506 80525 41869 24529 9660 9200 17340 12420 65789 2300 12190 7807 6887 1840 4383 8740 7820
is_linear=0
shrinkage=0.05


Tree=24
num_leaves=31
num_cat=0
split_feature=6 4 10 9 9 6 6 10 9 6 9 0 6 9 9 9 6 1 1 1 4 9 0 6 6 1 6 6 1 6
split_gain=1389.07 460.25 175.12 248.637 160.198 125.969 83.2579 70.3081 57.7281 56.2712 99.8692 184.434 54.9487 49.6739 113.448 202.513 106.573 143.994 91.3898 177.297 75.3555 72.8816 70.4105 81.5214 498.595 116.653 110.946 97.0181 55.9679 45.4473
threshold=4.0000000000000009 -0.9159756150367534 0.049999999999975848 0.16249999999999434 0.050000000000007823 2.9350000000000005 5.7600000000000007 0.024999999999984372 1.9500000000000102 2.5950000000000002 0.15000000000001992 7.5000000000000009 3.9300000000000002 0.025000000000019899 1.0000000180025095e-35 0.02499999999999503 2.5250000000000004 2.5000000000000004 2.5000000000000004 1.0000000180025095e-35 -0.98296291314453399 0.10000000000000499 17.500000000000004 2.3950000000000005 2.4250000000000003 3.5000000000000004 2.4750000000000005 2.9150000000000005 5.5000000000000009 1.2350000000000001
decision_type=2 2 2 2 2 2 2 2 2 2 2 2 2 2 2 2 2 2 2 2 2 2 2 2 2 2 2 2 2 2
left_child=1 5 3 9 6 7 -2 13 -4 -3 -11 -12 -7 14 22 18 -17 -18 19 -16 -20 -15 23 -1 -25 -26 -27 -28 -23 -24
right_child=4 2 8 -5 -6 12 -8 -9 -10 10 11 -13 -14 21 15 16 17 -19 20 -21 -22 28 29 24 25 26 27 -29 -30 -31
leaf_value=0.0024856804526294254 0.017016279707834321 0.00038197828482239369 -0.0016517580194022712 -0.0012429930688160479 0.00093876154472430557 0.0078785825449113663 0.02871830612421036 0.00010050818914992605 0.016076128184795379 0.0021342255348927742 -0.0035013139247894289 0.041272708773612977 -0.0097316399216651923 -0.0013775036459671001 -0.0015494382940232755 0.0019798311300326383 7.1265525184571751e-05 0.039633288979530334 0.026186975836753848 0.034294101595878604 0.0022803674303860061 0.02557075023651123 0.0071339101607179982 0.059743112325668341 -0.00062669955958231287 -0.00085761012596776711 0.027036686738332111 0.00052197379991412161 0.00090606873854994776 0.0012112947953560123
leaf_weight=10873 8740 509963 268249 329122 1380 11960 1840 37004 460 27056 460 460 460 11697 460 8934 460 460 460 1380 1163 460 3427 460 3283 920 1380 460 460 59069
leaf_count=10873 8740 509963 268249 329122 1380 11960 1840 37004 460 27056 460 460 460 11697 460 8934 460 460 460 1380 1163 460 3427 460 3283 920 1380 460 460 59069
internal_value=-8.59664e-12 -0.000157134 -0.00050615 -0.000160523 0.0169615 0.00239652 0.0190514 0.00197647 -0.00162141 0.000501754 0.0026851 0.0188857 0.00722635 0.00263256 0.00303119 0.00730368 0.00364846 0.0198523 0.0177046 0.0253332 0.00905612 -0.000311748 0.00231885 0.00513426 0.00956268 0.00574289 0.0133195 0.020408 0.0132384 0.00153606
internal_weight=1.30296e+06 1.291e+06 1.13577e+06 867061 11960 155230 10580 142810 268709 537939 27976 920 12420 105806 93189 13317 9854 920 3463 1840 1623 12617 79872 17376 6503 6043 2760 1840 920 62496
internal_count=1302960 1291000 1135770 867061 11960 155230 10580 142810 268709 537939 27976 920 12420 105806 93189 13317 9854 920 3463 1840 1623 12617 79872 17376 6503 6043 2760 1840 920 62496
is_linear=0
shrinkage=0.05


Tree=25
num_leaves=31
num_cat=0
split_feature=6 4 9 10 6 10 9 2 10 6 10 9 0 0 9 1 6 9 0 0 10 6 0 1 1 1 2 7 6 0
split_gain=1253.64 417.197 147.4 147.321 105.729 99.6457 156.274 102.613 80.3476 78.4607 70.265 61.4696 77.8919 61.1281 60.9996 77.04 59.1199 364.368 269.709 58.4681 58.3218 56.0605 77.5725 96.178 79.4655 55.6092 139.978 55.0941 106.075 415.276
threshold=4.0000000000000009 -0.60355339059327362 0.025000000000019899 0.099999999999980119 2.9350000000000005 0.049999999999975848 0.22500000000000056 9.5000000000000018 0.025000000000003911 4.4600000000000009 0.02499999999999503 0.049999999999968743 18.500000000000004 5.5000000000000009 1.0000000180025095e-35 1.0000000180025095e-35 2.4950000000000006 0.15000000000001992 7.5000000000000009 15.500000000000002 0.07500000000000108 0.85500000000000009 22.500000000000004 1.0000000180025095e-35 2.5000000000000004 1.0000000180025095e-35 8.5000000000000018 1.2350000000000001 2.4050000000000007 17.500000000000004
decision_type=2 2 2 2 2 2 2 2 2 2 2 2 2 2 2 2 2 2 2 2 2 2 2 2 2 2 2 2 2 2
left_child=1 3 8 4 11 6 7 21 9 -2 25 12 27 -11 15 -12 -9 -18 -19 -4 -14 22 -3 -24 -25 26 -6 -1 29 -29
right_child=2 5 19 -5 10 -7 -8 16 -10 13 14 -13 20 -15 -16 -17 17 18 -20 -21 -22 -23 23 24 -26 -27 -28 28 -30 -31
leaf_value=0.0019752834880862563 0.014186371408868581 -0.00085482390907903525 -0.0017713576555252076 -0.0017908664305719573 0.018839361146092415 -0.0016034386660374847 -0.0013033558697732252 0.0012179591068486552 -0.0015711693093180658 0.006160832941532135 0.0053307350724935533 8.3849258478364732e-05 0.00089153305741070891 0.025198146023533565 0.0032412511607011162 0.024009945491949718 0.0019885294291889298 -0.0020817825570702553 0.044808699190616613 0.014501354470849038 0.013522592559456826 -0.00024567213574140992 -0.0012263908982276918 0.040508103370666508 0.0057965956628322603 0.0015823120344430211 0.00033696464262902739 0.056755954027175905 0.0038279049085214512 -0.0014282857999205591
leaf_weight=72613 3680 1380 1380 35520 1840 236409 286631 70544 460 460 920 70142 137499 5060 1380 1380 11500 460 920 920 920 312593 460 460 257 9200 2300 460 34292 920
leaf_count=72613 3680 1380 1380 35520 1840 236409 286631 70544 460 460 920 70142 137499 5060 1380 1380 11500 460 920 920 920 312593 460 460 257 9200 2300 460 34292 920
internal_value=7.86274e-13 -0.000149277 0.0161134 0.00127047 0.00159617 -0.000718317 -0.000412933 0.000227407 0.0188219 0.0198416 0.00543523 0.00138995 0.00176129 0.0236117 0.0115519 0.0165383 0.00178671 0.00490174 0.0291785 0.00473773 0.000975485 -0.000185359 0.00718798 0.0166179 0.0280662 0.00374788 0.00856025 0.00276577 0.00437487 0.0179665
internal_weight=1.30296e+06 1.291e+06 11960 369386 333866 921614 685205 398574 9660 9200 17020 316846 246704 5520 3680 2300 83424 12880 1380 2300 138419 315150 2557 1177 717 13340 4140 108285 35672 1380
internal_count=1302960 1291000 11960 369386 333866 921614 685205 398574 9660 9200 17020 316846 246704 5520 3680 2300 83424 12880 1380 2300 138419 315150 2557 1177 717 13340 4140 108285 35672 1380
is_linear=0
shrinkage=0.05


Tree=26
num_leaves=31
num_cat=0
split_feature=6 4 10 2 6 0 6 0 6 1 1 1 7 0 2 6 1 2 6 6 6 7 0 5 6 6 0 6 4 6
split_gain=1131.41 379.535 143.519 151.411 110.3 106.606 86.9259 74.3052 113.55 86.8006 73.8675 71.7176 64.9471 77.0325 62.9344 101.328 94.9576 137.612 425.631 224.197 95.339 90.6131 69.2501 61.4572 57.5917 77.1105 199.499 124.034 111.205 134.686
threshold=4.0000000000000009 -0.9159756150367534 0.074999999999992198 9.5000000000000018 3.3050000000000002 15.500000000000002 3.5750000000000006 14.500000000000002 0.85500000000000009 1.0000000180025095e-35 1.5000000000000002 2.5000000000000004 2.6800000000000006 17.500000000000004 8.5000000000000018 1.9350000000000003 2.5000000000000004 7.5000000000000009 1.2050000000000003 1.7050000000000003 1.7850000000000004 0.71500000000000008 17.500000000000004 -0.78656609248549325 2.1450000000000005 2.6550000000000007 17.500000000000004 2.8750000000000004 -0.98296291314453399 2.5150000000000001
decision_type=2 2 2 2 2 2 2 2 2 2 2 2 2 2 2 2 2 2 2 2 2 2 2 2 2 2 2 2 2 2
left_child=1 4 3 7 14 10 -6 -3 9 -9 -2 -11 -7 -14 15 16 17 18 -1 -20 21 22 -21 -5 -17 28 27 -27 29 -26
right_child=5 2 -4 23 6 12 -8 8 -10 11 -12 -13 13 -15 -16 24 -18 -19 19 20 -22 -23 -24 -25 25 26 -28 -29 -30 -31
leaf_value=0.039749795198440553 -0.0016827896858255071 -0.00078900915644726933 -0.0015389162395104538 -0.00030554962816120991 0.015230028486500184 0.010277230422943831 0.0037745201753245461 -0.0011650714091956617 0.00021631478293937406 0.038482698798179629 0.016607779078185558 0.0055067658424377448 0.022360299957486299 0.0092547311447560791 0.00080031778169927935 0.0079435413522472801 -0.0013539455277503509 -0.0034554686638000455 -0.0026620302994904872 0.02428802102804184 0.0042805042738715809 0.032761652767658238 -0.0031476996839046481 0.0019273939806047824 0.0030517783956641436 0.033693309128284457 0.0024519149249849414 0.011208332981914282 -3.9210176887126791e-05 0.017226966740563513
leaf_weight=920 1380 517521 241996 43325 2760 2300 4140 460 225036 460 920 257 5980 1380 70008 9236 20362 4179 5060 460 1380 920 460 106715 6174 920 5980 1840 18131 2300
leaf_count=920 1380 517521 241996 43325 2760 2300 4140 460 225036 460 920 257 5980 1380 70008 9236 20362 4179 5060 460 1380 920 460 106715 6174 920 5980 1840 18131 2300
internal_value=6.96219e-12 -0.000141813 -0.000458752 -0.000166289 0.00217713 0.0153077 0.00835672 -0.00045859 0.00029733 0.015787 0.00563344 0.0266629 0.0176112 0.019903 0.00188967 0.00286338 0.000796149 0.00406846 0.00748612 0.00390127 0.014215 0.0216659 0.0105702 0.00128262 0.00442796 0.00350931 0.00758394 0.0187033 0.00217075 0.00689919
internal_weight=1.30296e+06 1.291e+06 1.13577e+06 893774 155230 11960 6900 743734 226213 1177 2300 717 9660 7360 148330 78322 33741 13379 9200 8280 3220 1840 920 150040 44581 35345 8740 2760 26605 8474
internal_count=1302960 1291000 1135770 893774 155230 11960 6900 743734 226213 1177 2300 717 9660 7360 148330 78322 33741 13379 9200 8280 3220 1840 920 150040 44581 35345 8740 2760 26605 8474
is_linear=0
shrinkage=0.05


Tree=27
num_leaves=31
num_cat=0
split_feature=6 0 8 10 8 8 10 9 7 9 9 10 8 6 0 10 6 1 9 2 8 9 0 8 1 6 6 1 8 0
split_gain=1021.09 315.515 225.028 229.877 181.145 127.175 149.852 245.581 123.672 121.404 119.833 103.192 126.261 72.4012 427.467 72.3169 101.296 78.3376 70.9936 70.6363 170.79 98.7931 173.921 89.2814 178.802 88.1119 65.0201 64.7252 62.8803 57.4692
threshold=4.0000000000000009 14.500000000000002 0.27500000000001995 0.35000000000000059 0.51249999999998874 0.45000000000001 0.36250000000000077 0.54999999999999016 1.2350000000000001 0.050000000000007823 0.30000000000000787 0.049999999999975848 0.15000000000006256 2.4050000000000007 17.500000000000004 0.049999999999975848 0.85500000000000009 1.0000000180025095e-35 0.29999999999999855 8.5000000000000018 0.15000000000001992 0.025000000000003911 18.500000000000004 0.17500000000000251 1.5000000000000002 3.6800000000000002 5.7600000000000007 2.5000000000000004 0.15000000000000394 17.500000000000004
decision_type=2 2 2 2 2 2 2 2 2 2 2 2 2 2 2 2 2 2 2 2 2 2 2 2 2 2 2 2 2 2
left_child=1 5 8 4 -4 10 7 18 15 26 11 12 -1 14 -10 16 17 -3 -7 20 -15 22 23 24 -22 -21 -2 -19 -18 -30
right_child=9 2 3 -5 -6 6 -8 -9 13 -11 -12 -13 -14 19 -16 -17 28 27 -20 25 21 -23 -24 -25 -26 -27 -28 -29 29 -31
leaf_value=-0.00070977435341833739 0.014563238826629363 -0.0011068178340792657 0.0038668066971701935 -0.0024920077111816002 0.012122961454473105 0.011325404044324357 -0.0020760339350413249 0.0001622827772889683 0.05387814044952393 0.00059398536880811057 -0.0018686347645100855 -0.001652406720130651 0.0012960225587409829 0.0012017021008947062 -0.001777808430294196 -0.0017310949830976808 -0.00021393473671889597 0.036558565497398381 0.0049518232163710792 0.00014528825447538389 0.024973298609256747 0.0035176995955407617 -0.0023039169105080267 0.02646591551601887 -0.00047926474362611774 0.011354091251268983 0.024904467910528184 0.0052314274013042453 6.5528691626600866e-05 0.0025032181730904016
leaf_weight=237585 8740 460 43235 12246 7850 6547 25193 37098 460 1380 236709 139540 117141 20457 1380 48160 196529 460 13134 37209 1380 4600 1380 1840 1380 1840 1840 257 46164 50766
leaf_count=237585 8740 460 43235 12246 7850 6547 25193 37098 460 1380 236709 139540 117141 20457 1380 48160 196529 460 13134 37209 1380 4600 1380 1840 1380 1840 1840 257 46164 50766
internal_value=2.68492e-12 -0.000134722 0.000884596 0.0036606 0.00513549 -0.000734132 0.00113336 0.00255737 0.00046068 0.0145424 -0.000943553 -0.000500522 -4.7401e-05 0.00234564 0.0121362 6.51752e-05 0.000358786 0.0149977 0.00707203 0.0020886 0.00386907 0.00902657 0.0132642 0.0179346 0.012247 0.00067345 0.0163617 0.0253297 0.000300073 0.00134224
internal_weight=1.30296e+06 1.291e+06 478053 63331 51085 812947 81972 56779 414722 11960 730975 494266 354726 71926 1840 342796 294636 1177 19681 70086 31037 10580 5980 4600 2760 39049 10580 717 293459 96930
internal_count=1302960 1291000 478053 63331 51085 812947 81972 56779 414722 11960 730975 494266 354726 71926 1840 342796 294636 1177 19681 70086 31037 10580 5980 4600 2760 39049 10580 717 293459 96930
is_linear=0
shrinkage=0.05


Tree=28
num_leaves=31
num_cat=0
split_feature=6 4 8 10 9 8 9 10 8 8 6 2 6 9 9 8 1 8 1 10 8 9 8 8 8 8 6 8 8 6
split_gain=921.537 314.676 191.341 252.724 349.897 209.864 163.778 133.861 131.875 111.906 148.394 223.476 132.553 111.624 93.2865 89.7262 84.0404 79.6469 76.1556 68.6902 75.5175 61.4217 87.6463 60.3993 57.2661 61.6634 57.2614 56.3869 54.0349 99.3852
threshold=4.0000000000000009 -0.9159756150367534 0.27500000000001995 0.26249999999998891 0.39999999999999508 0.69999999999999407 0.074999999999997527 0.049999999999975848 0.13749999999998866 0.15000000000000394 1.9150000000000003 8.5000000000000018 1.9550000000000003 0.025000000000019899 0.10000000000000499 1.1625000000000052 4.5000000000000009 0.72500000000000864 4.5000000000000009 0.025000000000003911 0.35000000000001569 0.73750000000001148 0.7125000000000058 0.037499999999980112 0.27500000000001995 0.19999999999996024 3.3050000000000002 1.949999999999996 0.11250000000001138 2.5350000000000006
decision_type=2 2 2 2 2 2 2 2 2 2 2 2 2 2 2 2 2 2 2 2 2 2 2 2 2 2 2 2 2 2
left_child=1 9 6 4 5 -4 7 8 23 14 17 12 18 19 16 21 28 -11 -12 20 24 22 -6 -3 25 -2 -14 -5 29 -1
right_child=13 2 3 27 15 -7 -8 -9 -10 10 11 -13 26 -15 -16 -17 -18 -19 -20 -21 -22 -23 -24 -25 -26 -27 -28 -29 -30 -31
leaf_value=0.004641147939133213 0.020952122741275364 -0.0046436147953641668 0.0036290200517554863 -0.002043691602779439 -0.00010467089699286564 0.012678988910901794 -0.0015683180614310039 -0.0015743094377001763 0.0014533427904488676 0.00020495026468819681 0.01295059621334076 0.0016312472837995029 0.0069560735249500367 0.0039158649370074272 0.023084317147731782 0.012368234992027284 -0.0020989309453618046 0.010185873559451249 0.041721740365028383 -0.0026835093274712564 -0.0026308661326766014 -0.0019403574865242022 0.0064433655307556577 -0.00026867373197414604 0.029954022169113161 0.012056774646043779 0.014673633997639022 0.015533240139484407 -1.912875367208455e-05 -0.0028688415729751192
leaf_weight=21817 4140 8117 65789 56427 35141 7097 355413 135282 145682 31767 460 21779 18607 2300 460 1380 22133 2133 460 460 460 38024 5980 280978 920 3680 2760 460 27334 5520
leaf_count=21817 4140 8117 65789 56427 35141 7097 355413 135282 145682 31767 460 21779 18607 2300 460 1380 22133 2133 460 460 460 38024 5980 280978 920 3680 2760 460 27334 5520
internal_value=3.30929e-12 -0.000127986 -0.000416576 0.000944847 0.00200034 0.00451023 -0.000725937 -0.00020074 0.00022665 0.00198354 0.00331996 0.00523322 0.00875309 0.0138152 0.000634968 -0.000271455 0.000500513 0.000832953 0.0273362 0.0161722 0.017115 -0.000491845 0.000847574 -0.00039151 0.0181543 0.0167661 0.00795296 -0.00190156 0.00155287 0.0031247
internal_weight=1.30296e+06 1.291e+06 1.13577e+06 210298 153411 72886 925472 570059 434777 155230 77966 44066 22287 11960 77264 80525 76804 33900 920 9660 9200 79145 41121 289095 8740 7820 21367 56887 54671 27337
internal_count=1302960 1291000 1135770 210298 153411 72886 925472 570059 434777 155230 77966 44066 22287 11960 77264 80525 76804 33900 920 9660 9200 79145 41121 289095 8740 7820 21367 56887 54671 27337
is_linear=0
shrinkage=0.05


Tree=29
num_leaves=31
num_cat=0
split_feature=6 4 8 10 9 8 9 10 8 9 8 6 6 9 10 1 8 1 6 1 6 0 8 8 1 1 6 1 8 8
split_gain=831.688 283.995 172.685 228.637 313.165 221.015 148.071 122.151 125.065 101.534 100.995 133.926 165.714 84.191 79.0751 75.8465 71.8813 68.7305 57.7077 118.971 92.6824 72.3873 81.2293 61.1162 71.0121 135.563 108.404 94.3451 57.4902 68.2961
threshold=4.0000000000000009 -0.9159756150367534 0.27500000000001995 0.10000000000000499 0.59999999999999998 0.70000000000000118 0.049999999999968743 0.049999999999975848 0.11250000000001138 0.050000000000007823 0.15000000000000394 1.9150000000000003 1.9450000000000001 0.10000000000000499 0.025000000000003911 4.5000000000000009 0.72500000000000864 4.5000000000000009 2.5850000000000004 5.5000000000000009 2.5950000000000002 17.500000000000004 0.22500000000001566 0.17500000000000251 2.5000000000000004 4.5000000000000009 2.4750000000000005 3.5000000000000004 0.35000000000001569 0.24999999999998582
decision_type=2 2 2 2 2 2 2 2 2 2 2 2 2 2 2 2 2 2 2 2 2 2 2 2 2 2 2 2 2 2
left_child=1 10 6 4 5 -4 7 8 -3 28 13 16 17 15 18 -1 -12 -13 23 20 -20 22 -22 -14 -25 26 27 -26 29 -2
right_child=9 2 3 -5 -6 -7 -8 -9 -10 -11 11 12 14 -15 -16 -17 -18 -19 19 -21 21 -23 -24 24 25 -27 -28 -29 -30 -31
leaf_value=0.0014752281907564899 0.013637811048991151 -0.00046394866989293582 0.0032192914112865035 -0.0013416500828146586 -0.00086301496005860385 0.012166866497381738 -0.0014100829940904465 -0.0014984354024271038 0.0013311108259656387 0.00036849280198415123 0.00019470274725194036 0.01230306699872017 -0.0013162293186825182 0.021930101513862613 0.00020135422989662935 -0.0019939844026889432 0.0096765797803561801 0.03963565230369568 0.029444608092308047 0.033487054705619815 0.016513537491361301 0.0026690207567298787 0.0025246183438897493 0.0021963993376695988 0.02617732435464859 0.0030990385726742124 0.037641778588294983 0.0080218311166390787 -0.0024993229657411576 0.024287430942058565
leaf_weight=54671 8280 229835 75107 73923 53668 7600 402794 124912 167931 1380 31767 460 4140 460 8497 22133 2133 460 460 460 2760 5520 1663 9296 920 5750 460 3220 460 1840
leaf_count=54671 8280 229835 75107 73923 53668 7600 402794 124912 167931 1380 31767 460 4140 460 8497 22133 2133 460 460 460 2760 5520 1663 9296 920 5750 460 3220 460 1840
internal_value=-1.50483e-12 -0.000121587 -0.000395747 0.000897604 0.00211141 0.00404149 -0.00068964 -0.000134441 0.000293899 0.0131245 0.00188436 0.00315396 0.00497156 0.00060322 0.00452382 0.000475488 0.000791306 0.0259694 0.00558383 0.00860327 0.00750296 0.00648786 0.0112539 0.00420485 0.00536831 0.00821721 0.0146149 0.0120564 0.0147883 0.0155741
internal_weight=1.30296e+06 1.291e+06 1.13577e+06 210298 136375 82707 925472 522678 397766 11960 155230 77966 44066 77264 43146 76804 33900 920 34649 10863 10403 9943 4423 23786 19646 10350 4600 4140 10580 10120
internal_count=1302960 1291000 1135770 210298 136375 82707 925472 522678 397766 11960 155230 77966 44066 77264 43146 76804 33900 920 34649 10863 10403 9943 4423 23786 19646 10350 4600 4140 10580 10120
is_linear=0
shrinkage=0.05


Tree=30
num_leaves=31
num_cat=0
split_feature=6 4 8 10 4 8 8 6 2 6 5 1 10 2 5 8 8 1 6 8 6 2 6 1 6 8 6 4 7 6
split_gain=750.598 256.305 157.791 209.11 150.293 100.785 91.1482 120.868 191.114 106.959 83.9719 75.5338 73.4352 66.7887 69.9865 64.8729 62.5773 62.0293 61.7746 59.4346 111.468 302.865 179.362 265.991 88.6049 58.4721 61.6114 152.983 58.4101 104.436
threshold=4.0000000000000009 -0.9159756150367534 0.35000000000001569 0.26249999999998891 1.0000000180025095e-35 0.72500000000000864 0.15000000000000394 1.9150000000000003 8.5000000000000018 1.9550000000000003 0.25881904510252057 4.5000000000000009 0.02499999999999503 9.5000000000000018 0.37940952255126048 0.72500000000000864 1.1625000000000052 4.5000000000000009 5.7600000000000007 0.11250000000001138 1.7650000000000003 7.5000000000000009 1.3650000000000004 1.5000000000000002 2.9350000000000005 0.075000000000009961 0.85500000000000009 -1.0000000180025095e-35 1.0250000000000001 2.5350000000000006
decision_type=2 2 2 2 2 2 2 2 2 2 2 2 2 2 2 2 2 2 2 2 2 2 2 2 2 2 2 2 2 2
left_child=1 6 12 4 5 -4 11 15 9 17 18 19 13 14 -3 -8 -6 -9 -2 20 21 22 -1 -24 -21 -16 27 -27 -22 -30
right_child=10 2 3 -5 16 -7 7 8 -10 -11 -12 -13 -14 -15 25 -17 -18 -19 -20 24 28 -23 23 -25 -26 26 -28 -29 29 -31
leaf_value=0.03746718168258667 0.01200503527186811 -0.0010971781848980492 0.0041579283651985988 -0.0017257945488619838 0.00082730950759983015 0.013444633462599345 0.00018496761246681017 0.011687913537025453 0.0013920099868775166 0.0072592829937967833 -0.0020449021831154823 -0.0018942851936902456 -0.0011997579509175091 0.00084632854652511805 -0.00078298156625613657 0.0091927509169817748 0.011575809493660928 0.037653872370719911 0.02204094007611275 -0.0015239541709701943 -0.0035130708593299823 -0.0035629310334722199 -0.003547235019505024 0.027496830622355146 0.0055671413584301868 0.034767267107963566 0.00060991710911894681 -0.00054762072686571634 0.0056037287827876842 -0.0027991608561327062
leaf_weight=920 9200 265203 31519 45671 72239 3220 31767 460 21779 21367 920 22133 342816 107131 117677 2133 1380 460 1840 21814 4636 2760 1380 1380 5520 460 147534 920 11201 5520
leaf_count=920 9200 265203 31519 45671 72239 3220 31767 460 21779 21367 920 22133 342816 107131 117677 2133 1380 460 1840 21814 4636 2760 1380 1380 5520 460 147534 920 11201 5520
internal_value=-6.23744e-12 -0.000115508 -0.00037596 0.0011119 0.00230794 0.00501872 0.00179014 0.00299627 0.00472298 0.00797803 0.0124683 0.000573059 -0.000609396 -0.000292637 -0.000522084 0.000751741 0.00102879 0.0246709 0.0136777 0.0015636 0.00319157 0.00895754 0.0183479 0.0119748 -9.19337e-05 5.00156e-05 0.000708279 0.011224 0.00145289 0.00282973
internal_weight=1.30296e+06 1.291e+06 1.13577e+06 154029 108358 34739 155230 77966 44066 22287 11960 77264 981741 638925 531794 33900 73619 920 11040 55131 27797 6440 3680 2760 27334 266591 148914 1380 21357 16721
internal_count=1302960 1291000 1135770 154029 108358 34739 155230 77966 44066 22287 11960 77264 981741 638925 531794 33900 73619 920 11040 55131 27797 6440 3680 2760 27334 266591 148914 1380 21357 16721
is_linear=0
shrinkage=0.05


Tree=31
num_leaves=31
num_cat=0
split_feature=6 4 8 10 8 8 10 9 9 9 10 8 6 9 10 8 10 8 9 8 8 10 9 6 9 8 6 8 8 8
split_gain=677.415 232.499 135.455 144.595 119.111 106.674 127.562 236.33 106.754 89.5831 87.6003 99.3257 78.7567 75.785 61.1298 61.5073 60.3692 65.2593 57.4301 51.5607 48.647 57.0128 58.793 87.1725 123.415 186.293 109.917 48.4904 54.8738 48.1298
threshold=4.0000000000000009 -0.60355339059327362 0.27500000000006258 0.35000000000000059 0.72500000000000864 0.45000000000003132 0.36250000000000077 0.31250000000000006 0.30000000000000787 0.025000000000019899 0.049999999999975848 0.15000000000006256 3.3050000000000002 0.77500000000000224 0.025000000000003911 0.35000000000001569 0.099999999999980119 0.062500000000000014 0.025000000000019899 1.949999999999996 0.17499999999996876 0.07500000000000108 0.024999999999984372 2.5250000000000004 0.02499999999999503 0.11250000000001138 2.5450000000000004 0.27500000000001995 0.19999999999996024 0.17499999999999008
decision_type=2 2 2 2 2 2 2 2 2 2 2 2 2 2 2 2 2 2 2 2 2 2 2 2 2 2 2 2 2 2
left_child=1 2 12 4 -4 8 7 -7 10 14 11 -3 16 -9 15 27 17 -1 20 -8 21 22 -19 24 25 -24 -25 28 -2 -22
right_child=9 5 3 -5 -6 6 19 13 -10 -11 -12 -13 -14 -15 -16 -17 -18 18 -20 -21 29 -23 23 26 -26 -27 -28 -29 -30 -31
leaf_value=-0.0035749506692295853 0.018455108834637534 -0.00045240488468749947 0.0035968123983028256 -0.0029760435879746332 0.013800398070246831 0.0095114848738256392 -0.0019778917286597838 0.0029318608494948318 -0.0015965719056570135 0.0029765082150697711 -0.001331713982322476 0.0012197591483302558 0.0053550194276289808 -0.0011399278527499076 -0.0038314763456583027 -0.0029746085405349732 -0.0021137558768478748 0.0003035246443101661 -0.00060617217343904913 0.014909951388835907 0.013644035754259676 0.013048504665493966 0.029670725762844088 0.035952791571617126 -0.00098851866964735522 -0.0021484618075191977 0.0060184593312442303 0.026641698181629182 0.010063761100172998 0.0021243499434121372
leaf_weight=9023 4140 312129 45272 8103 3053 9977 25893 24345 239009 2300 164143 124121 8280 21537 460 460 21940 138694 60965 460 920 920 920 460 6187 920 920 920 3680 62809
leaf_count=9023 4140 312129 45272 8103 3053 9977 25893 24345 239009 2300 164143 124121 8280 21537 460 460 21940 138694 60965 460 920 920 920 460 6187 920 920 920 3680 62809
internal_value=-3.56109e-13 -0.000109732 0.000950135 0.00320502 0.00424144 -0.000534531 0.00118434 0.00253713 -0.000702878 0.0118448 -0.00034711 2.3356e-05 0.000543568 0.00102056 0.0139564 0.0148457 0.000412811 0.000608868 0.000746788 -0.00168311 0.00113449 0.000640054 0.000562973 0.0043882 0.00239249 0.0137611 0.0159966 0.0157837 0.0145062 0.00229065
internal_weight=1.30296e+06 1.291e+06 369386 56428 48325 921614 82212 55859 839402 11960 600393 436250 312958 45882 9660 9200 304678 282738 273715 26353 212750 149021 148101 9407 8027 1840 1380 8740 7820 63729
internal_count=1302960 1291000 369386 56428 48325 921614 82212 55859 839402 11960 600393 436250 312958 45882 9660 9200 304678 282738 273715 26353 212750 149021 148101 9407 8027 1840 1380 8740 7820 63729
is_linear=0
shrinkage=0.05


Tree=32
num_leaves=31
num_cat=0
