tree
version=v4
num_class=1
num_tree_per_iteration=1
label_index=0
max_feature_idx=10
objective=quantile
feature_names=hour day_of_week month is_weekend hour_sin hour_cos temp_c cloud_cover_pct shortwave_radiation_w_m2 vacation_mode_flag alarm_armed_flag
feature_infos=[0:23] [0:6] [11:12] [0:1] [-1:1] [-1:1] [-4.5999999999999996:13.4] [0:100] [0:282] none none
tree_sizes=2696 2791 2785 2802 2821 2848 2804 2861 2862 2858 2880 2888 2898 2882 2921 2888 2870 2902 2907 2889 2884 2872 2898 2909 2882 2921 2908 2917 2905 2924 2885 2896 2902 2896 2903 2898 2893 2926 2921 2903 2928 2899 2881 2906 2911 2892 2922 2900 2909 2894 2917 2879 2910 2914 2919 2912 2906 2896 2907 2905 2895 2919 2877 2918 2887 2941 2926 2906 2916 2887 2924 2902 2936 2890 2888 2905 2921 2885 2862 2874 2868 2932 2888 2908 2872 2879 2897 2920 2870 2876 2907 2880 2911 2904 2864 2904 2890 2863 2863 2890 2917 2895 2895 2895 2902 2871 2856 2847 2880 2923 2911 2929 2916 2927 2929 2864 2890 2906 2910 2884 2873 2931 2892 2908 2946 2912 2893 2893 2896 2888 2919 2903 2870 2924 2868 2896 2895 2890 2921 2918 2910 2876 2920 2898 2926 2927 2909 2919 2891 2925 2891 2893 2916 2901 2886 2895 2868 2894 2869 2890 2899 2892 2866 2889 2899 2900 2895 2889 2872 2895 2875 2908 2897 2862 2869 2881 2907 2896 2895 2875 2865 2885 2862 2856 2900 2884 2871 2892 2871 2870 2873 2904 2861 2845 2893 2911 2859 2885 2871 2893

Tree=0
num_leaves=31
num_cat=0
split_feature=0 1 6 5 8 6 0 0 6 1 1 6 6 8 6 8 0 1 1 0 0 6 1 1 1 2 1 1 1 6
split_gain=5.14016 4.39889 4.24451 1.62487 1.35018 1.19274 1.06144 0.944135 0.735337 0.775758 0.692298 0.522194 0.507092 0.526411 0.444481 0.440141 0.428571 0.417029 0.380952 0.375528 0.356051 0.898462 0.62354 1.07261 0.501462 0.971914 0.411526 0.857143 0.346773 0.325853
threshold=3.5000000000000004 4.5000000000000009 2.0500000000000003 1.0000000180025095e-35 92.000000000000014 8.6500000000000004 15.500000000000002 16.500000000000004 2.6000000000000005 2.5000000000000004 2.5000000000000004 1.0500000000000003 1.8 48.500000000000007 4.1500000000000012 1.0000000180025095e-35 17.500000000000004 1.0000000180025095e-35 5.5000000000000009 4.5000000000000009 1.0000000180025095e-35 4.7500000000000009 1.5000000000000002 4.5000000000000009 4.5000000000000009 11.500000000000002 3.5000000000000004 2.5000000000000004 5.5000000000000009 4.5500000000000007
decision_type=2 2 8 2 8 8 2 2 8 2 2 10 10 8 10 8 2 2 2 2 2 10 2 2 2 2 2 2 2 10
left_child=8 6 -3 4 14 -6 10 -7 9 -1 -2 15 13 -12 -4 -8 18 -10 -9 -5 21 22 -19 26 25 -22 27 -24 -25 -21
right_child=1 2 3 19 5 7 11 16 17 -11 12 -13 -14 -15 -16 -17 -18 20 -20 29 24 -23 23 28 -26 -27 -28 -29 -30 -31
leaf_value=0.60800000828504641 0.59500002264976504 0.61500002145767207 0.60500002205371861 0.62299999934434669 0.62000002264976506 0.61000002324581148 0.60500002205371861 0.61500001907348723 0.61500002145767207 0.63350001895427965 0.60500002205371861 0.59500002264976504 0.59000002294778819 0.60000002384185791 0.59600001120567048 0.60000002384185791 0.61900001293420848 0.60000002384185791 0.6350000154972093 0.60000002384185791 0.60000002384185791 0.59100001955032366 0.63500001788139571 0.59000002294778819 0.62000002264976506 0.61000002324581148 0.63450001823902369 0.61000001847744012 0.61900001770257984 0.59200001496076626
leaf_weight=20 975 36 21 52 26 425 21 21 104 24 21 253 137 497 99 852 42 24 21 298 170 29 21 21 156 155 22 21 22 67
leaf_count=20 975 36 21 52 26 425 21 21 104 24 21 253 137 497 99 852 42 24 21 298 170 29 21 21 156 155 22 21 22 67
internal_value=0.599814 0.599063 0.601724 0.601157 0.60271 0.603785 0.597993 0.603251 0.603492 0.609773 0.597178 0.599174 0.598435 0.599151 0.597917 0.599754 0.608095 0.603121 0.611667 0.598717 0.602644 0.604688 0.60645 0.608084 0.601965 0.600846 0.612188 0.609286 0.601977 0.598151
internal_weight=4653 3864 1108 1072 655 535 2756 509 789 44 1630 1126 655 518 120 873 84 745 42 417 641 160 131 107 481 325 64 42 43 365
internal_count=4653 3864 1108 1072 655 535 2756 509 789 44 1630 1126 655 518 120 873 84 745 42 417 641 160 131 107 481 325 64 42 43 365
is_linear=0
shrinkage=1


Tree=1
num_leaves=31
num_cat=0
split_feature=6 0 1 1 8 6 0 0 8 1 8 7 8 0 2 7 6 0 2 1 1 1 0 0 6 0 0 1 7 1
split_gain=4.84305 3.2961 2.55076 2.42304 1.43447 0.967105 0.659512 0.973412 0.648585 0.604987 0.586081 0.524138 0.503802 0.530182 0.52758 0.449977 0.648077 0.56523 0.454424 1.06487 0.452807 0.891793 0.447229 0.734618 0.432946 0.428443 0.425155 0.398721 0.372671 0.33524
threshold=2.8500000000000001 3.5000000000000004 4.5000000000000009 4.5000000000000009 74.500000000000014 2.1500000000000008 19.500000000000004 7.5000000000000009 25.500000000000004 1.5000000000000002 37.500000000000007 31.500000000000004 28.500000000000004 12.500000000000002 11.500000000000002 98.500000000000014 6.4500000000000011 1.0000000180025095e-35 11.500000000000002 4.5000000000000009 1.5000000000000002 4.5000000000000009 6.5000000000000009 10.500000000000002 -1.0000000180025095e-35 4.5000000000000009 1.5000000000000002 5.5000000000000009 11.500000000000002 2.5000000000000004
decision_type=8 2 2 2 10 10 2 2 10 2 10 10 10 2 2 10 8 2 2 2 2 2 2 2 10 2 2 2 10 2
left_child=3 15 12 5 6 8 7 25 9 -1 -9 -5 13 14 22 16 -2 20 19 26 -18 29 -3 -24 -11 -4 -19 -23 -14 -22
right_child=1 2 4 11 -6 -7 -8 10 -10 24 -12 -13 28 -15 -16 -17 17 18 -20 -21 21 27 23 -25 -26 -27 -28 -29 -30 -31
leaf_value=-0.00039999922215942508 0.012574995625020086 -0.0050000011920928959 0.02384997738301552 0.0092499995231628447 0.015999993860720565 0.0087499963641160146 0 0.0094999994337558735 -0.0057000033289192793 0.0037499960362920581 -0.011160003023147118 0.017249989628789708 0.00024999529123263532 0 -0.0047500011324882524 -0.00034750954389189059 0.014699996876716741 0.0049999982118606569 0.019174997639655769 0.013999997675418853 0.033249994337560908 -0.0095000008493661865 0.00025000005960464365 -0.0047500011324882524 0.0067499932944761537 -0.0048000024482624361 0 0.019049994346499712 -0.0097500008344650283 0.028275001472234607
leaf_weight=36 24 191 51 20 37 24 205 590 22 23 23 38 21 1375 534 100 45 62 214 72 21 22 260 115 47 156 117 21 140 47
leaf_count=36 24 191 51 20 37 24 205 590 22 23 23 38 21 1375 534 100 45 62 214 72 21 22 260 115 47 156 117 21 140 47
internal_value=0.000437351 8.6652e-05 -0.000524609 0.00785714 0.00154425 0.00453947 0.00119512 0.00182927 0.0028125 0.00443396 0.00283034 0.0165517 -0.00135812 -0.00118182 -0.002 0.0031208 0.00360465 0.00329307 0.00241935 0.000976094 0.00589743 0.00761261 -0.000936397 6.66655e-05 0.00714286 -0.00113527 -0.00108939 0.00197674 -0.00406832 0.0111765
internal_weight=4653 4443 3698 210 1062 152 1025 820 128 106 613 58 2636 2475 1100 745 645 621 465 251 156 111 566 375 70 207 179 43 161 68
internal_count=4653 4443 3698 210 1062 152 1025 820 128 106 613 58 2636 2475 1100 745 645 621 465 251 156 111 566 375 70 207 179 43 161 68
is_linear=0
shrinkage=0.05


Tree=2
num_leaves=31
num_cat=0
split_feature=0 1 6 5 0 6 6 1 6 7 4 7 7 1 5 0 7 6 0 1 1 1 1 1 0 1 1 6 4 0
split_gain=3.57057 2.86895 4.13184 1.17356 0.807222 0.829568 0.735337 0.775758 0.734401 0.642793 0.637759 0.466185 0.455018 0.515406 0.642857 0.452778 0.449977 0.648077 0.56523 0.452807 0.891793 0.432522 0.453509 0.398721 0.392429 0.33524 0.962226 0.334688 0.322243 0.318326
threshold=3.5000000000000004 4.5000000000000009 2.0500000000000003 1.0000000180025095e-35 16.500000000000004 4.2500000000000009 2.6000000000000005 2.5000000000000004 4.0500000000000007 66.500000000000014 0.91597561503675362 12.500000000000002 89.500000000000014 5.5000000000000009 -0.78656609248549325 17.500000000000004 98.500000000000014 6.4500000000000011 1.0000000180025095e-35 1.5000000000000002 4.5000000000000009 4.5000000000000009 1.0000000180025095e-35 5.5000000000000009 11.500000000000002 2.5000000000000004 3.5000000000000004 7.3500000000000005 -0.98296291314453399 1.5000000000000002
decision_type=2 2 8 2 2 10 8 2 10 10 2 8 10 2 2 2 10 8 2 2 2 2 2 2 2 2 2 8 2 2
left_child=6 8 -3 4 12 15 7 -1 9 10 11 -2 27 -14 -15 -6 17 -8 19 -19 25 22 -20 -22 -11 -21 -27 -4 -10 -24
right_child=1 2 3 -5 5 -7 16 -9 28 24 -12 -13 13 14 -16 -17 -18 18 21 20 23 -23 29 -25 -26 26 -28 -29 -30 -31
leaf_value=0.0071624854028232987 0.0045624964371331631 0.01338749825358402 0.0078074976612620712 0 0.030774987570944948 -0.0092750046744945365 0.011946245843769084 0.031329995459171811 0.00025000005960464365 0.0044124986365438159 -0.0047500011324882524 0 -0.0052750005319713196 0.014699995121359105 -0.0044962538416687464 0.015574989308417426 -0.00033013406669729839 0.013964997032880903 0.013291247853040712 0.03158749462068286 -0.0090250008068978767 0.018170623213499795 0.004749998301267622 0.018097494629174728 0.00020624944150474513 0.0060862444725635735 0.030361245318951725 0.0090249994620680788 -0.0095125007778406167 0
leaf_weight=20 21 36 22 417 43 20 24 24 26 42 299 1802 46 28 28 44 100 45 63 21 22 126 94 21 62 23 24 424 504 182
leaf_count=20 21 36 22 417 43 20 24 24 26 42 299 1802 46 28 28 44 100 45 63 21 22 126 94 21 62 23 24 424 504 182
internal_value=0.000426605 -0.000199277 0.00194946 0.00138992 0.00270992 0.00668224 0.00349176 0.00977273 -0.00106314 -0.000664871 -0.00085297 -0.000501921 0.00193431 -0.00107843 0.00214286 0.0087931 0.0031208 0.00360465 0.00329307 0.00589743 0.00761261 0.00241935 0.00148967 0.00197674 0.00317308 0.0111765 0.00882979 0.00262332 -0.00273585 0.000615941
internal_weight=4653 3864 1108 1072 655 107 789 44 2756 2226 2122 1823 548 102 56 87 745 645 621 156 111 465 339 43 104 68 47 446 530 276
internal_count=4653 3864 1108 1072 655 107 789 44 2756 2226 2122 1823 548 102 56 87 745 645 621 156 111 465 339 43 104 68 47 446 530 276
is_linear=0
shrinkage=0.05


Tree=3
num_leaves=31
num_cat=0
split_feature=0 1 6 5 0 6 6 1 7 6 0 7 1 2 0 7 6 0 2 1 1 1 0 1 0 1 1 6 4 0
split_gain=3.49586 2.88581 4.10949 1.22696 0.973934 0.766608 0.735337 0.775758 0.627833 0.502933 0.460428 0.455018 0.515406 0.775092 0.452778 0.449977 0.648077 0.56523 0.454424 1.06487 0.452807 0.891793 0.425155 0.398721 0.392429 0.33524 0.962226 0.334688 0.322243 0.310035
threshold=3.5000000000000004 4.5000000000000009 2.0500000000000003 1.0000000180025095e-35 16.500000000000004 4.0500000000000007 2.6000000000000005 2.5000000000000004 66.500000000000014 4.2500000000000009 6.5000000000000009 89.500000000000014 5.5000000000000009 11.500000000000002 17.500000000000004 98.500000000000014 6.4500000000000011 1.0000000180025095e-35 11.500000000000002 4.5000000000000009 1.5000000000000002 4.5000000000000009 1.5000000000000002 5.5000000000000009 11.500000000000002 2.5000000000000004 3.5000000000000004 7.3500000000000005 -0.98296291314453399 5.5000000000000009
decision_type=2 2 8 2 2 10 8 2 10 10 2 10 2 2 2 10 8 2 2 2 2 2 2 2 2 2 2 8 2 2
left_child=6 5 -3 4 11 8 7 -1 10 14 -2 27 -13 -14 -6 16 -8 20 19 22 -18 25 -19 -23 -10 -22 -27 -4 -7 -5
right_child=1 2 3 29 9 28 15 -9 24 -11 -12 12 13 -15 -16 -17 17 18 -20 -21 21 23 -24 -25 -26 26 -28 -29 -30 -31
leaf_value=0.0068043611326821353 -0.0045125010758638399 0.01271812334090482 0.0074171227781989662 0.0026575005675854415 0.029236238192397696 0.00023750005662441233 0.011348933551580627 0.029763495686213223 0.0041918737047166258 -0.0088112544407698123 0 -0.0050112505053727559 0.017464999418407762 -0.00095901825786250778 0.014796239842996557 -0.00031362736336243077 0.013266747181236858 0.0045124983862042389 0.017478493495663619 0.01239146663097292 0.030008119889648716 -0.0085737507665529841 0 0.017192619897715988 0.00019593696942950945 0.0057819322489353958 0.028843183053004141 0.0085737494889646781 -0.0090368757389485861 -0.0004749999716877951
leaf_weight=20 296 36 22 105 43 26 24 24 42 20 1826 46 26 30 44 100 45 62 214 72 21 22 117 21 62 23 24 424 504 312
leaf_count=20 296 36 22 105 43 26 24 24 42 20 1826 46 26 30 44 100 45 62 214 72 21 22 117 21 62 23 24 424 504 312
internal_value=0.000458843 -0.000160457 0.00199458 0.00143657 0.00278626 -0.00102685 0.00349176 0.00977273 -0.000619947 0.00714953 -0.000805845 0.00193431 -0.00107843 0.00214286 0.0087931 0.0031208 0.00360465 0.00329307 0.00241935 0.000976094 0.00589743 0.00761261 -0.00108939 0.00197674 0.00317308 0.0111765 0.00882979 0.00262332 -0.00273585 -0.000683454
internal_weight=4653 3864 1108 1072 655 2756 789 44 2226 107 2122 548 102 56 87 745 645 621 465 251 156 111 179 43 104 68 47 446 530 417
internal_count=4653 3864 1108 1072 655 2756 789 44 2226 107 2122 548 102 56 87 745 645 621 465 251 156 111 179 43 104 68 47 446 530 417
is_linear=0
shrinkage=0.05


Tree=4
num_leaves=31
num_cat=0
split_feature=1 6 0 8 6 8 4 4 8 8 4 6 1 2 1 6 6 0 0 0 2 6 0 0 4 4 4 1 1 0
split_gain=3.67227 4.65036 2.8941 1.40075 1.37303 0.869327 0.476259 0.403101 0.335657 0.383811 0.333333 0.27584 0.274645 1.16667 0.373296 0.271947 0.268347 0.345559 0.871795 0.280462 1.07389 0.432212 0.26097 0.506015 0.275062 0.26581 0.328378 0.804762 0.725438 0.417718
threshold=4.5000000000000009 2.0500000000000003 1.5000000000000002 92.000000000000014 8.6500000000000004 28.500000000000004 0.98296291314453421 0.91597561503675362 18.500000000000004 3.5000000000000004 0.37940952255126054 3.2500000000000004 3.5000000000000004 11.500000000000002 1.0000000180025095e-35 4.2500000000000009 5.3500000000000005 18.500000000000004 9.5000000000000018 2.5000000000000004 11.500000000000002 9.2500000000000018 18.500000000000004 16.500000000000004 1.0000000180025095e-35 0.78656609248549325 0.60355339059327384 5.5000000000000009 5.5000000000000009 11.500000000000002
decision_type=2 8 2 8 8 10 2 2 10 10 2 10 2 2 2 10 8 2 2 2 2 8 2 2 2 2 2 2 2 2
left_child=2 10 12 11 -5 7 22 8 9 16 -2 -3 14 -14 -1 -16 17 18 -4 20 -18 -21 23 24 -6 26 27 29 -28 -26
right_child=1 3 5 4 6 -7 -8 -9 -10 -11 -12 -13 13 -15 15 -17 19 -19 -20 21 -22 -23 -24 -25 25 -27 28 -29 -30 -31
leaf_value=0.026073277343765723 0.019082213359161007 0.0022594867821796208 0.0030892243071697079 0.016591749447487376 0.0031450608224235458 -0.0075095605370698931 -0.005236255928873646 -0.0042868760220706459 0.0047524650245542137 -0.0075506097698332152 0.010702215039417925 -0.0028869317529613223 0.0038514653255619573 0.02637118578399299 0.012808691480424567 -0.0045004381083116876 0 -0.00035760950442697637 0.0084364342161707701 -0.0088225320086255665 0.027667303899160139 0 2.3749998584388091e-05 0.018959033408791043 -0.0018549373894371113 0.0081450620145164417 0.025447414191371583 0.023013281769506368 0.003145059512869515 0.023145062610562889
leaf_weight=53 24 22 78 26 214 189 42 392 24 47 24 232 32 24 143 31 66 77 24 149 61 1934 201 84 83 167 42 105 41 22
leaf_count=53 24 22 78 26 214 189 42 392 24 47 24 232 32 24 143 31 66 77 24 149 61 1934 201 84 83 167 42 105 41 22
internal_value=0.00041586 0.00263732 -0.000472324 0.00206479 0.00288705 -0.000922395 0.00259241 -0.00070477 -0.000467481 -0.000525453 0.0179167 -0.00125984 0.00436396 0.0075 0.00359031 0.00247126 -0.000437423 0.00142458 0.00333333 -0.000588236 0.00169291 -0.000727318 0.00282065 0.00324538 0.00278932 0.00347826 0.00438566 0.00333333 0.00704819 0.000238094
internal_weight=4653 1329 3324 1281 1027 3041 1001 2852 2460 2436 48 254 283 56 227 174 2389 179 102 2210 127 2083 959 758 674 460 293 210 83 105
internal_count=4653 1329 3324 1281 1027 3041 1001 2852 2460 2436 48 254 283 56 227 174 2389 179 102 2210 127 2083 959 758 674 460 293 210 83 105
is_linear=0
shrinkage=0.05


Tree=5
num_leaves=31
num_cat=0
split_feature=1 5 8 7 1 4 8 8 4 2 7 8 2 8 4 7 1 1 1 8 4 1 4 4 5 1 4 4 2 5
split_gain=3.58395 2.31215 1.0267 0.747916 1.10339 0.768487 0.630444 0.629928 0.503508 0.475347 0.385714 0.353902 1.09984 0.298743 0.296194 0.262381 0.252083 0.246952 0.296471 0.238402 0.366683 0.606987 0.444854 0.522151 0.488501 0.343427 0.536571 0.334097 0.508255 0.577515
threshold=4.5000000000000009 0.91597561503675351 92.000000000000014 98.500000000000014 5.5000000000000009 0.91597561503675362 33.500000000000007 37.500000000000007 -1.0000000180025095e-35 11.500000000000002 69.500000000000014 13.500000000000002 11.500000000000002 2.5000000000000004 0.91597561503675362 10.500000000000002 1.5000000000000002 1.0000000180025095e-35 1.5000000000000002 1.5000000000000002 0.60355339059327384 5.5000000000000009 -1.0000000180025095e-35 -0.78656609248549292 -0.12940952255126037 5.5000000000000009 0.78656609248549325 0.12940952255126045 11.500000000000002 -0.60355339059327384
decision_type=2 2 10 8 2 2 10 10 2 2 10 10 2 10 2 10 2 2 2 8 2 2 2 2 2 2 2 2 2 2
left_child=1 6 3 4 10 7 11 19 9 16 -2 13 -13 14 -1 -8 -3 -10 -19 -5 21 27 23 24 -23 26 -22 28 -21 -30
right_child=2 8 -4 5 -6 -7 15 -9 17 -11 -12 12 -14 -15 -16 -17 -18 18 -20 20 25 22 -24 -25 -26 -27 -28 -29 29 -31
leaf_value=0 0.0063681076729608065 -1.8973000620606908e-05 0.014538518673505335 0.00023837763244914894 -0.00270062648543748 -0.0028811880879317554 -0.0040373553948244486 -0.0078995705234360461 0.024769613476577437 -0.004163258435086103 0.0084537122443862547 0.0035648419014765761 -0.01381015497673121 -0.008004125149048167 -0.004072532220967112 -0.0079595539400488247 0.0049999982118606569 0.001087750938527168 0.020422884960842047 -0.00011469212036394844 0.023363669876777855 0.028826476950417065 0.016994397329994675 2.2556677180344435e-05 2.2562498655170905e-05 0.0077378089137906175 0.022675765375029803 -0.0017621905199652567 0.022987809569441714 0.0029049074058124366
leaf_weight=2238 35 32 34 116 33 158 26 27 53 64 21 26 21 43 392 151 48 63 167 158 43 51 133 121 63 83 42 88 38 85
leaf_count=2238 35 32 34 116 33 158 26 27 53 64 21 26 21 43 392 151 48 63 167 158 43 51 133 121 63 83 42 88 38 85
internal_value=0.000405114 -0.000472324 0.0025997 0.00237452 0.00679775 0.00204809 -0.0009786 0.00253817 0.00296253 0.000555554 0.0110714 -0.000790442 0.00351064 -0.000866069 -0.00079848 -0.00387006 0.003125 0.00418728 0.00347826 0.00273751 0.00301105 0.00253053 0.00396739 0.00265957 0.00508772 0.00511905 0.00735294 0.00109756 0.0019395 0.00434959
internal_weight=4653 3324 1329 1295 89 1206 2897 1048 427 144 56 2720 47 2673 2630 177 80 283 230 1021 905 737 368 235 114 168 85 369 281 123
internal_count=4653 3324 1329 1295 89 1206 2897 1048 427 144 56 2720 47 2673 2630 177 80 283 230 1021 905 737 368 235 114 168 85 369 281 123
is_linear=0
shrinkage=0.05


Tree=6
num_leaves=31
num_cat=0
split_feature=6 0 6 8 4 6 0 4 7 8 7 6 2 0 0 2 5 8 8 6 0 5 6 5 7 2 0 2 0 2
split_gain=2.74915 1.98021 1.34031 0.910652 0.871466 0.684014 0.571954 1.42627 0.456896 0.355439 0.277249 0.454826 0.400629 0.624806 0.24208 0.21457 0.204221 0.866941 0.286738 0.284444 0.177296 0.262844 0.47861 0.508977 0.385288 0.249827 0.212641 0.802387 0.173673 0.268731
threshold=2.8500000000000001 3.5000000000000004 4.4500000000000011 25.500000000000004 0.91597561503675362 -0.44999999999999996 19.500000000000004 0.12940952255126045 98.500000000000014 116.50000000000001 98.500000000000014 6.4500000000000011 11.500000000000002 1.5000000000000002 2.5000000000000004 11.500000000000002 -0.5 29.500000000000004 92.000000000000014 9.7500000000000018 22.500000000000004 0.1294095225512602 3.3500000000000001 -0.5 99.500000000000014 11.500000000000002 10.500000000000002 11.500000000000002 6.5000000000000009 11.500000000000002
decision_type=8 2 10 10 2 10 2 2 10 10 10 8 2 2 2 2 2 10 10 10 2 2 10 2 10 2 2 2 2 2
left_child=3 10 4 5 9 -1 7 -7 -9 20 11 -2 13 -13 -15 16 17 -4 -19 -20 21 22 23 26 -23 -22 27 -3 -6 -30
right_child=1 2 15 -5 28 6 -8 8 -10 -11 -12 12 -14 14 -16 -17 -18 18 19 -21 25 24 -24 -25 -26 -27 -28 -29 29 -31
leaf_value=0.011647440073247299 0.010930712809836797 0.0036809861812948292 0.005091554018011521 -0.0030140358431822393 -0.003868905609918755 0.028624374443478831 -0.000289159539024439 0.0085687846555031182 -6.5213187696627704e-05 0.0055867192186742154 -0.00013489584481479069 0.011856800397254164 0.020145184946218999 -9.1396481402443588e-05 0.0035854314414897667 -0.0051962111782666879 -0.0083814054081942872 -0.0065012884431127601 0.0067975492661360619 -0.0075615762430463864 0.004749998301267622 0 -0.0050197943727731927 0.0051424957317107887 0.0089840093956154547 -0.0015234365044907842 0 -0.0038553213444121603 0.00064297046579607226 -0.006403132183758326
leaf_weight=38 24 160 33 38 285 30 25 34 45 21 100 170 285 85 81 381 178 48 20 25 85 733 37 445 23 64 882 130 78 70
leaf_count=38 24 160 33 38 285 30 25 34 45 21 100 170 285 85 81 381 178 48 20 25 85 733 37 445 23 64 882 130 78 70
internal_value=0.000362131 9.79056e-05 -0.00037588 0.00595238 7.79942e-05 0.0075 0.00582089 0.00738532 0.00386076 0.000426355 0.00244966 0.00282946 0.00256844 0.00139881 -0.000783134 -0.00237226 -0.00138158 0.000158729 -0.00231183 0.000555554 0.000373191 0.000269708 0.000622732 0.00075139 -0.000502647 0.00204698 0.000204777 0.00137931 -0.00199769 -0.000608109
internal_weight=4653 4443 3698 210 3013 172 134 109 79 2580 745 645 621 336 166 685 304 126 93 45 2559 2410 1654 1617 756 149 1172 290 433 148
internal_count=4653 4443 3698 210 3013 172 134 109 79 2580 745 645 621 336 166 685 304 126 93 45 2559 2410 1654 1617 756 149 1172 290 433 148
is_linear=0
shrinkage=0.05


Tree=7
num_leaves=31
num_cat=0
split_feature=1 0 7 1 7 4 1 4 4 2 5 5 4 4 0 1 4 5 0 7 2 7 4 7 1 7 4 2 5 1
split_gain=3.12553 2.41304 0.746314 0.904626 0.84266 0.555333 0.458504 0.70624 0.732966 0.561051 0.756145 0.762397 0.452552 0.439452 0.424433 0.438294 0.403739 0.401317 0.400972 0.474594 0.373349 0.362928 0.379502 0.541242 0.445473 0.301404 0.284054 0.269007 0.363302 0.267296
threshold=4.5000000000000009 2.5000000000000004 98.500000000000014 5.5000000000000009 71.500000000000014 0.98296291314453421 5.5000000000000009 0.60355339059327384 -0.9159756150367534 11.500000000000002 0.91597561503675351 -0.78656609248549325 0.78656609248549325 -0.78656609248549292 22.500000000000004 1.5000000000000002 -0.98296291314453399 -0.98296291314453399 17.500000000000004 99.500000000000014 11.500000000000002 13.500000000000002 0.78656609248549325 1.5000000000000002 1.5000000000000002 18.500000000000004 0.98296291314453421 11.500000000000002 0.60355339059327384 3.5000000000000004
decision_type=2 2 8 2 10 2 2 2 2 2 2 2 2 2 2 2 2 2 2 10 2 10 2 10 2 10 2 2 2 2
left_child=1 -1 3 4 -2 6 7 8 20 10 11 -8 -9 -13 16 -16 25 -10 19 -11 -4 22 23 -18 -24 -3 29 -23 -29 -26
right_child=2 14 5 -5 -6 -7 9 12 17 18 -12 13 -14 -15 15 -17 21 -19 -20 -21 -22 27 24 -25 26 -27 -28 28 -30 -31
leaf_value=0.0093621363433365364 0.0053533493501953114 0.0017428618619785509 0.002600687431830988 -0.0022285836375926481 0.0093251593965179864 -0.0046369396396302607 0.0061446780595413924 0.016588636085461152 0.02164700592727831 0.016969916923320633 0.019608919279428906 0.0068724737690471303 0.0025573506143703158 0.00063765768107983893 -0.0042677612277411117 0.0045124983862042389 0 -0.0018877965460400406 -0.0049785665272967412 -0.00046389457740186196 0.027706102745276764 -0.0025246262050879821 -0.0047696258624493788 0.0046544275736053898 0.0047303734222948869 0.0073802875832916573 -0.0036754603294228195 -0.012051765401010979 0.00078179424534002828 -0.0049701018705245606
leaf_weight=426 47 107 39 39 25 52 73 50 24 153 45 73 104 145 60 84 1490 323 56 48 33 306 222 26 157 33 56 232 45 80
leaf_count=426 47 107 39 39 25 52 73 50 24 153 45 73 104 145 60 84 1490 323 56 48 33 306 222 26 157 33 56 232 45 80
internal_value=0.00028691 -0.000532492 0.00233634 0.00626126 0.00958333 0.00197865 0.00220412 0.00119546 0.000131264 0.00317875 0.00452381 0.00359106 0.00409091 0.00211009 -0.001049 0.00159722 -0.00118737 -0.000821327 0.00142023 0.00246269 0.00472222 -0.00132747 -0.00101182 -0.000613458 -0.00218447 0.00142857 -0.000904438 -0.0024271 -0.00355596 -0.000147681
internal_weight=4653 3324 1329 111 72 1218 1166 573 419 593 336 291 154 218 2898 144 2754 347 257 201 72 2614 2031 1516 515 140 293 583 277 237
internal_count=4653 3324 1329 111 72 1218 1166 573 419 593 336 291 154 218 2898 144 2754 347 257 201 72 2614 2031 1516 515 140 293 583 277 237
is_linear=0
shrinkage=0.05


Tree=8
num_leaves=31
num_cat=0
split_feature=1 6 5 8 6 8 4 0 6 5 6 0 1 2 4 5 1 2 0 8 8 1 6 0 1 4 6 4 4 2
split_gain=2.5929 3.79234 2.29629 1.27499 1.5181 0.661372 0.527517 0.76215 0.469971 0.41942 0.377901 0.5604 0.429258 0.389785 0.342921 0.319118 0.284375 0.670273 0.642857 0.270471 0.303457 0.185453 0.357143 0.185265 0.17829 0.323995 0.17188 0.169897 0.337984 0.4125
threshold=4.5000000000000009 2.0500000000000003 0.91597561503675351 92.000000000000014 8.6500000000000004 28.500000000000004 0.91597561503675362 18.500000000000004 3.7500000000000004 -0.70710678118654757 5.5500000000000007 1.0000000180025095e-35 3.5000000000000004 11.500000000000002 0.91597561503675362 0.60355339059327384 5.5000000000000009 11.500000000000002 12.500000000000002 18.500000000000004 2.5000000000000004 2.5000000000000004 2.0500000000000003 16.500000000000004 1.5000000000000002 0.98296291314453421 3.8500000000000001 0.91597561503675362 0.12940952255126045 11.500000000000002
decision_type=2 8 2 8 8 10 2 2 8 2 10 2 2 2 2 2 2 2 2 10 10 2 10 2 2 2 10 2 2 2
left_child=2 -2 5 27 -5 8 7 9 15 16 11 12 -4 -12 19 21 17 -6 -18 20 -10 22 -1 -11 -16 -26 -7 28 -3 -30
right_child=1 3 10 4 6 26 -8 -9 14 23 13 -13 -14 -15 24 -17 18 -19 -20 -21 -22 -23 -24 -25 25 -27 -28 -29 29 -31
leaf_value=-0.00092710465474648044 0.010868135698006522 -0.003982521684706833 0.021725473313339096 0.01441839539025486 -0.0019120659972380882 -0.0018600320934019272 -0.0015631470456737519 -2.829304433344948e-05 -0.00016602095257712917 0.012030660353874831 0.0020122086033111789 0.0042868734668940261 0.034318275664393751 -0.0051541479859145457 -0.0081869786786724855 -0.0019430245559309016 0.015620504694988283 0.019355338698119406 -0.0028618141105833331 0.0013582548045445418 -0.0091402544330409681 0.0054433996115883614 0.0041509193762415911 0.016047661471214256 -0.0034603797341733918 -0.0034916873129516805 -0.0071102805106363527 -0.0089351238864848418 0.0035325682474878772 -0.0019630271353852863
leaf_weight=36 48 133 97 26 76 36 126 201 2157 334 31 247 23 29 156 33 63 54 63 20 43 29 20 84 144 70 153 33 40 48
leaf_count=36 48 133 97 26 76 36 126 201 2157 334 31 247 23 29 156 33 63 54 63 20 43 29 20 84 144 70 153 33 40 48
internal_value=0.000168707 0.00203536 -0.000577619 0.00151834 0.00230282 -0.00108216 0.00199301 0.00242857 -0.000882571 0.00323442 0.00284543 0.00344687 0.00625 -0.000833335 -0.00102317 0.00220339 0.00164062 -1.19209e-09 0.00333333 -0.000788289 -0.00084091 0.00382353 0.00214286 0.00421053 -0.00243243 -0.00149533 -0.0039418 -0.00165354 -0.00115385 0.00125
internal_weight=4653 1329 3324 1281 1027 2897 1001 875 2708 674 427 367 120 60 2590 118 256 130 126 2220 2200 85 56 418 370 214 189 254 221 88
internal_count=4653 1329 3324 1281 1027 2897 1001 875 2708 674 427 367 120 60 2590 118 256 130 126 2220 2200 85 56 418 370 214 189 254 221 88
is_linear=0
shrinkage=0.05


Tree=9
num_leaves=31
num_cat=0
split_feature=1 5 8 8 0 2 8 0 7 4 0 0 7 2 1 4 0 2 2 0 0 8 0 7 8 0 1 1 0 7
split_gain=1.53611 1.14903 0.870234 0.71752 0.622875 0.613949 0.590442 0.619319 1.0354 0.763705 0.44857 0.382308 0.357364 0.495623 0.35105 0.570366 0.535455 0.820751 0.305741 0.48679 0.413161 0.286675 0.2747 0.262381 0.26002 0.339532 0.256775 0.3 0.5 0.452525
threshold=4.5000000000000009 0.60355339059327384 92.000000000000014 33.500000000000007 12.500000000000002 11.500000000000002 37.500000000000007 18.500000000000004 98.500000000000014 0.91597561503675362 6.5000000000000009 1.5000000000000002 83.500000000000014 11.500000000000002 5.5000000000000009 0.60355339059327384 11.500000000000002 11.500000000000002 11.500000000000002 22.500000000000004 22.500000000000004 1.5000000000000002 16.500000000000004 10.500000000000002 1.5000000000000002 10.500000000000002 3.5000000000000004 1.5000000000000002 2.5000000000000004 99.500000000000014
decision_type=2 2 10 10 2 2 10 2 8 2 2 2 10 2 2 2 2 2 2 2 2 8 2 10 10 2 2 2 2 10
left_child=1 3 6 4 5 10 7 8 -2 14 -1 -3 21 -14 15 16 -10 -18 19 -13 26 -6 -19 -5 25 -12 27 29 -29 -20
right_child=2 11 -4 23 12 -7 -8 -9 9 -11 24 18 13 -15 -16 -17 17 22 20 -21 -22 -23 -24 -25 -26 -27 -28 28 -30 -31
leaf_value=-0.003317102947304096 0.0052486139278402483 0.012286718994307371 0.012722597332052039 -0.0040756437239874415 0.0071148975143564127 -0.0045228435216980558 -0.0041738566343817651 -2.6878392116774786e-05 -0.0064840890588959811 -0.0029835442289354286 0.0001579355145733246 -0.00053569450315726246 0.00069034401338841696 -0.0085531233198140513 0.01097124972732421 0.019096595944266562 -0.0016328074021414373 0.019223647321825868 0.0059367146978350372 0.0040725297935493236 -0.0040586408893892537 8.3010476288558618e-06 0.027018418229939563 -0.0067017522847020831 0.0012318228450551947 -0.0045042000282349837 -0.0049917001444640396 -0.0031831118317229793 0.0056446513233555078 -0.0025368681061253822
leaf_weight=210 53 283 34 26 22 538 33 269 122 158 267 307 66 69 399 103 87 49 99 80 64 842 22 151 23 113 47 24 72 21
leaf_count=210 53 283 34 26 22 538 33 269 122 158 267 307 66 69 399 103 87 49 99 80 64 842 22 151 23 113 47 24 72 21
internal_value=0.000372877 -0.000201566 0.00180963 -0.000810057 -0.000558141 -0.001351 0.00160232 0.00177496 0.00235146 0.00196808 -0.000269169 0.00121865 0.000355354 -0.00203704 0.00260869 0.00152741 0.000357142 0.00227848 0.00060224 -0.000348838 0.00172783 0.000729165 0.0062676 -0.00387006 0.000707195 0.000394736 0.00260456 0.00333333 0.00541667 0.00166667
internal_weight=4653 3324 1329 2327 2150 1151 1295 1262 993 940 613 997 999 135 782 383 280 158 714 387 327 864 71 177 403 380 263 216 96 120
internal_count=4653 3324 1329 2327 2150 1151 1295 1262 993 940 613 997 999 135 782 383 280 158 714 387 327 864 71 177 403 380 263 216 96 120
is_linear=0
shrinkage=0.05


Tree=10
num_leaves=31
num_cat=0
split_feature=6 1 6 0 0 4 1 6 4 0 8 0 0 0 0 1 0 0 6 1 0 6 0 0 0 1 0 0 4 8
split_gain=1.72032 1.27493 2.71565 1.1501 0.577309 0.546103 0.415957 0.387294 0.342434 0.334563 0.429624 0.395549 0.321429 0.323449 0.300913 0.280706 0.428169 0.29053 0.233816 0.214758 0.511592 0.326548 0.320439 0.22096 1.01779 0.275122 1.3231 0.36914 0.205786 0.217914
threshold=4.5500000000000007 4.5000000000000009 2.0500000000000003 1.0000000180025095e-35 4.5000000000000009 0.91597561503675362 1.5000000000000002 0.45000000000000007 0.98296291314453421 18.500000000000004 26.500000000000004 16.500000000000004 1.0000000180025095e-35 2.5000000000000004 15.500000000000002 1.5000000000000002 22.500000000000004 21.500000000000004 6.2500000000000009 2.5000000000000004 3.5000000000000004 2.2500000000000004 3.5000000000000004 13.500000000000002 12.500000000000002 3.5000000000000004 8.5000000000000018 8.5000000000000018 -0.98296291314453399 92.000000000000014
decision_type=10 2 8 2 2 2 2 10 2 2 8 2 2 2 2 2 2 2 10 2 2 10 2 2 2 2 2 2 2 10
left_child=1 3 -3 6 12 14 -1 -7 9 10 -4 -12 -2 -14 19 17 -17 -16 -15 20 -5 -22 -21 24 25 26 -24 -27 -6 -30
right_child=4 2 8 5 28 7 -8 -9 -10 -11 11 -13 13 18 15 16 -18 -19 -20 22 21 -23 23 -25 -26 27 -28 -29 29 -31
leaf_value=0.0074742165313991284 -0.005258325257798885 0.010185780127831447 -0.00073254696815761152 0.0060057013548770292 0.00013055651969223606 -0.0031512477999388888 0.023970504185758478 0.0044234255083425876 -0.0051024170332047546 -1.8572380608552824e-06 0.0059260560854172816 0.014696715911287331 0.0038732841079588613 0.0036090702396023803 7.8859952474141802e-06 3.5085772786719315e-05 0.0038689033038718569 -0.0049197939436829334 -0.0056997995225912465 -0.0023220746798502672 -0.0042780578521500806 0.00083698007907775755 0.0077196687042494416 -0.0049921151968454818 0.0090078801539910328 -0.0050207166162322464 -0.00019614504014478507 0.00047101110566502016 -0.0064196788708694337 -0.00121346205838209
leaf_weight=47 35 48 32 215 31 300 68 21 44 210 692 84 71 24 284 479 68 100 45 134 581 29 46 88 43 40 93 86 543 72
leaf_count=47 35 48 32 215 31 300 68 21 44 210 692 84 71 24 284 479 68 100 45 134 581 29 46 88 43 40 93 86 543 72
internal_value=0.000243927 0.000688934 0.00211712 0.000106538 -0.00183313 -0.000109322 0.005 -0.0020405 0.00159134 0.00177799 0.0022401 0.00247423 0.000714285 0.00178571 0.000161854 0.000853919 0.00158135 -0.000182293 -0.000652175 -0.000313654 -0.000818183 -0.00155738 0.000471697 0.00118687 0.00181818 0.000660376 0.00219424 -0.00103175 -0.00252322 -0.00272358
internal_weight=4653 3832 1110 2722 821 2607 115 321 1062 1018 808 776 175 140 2286 931 547 384 69 1355 825 610 530 396 308 265 139 126 646 615
internal_count=4653 3832 1110 2722 821 2607 115 321 1062 1018 808 776 175 140 2286 931 547 384 69 1355 825 610 530 396 308 265 139 126 646 615
is_linear=0
shrinkage=0.05


Tree=11
num_leaves=31
num_cat=0
split_feature=0 1 0 8 8 2 8 5 5 5 8 1 1 1 7 0 1 2 7 1 0 0 8 0 1 5 7 0 1 1
split_gain=1.36871 0.845497 1.09477 0.500736 0.912481 0.663416 0.608766 0.577888 0.401982 0.451892 0.386022 0.316035 0.303906 0.353292 0.286537 0.285532 0.277183 0.205517 0.795553 0.194371 0.228571 0.192063 0.181467 0.22037 0.361888 0.239568 0.155802 0.236324 0.276925 0.360686
threshold=3.5000000000000004 2.5000000000000004 15.500000000000002 92.000000000000014 135.00000000000003 11.500000000000002 30.500000000000004 -0.5 1.0000000180025095e-35 0.25881904510252057 210.00000000000003 1.5000000000000002 5.5000000000000009 1.0000000180025095e-35 87.500000000000014 21.500000000000004 5.5000000000000009 11.500000000000002 69.500000000000014 3.5000000000000004 4.5000000000000009 20.500000000000004 23.500000000000004 7.5000000000000009 1.0000000180025095e-35 -0.9159756150367534 44.500000000000007 1.0000000180025095e-35 1.5000000000000002 4.5000000000000009
decision_type=2 2 2 8 8 2 10 2 2 2 8 2 2 2 10 2 2 2 8 2 2 2 10 2 2 2 8 2 2 2
left_child=12 2 17 5 -5 6 7 -3 10 -10 -6 14 13 -1 15 -4 -12 18 -2 20 -11 -22 23 -20 -25 -26 -15 28 -28 -30
right_child=1 3 11 4 8 -7 -8 -9 9 19 16 -13 -14 26 -16 -17 -18 -19 22 -21 21 -23 -24 24 25 -27 27 -29 29 -31
leaf_value=0.0083052097711629642 0.0035114587929404271 0.0060956827979069331 7.4916954850456909e-06 0.012776878200056581 -0.0076320430694013994 -0.0026304900250670726 -0.0036952640011268969 0.002330552130680895 -0.003165265400125713 0.03007505549896667 0.00093949090833018295 0.0036754581386782615 0.012412496048514684 0.0012635251222539085 -0.0065588196371635932 -0.0047189257221220311 0.0082781428207800226 -0.0045282122446333338 -0.0033416833486576147 -2.3657280838237357e-05 -0.0034155424764667434 0.004514540001070242 -0.0042475852288148723 0.00043316372766903367 -0.0040650871342157334 -0.00015308534886464341 -0.0049822065675998702 0.00047990733611111237 0.02193122638603133 -0.0093686632249088252
leaf_weight=108 31 36 280 22 24 226 40 188 165 21 766 222 111 25 78 101 255 480 143 360 42 63 45 78 71 127 29 410 80 26
leaf_count=108 31 36 280 22 24 226 40 188 165 21 766 222 111 25 78 101 255 480 143 360 42 63 45 78 71 127 29 410 80 26
internal_value=0.00013647 -0.000251036 -0.00110507 0.000389492 0.000791617 -0.00102041 0.000681817 0.00169643 0.000660376 -0.000314901 0.00126794 0.000433185 0.00203422 0.00163717 -0.000315905 0.000249343 0.00141528 -0.00217949 -0.00146465 0.000452674 0.00214286 0.00119047 -0.00198276 -0.00165871 -0.000833335 -0.0019697 0.00114035 0.000963302 0.00277778 0.00396226
internal_weight=4653 3864 1656 2208 1718 490 264 224 1696 651 1045 681 789 678 459 381 1021 975 495 486 126 105 464 419 276 198 570 545 135 106
internal_count=4653 3864 1656 2208 1718 490 264 224 1696 651 1045 681 789 678 459 381 1021 975 495 486 126 105 464 419 276 198 570 545 135 106
is_linear=0
shrinkage=0.05


Tree=12
num_leaves=31
num_cat=0
split_feature=0 1 8 8 0 8 8 4 1 7 2 7 8 0 0 1 1 2 1 1 0 7 7 0 2 1 4 7 1 7
split_gain=1.23578 0.858664 1.08513 0.742875 0.586377 0.411066 0.443458 0.349822 0.3365 0.300253 0.278369 0.262381 0.255735 0.266988 0.243101 0.415881 0.34316 0.316677 0.690328 0.227819 0.209831 0.336172 0.258625 0.197135 0.555556 0.188325 0.170906 0.329188 0.309985 0.257238
threshold=3.5000000000000004 4.5000000000000009 92.000000000000014 33.500000000000007 6.5000000000000009 16.500000000000004 2.5000000000000004 0.98296291314453421 5.5000000000000009 98.500000000000014 11.500000000000002 10.500000000000002 37.500000000000007 18.500000000000004 1.0000000180025095e-35 4.5000000000000009 1.5000000000000002 11.500000000000002 4.5000000000000009 3.5000000000000004 16.500000000000004 96.500000000000014 2.5000000000000004 22.500000000000004 11.500000000000002 1.0000000180025095e-35 -0.78656609248549292 82.500000000000014 2.5000000000000004 99.500000000000014
decision_type=2 2 10 10 2 10 10 2 2 8 2 10 10 2 2 2 2 2 2 2 2 8 10 2 2 2 2 8 2 8
left_child=8 3 7 4 25 6 23 12 9 10 -1 -5 13 20 15 16 -11 18 19 -16 21 -3 -22 26 -25 -2 27 -6 -28 -30
right_child=1 2 -4 11 5 -7 -8 -9 -10 14 -12 -13 -14 -15 17 -17 -18 -19 -20 -21 22 -23 -24 24 -26 -27 28 -29 29 -31
leaf_value=0.016497188769908713 -0.0071800145694055802 0.0038683580062096588 0.011458248369521582 -0.0040892834813889816 0.0067577703984088161 0.00054702681912402907 -0.0060757102627435567 -0.003264367922380679 0.01179187124608895 0.0056463112748512349 -0.0010007301003077246 -0.0058863164072350954 -0.0042470922060781893 -2.4258746565980484e-05 -0.00047024156773884691 -0.0089002300636633839 0.021074846924503343 0.0075213997744507368 0.011035895192683831 -0.0063527527683310261 0.013316092913486073 0.002375928538340278 -0.00015964802805117328 0.0034916852317443459 -0.0033943720943736839 -0.0028354221399356561 -0.0036449782800903052 7.1171107107914635e-06 -0.012414024888148885 0.00040048600496525588
leaf_weight=41 84 20 34 26 22 41 49 56 111 51 20 151 33 269 160 25 76 223 38 44 87 584 25 80 64 306 791 613 22 507
leaf_count=41 84 20 34 26 22 41 49 56 111 51 20 151 33 269 160 25 76 223 38 44 87 584 25 80 64 306 791 613 22 507
internal_value=0.000104233 -0.000263976 0.000911551 -0.000736576 -0.000521521 -0.00020329 -0.000297953 0.000633146 0.00190748 0.00148967 0.00483606 -0.00387006 0.000844793 0.000989847 0.00115883 0.00289474 0.00405512 0.000591397 -0.000661158 -0.00181373 0.00149441 0.00112583 0.00348214 -0.000188186 0.00159722 -0.00230769 -0.000319694 0.00035433 -0.000643941 0.000293004
internal_weight=4653 3864 1108 2756 2579 2189 2148 1074 789 678 61 177 1018 985 617 152 127 465 242 204 716 604 112 2099 144 390 1955 635 1320 529
internal_count=4653 3864 1108 2756 2579 2189 2148 1074 789 678 61 177 1018 985 617 152 127 465 242 204 716 604 112 2099 144 390 1955 635 1320 529
is_linear=0
shrinkage=0.05


Tree=13
num_leaves=31
num_cat=0
split_feature=0 3 8 8 0 2 8 0 7 0 0 7 3 2 0 0 0 7 2 0 5 7 7 0 4 7 0 2 0 2
split_gain=1.17905 0.689108 1.11879 0.760179 0.612112 0.408781 0.97622 0.663967 0.446083 0.420866 0.567001 0.355129 0.2863 0.473847 0.510417 0.308334 0.286749 0.398685 0.560776 0.274594 0.271815 0.263432 0.262381 0.214001 0.20266 0.17622 0.158737 0.270505 0.161655 0.141877
threshold=3.5000000000000004 1.0000000180025095e-35 92.000000000000014 33.500000000000007 6.5000000000000009 11.500000000000002 16.500000000000004 12.500000000000002 inf 10.500000000000002 22.500000000000004 37.500000000000007 1.0000000180025095e-35 11.500000000000002 1.5000000000000002 1.5000000000000002 1.0000000180025095e-35 42.500000000000007 11.500000000000002 2.5000000000000004 1.0000000180025095e-35 47.500000000000007 10.500000000000002 16.500000000000004 -0.9159756150367534 98.500000000000014 13.500000000000002 11.500000000000002 15.500000000000002 11.500000000000002
decision_type=2 2 10 10 2 2 10 2 8 2 2 10 2 2 2 2 2 8 2 2 2 8 10 2 2 10 2 2 2 2
left_child=12 3 11 4 -2 6 9 -7 -9 25 21 20 16 15 -15 -14 -1 -18 -19 -17 23 -11 -5 26 -10 -6 29 28 -28 -3
right_child=1 2 -4 22 5 7 -8 8 24 10 -12 -13 13 14 -16 19 17 18 -20 -21 -22 -23 -24 -25 -26 -27 27 -29 -30 -31
leaf_value=0.016102856742647796 -0.0031029942456466232 0.0036236345113649909 0.010885335951045502 -0.0038848193073195351 0.00059375445529009647 -0.0036554954333063994 0.0051535817303292103 -0.0045787966556025345 0.008197426592782853 0.0069663749238613867 0.0033171009701571277 -0.00042405819578486699 0.010517934548080811 -0.012567183042705122 0.013760230810343988 -0.0030776727092822957 0.0071794218941547893 -0.00072921957647244522 0.0069610611823218904 0.023359980561503759 -2.1261470958953116e-05 -0.00051588613256798655 -0.0055920005868733379 0.012418408206613871 -1.6002964007437489e-05 -0.0028120979410854144 -0.0079548467476610648 0.013450356262509851 0.00095308117266352718 0.0058665171242238273
leaf_weight=140 390 174 34 26 241 358 22 126 144 20 80 217 62 48 48 32 20 214 194 31 340 776 151 90 383 39 48 54 25 126
leaf_count=140 390 174 34 26 241 358 22 126 144 20 80 217 62 48 48 32 20 214 194 31 340 776 151 90 383 39 48 54 25 126
internal_value=8.27411e-05 -0.000276916 0.000776172 -0.000700291 -0.000482746 -0.000157607 0.000475381 -0.000895155 5.35976e-05 0.000276815 -0.000262558 0.000493481 0.00184411 0.00337104 0.000729165 0.0054 0.00125 0.000607475 0.000269607 0.00293651 0.000950991 -0.00066583 -0.00387006 0.00167311 0.000692598 0.00196428 0.00120609 -0.000275592 -0.00226028 0.00183333
internal_weight=4653 3864 1108 2756 2579 2189 1178 1011 653 1156 876 1074 789 221 96 125 568 428 408 63 857 796 177 517 527 280 427 127 73 300
internal_count=4653 3864 1108 2756 2579 2189 1178 1011 653 1156 876 1074 789 221 96 125 568 428 408 63 857 796 177 517 527 280 427 127 73 300
is_linear=0
shrinkage=0.05


Tree=14
num_leaves=31
num_cat=0
split_feature=0 1 8 8 0 8 8 1 1 2 0 0 0 0 1 7 1 5 1 0 0 7 0 1 0 1 1 5 0 0
split_gain=0.964103 0.731875 1.10751 0.583006 0.598294 0.526827 0.447859 0.406669 0.347794 0.296048 0.585397 0.567718 0.400271 0.369144 0.36104 0.286532 0.278926 0.271815 0.252083 0.214393 0.214001 0.209541 0.207692 0.194965 0.222454 0.19391 0.188325 0.178979 0.186312 0.613636
threshold=3.5000000000000004 4.5000000000000009 92.000000000000014 29.500000000000004 6.5000000000000009 16.500000000000004 2.5000000000000004 5.5000000000000009 1.0000000180025095e-35 11.500000000000002 12.500000000000002 10.500000000000002 22.500000000000004 18.500000000000004 3.5000000000000004 37.500000000000007 3.5000000000000004 1.0000000180025095e-35 1.5000000000000002 16.500000000000004 16.500000000000004 10.500000000000002 20.500000000000004 5.5000000000000009 12.500000000000002 1.0000000180025095e-35 1.0000000180025095e-35 -0.98296291314453399 9.5000000000000018 8.5000000000000018
decision_type=2 2 10 10 2 10 10 2 2 2 2 2 2 2 2 10 2 2 2 2 2 10 2 2 2 2 2 2 2 2
left_child=7 3 15 4 26 6 9 8 -1 11 -11 -6 14 -12 19 17 22 20 -14 -13 23 -5 -15 27 -25 -24 -2 -3 29 -29
right_child=1 2 -4 21 5 -7 -8 -9 -10 10 13 12 18 16 -16 -17 -18 -19 -20 -21 -22 -23 25 24 -26 -27 -28 28 -30 -31
leaf_value=0.0071658262347661823 -0.0066658641286529707 0.020445180348893248 0.01034106915349323 -0.0036905783419535578 0.00056406673252559216 0.00051199639006012767 -0.0057231684562830962 0.010570221232533676 0.0021348539697829691 -0.0034727206616410825 0.00088124862189610802 -0.0038787020999662691 -0.000160835222002723 -0.0048735860018722967 0.00040625601134539616 -0.00040285528599562511 -0.0052186950964927571 -2.0198397411006459e-05 0.0032067324456866255 -0.0002032958871556374 0.011797487796283175 -0.0051968385365953312 -0.0049614447822427703 0.0055831916109699356 0.00042870924263014172 0.004774634668567989 -0.0025385013206565389 -0.0019790679841159287 -0.0017991537664904468 0.012120680231923935
leaf_weight=108 84 21 34 26 271 31 49 111 570 338 308 268 32 104 161 217 60 340 48 353 90 161 48 128 85 108 306 44 127 22
leaf_count=108 84 21 34 26 271 31 49 111 570 338 308 268 32 104 161 217 60 340 48 353 90 161 48 128 85 108 306 44 127 22
internal_value=6.12496e-05 -0.000263976 0.000821298 -0.000700291 -0.000504088 -0.000181277 -0.000274675 0.00165399 0.00119469 -0.000164365 -0.000807455 0.000383935 -0.000243621 9.55402e-05 -0.000588236 0.000540036 -0.00109375 0.000950991 0.003125 -0.00113527 0.00167311 -0.00339572 -0.000384617 0.00120609 0.00227699 0.00076923 -0.00230769 0.000140186 -0.000336789 0.00181818
internal_weight=4653 3864 1108 2756 2569 2179 2148 789 678 2099 966 1133 862 628 782 1074 320 857 80 621 517 187 260 427 213 156 390 214 193 66
internal_count=4653 3864 1108 2756 2569 2179 2148 789 678 2099 966 1133 862 628 782 1074 320 857 80 621 517 187 260 427 213 156 390 214 193 66
is_linear=0
shrinkage=0.05


Tree=15
num_leaves=31
num_cat=0
split_feature=6 5 4 1 6 7 5 6 4 1 6 1 5 4 1 5 4 4 8 1 4 5 5 1 4 4 5 5 7 1
split_gain=0.980878 0.886018 0.667006 0.705628 0.992801 0.512528 0.38559 0.405763 0.377629 0.360163 0.250401 0.242272 0.975238 0.271515 0.241472 0.240955 0.255208 0.248585 0.194562 0.193635 0.353352 0.386568 0.258194 0.187311 0.254328 0.357033 0.248879 0.307797 0.230246 0.182706
threshold=4.5500000000000007 0.98296291314453421 0.98296291314453421 2.5000000000000004 2.6000000000000005 16.500000000000004 0.60355339059327384 3.7500000000000004 -0.9159756150367534 4.5000000000000009 2.6000000000000005 5.5000000000000009 -0.60355339059327384 0.12940952255126045 5.5000000000000009 0.78656609248549303 -0.98296291314453399 0.12940952255126045 163.50000000000003 1.0000000180025095e-35 -0.70710678118654735 0.37940952255126048 -0.37940952255126015 5.5000000000000009 0.60355339059327384 0.12940952255126045 -0.5 -0.37940952255126015 13.500000000000002 1.5000000000000002
decision_type=10 2 2 2 8 8 2 8 2 2 10 2 2 2 2 2 2 2 10 2 2 2 2 2 2 2 2 2 10 2
left_child=1 2 3 5 9 -1 8 -8 -7 -5 19 15 -13 -14 -11 16 -2 -17 -18 22 21 -21 -10 28 25 -25 -26 -28 -6 -3
right_child=11 29 -4 4 23 6 7 -9 10 14 -12 12 13 -15 -16 17 18 -19 -20 20 -22 -23 -24 24 26 -27 27 -29 -30 -31
leaf_value=0.0044438969718395794 0.0019389388028433208 0.0056058622712205214 -0.0024115762546237096 0.0027750560488987467 0.00076448983880170532 0.0036011529028909003 -0.0049304374616383831 0.0024837332646684483 -0.0032990846285590293 0.0062438544129633563 0.00016425172808688172 0.0079848540924173268 -0.0088072445852194012 -0.00097093774507507689 0.0070292082892136516 -0.0046245405055675461 -0.0052598543399777044 0.0019141945925102079 0.00015936531269231723 -9.192871044437197e-05 -0.0033177281220220958 0.011251228067285169 -0.0059199867490176243 0.0032777349465407408 -0.0050544561862924222 0.013715587303775704 0.0078794583748915733 -0.0048633386582832422 -0.0029741396350912042 0.018350421363042348
leaf_weight=20 27 47 152 50 1373 215 29 400 200 26 32 30 42 33 20 92 515 61 21 44 455 45 88 260 23 90 23 91 35 114
leaf_count=20 27 47 152 50 1373 215 29 400 200 26 32 30 42 33 20 92 515 61 21 44 455 45 88 260 23 90 23 91 35 114
internal_value=3.97581e-05 0.000375782 0.000216561 0.000356634 0.000976895 -0.000451572 -0.00055703 0.000710955 -0.00106117 0.0059375 -0.00152778 -0.00152862 0.000714285 -0.00233333 0.00913043 -0.00185754 -0.0023357 -9.80404e-05 -0.00257463 -0.00169471 -0.00113971 0.00174157 -0.00274306 0.000725592 0.00157084 0.00228571 -0.000255476 0.000701753 0.000433237 0.00400621
internal_weight=4653 3832 3671 3519 1991 1528 1508 429 1079 96 864 821 105 75 46 716 563 153 536 832 544 89 288 1895 487 350 137 114 1408 161
internal_count=4653 3832 3671 3519 1991 1528 1508 429 1079 96 864 821 105 75 46 716 563 153 536 832 544 89 288 1895 487 350 137 114 1408 161
is_linear=0
shrinkage=0.05


Tree=16
num_leaves=31
num_cat=0
split_feature=6 4 1 7 7 0 0 6 6 6 6 1 6 0 7 7 0 6 5 2 1 4 6 0 0 4 1 1 2 4
split_gain=1.13032 0.981676 1.03434 0.723741 0.486386 0.483372 0.466486 0.416367 0.358631 0.358271 0.304398 0.297601 1.08513 0.853333 0.604537 1.11853 0.341837 0.292695 0.248205 0.20679 0.195972 0.335525 0.191597 0.191094 0.179781 0.213831 0.413793 0.191976 0.190795 0.296732
threshold=4.0500000000000007 0.91597561503675362 5.5000000000000009 85.000000000000014 69.500000000000014 17.500000000000004 9.5000000000000018 9.6500000000000004 7.1500000000000012 5.8500000000000005 4.5500000000000007 2.5000000000000004 2.2500000000000004 11.500000000000002 73.500000000000014 98.500000000000014 5.5000000000000009 4.9500000000000011 -0.60355339059327384 11.500000000000002 1.5000000000000002 0.98296291314453421 7.1500000000000012 14.500000000000002 12.500000000000002 -0.37940952255126059 1.5000000000000002 4.5000000000000009 11.500000000000002 -0.98296291314453399
decision_type=8 2 2 10 10 2 2 8 10 10 10 2 10 2 10 10 2 10 2 2 2 2 10 2 2 2 2 2 2 2
left_child=11 2 3 4 6 9 8 -8 17 -4 19 12 -1 -14 23 -16 -17 -2 -11 -7 -3 22 -22 -13 -9 28 -27 -28 -26 -30
right_child=1 20 5 -5 -6 10 7 24 -10 18 -12 14 13 -15 15 16 -18 -19 -20 -21 21 -23 -24 -25 25 26 27 -29 29 -31
leaf_value=-0.0021253641473743326 0.00197459689598622 -0.0060365715847694405 0.0089950792696085087 -0.0039193112994674387 0.0034155851987621427 0.0040364011440653571 -0.0078533071957830377 -0.0031331982224579225 -0.0087166968683524467 0.0088450851497631662 -0.01131637418116483 -0.00021318969064112108 0.0038617664628353247 0.00014991820165554651 0.010100533100975848 0.014108521789540113 0.0031283567816933486 0.012684557199726927 0.00066335910193840051 -0.0048862047197446752 -0.00031322415445506627 -0.0029784977201119615 -0.011320762079609066 0.0021784119143724487 -0.00039206795544283277 -0.0038926004499226065 0.0052044220889169227 -0.00036378211676672606 0.0092617733593169469 -2.663509934939984e-05
leaf_weight=78 885 156 335 501 25 74 69 377 25 26 28 41 20 30 20 25 51 21 24 47 225 121 22 21 638 87 127 42 57 455
leaf_count=78 885 156 335 501 25 74 69 377 25 26 28 41 20 30 20 25 51 21 24 47 225 121 22 21 638 87 127 42 57 455
internal_value=-3.22492e-06 -0.000202657 7.41596e-05 -0.000255365 5.69789e-05 0.0021161 -5.39106e-06 -0.000464364 0.000907625 0.00305195 -0.000302015 0.00304196 0.00125 0.007 0.00449367 0.00697917 0.00421053 0.00107064 0.007 0.000785123 -0.00223283 -0.00160326 -0.00054656 0.00064516 -0.000316883 -5.69002e-05 0.00125 0.00269231 -0.000347827 0.000371093
internal_weight=4653 4367 3843 3309 2808 534 2783 1852 931 385 149 286 128 50 158 96 76 906 50 121 524 368 247 62 1783 1406 256 169 1150 512
internal_count=4653 4367 3843 3309 2808 534 2783 1852 931 385 149 286 128 50 158 96 76 906 50 121 524 368 247 62 1783 1406 256 169 1150 512
is_linear=0
shrinkage=0.05


Tree=17
num_leaves=31
num_cat=0
split_feature=6 4 1 1 7 7 0 6 1 1 5 5 0 5 6 6 1 7 6 7 5 0 1 4 2 6 2 1 2 5
split_gain=1.01755 1.00475 0.677556 0.604021 0.616472 0.517324 0.447365 0.399671 0.476687 0.364626 0.329905 0.417143 0.356941 0.327593 0.302307 0.295483 0.245995 0.45743 0.353216 0.315987 0.275203 0.248431 0.204764 0.336194 0.190099 0.18998 0.174805 0.154552 0.150254 0.356915
threshold=2.8500000000000001 0.91597561503675362 4.5000000000000009 5.5000000000000009 85.000000000000014 79.500000000000014 1.5000000000000002 2.1500000000000008 2.5000000000000004 1.0000000180025095e-35 -0.78656609248549325 -0.60355339059327384 17.500000000000004 -0.12940952255126037 6.0500000000000007 4.5500000000000007 2.5000000000000004 37.500000000000007 4.6500000000000012 20.500000000000004 -0.9159756150367534 18.500000000000004 1.5000000000000002 0.98296291314453421 11.500000000000002 7.1500000000000012 11.500000000000002 4.5000000000000009 11.500000000000002 -0.12940952255126037
decision_type=8 2 2 2 10 10 2 10 2 2 2 2 2 2 8 10 2 10 10 10 2 2 2 2 2 10 2 2 2 2
left_child=2 3 7 4 6 -4 9 8 -1 -2 26 -12 14 -10 -13 24 17 18 20 21 -8 28 -3 25 -14 -24 -5 -11 -18 -30
right_child=1 22 5 10 -6 -7 16 -9 13 27 11 12 15 -15 -16 -17 19 -19 -20 -21 -22 -23 23 -25 -26 -27 -28 -29 29 -31
leaf_value=-0.001208758102807868 0.022070193045280694 -0.0039370210993651608 0.0020777014272288694 0.0022395422556918806 -0.0030426642141293254 0.015643380692592395 -0.0030893575526818149 0.0052274391841069202 -0.00058554990511319478 0.0077927374940803601 -0.0052514873404582276 -0.0055609389201489411 0.0037233005935736977 0.0076878177230420772 0.012513922846470875 -0.010750555472106588 0.00060341780992536882 0.00273877536310424 -0.0080961822462904745 -0.0045332080586703563 -0.00013725572071372942 -0.00014103939302243315 -0.00029756294673231046 -0.0028295728341063645 -0.0046418944837574418 -0.010754723975628612 0.0097987308618430746 -0.010104108899324832 0.00088959791061081765 0.023724722402826248
leaf_weight=72 45 161 26 78 527 32 188 24 23 191 55 22 76 33 189 28 527 28 47 43 1023 323 226 122 47 22 60 43 269 103
leaf_count=72 45 161 26 78 527 32 188 24 23 191 55 22 76 33 189 28 527 28 47 43 1023 323 226 122 47 22 60 43 269 103
internal_value=-6.76995e-05 -0.00022845 0.00333333 4.85673e-05 -0.000204052 0.00793103 8.8338e-05 0.00157895 0.000468749 0.00198925 0.00157658 0.000875299 0.00149171 0.00392857 0.0028199 -0.00036424 -0.000119562 -0.000606533 -0.000747219 0.000375493 -0.000582165 0.00052373 -0.0022693 -0.00162162 0.000691056 -0.000564517 0.00369565 0.00119658 0.000951056 0.00172043
internal_weight=4653 4443 210 3912 3357 58 2830 152 128 279 555 417 362 56 211 151 2551 1286 1258 1265 1211 1222 531 370 123 248 138 234 899 372
internal_count=4653 4443 210 3912 3357 58 2830 152 128 279 555 417 362 56 211 151 2551 1286 1258 1265 1211 1222 531 370 123 248 138 234 899 372
is_linear=0
shrinkage=0.05


Tree=18
num_leaves=31
num_cat=0
split_feature=6 1 6 6 4 7 4 4 6 1 2 2 7 7 6 1 8 8 1 6 4 6 6 6 6 7 4 4 1 4
split_gain=0.910513 0.783081 1.40381 0.820513 0.676383 0.527652 0.408232 0.382993 0.282767 0.305569 0.239286 0.201013 0.217391 0.361748 0.203263 0.192887 0.212953 0.578669 0.256531 0.200784 0.199024 0.225257 0.170509 0.152529 0.198927 0.143899 0.133996 0.238189 0.281827 0.137787
threshold=4.5500000000000007 2.5000000000000004 2.0500000000000003 0.75000000000000011 0.98296291314453421 16.500000000000004 0.37940952255126054 0.78656609248549325 3.0500000000000003 5.5000000000000009 11.500000000000002 11.500000000000002 80.500000000000014 98.500000000000014 8.0500000000000025 1.0000000180025095e-35 1.5000000000000002 30.500000000000004 3.5000000000000004 9.6500000000000004 0.12940952255126045 7.1500000000000012 3.7500000000000004 6.4500000000000011 6.7500000000000009 13.500000000000002 -0.37940952255126059 -1.0000000180025095e-35 4.5000000000000009 -0.98296291314453399
decision_type=10 2 8 10 2 8 2 2 8 2 2 2 10 10 10 2 10 10 2 10 2 10 8 10 10 10 2 2 2 2
left_child=1 5 3 6 8 -1 -3 10 -4 25 -7 15 -13 -14 23 -2 19 -18 -19 20 -17 -22 -9 -15 -25 26 29 28 -28 -10
right_child=11 2 4 -5 -6 7 -8 22 9 -11 -12 12 13 14 -16 16 17 18 -20 -21 21 -23 -24 24 -26 -27 27 -29 -30 -31
leaf_value=0.0041389584166270877 0.0020958061261558618 0.012451022481603471 -0.0032258844313763791 0.013356140562369202 -0.0022068453581240081 -0.00062524752944345067 0.00062593398809447144 2.5884751844974108e-05 0.0074730497891439158 0.0033145690057387643 0.0010112671379055693 -0.008827266795503835 0.0038560659124291016 -0.0039022892675277354 -0.0094152436132489206 -0.0067656700584600854 0.0030990273429003456 -0.0044353241188957561 0.0011550626609521178 0.0031465921595720567 0.00078642696756489779 -0.0074049350762494222 -0.0032437087746846117 0.0063385524094881837 -0.00035590490292842733 -0.0037077737037165361 0.0091043047710257351 0.00080586847645342527 -0.00056404844122471284 -0.00018802983968502774
leaf_weight=20 31 40 21 26 84 710 38 21 63 500 607 92 29 184 81 68 37 50 39 54 39 43 302 21 53 27 83 743 43 504
leaf_count=20 31 40 21 26 84 710 38 21 63 500 607 92 29 184 81 68 37 50 39 54 39 43 302 21 53 27 83 743 43 504
internal_value=-7.84452e-05 0.000245302 0.000870165 0.00653846 0.000585105 -0.00057229 0.00397436 -0.000670733 0.000771168 0.000832908 -0.000292332 -0.00158953 -0.00228261 -0.00173913 -0.00219764 -0.000706372 -0.00106061 0.000555554 -0.00162921 -0.00205882 -0.003 -0.00134146 -0.00221362 -0.00151163 0.000405404 0.000468215 0.000536211 0.000926351 0.00293651 -6.17296e-05
internal_weight=4653 3832 2172 104 2068 1660 78 1640 1984 1963 1317 821 460 368 339 361 330 126 89 204 150 82 323 258 74 1463 1436 869 126 567
internal_count=4653 3832 2172 104 2068 1660 78 1640 1984 1963 1317 821 460 368 339 361 330 126 89 204 150 82 323 258 74 1463 1436 869 126 567
is_linear=0
shrinkage=0.05


Tree=19
num_leaves=31
num_cat=0
split_feature=6 4 7 1 0 4 0 6 4 7 4 6 4 1 7 6 1 4 6 1 0 6 0 4 0 1 0 2 0 2
split_gain=0.801137 0.970634 0.547919 0.466772 0.440656 0.421063 0.296196 0.575748 0.499613 0.480273 0.301489 0.277638 0.214286 0.2013 0.196329 0.298137 0.195972 0.335525 0.191597 0.188776 0.18444 0.166667 0.161687 0.145967 0.145953 0.323 0.235315 0.36193 0.222844 0.180876
threshold=4.0500000000000007 0.91597561503675362 89.500000000000014 4.5000000000000009 1.5000000000000002 1.0000000180025095e-35 11.500000000000002 1.0500000000000003 0.37940952255126054 21.500000000000004 0.78656609248549325 3.3500000000000001 -0.78656609248549292 1.0000000180025095e-35 62.500000000000007 9.6500000000000004 1.5000000000000002 0.98296291314453421 7.1500000000000012 1.5000000000000002 9.5000000000000018 0.75000000000000011 3.5000000000000004 -0.70710678118654735 16.500000000000004 2.5000000000000004 3.5000000000000004 11.500000000000002 3.5000000000000004 11.500000000000002
decision_type=8 2 10 2 2 2 2 10 2 10 2 10 2 2 10 8 2 2 10 2 2 10 2 2 2 2 2 2 2 2
left_child=6 2 3 4 13 -5 8 12 -1 -10 -11 23 -8 -2 15 20 -3 18 -18 -4 -6 -12 -7 -9 25 26 27 -17 -27 -28
right_child=1 16 19 5 14 22 7 11 9 10 21 -13 -14 -15 -16 24 17 -19 -20 -21 -22 -23 -24 -25 -26 28 29 -29 -30 -31
leaf_value=0.016635438416076634 0.020965215390303243 -0.0053757065118284824 -0.0055827518536721412 0.00042212241125214983 -0.0055461620519524479 0.012790560774822086 0.0029851071441069463 -3.893817168158869e-05 0.0032363709800869618 -0.0016290146275315003 0.00029574435343410199 0.003898505068638976 0.0013095300772994229 0.0073628071490313531 0.0019910160293591887 -0.00098429264166284276 -0.00032297822321836759 -0.002577751924494848 -0.0098467410230347122 -0.0006150893655457062 -0.0080277464138529386 0.0018725605226978183 0.0046157877389809811 -0.006663102254755581 5.1453496481814106e-05 -0.0052964067775232385 -0.0029515778805434545 0.0082526381482899286 0.00079481691265343628 -0.0030399333393250241
leaf_weight=35 45 156 144 523 31 128 21 33 21 39 27 24 21 191 21 65 225 121 22 444 54 27 257 38 749 82 320 66 424 299
leaf_count=35 45 156 144 523 31 128 21 33 21 39 27 24 21 191 21 65 225 121 22 444 54 27 257 38 749 82 320 66 424 299
internal_value=-4.62079e-05 -0.000214107 6.1149e-05 0.000314899 -5.75214e-05 0.00127753 0.00251748 0.000839415 0.0040604 0.00245614 0.000913977 -0.00131579 0.00571428 0.00199152 -0.000286595 -0.000334929 -0.00223283 -0.00160326 -0.00054656 -0.00134354 -0.0032353 0.00333333 0.00253247 -0.00288733 -0.000211971 -0.000541402 -0.0012 0.00072519 0.000434781 -0.00160743
internal_weight=4653 4367 3843 3255 2347 908 286 137 149 114 93 95 42 236 2111 2090 524 368 247 588 85 54 385 71 2005 1256 750 131 506 619
internal_count=4653 4367 3843 3255 2347 908 286 137 149 114 93 95 42 236 2111 2090 524 368 247 588 85 54 385 71 2005 1256 750 131 506 619
is_linear=0
shrinkage=0.05


Tree=20
num_leaves=31
num_cat=0
split_feature=4 6 6 1 6 5 2 1 6 4 2 6 4 5 4 4 4 5 4 4 6 1 4 6 1 1 4 2 8 5
split_gain=0.751612 0.72575 0.589185 0.517187 0.732988 0.500789 0.341126 0.299806 0.926209 0.297692 0.32586 0.610591 0.265891 0.642857 0.25775 0.291431 0.523879 0.205873 0.339058 0.309547 0.200086 0.192894 0.336194 0.18998 0.176919 0.172443 0.182421 0.289967 0.235517 0.19973
threshold=0.91597561503675362 3.5500000000000003 5.3500000000000005 2.5000000000000004 2.0500000000000003 -0.70710678118654757 11.500000000000002 1.5000000000000002 9.8500000000000032 0.78656609248549325 11.500000000000002 2.2500000000000004 0.37940952255126054 0.37940952255126048 -0.5 0.25881904510252091 1.0000000180025095e-35 -0.60355339059327384 -1.0000000180025095e-35 -0.37940952255126059 4.0500000000000007 1.5000000000000002 0.98296291314453421 7.1500000000000012 1.5000000000000002 5.5000000000000009 -0.98296291314453399 11.500000000000002 103.50000000000001 0.1294095225512602
decision_type=2 8 10 2 8 2 2 2 10 2 2 10 2 2 2 2 2 2 2 2 8 2 2 10 2 2 2 2 8 2
left_child=2 -2 3 5 12 20 7 8 -4 10 11 -7 13 -5 -9 16 -16 -12 19 -19 -1 -3 23 -23 -8 26 27 -6 29 -28
right_child=1 21 6 4 25 9 24 14 -10 -11 17 -13 -14 -15 15 -17 -18 18 -20 -21 -22 22 -24 -25 -26 -27 28 -29 -30 -31
leaf_value=0.00029086809577931466 0.0029080574070433304 -0.0051069211862370574 0.0026421209540152951 0.0058927509721678952 -0.00057192668918437835 -0.00033074538267712276 -0.0080566706456145828 -0.0076461159459644103 -0.0063518612713387244 -0.0029295266689841285 -0.0029312387745548691 0.0053711842072745025 0.0021513525597014332 0.014780774922528814 -0.00063634568848646106 -0.0077872850528779821 0.014838199811487702 0.0033811314456663934 0.0082438676811398392 -0.0087837146093093371 -0.0028039989865162821 -0.00030682931205744949 -0.0024488643282701062 -0.0093544039718829741 -0.002399200238671509 0.0030721008210777114 -0.0038180243251592764 0.0078937894225204006 0.00070667459055017681 -0.0016272341930503272
leaf_weight=27 34 156 46 28 39 485 85 83 25 143 35 24 30 28 43 77 21 248 148 35 389 226 122 22 213 480 37 30 1255 39
leaf_count=27 34 156 46 28 39 485 85 83 25 143 35 24 30 28 43 77 21 248 148 35 389 226 122 22 213 480 37 30 1255 39
internal_value=-6.76995e-05 -0.00178572 0.000167358 0.000414285 0.000951169 -0.000273795 -0.00129005 -8.4747e-05 0.00274648 0.00027728 0.000589742 -0.000284873 0.00546512 0.0075 -0.000982144 0.000319148 0.0028125 0.00154506 0.00184455 0.000830388 -0.00175481 -0.00224335 -0.00162162 -0.000564517 -0.00248322 0.00074468 0.000464285 0.00297101 0.000334334 -0.00236842
internal_weight=4653 560 4093 3500 1966 1534 593 295 71 1118 975 509 86 56 224 141 64 466 431 283 416 526 370 248 298 1880 1400 69 1331 76
internal_count=4653 560 4093 3500 1966 1534 593 295 71 1118 975 509 86 56 224 141 64 466 431 283 416 526 370 248 298 1880 1400 69 1331 76
is_linear=0
shrinkage=0.05


Tree=21
num_leaves=31
num_cat=0
split_feature=4 1 0 4 2 7 4 7 7 7 7 1 4 5 1 4 4 0 7 0 0 0 2 1 2 1 0 0 1 0
split_gain=0.714473 0.589842 0.447719 0.240632 0.219238 0.233961 0.196606 0.301404 0.268076 0.291403 0.21976 0.192422 0.176329 0.171859 0.162 0.696066 0.432234 0.202233 0.184453 0.227273 0.181818 0.145833 0.21503 0.333333 0.145021 0.15657 0.142857 0.285714 0.140438 0.242424
threshold=0.91597561503675362 4.5000000000000009 1.0000000180025095e-35 1.0000000180025095e-35 11.500000000000002 93.500000000000014 -0.98296291314453399 18.500000000000004 10.500000000000002 37.500000000000007 1.5000000000000002 1.5000000000000002 -0.9159756150367534 -0.98296291314453399 5.5000000000000009 0.60355339059327384 0.60355339059327384 8.5000000000000018 55.500000000000007 11.500000000000002 9.5000000000000018 17.500000000000004 11.500000000000002 5.5000000000000009 11.500000000000002 1.5000000000000002 7.5000000000000009 8.5000000000000018 3.5000000000000004 6.5000000000000009
decision_type=2 2 2 2 2 8 2 10 10 10 10 2 2 2 2 2 2 2 10 2 2 2 2 2 2 2 2 2 2 2
left_child=1 2 11 12 5 -2 7 24 10 -10 13 -1 21 -8 15 18 -16 -18 19 20 -5 -3 -23 -24 25 -4 -17 -28 -7 -30
right_child=4 3 6 14 -6 28 8 -9 9 -11 -12 -13 -14 -15 16 26 17 -19 -20 -21 -22 22 23 -25 -26 -27 27 -29 29 -31
leaf_value=-0.00096092659671597434 0.0027502112658625622 0.015323463698125135 -0.0054099132061707026 -0.00015539595740762433 -0.0051663633466409219 -0.0015692455313158938 -0.0026637990371904674 0.0051970849130763283 -0.007581682602755266 -0.0019744109045207623 0.0028029294675856326 0.016549195658715505 -9.7851941246546181e-05 -7.9127259433175426e-05 0.010647728247990434 0.022257906433428093 0.0020563170778901221 -0.0009057324806527675 -0.0055455850279173304 0.018865992113128702 -0.0041292778130217365 -0.0006610800084430171 0.01804557535258251 -0.0060392271790396055 0.0067021351537366108 0.0013448216129570473 -0.0066645957735923453 0.0086539580018723111 -0.0016389208336371642 0.0024845647597686715
leaf_weight=57 22 56 21 44 257 149 108 33 52 549 27 83 493 1916 140 56 82 28 28 22 44 64 24 24 49 37 28 28 88 44
leaf_count=57 22 56 21 44 257 149 108 33 52 549 27 83 493 1916 140 56 82 28 28 22 44 64 24 24 49 37 28 28 88 44
internal_value=-0.000110682 0.000118494 -0.00025921 0.00107235 -0.00178572 -0.000874589 -0.000397566 0.00142857 -0.000493968 -0.00142263 -0.000221844 0.0025 0.000446292 -0.000281622 0.0019 0.000999999 0.0028 0.000454544 -0.00137681 -0.000454547 -0.00159091 0.00184524 0.00080357 0.00333333 0.000140186 -0.00155173 0.00392857 0.00214286 -0.00126335 -7.57588e-05
internal_weight=4653 4093 2932 1161 560 303 2792 140 2652 601 2051 140 661 2024 500 250 250 110 138 110 88 168 112 48 107 58 112 56 281 132
internal_count=4653 4093 2932 1161 560 303 2792 140 2652 601 2051 140 661 2024 500 250 250 110 138 110 88 168 112 48 107 58 112 56 281 132
is_linear=0
shrinkage=0.05


Tree=22
num_leaves=31
num_cat=0
split_feature=6 6 5 1 6 1 1 6 7 5 5 2 1 7 7 5 8 8 6 1 6 1 5 5 5 5 5 1 5 2
split_gain=0.65747 0.523639 0.529201 0.47259 0.648147 0.285399 0.272393 0.267814 0.336856 0.218855 0.214658 0.214077 0.47363 0.281235 0.509174 0.184751 0.442665 0.266369 0.171237 0.149793 0.136232 0.328363 0.391128 0.3885 0.162363 0.119133 0.176218 0.511907 0.221788 0.316026
threshold=-0.44999999999999996 4.0500000000000007 0.98296291314453421 4.5000000000000009 2.2500000000000004 4.5000000000000009 1.5000000000000002 2.1500000000000008 1.0000000180025095e-35 0.91597561503675351 0.25881904510252057 11.500000000000002 1.0000000180025095e-35 76.500000000000014 96.500000000000014 -0.5 29.500000000000004 94.000000000000014 9.4500000000000011 1.0000000180025095e-35 6.4500000000000011 3.5000000000000004 -0.70710678118654757 0.25881904510252057 -0.60355339059327384 -0.98296291314453399 1.0000000180025095e-35 2.5000000000000004 0.37940952255126048 11.500000000000002
decision_type=8 10 2 2 10 2 2 10 10 2 2 2 2 10 10 2 10 10 10 2 10 2 2 2 2 2 2 2 2 2
left_child=10 2 3 4 9 6 19 8 -5 25 -1 12 -3 -13 -15 16 -14 -18 -19 -4 24 23 -23 -22 -16 -2 27 -27 -28 -30
right_child=1 11 5 7 -6 -7 -8 -9 -10 -11 -12 13 15 14 20 -17 17 18 -20 -21 21 22 -24 -25 -26 26 28 -29 29 -31
leaf_value=6.9111298703990941e-05 -0.0025306090853309429 0.0029089984597997077 0.01625506206432676 0.002527746922256689 0.0011988820153233642 -0.0011124021406671435 0.016238539910564894 -0.0009167458036980821 0.0050835049565699205 0.0023045410062071448 0.0056397660910328315 -0.0072025984726175026 0.0053152628988630997 0.0025773246444840549 -0.0083599154128612234 -0.0055395471745415519 -0.0029104446467735985 0.0032756047776489553 -0.0046525684421032942 -0.0059089520335829319 -0.0087369616257888718 0.0010191793322877625 -0.0027492828022421668 0.00057899408402816398 -0.0030278062062340204 -0.0014907832547501 -0.0015604585570713704 0.00091640531002585852 -0.00091458437747418686 0.0041332445467640345
leaf_weight=21 109 34 21 959 55 44 66 46 20 225 25 90 33 23 53 217 45 20 26 26 60 25 38 39 174 711 315 473 371 289
leaf_count=21 109 34 21 959 55 44 66 46 20 225 25 90 33 23 53 217 45 20 26 26 60 25 38 39 174 711 315 473 371 289
internal_value=-7.84452e-05 -0.000137835 0.000120642 -4.19934e-06 -0.000368918 0.00296178 0.00429203 0.000902438 0.00107763 -0.000487366 0.00586956 -0.00123717 -0.000333335 -0.00191235 -0.00135922 -0.000894429 0.00064516 -0.00115385 0.00152174 0.00138298 -0.00178663 -0.000679014 0.00214286 -0.00247475 -0.00257709 -0.000634922 -0.000553498 -0.000143582 -0.00105128 -0.000530304
internal_weight=4653 4607 3730 3573 2548 157 113 1025 979 2493 46 877 375 502 412 341 124 91 46 47 389 162 63 99 227 2268 2159 1184 975 660
internal_count=4653 4607 3730 3573 2548 157 113 1025 979 2493 46 877 375 502 412 341 124 91 46 47 389 162 63 99 227 2268 2159 1184 975 660
is_linear=0
shrinkage=0.05


Tree=23
num_leaves=31
num_cat=0
split_feature=0 1 0 5 5 2 7 1 1 8 8 8 8 2 0 1 1 8 8 1 0 0 0 1 7 1 0 1 2 5
split_gain=0.503786 0.638026 0.648789 0.50466 0.491603 0.334663 0.46973 0.253312 0.300788 0.21745 0.696882 0.371661 0.253633 0.196719 0.270042 0.369368 0.258052 0.19431 0.383246 0.179368 0.20599 0.178149 0.496049 0.266622 0.232175 0.155211 0.138262 0.145833 0.253968 0.141912
threshold=3.5000000000000004 2.5000000000000004 15.500000000000002 1.0000000180025095e-35 0.25881904510252057 11.500000000000002 85.000000000000014 1.0000000180025095e-35 5.5000000000000009 92.000000000000014 135.00000000000003 191.00000000000003 33.500000000000007 11.500000000000002 1.0000000180025095e-35 4.5000000000000009 2.5000000000000004 18.500000000000004 5.5000000000000009 1.5000000000000002 21.500000000000004 10.500000000000002 7.5000000000000009 1.0000000180025095e-35 88.500000000000014 3.5000000000000004 17.500000000000004 3.5000000000000004 11.500000000000002 -0.9159756150367534
decision_type=2 2 2 2 2 2 8 2 2 10 10 10 10 2 2 2 2 10 10 2 2 2 2 2 10 2 2 2 2 2
left_child=7 2 5 9 25 6 -2 -1 13 12 -11 -12 17 14 -9 -16 -15 18 26 -4 -21 22 -8 -23 -24 -5 29 -28 -29 -3
right_child=1 3 19 4 -6 -7 21 8 -10 10 11 -13 -14 16 15 -17 -18 -19 -20 20 -22 23 24 -25 -26 -27 27 28 -30 -31
leaf_value=0.0055133866882975226 0.0013840258499695579 0.00086616523919310576 -6.4877191031770259e-05 -0.004758097716086835 -7.861248859654682e-05 -0.0036686052690813767 -0.0015463570233623714 0.0065835399507258256 0.0079654069414853597 0.0094607447461731355 -0.0086895652158509532 0.0023785712666959933 -0.0023652781337220995 0.0064577435765985243 -0.00086885873675106534 0.01372319667886201 -0.001353079683104135 0.00056800976573343333 -0.0026997899472312793 0.0014848460559834856 0.0026259098776599196 0.00022234899980707871 0.00099182813872516129 -0.0031945939068473458 -0.0028413188908491837 -0.0016089872282215344 0.0063212081305484835 -0.0007808681600846492 0.0096500504515515534 0.00058971285611105547
leaf_weight=108 37 251 459 56 649 480 141 79 111 22 20 21 71 111 191 46 143 37 28 166 56 55 94 146 22 164 28 48 36 777
leaf_count=108 37 251 459 56 649 480 141 79 111 22 20 21 71 111 191 46 143 37 28 166 56 55 94 146 22 164 28 48 36 777
internal_value=-6.76995e-05 -0.000302796 -0.00104469 0.000253622 -0.000684696 -0.0018718 -0.000959597 0.00108365 0.000726871 0.000862583 0.00373016 -0.000121952 0.000721002 0.000263157 -0.000569621 -0.0014135 0.00129921 0.000892115 0.000779108 0.0001395 0.00130631 -0.00139738 -0.000525293 -0.00251244 0.00189655 -0.00272727 0.000921051 0.00258928 0.00154762 0.000739298
internal_weight=4653 3864 1656 2208 869 975 495 789 681 1339 63 41 1276 570 316 237 254 1205 1168 681 222 458 257 201 116 220 1140 112 84 1028
internal_count=4653 3864 1656 2208 869 975 495 789 681 1339 63 41 1276 570 316 237 254 1205 1168 681 222 458 257 201 116 220 1140 112 84 1028
is_linear=0
shrinkage=0.05


Tree=24
num_leaves=31
num_cat=0
split_feature=6 0 1 4 6 6 0 0 0 2 0 0 8 2 1 7 1 0 4 1 4 1 1 1 7 6 1 0 0 6
split_gain=0.653745 0.585873 0.461559 0.560714 0.493159 0.482866 0.433929 0.417012 0.442593 0.617776 0.334186 0.484034 0.287336 0.271498 0.26685 0.827516 0.252187 0.237207 0.213635 0.237508 0.220288 0.186899 0.255745 0.195652 0.182161 0.191269 0.595181 0.26227 0.205782 0.174859
threshold=4.0500000000000007 1.0000000180025095e-35 2.5000000000000004 0.98296291314453421 2.2500000000000004 2.0500000000000003 12.500000000000002 16.500000000000004 3.5000000000000004 11.500000000000002 4.5000000000000009 11.500000000000002 112.00000000000001 11.500000000000002 1.5000000000000002 85.000000000000014 1.5000000000000002 17.500000000000004 -0.37940952255126059 3.5000000000000004 -0.78656609248549292 4.5000000000000009 1.5000000000000002 5.5000000000000009 76.500000000000014 6.4500000000000011 4.5000000000000009 4.5000000000000009 1.5000000000000002 8.6500000000000004
decision_type=10 2 2 2 10 8 2 2 2 2 2 2 8 2 2 8 2 2 2 2 2 2 2 2 10 10 2 2 2 10
left_child=1 21 4 5 7 10 -6 8 9 -3 -4 -12 -7 14 15 -2 -15 -9 19 -14 -21 22 -1 -23 -18 27 -27 28 -26 -17
right_child=13 2 3 -5 6 12 -8 17 -10 -11 11 -13 18 16 -16 29 24 -19 -20 20 -22 23 -24 -25 25 26 -28 -29 -30 -31
leaf_value=0.0025539237699401711 0.010204459554032388 -0.00082541222176292788 -0.0016162668352901841 -0.0013985025026906628 0.0016601738961082636 -0.00093852751036701599 7.1394627533830253e-05 0.0061864844004836488 -0.0023008207357756421 0.0072301686168095682 0.0041115964196268007 0.00068966755642027176 -0.0010164896123336154 -0.0072153901847290024 -0.0022652509375692092 0.00023060175355386783 -0.01270783842857745 -6.3976535045867792e-06 0.001543784105344728 0.0050259806024272602 -0.001320167454735427 -0.0099643010217119916 0.015128317218492816 0.01166550669080069 -0.0043278857672698241 -0.0041001762120659044 0.0016301786179004033 -0.0032458403012366899 0.0036707285361956168 -0.0049831711743739656
leaf_weight=47 23 111 24 90 20 39 28 67 827 99 28 40 189 160 282 38 31 410 1079 314 251 23 67 23 21 97 30 135 28 32
leaf_count=47 23 111 24 90 20 39 28 67 827 99 28 40 189 160 282 38 31 410 1079 314 251 23 67 23 21 97 30 135 28 32
internal_value=-0.000121428 0.000164194 3.31846e-05 0.000525802 -0.000614598 0.000702646 0.004375 -0.000772789 -0.00133558 0.000714285 0.00423913 0.00602941 0.000528845 -0.0013512 -0.000333335 0.00198925 -0.00211155 0.000450733 0.000619202 -2.65264e-05 0.000486724 0.003125 0.00421053 0.000434781 -0.00134503 -0.000980709 0.00051181 -0.00201087 0.00112245 -0.000714287
internal_weight=4653 3776 3616 2054 1562 1964 48 1514 1037 210 92 68 1872 877 375 93 502 477 1833 754 565 160 114 46 342 311 127 184 49 70
internal_count=4653 3776 3616 2054 1562 1964 48 1514 1037 210 92 68 1872 877 375 93 502 477 1833 754 565 160 114 46 342 311 127 184 49 70
is_linear=0
shrinkage=0.05


Tree=25
num_leaves=31
num_cat=0
split_feature=0 6 0 8 6 6 8 2 6 6 6 7 8 6 6 7 0 3 0 3 0 5 0 6 6 8 7 2 0 6
split_gain=0.476909 0.401161 0.339883 0.267097 0.320553 0.23088 0.228953 0.202044 0.369546 0.286175 0.220721 0.188363 0.418984 0.258496 0.215442 0.188089 0.18781 0.257466 0.169683 0.163113 0.185926 0.155309 0.354375 0.334326 0.299108 0.286214 0.239165 0.239238 0.312999 0.20504
threshold=3.5000000000000004 -0.44999999999999996 7.5000000000000009 191.00000000000003 8.6500000000000004 2.8500000000000001 31.500000000000004 11.500000000000002 5.4500000000000011 7.1500000000000012 0.95000000000000007 57.500000000000007 94.000000000000014 0.95000000000000007 3.0500000000000003 99.500000000000014 4.5000000000000009 1.0000000180025095e-35 1.5000000000000002 1.0000000180025095e-35 1.0000000180025095e-35 -0.60355339059327384 18.500000000000004 4.4500000000000011 6.3500000000000005 35.500000000000007 75.500000000000014 11.500000000000002 22.500000000000004 4.7500000000000009
decision_type=2 8 2 10 10 8 10 2 10 8 10 8 10 8 8 8 2 2 2 2 2 2 2 8 8 10 10 2 2 8
left_child=7 -2 5 4 11 -3 -6 9 -9 10 -1 -4 13 -13 -15 -7 17 -17 -10 20 -11 24 29 -24 -16 -26 27 28 -25 -23
right_child=1 2 3 -5 6 15 -8 8 18 19 -12 12 -14 14 21 16 -18 -19 -20 -21 -22 22 23 26 25 -27 -28 -29 -30 -31
leaf_value=-0.0015354534935256769 0.0048228551554431592 0.0021505387792809627 -0.0020311358102279996 0.0038442522231287336 -0.0037639608095010285 -0.0084053587834728178 -0.0068231580667503433 0.0074323408372863947 -0.0060444771979275844 0.0034620108970193522 0.01908153320520764 0.0028392861403441264 0.0043882289008539289 -0.00065048757152144979 -0.0076542696321738133 -0.0055312289353841 -0.001545235249483821 0.017870212015812566 -0.0012700709690896921 0.0056229792760445442 -0.00078414161067478236 -0.0027881953440204777 0.0080719684511854229 -6.601730832804711e-05 -0.00074225967001405606 0.00044925843424815373 -0.0051869362991696609 -0.00096566513171693629 0.0024163449899568369 0.0016664959087396816
leaf_weight=24 35 32 118 25 85 37 56 312 25 63 50 25 33 40 72 117 503 49 26 102 187 27 24 331 1060 32 96 323 85 659
leaf_count=24 35 32 118 25 85 37 56 312 25 63 50 25 33 40 72 117 503 49 26 102 187 27 24 331 1060 32 96 323 85 659
internal_value=-9.99367e-05 -0.000328676 -0.000377384 -0.000147203 -0.000189173 -0.00134146 -0.00251773 0.00102028 0.00188705 0.000281689 0.00310811 -7.69243e-05 5.34259e-06 -6.12845e-05 -0.000107313 -0.00152975 -0.00133782 0.000120481 -0.00205882 -0.000312501 -0.001 -5.35265e-05 0.00027508 -0.000401631 -0.000489692 -0.000283884 -0.000568863 -0.000263871 0.000528845 0.00112245
internal_weight=4653 3864 3829 3091 3066 738 141 789 363 426 74 2925 2807 2774 2749 706 669 166 51 352 250 2709 1545 859 1164 1092 835 739 416 686
internal_count=4653 3864 3829 3091 3066 738 141 789 363 426 74 2925 2807 2774 2749 706 669 166 51 352 250 2709 1545 859 1164 1092 835 739 416 686
is_linear=0
shrinkage=0.05


Tree=26
num_leaves=31
num_cat=0
split_feature=4 6 6 1 8 6 6 5 1 5 1 1 6 7 7 6 6 8 4 4 7 6 5 7 6 8 2 4 7 1
split_gain=0.496567 0.671873 0.333572 0.224718 1.06001 0.625 0.399641 0.396612 0.465646 0.272114 0.331642 0.322327 0.267312 0.267995 0.618077 0.254037 0.312379 0.2523 0.251285 0.220163 0.394629 0.198364 0.191878 0.437449 0.19116 0.178642 0.178024 0.265905 0.176913 0.171793
threshold=0.91597561503675362 3.5500000000000003 8.6500000000000004 4.5000000000000009 70.500000000000014 4.1500000000000012 4.8500000000000005 -0.60355339059327384 3.5000000000000004 0.98296291314453421 1.5000000000000002 3.5000000000000004 4.9500000000000011 37.500000000000007 99.500000000000014 4.0500000000000007 2.1500000000000008 1.0000000180025095e-35 0.60355339059327384 1.0000000180025095e-35 99.500000000000014 7.7500000000000009 0.1294095225512602 30.500000000000004 6.6500000000000012 1.0000000180025095e-35 11.500000000000002 -0.78656609248549292 97.500000000000014 1.5000000000000002
decision_type=2 8 10 2 10 10 10 2 2 2 2 2 10 10 10 10 10 10 2 2 10 8 2 10 10 8 2 2 8 2
left_child=2 -2 3 7 6 -6 19 8 15 11 -11 12 17 -14 -15 16 -1 22 28 20 -5 -10 23 -9 -16 -21 -24 -28 -13 -4
right_child=1 -3 29 4 5 -7 -8 9 21 10 -12 18 13 14 24 -17 -18 -19 -20 25 -22 -23 26 -25 -26 -27 27 -29 -30 -31
leaf_value=-0.0020921949154325383 0.0022272894582827611 -0.0019668540416175884 -0.0052657830028353591 -4.0736709705647472e-05 0.0023718516148934707 0.0067032046206135084 -0.0021400234201321999 0.0011258115948989511 -0.0037063308033298071 -0.001897042409019328 0.013980276332969513 -0.00057846060542979369 -0.0067302587575662322 0.0048103529391664594 -0.0020248719516721674 -0.0063463844441049438 0.0018995473411801073 -0.0070488045300673308 -0.0092842961226112485 -0.0010377850206207369 0.010171984056694724 0.0011687849623022977 -0.00040389502911587728 0.0048626854888893112 0.0019726663632831007 0.0077446541555844604 -0.0047178873346567334 0.0040992861327154217 -4.7801856515147997e-05 -0.0046863084120299311
leaf_weight=603 34 526 61 519 20 20 159 338 24 55 78 20 28 21 35 94 20 22 77 32 21 158 472 23 31 385 89 309 256 123
leaf_count=603 34 526 61 519 20 20 159 338 24 55 78 20 28 21 35 94 20 22 77 32 21 158 472 23 31 385 89 309 256 123
internal_value=-0.000121428 -0.00151786 6.96299e-05 0.000167561 0.000752594 0.00875 0.000465949 -7.80978e-05 -0.000939934 0.000339805 0.0025188 0.000171411 0.000519005 0.00282609 0.0041954 -0.00151325 -0.00114767 0.000307261 -0.00117564 0.000851618 0.000185184 0.00131868 0.000402111 0.00137119 0.00181818 0.00171463 -1.19209e-09 0.000778893 -0.000471016 -0.00201087
internal_weight=4653 560 4093 3909 1156 40 1116 2753 899 1854 133 1721 1368 115 87 717 623 1253 353 957 540 182 1231 361 66 417 870 398 276 184
internal_count=4653 560 4093 3909 1156 40 1116 2753 899 1854 133 1721 1368 115 87 717 623 1253 353 957 540 182 1231 361 66 417 870 398 276 184
is_linear=0
shrinkage=0.05


Tree=27
num_leaves=31
num_cat=0
split_feature=4 6 7 5 4 4 5 4 3 5 6 6 6 4 6 6 8 7 7 6 5 4 6 5 6 6 5 8 4 4
split_gain=0.449047 0.392976 0.485197 0.237548 0.214976 0.571667 0.426667 0.419379 0.18049 0.378073 0.367959 0.25609 0.192949 0.19173 0.155894 0.160758 0.254554 0.222482 0.515985 0.265244 0.142042 0.133137 0.127721 0.440451 0.298696 0.146529 0.295504 0.268397 0.368561 0.208236
threshold=0.98296291314453421 4.0500000000000007 91.500000000000014 0.98296291314453421 -0.37940952255126059 1.0000000180025095e-35 0.60355339059327384 -0.9159756150367534 1.0000000180025095e-35 0.91597561503675351 2.2500000000000004 1.4500000000000002 1.9500000000000002 1.0000000180025095e-35 4.2500000000000009 11.450000000000001 149.50000000000003 37.500000000000007 53.500000000000007 5.7500000000000009 -0.98296291314453399 -0.70710678118654735 8.8500000000000032 0.78656609248549303 8.5500000000000025 6.2500000000000009 -0.12940952255126037 18.500000000000004 -0.5 0.78656609248549325
decision_type=2 10 10 2 2 2 2 2 2 2 10 8 10 2 10 10 10 10 10 10 2 2 10 2 10 10 2 10 2 2
left_child=1 2 8 14 7 -6 -7 -4 9 10 11 -1 13 21 -3 16 17 19 -19 -16 -13 -10 24 -24 25 26 -20 29 -29 -27
right_child=-2 3 4 -5 5 6 -8 -9 12 -11 -12 20 -14 -15 15 -17 -18 18 22 -21 -22 -23 23 -25 -26 27 -28 28 -30 -31
leaf_value=-0.0011514189809212845 -0.0015063432873505577 -0.0061420608410516463 0.0078050032511847696 -0.0073261387716263534 0.011786568176457249 0.0016555854074472743 -0.0030505028477772447 -0.0028866857638932919 0.0037438126504476636 0.005541195595458172 0.0039904767028733608 -0.0019875851696609104 -0.00057797855204672001 0.0057773938198661043 -0.00067790480100292274 -0.0050024936207861311 0.00052465834693527489 0.020702342204677922 -0.0063903843660253678 -0.0062818927106692473 -0.00021947057320387928 -0.00036271161583930624 -0.006371613863645988 0.0063661422507777137 0.0030899785947503091 -0.0016734582106986804 -8.2371025943769148e-05 0.00091923625416015552 0.00010722985209528775 0.00062613066655813239
leaf_weight=31 185 22 24 36 21 50 25 31 256 328 23 107 30 472 24 41 20 20 102 58 1979 248 86 22 25 139 128 23 47 50
leaf_count=31 185 22 24 36 21 50 25 31 256 328 23 107 30 472 24 41 20 20 102 58 1979 248 86 22 25 139 128 23 47 50
internal_value=-0.000153665 -5.37165e-05 0.000172413 -0.0010261 0.00294702 0.004375 0.00233333 0.000454544 5.18123e-05 -0.000178283 -0.000420562 -0.000488901 0.000616301 0.000737704 -0.000848824 -0.000732485 -0.000564517 -0.000718233 -0.000404986 -0.00317073 -0.000421861 5.95226e-05 -0.000659165 -0.00222222 -0.00033074 -0.000603273 -0.00152174 0.000212354 0.00285714 -0.000767197
internal_weight=4653 4468 3625 843 151 96 75 55 3474 2468 2140 2117 1006 976 807 785 744 724 642 82 2086 504 622 108 514 489 230 259 70 189
internal_count=4653 4468 3625 843 151 96 75 55 3474 2468 2140 2117 1006 976 807 785 744 724 642 82 2086 504 622 108 514 489 230 259 70 189
is_linear=0
shrinkage=0.05


Tree=28
num_leaves=31
num_cat=0
split_feature=6 8 0 1 4 5 0 7 0 4 7 0 0 6 7 4 7 1 8 0 5 5 5 6 0 1 1 1 1 1
split_gain=0.416067 0.55278 0.413064 0.337743 0.505081 0.356654 0.338385 0.436879 0.442711 0.298275 0.224992 0.211184 0.43139 0.20332 0.19985 0.296053 0.205873 0.204412 0.63917 0.169413 0.178156 0.343755 0.156544 0.145606 0.243667 0.132488 0.257714 0.215195 0.133213 0.128234
threshold=2.8500000000000001 191.00000000000003 1.0000000180025095e-35 2.5000000000000004 0.98296291314453421 -0.70710678118654757 18.500000000000004 91.500000000000014 4.5000000000000009 0.78656609248549325 33.500000000000007 1.0000000180025095e-35 4.5000000000000009 -2.3499999999999996 62.500000000000007 -0.78656609248549292 85.000000000000014 3.5000000000000004 59.500000000000007 6.5000000000000009 -0.9159756150367534 -0.70710678118654757 -0.9159756150367534 5.3500000000000005 16.500000000000004 1.5000000000000002 4.5000000000000009 5.5000000000000009 3.5000000000000004 3.5000000000000004
decision_type=10 10 2 2 2 2 2 10 2 2 10 2 2 10 10 2 10 2 10 2 2 2 2 10 2 2 2 2 2 2
left_child=2 11 25 5 6 -4 7 13 -9 10 -7 -2 29 -5 15 -14 -16 22 19 -19 -21 -22 -18 -23 -25 -1 28 -28 -27 -13
right_child=1 -3 3 4 -6 9 -8 8 -10 -11 -12 12 14 -15 16 -17 17 18 -20 20 21 23 -24 24 -26 26 27 -29 -30 -31
leaf_value=0.001872402880256903 -0.0073282089534124576 0.0043384368815399151 -0.0020463516205239504 0.0011842123986496472 -0.0010776557486335326 0.00096580933458921829 -0.00014119322547342171 -0.00097565066525761484 0.0080853060435974421 -0.0024563080411378079 -0.0024003893905989579 0.0018534539194916969 -0.00055089116707723179 -0.00060437808104470061 0.00068026603969116323 -0.0055652981280459981 -0.0067473939882967396 -0.0062814666579941343 0.0015920613083983801 -0.0069265907826916249 0.00034544019119971917 0.00033376555963057845 -0.0045054673625404612 -0.00054278257734328744 -0.0053740508896927362 0.012330004211863843 -0.0097270625181513706 0.010673965719078388 0.023177375030728045 -0.00024930019158421745
leaf_weight=47 37 21 390 1416 89 777 430 20 27 313 49 86 38 30 33 90 47 28 31 23 32 40 272 45 65 45 23 22 22 65
leaf_count=47 37 21 390 1416 89 777 430 20 27 313 49 86 38 30 33 90 47 28 31 23 32 40 272 45 65 45 23 22 22 65
internal_value=-0.000185903 -0.00111752 5.40529e-05 -5.78944e-05 0.000367792 -0.000618052 0.00053822 0.000894172 0.0056383 -0.000171204 0.000326875 -0.00129828 -0.00114525 0.000739971 -0.00163979 -0.0034375 -0.00126623 -0.00148371 -0.000454547 -0.00135193 -0.00085366 -0.000329672 -0.00233542 -0.00133333 -0.00227273 0.00254717 0.00348214 0.000555554 0.00544776 0.00129139
internal_weight=4653 953 3700 3541 2012 1529 1923 1493 47 1139 826 932 895 1446 744 128 616 583 264 233 205 182 319 150 110 159 112 45 67 151
internal_count=4653 953 3700 3541 2012 1529 1923 1493 47 1139 826 932 895 1446 744 128 616 583 264 233 205 182 319 150 110 159 112 45 67 151
is_linear=0
shrinkage=0.05


Tree=29
num_leaves=31
num_cat=0
split_feature=0 4 6 6 8 3 7 6 0 4 0 6 6 7 7 0 6 0 6 0 0 3 6 6 6 8 0 6 6 6
split_gain=0.344938 0.285576 0.285912 0.243964 0.288258 0.751603 0.269308 0.185597 0.210989 0.177622 0.214049 0.340551 0.513459 0.172337 0.169285 0.196901 0.332902 0.160256 0.131153 0.121385 0.121078 0.142383 0.111449 0.313437 0.232478 0.180711 0.40628 0.188308 0.187721 0.160345
threshold=3.5000000000000004 0.98296291314453421 8.6500000000000004 -0.44999999999999996 94.000000000000014 1.0000000180025095e-35 62.500000000000007 5.4500000000000011 1.0000000180025095e-35 -0.9159756150367534 18.500000000000004 6.5500000000000007 4.3500000000000005 45.500000000000007 98.500000000000014 1.0000000180025095e-35 4.6500000000000012 2.5000000000000004 3.2500000000000004 15.500000000000002 2.5000000000000004 1.0000000180025095e-35 2.7500000000000004 4.0500000000000007 5.7500000000000009 18.500000000000004 14.500000000000002 7.2500000000000009 6.6500000000000012 0.8500000000000002
decision_type=2 2 10 8 10 2 8 10 2 2 2 10 10 10 8 2 8 2 10 2 2 2 8 8 8 10 2 10 10 10
left_child=7 2 3 -2 6 -6 18 14 -9 10 11 12 -8 -4 -1 -16 -17 -10 19 -5 -18 -22 29 -24 -25 27 -27 28 -26 -11
right_child=1 -3 13 4 5 -7 9 8 17 22 -12 -13 -14 -15 15 16 20 -19 -20 -21 21 -23 23 24 25 26 -28 -29 -30 -31
leaf_value=0.0066107722162626397 0.0049796711372140827 -0.0013771433355513549 0.0071794452189170108 0.00020433529209413302 -0.0037791320787518116 0.0085455371206861145 0.0055902597893987306 -0.012400828484909632 0.0025906276883805694 0.00021543584017174688 -0.00024564180446724873 -0.0092519919318575922 0.00063043131826676666 -0.0052622778527597301 0.010383356939256773 -0.0066902051763011068 0.00013476117751968147 -0.0077426691440080492 -0.0058620321495140267 -0.0038228544233353465 0.0012169751749545228 0.015482447285676616 0.00039361241984843873 -0.0041867753429531947 -0.00025739901636948455 -0.00048941946121702328 0.00098099356254913736 -0.0054986663254034448 0.00087327701150794422 -0.0023182859085283938
leaf_weight=31 33 185 22 20 41 28 314 27 52 29 178 20 21 145 162 27 311 26 81 23 110 43 31 121 2372 45 24 56 44 31
leaf_count=31 33 185 22 20 41 28 314 27 52 29 178 20 21 145 162 27 311 26 81 23 110 43 31 121 2372 45 24 56 44 31
internal_value=-0.000185903 -0.000380436 -0.000284046 -0.000187928 -0.000228515 0.00297101 -0.000293256 0.000766792 -0.00119048 -0.00020694 0.000628517 0.00133803 0.00171642 -0.00230539 0.00106725 0.000895864 0.000397147 0.000128204 -0.00258065 -0.000348838 0.000711206 0.00186274 -0.00036869 -0.000321204 -0.000379415 -0.000277451 0.00224638 -0.000347898 -0.000281458 -0.0025
internal_weight=4653 3864 3679 3512 3479 69 3410 789 105 3286 533 355 335 167 684 653 491 78 124 43 464 153 2753 2693 2662 2541 69 2472 2416 60
internal_count=4653 3864 3679 3512 3479 69 3410 789 105 3286 533 355 335 167 684 653 491 78 124 43 464 153 2753 2693 2662 2541 69 2472 2416 60
is_linear=0
shrinkage=0.05


Tree=30
num_leaves=31
num_cat=0
split_feature=0 6 6 1 0 6 6 1 6 6 2 0 0 2 6 6 6 1 0 1 1 8 1 6 0 2 0 0 2 1
split_gain=0.384098 0.348316 0.357469 0.35111 0.381281 0.368154 0.437576 0.339121 0.312048 0.273275 0.259291 0.403333 0.259638 0.227197 0.344197 0.335684 0.220721 0.208849 0.229993 0.192762 0.554915 0.179364 0.969697 0.193939 0.171134 0.31891 0.210981 0.420888 0.352328 0.208855
threshold=3.5000000000000004 4.0500000000000007 3.0500000000000003 2.5000000000000004 16.500000000000004 1.5500000000000003 0.45000000000000007 1.5000000000000002 -0.44999999999999996 1.6500000000000001 11.500000000000002 11.500000000000002 4.5000000000000009 11.500000000000002 5.4500000000000011 7.1500000000000012 0.95000000000000007 2.5000000000000004 1.5000000000000002 3.5000000000000004 4.5000000000000009 59.500000000000007 3.5000000000000004 7.7500000000000009 18.500000000000004 11.500000000000002 6.5000000000000009 5.5000000000000009 11.500000000000002 3.5000000000000004
decision_type=2 10 10 2 2 8 10 2 10 10 2 2 2 2 10 8 10 2 2 2 2 10 2 10 2 2 2 2 2 2
left_child=13 2 3 4 10 6 8 -4 -5 24 11 12 -2 15 17 16 -1 -15 19 -19 -21 -3 -23 -24 26 -26 27 28 -7 -27
right_child=1 21 7 5 -6 9 -8 -9 -10 -11 -12 -13 -14 14 -16 -17 -18 18 -20 20 -22 22 23 -25 25 29 -28 -29 -30 -31
leaf_value=-0.00088177226418679599 -0.0046371632786077546 -0.003212964304629494 0.00035597497276543483 0.0055753543405073777 0.00020553272344253331 -0.0026139437035878513 0.0024104729436689211 -0.00017802405857814463 -0.0029139751234431672 -0.0017273663339535186 -0.0022908071455904045 -0.002824828358366345 0.00047542054483611454 0.0060067721663947709 -0.0031288751505769569 -0.00056165745264305142 0.015775961836650781 -0.019285311662616062 0.013765834825159485 0.012186702203839158 -0.013757196470907816 -0.0031678744898266751 0.0014543539828867876 0.0059445103624322084 0.00058192034049029848 0.0019085506408950126 0.00082140618442979024 -0.0010264710189188582 0.019329411516129286 -0.0048160735569786478
leaf_weight=24 34 597 22 31 483 95 20 35 24 26 389 180 236 149 51 352 50 20 81 20 42 88 20 24 238 45 1004 82 65 126
leaf_count=24 34 597 22 31 483 95 20 35 24 26 389 180 236 149 51 352 50 20 81 20 42 88 20 24 238 45 1004 82 65 126
internal_value=-0.000175157 -0.000380436 -0.000151516 -0.000224173 -0.000839638 0.000239179 0.00366667 0.00377193 0.00136364 8.6257e-05 -0.00148391 -0.000666668 0.000555554 0.000830164 0.00174931 4.69472e-05 0.00310811 0.00237179 0.00113497 -0.000731709 0.00064516 -0.00136488 0.000303029 0.00636364 0.000166162 -0.000721273 0.000457463 -0.00086777 0.000624999 -0.00236842
internal_weight=4653 3864 3135 3078 1322 1756 75 57 55 1681 839 450 270 789 363 426 74 312 163 82 62 729 132 44 1655 409 1246 242 160 171
internal_count=4653 3864 3135 3078 1322 1756 75 57 55 1681 839 450 270 789 363 426 74 312 163 82 62 729 132 44 1655 409 1246 242 160 171
is_linear=0
shrinkage=0.05


Tree=31
num_leaves=31
num_cat=0
split_feature=4 1 5 4 7 2 0 1 0 1 7 7 8 2 7 1 5 8 2 0 8 5 0 7 0 7 1 4 0 2
split_gain=0.37941 0.369334 0.439034 0.444847 0.409498 0.383868 0.401004 0.364583 0.339679 0.226348 0.223857 0.180691 0.614095 0.157244 0.561343 0.263797 0.220559 0.157036 0.151025 0.35973 0.274696 0.295021 0.273599 0.230695 0.180779 0.168042 0.159645 0.324675 0.145871 0.14009
threshold=0.98296291314453421 2.5000000000000004 -0.70710678118654757 0.78656609248549325 10.500000000000002 11.500000000000002 7.5000000000000009 1.5000000000000002 18.500000000000004 1.5000000000000002 inf 83.500000000000014 94.000000000000014 11.500000000000002 89.500000000000014 1.0000000180025095e-35 -0.9159756150367534 2.5000000000000004 11.500000000000002 22.500000000000004 16.500000000000004 0.60355339059327384 22.500000000000004 52.500000000000007 8.5000000000000018 99.500000000000014 1.0000000180025095e-35 -0.9159756150367534 22.500000000000004 11.500000000000002
decision_type=2 2 2 2 8 2 2 2 2 2 8 8 10 2 8 2 2 10 2 2 8 2 2 8 2 8 2 2 2 2
left_child=1 2 13 4 -4 6 -5 -7 11 -2 -10 29 -13 14 -1 -16 -17 -15 22 20 21 -20 23 -6 -22 -25 27 -26 -12 -3
right_child=9 8 3 5 18 7 -8 -9 10 -11 28 12 -14 17 15 16 -18 -19 19 -21 24 -23 -24 25 26 -27 -28 -29 -30 -31
leaf_value=0.00026974521414943874 -0.0017200823954831375 -0.00033948373025388304 0.0010282140906895409 -0.0010555058165566456 0.0051374150840426203 -0.0042041520842491017 0.0010589818127634252 0.0021287196472238507 -0.0013153857566412465 -0.0014583211765068138 -0.0010746321043962335 0.00074916827936039184 0.0066984958306236997 -0.0018210462012954176 0.00059622651239150373 -0.0020664200168147629 -0.0028447943762889452 -0.0060786402471502089 -0.0059738896155906752 -0.0087369518222308994 0.010313703228793042 0.00041986671415960767 0.0019929655600587682 -0.0047934069423787983 0.011203636326420387 -0.00051055718184788161 0.0032156884044063322 -0.0021764532146223039 0.0018021667923130676 -0.0097541998363744296
leaf_weight=21 56 98 20 115 21 112 44 48 137 129 328 1852 26 183 66 87 84 57 47 39 131 54 48 23 36 480 147 63 81 20
leaf_count=21 56 98 20 115 21 112 44 48 137 129 328 1852 26 183 66 87 84 57 47 39 131 54 48 23 36 480 147 63 81 20
internal_value=-7.84452e-05 1.34276e-05 -0.000508828 -6.30264e-05 0.000410278 -0.00170847 3.14453e-05 -0.0034375 0.000409125 -0.0022973 -0.000695972 0.000711422 0.00083067 -0.00178715 -0.000930234 -0.00162447 -0.00266082 -0.00270833 0.000280072 0.000899419 0.00127615 -0.00103961 -0.000279721 -0.000610688 0.00189655 -0.000825051 0.00109756 -0.000454547 -0.000110026 -0.00118644
internal_weight=4653 4468 1926 1428 1109 319 159 160 2542 185 546 1996 1878 498 258 237 171 240 1089 517 478 101 572 524 377 503 246 99 409 118
internal_count=4653 4468 1926 1428 1109 319 159 160 2542 185 546 1996 1878 498 258 237 171 240 1089 517 478 101 572 524 377 503 246 99 409 118
is_linear=0
shrinkage=0.05


Tree=32
num_leaves=31
num_cat=0
split_feature=4 6 1 7 7 6 0 2 0 2 7 0 1 0 6 4 1 1 6 6 6 1 6 6 2 7 1 6 1 7
split_gain=0.349515 0.372702 0.322447 0.420539 0.297829 0.709448 0.285893 0.536208 0.36745 0.432175 0.480485 0.241121 0.345724 0.339957 0.229383 0.225084 0.6973 0.488084 0.215149 0.21453 0.203229 0.190213 0.166287 0.165119 0.159911 0.159794 0.217129 0.157488 0.164084 0.271707
threshold=0.91597561503675362 3.5500000000000003 2.5000000000000004 10.500000000000002 69.500000000000014 2.0500000000000003 3.5000000000000004 11.500000000000002 15.500000000000002 11.500000000000002 89.500000000000014 10.500000000000002 1.0000000180025095e-35 7.5000000000000009 2.3500000000000001 0.78656609248549325 3.5000000000000004 4.5000000000000009 0.55000000000000016 7.0500000000000007 11.550000000000002 3.5000000000000004 5.0500000000000007 4.7500000000000009 11.500000000000002 45.500000000000007 4.5000000000000009 8.4500000000000011 1.5000000000000002 53.500000000000007
decision_type=2 8 2 8 8 8 2 2 2 2 8 2 2 2 10 2 2 2 10 8 8 2 8 10 2 10 2 8 2 10
left_child=2 -2 3 -1 25 -6 7 14 9 10 -8 13 -13 -12 -5 21 -17 -18 -15 -9 -3 -7 -10 -11 -22 26 -4 -24 29 -29
right_child=1 20 4 6 5 15 8 19 22 23 11 12 -14 18 -16 16 17 -19 -20 -21 24 -23 27 -25 -26 -27 -28 28 -30 -31
leaf_value=0.00077459390491037565 0.0016584933261441647 -0.0071928266019371384 -0.0023512138714066547 -0.00077441928126260428 0.009917930153824259 -0.00071443280438505128 0.00028874062472836296 -0.0041620851485009496 -0.0020365666046941299 -0.0020676305538911868 -0.0062796973851698594 0.00067015174099316615 -0.0019834653210986726 0.0010772650806492362 0.010535840168845696 0.0051828688540595082 -0.0050586085202468881 0.002023198454155667 -0.0039610941740988587 0.007065297019678592 -0.00063647560495112766 0.00039800432757518484 0.0029525199389378409 -0.0053661308305408837 -0.003605610876151388 -0.0054053040996356631 0.00037028410857810822 -0.00010485931673014371 0.0022033256059871141 -0.0053686496920545392
leaf_weight=35 34 104 52 147 53 484 21 27 73 281 36 55 146 94 24 49 46 103 21 140 229 1459 28 73 193 31 45 348 191 31
leaf_count=35 34 104 52 147 53 484 21 27 73 281 36 55 146 94 24 49 46 103 21 140 229 1459 28 73 193 31 45 348 191 31
internal_value=-7.84452e-05 -0.00125 8.18459e-05 -0.000426314 0.000469422 0.000606198 -0.000535715 0.00076923 -0.000851217 -0.00162999 -0.00044236 -0.000880683 -0.00201493 0.000629138 -0.00119883 0.000464735 0.00207071 0.000369126 0.00195652 0.00278443 -0.00157795 0.00030108 -7.45276e-06 -0.00288136 -0.00109005 -0.001875 -0.00087629 0.000267557 8.77181e-05 -0.000514513
internal_weight=4653 560 4093 1771 2322 2194 1736 338 1398 727 373 352 201 151 171 2141 198 149 115 167 526 1943 671 354 422 128 97 598 570 379
internal_count=4653 560 4093 1771 2322 2194 1736 338 1398 727 373 352 201 151 171 2141 198 149 115 167 526 1943 671 354 422 128 97 598 570 379
is_linear=0
shrinkage=0.05


Tree=33
num_leaves=31
num_cat=0
split_feature=4 1 5 7 8 0 4 1 1 2 7 8 8 4 2 0 7 1 4 2 1 8 8 0 5 1 0 5 0 2
split_gain=0.336809 0.364381 0.546879 0.297829 0.382612 1.43602 0.300012 0.748645 0.318859 0.283165 0.248243 0.214321 0.317699 0.16593 0.278747 0.561005 0.159794 0.217129 0.147948 0.201237 0.275862 0.182556 0.171241 0.131364 0.128571 0.126992 0.344238 0.188988 0.388889 0.124835
threshold=0.91597561503675362 2.5000000000000004 -0.70710678118654757 69.500000000000014 59.500000000000007 13.500000000000002 0.78656609248549325 3.5000000000000004 4.5000000000000009 11.500000000000002 10.500000000000002 26.500000000000004 17.500000000000004 0.78656609248549325 11.500000000000002 7.5000000000000009 45.500000000000007 4.5000000000000009 -0.98296291314453399 11.500000000000002 4.5000000000000009 1.5000000000000002 5.5000000000000009 22.500000000000004 -0.12940952255126037 3.5000000000000004 20.500000000000004 -0.9159756150367534 12.500000000000002 11.500000000000002
decision_type=2 2 2 8 10 2 2 2 2 2 8 10 10 2 2 2 10 2 2 2 2 8 8 2 2 2 2 2 2 2
left_child=1 2 29 16 6 -6 11 -8 -9 -2 -4 12 18 -12 15 -15 17 -3 19 20 -5 23 -23 -20 -19 26 27 28 -24 -1
right_child=9 3 10 4 5 -7 7 8 -10 -11 13 -13 -14 14 -16 -17 -18 24 21 -21 -22 22 25 -25 -26 -27 -28 -29 -30 -31
leaf_value=-0.0014292826945192017 -0.00048396243800406628 -0.0022336531778363203 0.0007358642977047759 0.004308488306110597 0.0047048210167483107 -0.0063633255897526039 0.0039050364467129619 -0.0048056780942345445 0.0016818684779108068 -0.00370789840962721 0.00011615703888825359 -0.0056279129622628082 0.0010038458889043429 -0.0054859416972892735 -0.0034346784666498425 0.0010411205564478554 -0.0051350388946538785 0.0011008435436150805 -0.00073232209381950749 0.0064725606723759141 -0.0036526787837985828 0.0020343630024528881 -0.0041290473724459901 -0.00090342753685236578 -0.0012888921220107394 0.00056761551635014422 0.0034297962703360402 -0.0043552002242218391 0.0037525016008685243 -0.0027932759840224811
leaf_weight=258 303 52 25 29 34 23 52 47 106 257 1089 49 22 40 77 42 31 21 200 47 29 20 42 20 24 1132 63 258 21 240
leaf_count=258 303 52 25 29 34 23 52 47 106 257 1089 49 22 40 77 42 31 21 200 47 29 20 42 20 24 1132 63 258 21 240
internal_value=-9.99367e-05 5.74139e-05 -0.000482779 0.000469422 0.000606198 0.00464912 0.000498361 0.00231707 0.000555554 -0.00125 6.67702e-05 0.000305382 0.000390333 -3.20525e-05 -0.00154088 0.000487804 -0.001875 -0.00087629 0.000319719 0.00214286 0.000172413 0.000210705 0.000403645 -0.00113636 0.00166667 0.000343007 -0.00044271 -0.00110592 0.00134921 -0.00188755
internal_weight=4653 4093 1771 2322 2194 57 2137 205 153 560 1273 1932 1883 1248 159 82 128 97 1861 105 58 1756 1536 220 45 1516 384 321 63 498
internal_count=4653 4093 1771 2322 2194 57 2137 205 153 560 1273 1932 1883 1248 159 82 128 97 1861 105 58 1756 1536 220 45 1516 384 321 63 498
is_linear=0
shrinkage=0.05


Tree=34
num_leaves=31
num_cat=0
split_feature=6 5 1 7 4 5 6 6 6 4 7 5 6 5 5 1 5 6 7 6 8 6 4 8 5 7 6 6 6 4
split_gain=0.369307 0.344769 0.215925 0.62247 0.519992 0.254218 0.248964 0.332607 0.213437 0.212642 0.192797 0.27202 0.184113 0.174649 0.211139 0.230641 0.218328 0.237714 0.234826 0.387097 0.464422 0.166663 0.49571 0.247246 0.490714 0.478139 0.214032 0.136932 0.189044 0.134426
threshold=5.1500000000000012 0.98296291314453421 2.5000000000000004 10.500000000000002 0.98296291314453421 -0.70710678118654757 2.3500000000000001 3.8500000000000001 4.5500000000000007 0.78656609248549325 37.500000000000007 -0.98296291314453399 11.65 0.98296291314453421 0.78656609248549303 3.5000000000000004 1.0000000180025095e-35 8.8500000000000032 97.500000000000014 7.7500000000000009 18.500000000000004 1.5500000000000003 1.0000000180025095e-35 23.500000000000004 0.60355339059327384 99.500000000000014 3.5500000000000003 7.2500000000000009 5.6500000000000012 -0.78656609248549292
