tree
version=v4
num_class=1
num_tree_per_iteration=1
label_index=0
max_feature_idx=10
objective=quantile
feature_names=hour day_of_week month is_weekend hour_sin hour_cos temp_c cloud_cover_pct shortwave_radiation_w_m2 vacation_mode_flag alarm_armed_flag
feature_infos=[0:23] [0:6] [11:12] [0:1] [-1:1] [-1:1] [-4.7000000000000002:13.300000000000001] [0:100] [0:282] none none
tree_sizes=2666 2677 2763 2725 2709 2708 2818 2752 2770 2796 2804 2777 2758 2801 2789 2800 2783 2758 2859 2791 2769 2785 2806 2788 2809 2863 2839 2858 2859 2938 2837 2804 2852 2843 2880 2855 2864 2877 2902 2877 2881 2849 2858 2843 2820 2866 2891 2847 2855 2888 2898 2846 2864 2891 2862 2919 2876 2887 2942 2892 2876 2921 2890 2934 2853 2893 2910 2914 2839 2863 2863 2876 2886 2895 2890 2905 2876 2933 2876 2920 2929 2886 2880 2910 2887 2894 2882 2863 2876 2877 2893 2909 2901 2914 2884 2900 2894 2880 2904 2912 2901 2892 2898 2881 2877 2886 2876 2896 2890 2892 2945 2903 2884 2898 2930 2910 2917 2909 2913 2926 2908 2908 2948 2932 2920 2921 2894 2900 2901 2895 2922 2940 2906 2901 2889 2894 2945 2907 2939 2922 2915 2915 2920 2935 2908 2911 2935 2912 2927 2906 2918 2911 2916 2906 2905 2920 2909 2921 2907 2912 2925 2952 2938 2934 2908 2920 2924 2904 2903 2938 2906 2901 2915 2905 2902 2915 2919 2901 2890 2913 2894 2885 2894 2873 2907 2912 2897 2908 2907 2934 2904 2929 2896 2920 2895 2903 2900 2905 2928 2906

Tree=0
num_leaves=31
num_cat=0
split_feature=5 0 2 8 1 6 1 0 8 6 0 1 1 0 6 0 8 0 1 0 1 5 0 0 0 2 6 1 1 0
split_gain=38.1005 15.5978 15.2114 4.98805 4.35735 2.73487 1.6875 1.4308 1.3943 1.34617 1.29262 1.2773 0.722535 0.666667 0.504167 0.469444 0.438805 0.433814 0.13479 0.111969 0.111111 0.10945 0.124138 0.0978189 0.0965093 0.0850575 0.111111 0.106692 0.1875 0.0833333
threshold=-0.60355339059327384 13.500000000000002 11.500000000000002 129.50000000000003 2.5000000000000004 8.5500000000000025 1.5000000000000002 11.500000000000002 153.50000000000003 4.3500000000000005 12.500000000000002 3.5000000000000004 3.5000000000000004 9.5000000000000018 4.3500000000000005 10.500000000000002 83.500000000000014 12.500000000000002 1.5000000000000002 9.5000000000000018 5.5000000000000009 -0.37940952255126015 15.500000000000002 14.500000000000002 10.500000000000002 11.500000000000002 -2.2499999999999996 2.5000000000000004 4.5000000000000009 10.500000000000002
decision_type=2 2 2 10 2 8 2 2 10 10 2 2 2 2 10 2 8 2 2 2 2 2 2 2 2 2 10 2 2 2
left_child=1 2 3 4 10 9 14 11 23 -6 16 -7 -9 -13 15 -4 -1 -14 19 -18 29 22 25 -3 -20 26 27 -2 -29 -15
right_child=21 8 6 -5 5 7 -8 12 -10 -11 -12 13 17 20 -16 -17 18 -19 24 -21 -22 -23 -24 -25 -26 -27 -28 28 -30 -31
leaf_value=0.11499999813735506 0.10000000149011612 0.10000000149011612 0.10349999880045649 0.13000000081956387 0.12000000141561032 0.129999996051194 0.10000000149011612 0.11000000201165676 0.11000000201165676 0.10399999773502344 0.10049999684840434 0.11500000171363353 0.12500000260770322 0.12500000260770322 0.10000000149011612 0.10749999761581383 0.10500000156462193 0.11500000171363353 0.1189999964684251 0.11500000171363353 0.13000000081956387 0.095000001415610311 0.095000001415610311 0.095000001415610311 0.10500000156462193 0.095000001415610311 0.095000001415610311 0.10849999913573241 0.10000000149011612 0.12849999861419298
leaf_weight=31 33 132 24 32 20 41 120 24 21 33 40 36 36 24 20 36 21 35 22 62 24 2161 145 141 27 37 27 24 24 24
leaf_count=31 33 132 24 32 20 41 120 24 21 33 40 36 36 24 20 36 21 35 22 62 24 2161 145 141 27 37 27 24 24 24
internal_value=0.0985088 0.106598 0.110505 0.114925 0.1137 0.117559 0.09875 0.119795 0.0968707 0.107264 0.108054 0.122852 0.115 0.12 0.104375 0.106667 0.110031 0.117535 0.111288 0.11006 0.122778 0.0951224 0.0960345 0.0959158 0.113367 0.097069 0.0977778 0.0987037 0.100208 0.124167
internal_weight=3477 1026 732 532 500 297 200 244 294 53 203 149 95 108 80 60 163 71 132 83 72 2451 290 273 49 145 108 81 48 48
internal_count=3477 1026 732 532 500 297 200 244 294 53 203 149 95 108 80 60 163 71 132 83 72 2451 290 273 49 145 108 81 48 48
is_linear=0
shrinkage=1


Tree=1
num_leaves=31
num_cat=0
split_feature=8 0 0 2 7 1 0 1 0 0 1 0 1 0 6 0 0 1 7 1 1 0 0 0 2 1 0 1 8 1
split_gain=13.1263 9.10836 35.2721 12.8076 5.54139 4.52523 2.88095 1.71745 1.56631 1.20324 0.74477 0.905933 0.722535 0.564192 0.515714 0.496979 0.433814 0.216652 0.17991 0.223231 0.547635 0.15221 0.0936041 0.103913 0.0794233 0.07887 0.0769231 0.0647934 0.0533333 0.0531201
threshold=142.00000000000003 13.500000000000002 8.5000000000000018 11.500000000000002 94.500000000000014 2.5000000000000004 13.500000000000002 1.5000000000000002 11.500000000000002 12.500000000000002 3.5000000000000004 9.5000000000000018 3.5000000000000004 7.5000000000000009 8.4500000000000011 10.500000000000002 12.500000000000002 1.5000000000000002 25.500000000000004 2.5000000000000004 4.5000000000000009 14.500000000000002 9.5000000000000018 10.500000000000002 11.500000000000002 4.5000000000000009 10.500000000000002 1.0000000180025095e-35 16.500000000000004 2.5000000000000004
decision_type=10 2 2 2 10 2 2 2 2 2 2 2 2 2 10 2 2 2 10 2 2 2 2 2 2 2 2 2 10 2
left_child=1 2 13 4 5 9 -2 15 10 17 -7 -12 -10 -1 28 -5 -14 22 19 -15 -21 24 -4 -24 29 -13 -19 -17 -6 -3
right_child=6 21 3 7 14 8 -8 -9 12 -11 11 25 16 18 -16 27 -18 26 -20 20 -22 -23 23 -25 -26 -27 -28 -29 -30 -31
leaf_value=-0.0047500000707805159 0.02849999936297536 0 0.011749994691461244 0 0.0002199982742220684 0.028499999601393856 0.0095000004954636091 0 0.0095000004954636091 0.0039749964769929111 0.014250000212341546 0.028574999473243903 0.023750001061707736 -0.00047500578276821637 0.015174996139853651 0.0096250007152557573 0.014250000212341546 0.016649997422844287 -0.0047500000707805159 0.0041424969767777826 0 -0.0047500000707805159 0.02924999693408702 0.012749995175749368 -0.0040000045895577157 0.02849999936297536 0.0047500000707805159 0.0046250002682209209 -0.00019999981224536612 0
leaf_weight=1121 32 39 24 32 20 38 24 120 24 33 42 27 36 52 20 23 35 26 30 32 31 1323 21 44 39 55 26 24 30 54
leaf_count=1121 32 39 24 32 20 38 24 120 24 33 42 27 36 52 20 23 35 26 30 32 31 1323 21 44 39 55 26 24 30 54
internal_value=-0.00133305 -0.0017261 0.000493386 0.0095 0.0137625 0.0158817 0.0226786 -0.00123116 0.0200973 0.00965517 0.0230864 0.0212097 0.015 -0.00448657 0.000714285 0.00449367 0.0175352 0.0116667 -0.00155173 -0.000652175 0.00134921 -0.00472509 0.0101685 0.0111538 -0.00310606 0.0242683 0.0142308 0.00776596 -0.002 -0.00231183
internal_weight=3477 3421 1966 700 501 431 56 199 257 174 162 124 95 1266 70 79 71 141 145 115 63 1455 89 65 132 82 52 47 50 93
internal_count=3477 3421 1966 700 501 431 56 199 257 174 162 124 95 1266 70 79 71 141 145 115 63 1455 89 65 132 82 52 47 50 93
is_linear=0
shrinkage=0.05


Tree=2
num_leaves=31
num_cat=0
split_feature=5 0 7 7 1 7 0 0 6 5 0 0 6 7 0 0 1 1 1 1 0 1 1 1 0 6 6 0 1 0
split_gain=38.4172 13.3505 7.15491 3.52853 3.80793 1.02872 1.00158 0.845911 0.756506 0.551075 0.675862 0.548769 0.461027 0.352624 0.348881 0.420473 0.375325 0.339815 0.242424 0.211653 0.191514 0.155637 0.12987 0.0750751 0.379327 0.0708408 0.182002 0.0606213 0.0523893 0.0321824
threshold=-0.60355339059327384 13.500000000000002 8.5000000000000018 94.500000000000014 2.5000000000000004 97.500000000000014 12.500000000000002 12.500000000000002 8.7500000000000018 -0.37940952255126015 15.500000000000002 10.500000000000002 4.4500000000000011 25.500000000000004 9.5000000000000018 11.500000000000002 4.5000000000000009 4.5000000000000009 4.5000000000000009 2.5000000000000004 14.500000000000002 4.5000000000000009 4.5000000000000009 1.0000000180025095e-35 11.500000000000002 5.6500000000000012 7.5500000000000007 10.500000000000002 1.0000000180025095e-35 10.500000000000002
decision_type=2 2 8 10 2 8 2 2 10 2 2 2 10 10 2 2 2 2 2 2 2 2 2 2 2 10 8 2 2 2
left_child=1 2 -1 4 7 -3 14 11 12 10 13 28 -5 17 18 21 -17 19 -6 -2 -7 27 -8 -13 -25 -14 -27 -16 -4 -23
right_child=9 5 3 8 6 20 22 -9 -10 -11 -12 23 25 -15 15 16 -18 -19 -20 -21 -22 29 -24 24 -26 26 -28 -29 -30 -31
leaf_value=0.0287416229700963 -0.00045125549362980577 0.0090250004706904294 0.0041625003362074529 0.006149198767952016 0.011367497813366278 0 0.013537500201724471 0.0042937499240040672 0.0083582462672965006 -0.0045125000672414902 -0.0045125000672414902 0.010609373038169332 -0.00019412486146399834 -0.0045125000672414902 0.026124246287846133 0.01037874116446786 0.012464999777488543 0 0.013537500201724471 0.0039353721279388942 -0.0045125000672414902 0.022275000920705567 0.0063674977811794377 0.012612491930090387 0.0045125000672414902 0.0038099976153671378 -0.00017249989647420022 0.022146244439146631 0.0094027482549364667 0.02157499736826779
leaf_weight=20 52 23 33 24 33 133 30 55 29 2161 145 36 22 30 33 30 33 31 33 32 138 33 33 37 38 23 20 31 74 32
leaf_count=20 52 23 33 24 33 133 30 55 29 2161 145 36 22 30 33 30 33 31 33 32 138 33 33 37 38 23 20 31 74 32
internal_value=-0.00123239 0.00689084 0.0105055 0.00967697 0.0112458 -0.00210884 0.0149377 0.00690476 0.00177966 -0.0046328 -0.00258621 0.00830275 -0.000505619 -0.000172415 0.0163178 0.0173958 0.0140476 0.00108696 0.0131818 0.00273809 -0.00297048 0.019031 0.00928571 0.0107658 0.0116667 -0.00269231 -0.00151163 0.0207812 0.00574766 0.0173077
internal_weight=3477 1026 732 712 594 294 321 273 118 2451 290 218 89 145 258 192 63 115 66 84 271 129 63 111 75 65 43 64 107 65
internal_count=3477 1026 732 712 594 294 321 273 118 2451 290 218 89 145 258 192 63 115 66 84 271 129 63 111 75 65 43 64 107 65
is_linear=0
shrinkage=0.05


Tree=3
num_leaves=31
num_cat=0
split_feature=5 0 2 7 1 6 0 1 0 6 7 1 1 0 1 1 7 5 0 0 6 0 1 2 0 6 0 0 1 0
split_gain=39.8125 13.7878 13.8334 6.01149 3.41934 4.09796 1.71286 1.61333 1.25473 0.963333 0.792554 0.630301 0.606692 0.564498 0.716841 0.45 0.336275 0.332846 0.417241 0.305501 0.275609 0.25 0.189064 0.200684 0.1875 0.166667 0.139201 0.132629 0.11051 0.0833333
threshold=-0.60355339059327384 13.500000000000002 11.500000000000002 33.500000000000007 2.5000000000000004 8.7500000000000018 12.500000000000002 1.5000000000000002 12.500000000000002 4.7500000000000009 91.500000000000014 1.5000000000000002 5.5000000000000009 11.500000000000002 3.5000000000000004 1.0000000180025095e-35 82.500000000000014 -0.37940952255126015 15.500000000000002 10.500000000000002 -2.2499999999999996 10.500000000000002 4.5000000000000009 11.500000000000002 10.500000000000002 5.8500000000000005 14.500000000000002 9.5000000000000018 4.5000000000000009 9.5000000000000018
decision_type=2 2 2 8 2 8 2 2 2 10 8 2 2 2 2 2 10 2 2 2 10 2 2 2 2 8 2 2 2 2
left_child=1 2 3 -1 8 9 12 15 11 -6 -3 16 13 14 -7 -4 27 18 20 -13 22 29 23 -2 -14 -9 -12 -5 -8 -16
right_child=17 10 7 4 5 6 28 25 -10 -11 26 19 24 -15 21 -17 -18 -19 -20 -21 -22 -23 -24 -25 -26 -27 -28 -29 -30 -31
leaf_value=0.026408793087579732 4.6313063819900667e-05 0.0085737504471559076 0.0043974803098514471 0.0039543753193970804 0.016042749891074508 0.025768784021096548 0.012860625191638247 -0.0044902960889585605 0.004104764744406496 -0.00018126670273202884 0 0.010887356942954398 0.018531058911261562 0.01598096698296441 0.012860625191638247 0.0041966425989083192 0.011697411589945281 -0.0042868750638794155 -0.0042868750638794155 0.004534939907177047 -0.0042868750638794155 0.0245389350722535 0 -0.004703687006960615 0.024779147749706833 -0.00051405720885968286 -0.0042868750638794155 0.012981499768057504 0.0062191225708515836 0.021152387257767052
leaf_weight=30 57 20 40 22 20 41 24 20 42 30 135 28 24 37 24 40 20 2161 145 30 36 24 30 22 24 100 139 63 25 24
leaf_count=30 57 20 40 22 20 41 24 20 42 30 135 28 24 37 24 40 20 2161 145 30 36 24 30 22 24 100 139 63 25 24
internal_value=-0.00123239 0.00703704 0.0107104 0.0149248 0.0136255 0.0170539 0.0196964 -0.000500001 0.00865854 0.004 -0.00210884 0.0106442 0.0217677 0.0233333 0.0250885 0.005 0.00833333 -0.004694 -0.00310345 0.0148276 -0.0012069 0.0220833 4.58704e-05 0.00132911 0.016875 -0.00416667 -0.00281022 0.00970588 0.0113265 0.02
internal_weight=3477 1026 732 532 502 297 247 200 205 50 294 163 198 150 113 80 105 2451 290 58 145 72 109 79 48 120 274 85 49 48
internal_count=3477 1026 732 532 502 297 247 200 205 50 294 163 198 150 113 80 105 2451 290 58 145 72 109 79 48 120 274 85 49 48
is_linear=0
shrinkage=0.05


Tree=4
num_leaves=31
num_cat=0
split_feature=8 0 0 2 0 0 1 6 0 1 0 1 8 6 1 8 6 1 0 0 1 0 0 1 1 0 0 1 1 1
split_gain=13.142 8.54 26.6887 8.52941 8.30007 2.88095 2.09032 1.35669 1.18189 1.15384 1.13147 0.885422 0.472545 0.44705 0.332821 0.306177 0.295335 0.305654 0.25 0.75 0.187389 0.111969 0.104027 1.15268 0.646532 0.304878 0.0769231 0.0740741 0.0693955 0.0531201
threshold=142.00000000000003 14.500000000000002 8.5000000000000018 11.500000000000002 12.500000000000002 13.500000000000002 1.5000000000000002 4.0500000000000007 13.500000000000002 1.5000000000000002 7.5000000000000009 2.5000000000000004 83.500000000000014 4.3500000000000005 2.5000000000000004 28.500000000000004 6.9500000000000011 4.5000000000000009 12.500000000000002 10.500000000000002 2.5000000000000004 9.5000000000000018 10.500000000000002 3.5000000000000004 3.5000000000000004 9.5000000000000018 10.500000000000002 4.5000000000000009 1.0000000180025095e-35 2.5000000000000004
decision_type=10 2 2 2 2 2 2 10 2 2 2 2 8 10 2 10 8 2 2 2 2 2 2 2 2 2 2 2 2 2
left_child=1 2 10 4 6 -2 12 14 11 13 -1 -6 -4 18 26 -11 -12 20 19 -5 -18 -14 24 -24 -16 -26 -8 -13 -23 -10
right_child=5 -3 3 9 8 -7 7 -9 29 15 16 27 21 -15 22 -17 17 -19 -20 -21 -22 28 23 -25 25 -27 -28 -29 -30 -31
leaf_value=-0.0040725313106854451 0.02431747859194279 -0.0040725313106854451 0.014182848435159543 0.0027206191934191319 0.00024517650978643431 0.0081450629247981129 0.013931483481394676 0.020381529127882388 0 -0.0011014999445577219 -0.0040725313106854451 0.012217593932056334 0.0037566565534272269 -0.0002689248063759019 0.018480342264622206 0.00014077896473095169 -0.001190966407487121 0 -0.00016923134802616691 0.0083934080120919297 0.0029425378123412063 0.012081096972694464 0.0077070150633188166 0.021244515601250735 0.012217593932056334 0.024817474114349484 0.004060128068520563 0.0049081661144834369 0.015879496841751741 0
leaf_weight=1121 32 1323 22 24 40 24 26 39 39 122 26 27 21 22 27 22 54 31 24 24 34 28 26 76 41 41 26 27 34 54
leaf_count=1121 32 1323 22 24 40 24 26 39 39 122 26 27 21 22 27 22 54 31 24 24 34 28 26 76 41 41 26 27 34 54
internal_value=-0.00134743 -0.00174072 0.000243087 0.00719952 0.010404 0.0226786 0.0144103 0.0165232 0.00168449 -0.000798321 -0.0043286 0.0056383 0.00833333 0.00351064 0.0178137 -0.00361111 -0.000172415 0.000882352 0.00541667 0.0075 0.00238636 0.0100602 0.0186967 0.017549 0.0197706 0.017561 0.0142308 0.00981481 0.011129 -0.00231183
internal_weight=3477 3421 2098 832 594 56 407 302 187 238 1266 94 105 94 263 144 145 119 72 48 88 83 211 102 109 82 52 54 62 93
internal_count=3477 3421 2098 832 594 56 407 302 187 238 1266 94 105 94 263 144 145 119 72 48 88 83 211 102 109 82 52 54 62 93
is_linear=0
shrinkage=0.05


Tree=5
num_leaves=31
num_cat=0
split_feature=5 4 2 7 8 4 1 8 1 7 1 7 4 5 4 7 4 1 2 8 4 1 4 1 4 1 4 4 1 1
split_gain=33.7757 11.603 11.5217 6.92749 2.65526 1.93587 1.40083 1.20984 1.20039 0.833526 0.716005 0.504167 0.469444 0.332846 0.417241 0.275609 0.240294 0.189064 0.200684 0.157143 0.146917 0.14029 0.111969 0.1 0.205128 0.100079 0.338835 0.0738558 0.3573 0.340278
threshold=-0.60355339059327384 -0.25881904510252113 11.500000000000002 33.500000000000007 103.50000000000001 1.0000000180025095e-35 1.5000000000000002 153.50000000000003 1.5000000000000002 99.500000000000014 3.5000000000000004 17.500000000000004 0.37940952255126054 -0.37940952255126015 0.78656609248549325 inf 0.37940952255126054 4.5000000000000009 11.500000000000002 5.5000000000000009 -0.5 1.5000000000000002 0.60355339059327384 5.5000000000000009 0.37940952255126054 2.5000000000000004 0.37940952255126054 0.37940952255126054 3.5000000000000004 3.5000000000000004
decision_type=2 2 2 8 8 2 2 10 2 10 2 10 2 2 2 8 2 2 2 10 2 2 2 2 2 2 2 2 2 2
left_child=1 7 3 -3 9 10 11 20 22 -5 21 12 -4 14 -2 -16 -11 18 -17 -8 -1 -6 -7 25 -25 26 -10 28 -27 -29
right_child=13 2 6 4 5 8 19 -9 23 16 -12 -13 -14 -15 15 17 -18 -19 -20 -21 -22 -23 -24 24 -26 27 -28 29 -30 -31
leaf_value=-0.0038689047451511728 -0.0038689047451511728 0.024348217822271843 0.0059757115692163042 0.019381534051291269 0.008567928769063593 0.011192061645884575 -0.00054837183453841718 0.0077378097785582066 0.0041506802969278897 -0.00052703712688105921 0.011606714235453517 -0.00039187370500168945 0.002584588233748175 -0.0038689047451511728 -0.0038689047451511728 0.00010354573100326142 0.0016880902621265728 0 -0.0044089543362382288 -0.00039924840115838911 0 0.00044412342776479975 0.0035688237257558656 0.021666564687373137 0.016552630808180643 0.013668736394631249 0.015506415924287038 0.02055632568783286 0.020182288113487365 0.018775409167339482
leaf_weight=141 145 30 36 20 23 62 99 21 29 34 38 20 24 2161 36 57 27 30 22 21 132 27 21 26 24 26 22 24 51 48
leaf_count=141 145 30 36 20 23 62 99 21 29 34 38 20 24 2161 36 57 27 30 22 21 132 27 21 26 24 26 22 24 51 48
internal_value=-0.00150561 0.00611111 0.00948087 0.0133271 0.0119323 0.0135273 -0.000750001 -0.00227891 0.0152703 0.00364197 0.00693182 0.004375 0.00666667 -0.004694 -0.00310345 -0.0012069 0.000737704 4.58704e-05 0.00132911 -0.00416667 -0.0031685 0.003 0.0100602 0.017 0.015 0.0175 0.0155882 0.0181544 0.0170779 0.0193056
internal_weight=3477 1026 732 532 502 421 200 294 333 81 88 80 60 2451 290 145 61 109 79 120 273 50 83 250 50 200 51 149 77 72
internal_count=3477 1026 732 532 502 421 200 294 333 81 88 80 60 2451 290 145 61 109 79 120 273 50 83 250 50 200 51 149 77 72
is_linear=0
shrinkage=0.05


Tree=6
num_leaves=31
num_cat=0
split_feature=5 0 2 7 8 0 8 7 5 0 7 0 6 0 0 0 2 0 0 6 6 2 6 6 0 0 2 0 0 4
split_gain=32.4916 10.7447 10.9145 7.15246 2.79731 1.73236 1.61193 0.953744 0.551075 0.675862 0.352624 0.300833 0.152413 0.24427 0.145773 0.120076 0.108002 0.0889618 0.107216 0.0865801 0.0375 0.027536 0.0185905 0.0258799 0.0166667 0.016322 0.0114286 0.0106206 0.00462548 0.00286447
threshold=-0.60355339059327384 13.500000000000002 11.500000000000002 33.500000000000007 103.50000000000001 12.500000000000002 148.50000000000003 99.500000000000014 -0.37940952255126015 15.500000000000002 25.500000000000004 10.500000000000002 5.2500000000000009 12.500000000000002 14.500000000000002 10.500000000000002 11.500000000000002 9.5000000000000018 11.500000000000002 10.15 3.8500000000000001 11.500000000000002 0.15000000000000005 -0.84999999999999998 9.5000000000000018 10.500000000000002 11.500000000000002 11.500000000000002 22.500000000000004 0.37940952255126054
decision_type=2 2 2 8 8 2 10 10 2 2 10 2 10 2 2 2 2 2 2 8 10 2 8 10 2 2 2 2 2 2
left_child=1 2 3 -1 7 17 14 -5 9 10 16 20 13 27 19 -9 -2 -6 25 -3 24 -21 23 -10 -4 -19 -16 -13 29 -24
right_child=8 6 11 4 5 -7 -8 15 22 -11 -12 12 -14 -15 26 -17 -18 18 -20 21 -22 -23 28 -25 -26 -27 -28 -29 -30 -31
leaf_value=0.023130806931158251 9.8368444453098014e-05 -0.0043316806601743927 -0.00082745146854029639 0.018412457348726707 0.010667943777086542 0.0076323950023865668 0.0073509192896302963 0.0016036857490202439 -0.0036754595078936146 -0.0036754595078936146 -0.0036754595078936146 0.002834837549294528 -0.00037928598110046968 -0.00026071118479712542 -0.0036754595078936146 -0.00050068527053700649 -0.004169259649979923 0.019340337315555872 0.011508983947431909 0 -0.00038643482107215092 -0.0047449248478000352 -0.0036754595078936146 -0.0036754595078936146 -0.00081762778867090324 0.017992618995999063 -0.0036754595078936146 0.0032398371424369717 -0.0036754595078936146 -0.0036754595078936146
leaf_weight=30 86 20 30 20 79 88 22 27 25 145 30 33 23 32 100 34 29 78 90 81 20 31 1152 21 30 86 40 32 146 817
leaf_count=30 86 20 30 20 79 88 22 27 25 145 30 33 23 32 100 34 29 78 90 81 20 31 1152 21 30 86 40 32 146 817
internal_value=-0.00150561 0.00596491 0.00920765 0.0129511 0.0115339 0.013171 -0.00210884 0.00302469 -0.0046328 -0.00258621 -0.000172415 -0.000750001 0.000833332 0.00170103 -0.00316177 -8.19684e-05 0.00108696 0.0148198 0.0152756 -0.0019697 -0.003125 -0.00142857 -0.00490745 -0.00391304 -0.0025 0.0160366 -0.00428572 0.00346154 -0.00492908 -0.00494921
internal_weight=3477 1026 732 532 502 421 294 81 2451 290 145 200 120 97 272 61 115 333 254 132 80 112 2161 46 60 164 140 65 2115 1969
internal_count=3477 1026 732 532 502 421 294 81 2451 290 145 200 120 97 272 61 115 333 254 132 80 112 2161 46 60 164 140 65 2115 1969
is_linear=0
shrinkage=0.05


Tree=7
num_leaves=31
num_cat=0
split_feature=5 0 2 7 7 1 1 0 7 5 0 0 7 0 0 7 1 1 0 1 1 0 1 1 0 7 1 7 1 1
split_gain=31.0146 10.106 10.1786 7.43872 3.32961 1.80159 1.40083 1.05778 0.792554 0.551075 0.675862 0.550443 0.504167 0.469444 0.388207 0.352624 0.343654 0.339815 0.24397 0.211653 0.210178 0.201385 0.163333 0.365229 0.173077 0.133333 0.109474 0.0880636 0.0678205 0.0560897
threshold=-0.60355339059327384 13.500000000000002 11.500000000000002 33.500000000000007 99.500000000000014 2.5000000000000004 1.5000000000000002 12.500000000000002 91.500000000000014 -0.37940952255126015 15.500000000000002 11.500000000000002 17.500000000000004 10.500000000000002 10.500000000000002 25.500000000000004 3.5000000000000004 4.5000000000000009 14.500000000000002 2.5000000000000004 1.5000000000000002 9.5000000000000018 3.5000000000000004 4.5000000000000009 12.500000000000002 99.500000000000014 5.5000000000000009 99.500000000000014 4.5000000000000009 2.5000000000000004
decision_type=2 2 2 8 10 2 2 2 8 2 2 2 10 2 2 10 2 2 2 2 2 2 2 2 2 10 2 10 2 2
left_child=1 2 3 -1 5 7 12 14 -3 10 15 16 13 -4 -5 17 -7 19 27 -2 -16 -18 -13 -24 -25 -8 28 29 -23 -10
right_child=9 8 6 4 -6 11 25 -9 18 -11 -12 22 -14 -15 20 -17 21 -19 -20 -21 -22 26 23 24 -26 -27 -28 -29 -30 -31
leaf_value=0.02197426658460034 -0.00030428066292700532 0.0069833733251487813 0.0024967313954877813 0.013028791608185332 0.0017016976930242474 0.02156149784247648 -0.00067060773974738567 0.0021559031787034286 0 -0.0034916865324989342 -0.0034916865324989342 0.0060627782930497177 -0.00035295827869799806 0.0056024479878687503 0.0097716099074976401 -0.0034916865324989342 0.010134546588232214 -4.9184222226550391e-06 -0.0034916865324989342 0.0036467164101276132 0.0030741384528765446 0.020341017183103969 0.010644758773561512 0.013236345752916757 0.0042008025107800441 -0.00031137242899870036 0.02185564056190499 -0.00025407193803410219 0.012006964247273251 0
leaf_weight=30 52 20 24 69 73 40 96 34 52 2161 145 25 20 36 46 30 39 31 139 32 25 24 23 26 26 24 26 23 26 60
leaf_count=30 52 20 24 69 73 40 96 34 52 2161 145 25 20 36 46 30 39 31 139 32 25 24 23 26 26 24 26 23 26 60
internal_value=-0.00157751 0.00572125 0.00886612 0.0124812 0.0110359 0.0127156 -0.000750001 0.0087931 -0.00210884 -0.0046328 -0.00258621 0.0153922 0.004375 0.00666667 0.0107143 -0.000172415 0.0172581 0.00108696 -0.00281022 0.00273809 0.0133099 0.0158696 0.0125 0.0136667 0.0113462 -0.00416667 0.0173684 -0.0012963 0.016 -0.001875
internal_weight=3477 1026 732 532 502 429 200 174 294 2451 290 255 80 60 140 145 155 115 274 84 71 115 100 75 52 120 76 135 50 112
internal_count=3477 1026 732 532 502 429 200 174 294 2451 290 255 80 60 140 145 155 115 274 84 71 115 100 75 52 120 76 135 50 112
is_linear=0
shrinkage=0.05


Tree=8
num_leaves=31
num_cat=0
split_feature=5 0 2 8 1 6 1 8 0 0 6 0 1 0 5 0 6 1 1 1 0 0 0 8 6 0 1 0 2 0
split_gain=29.2415 9.24457 9.19157 3.48181 2.73134 1.72797 1.40083 1.17452 0.798441 0.65309 0.504167 0.469444 0.440147 0.403447 0.399509 0.496552 0.327997 0.304448 0.326597 0.243878 0.230624 0.213333 0.198782 0.190273 0.166667 0.092453 0.12356 0.0833333 0.0712252 0.0562989
threshold=-0.60355339059327384 13.500000000000002 11.500000000000002 129.50000000000003 2.5000000000000004 -0.14999999999999999 1.5000000000000002 153.50000000000003 12.500000000000002 11.500000000000002 4.3500000000000005 10.500000000000002 1.5000000000000002 10.500000000000002 -0.37940952255126015 15.500000000000002 -2.2499999999999996 3.5000000000000004 4.5000000000000009 4.5000000000000009 10.500000000000002 9.5000000000000018 14.500000000000002 83.500000000000014 5.8500000000000005 10.500000000000002 4.5000000000000009 12.500000000000002 11.500000000000002 11.500000000000002
decision_type=2 2 2 10 2 10 2 10 2 2 10 2 2 2 2 2 10 2 2 2 2 2 2 8 8 2 2 2 2 2
left_child=1 2 3 4 8 9 10 22 12 21 11 -4 23 -7 15 16 19 -11 -19 28 -14 -6 -3 -1 -8 26 -23 -20 -2 -25
right_child=14 7 6 -5 5 13 24 -9 -10 17 -12 -13 20 -15 -16 -17 -18 18 27 -21 -22 25 -24 29 -26 -27 -28 -29 -30 -31
leaf_value=0.01034493974853018 0.00010866405537679342 0 0.002371894825713392 0.019628940095444126 0.0096278192588206048 0.01764525961895062 -0.0041714606021414618 0.006634204658891342 0.00011080848332064298 0.0057596393783972315 -0.00033531036476309827 0.0053223255884753129 0.0072529259715601816 0.00196490336238265 -0.0033171022058739877 -0.0033171022058739877 -0.0033171022058739877 0.010112520834883437 0.014471704523000485 -4.6725011115224263e-06 0.0029204315302327174 0.018607534095433875 -0.0033171022058739877 0.01140952945916808 -0.00038122333447692514 0.020660253588949337 0.02050516579807643 0.0049907627130666102 -0.003964829603780971 0.010205266805381658
leaf_weight=22 57 132 24 32 50 27 20 21 40 24 20 36 30 25 2161 145 36 23 24 30 28 25 141 62 100 49 26 24 22 21
leaf_count=22 57 132 24 32 50 27 20 21 40 24 20 36 30 25 2161 145 36 23 24 30 28 25 141 62 100 49 26 24 22 21
internal_value=-0.00170693 0.00538012 0.00838798 0.0118233 0.0108 0.0138552 -0.000750001 -0.00210884 0.00633005 0.0156122 0.004375 0.00666667 0.00788343 0.00557692 -0.0046736 -0.00293104 -0.00086207 0.0123684 0.0140141 0.000504586 0.0113793 0.0176667 -0.00298535 0.00595238 -0.00416667 0.019 0.0204902 0.0116667 0.00196202 0.00704819
internal_weight=3477 1026 732 532 500 297 200 294 203 245 80 60 163 52 2451 290 145 95 71 109 58 150 273 105 120 100 51 48 79 83
internal_count=3477 1026 732 532 500 297 200 294 203 245 80 60 163 52 2451 290 145 95 71 109 58 150 273 105 120 100 51 48 79 83
is_linear=0
shrinkage=0.05


Tree=9
num_leaves=31
num_cat=0
split_feature=5 7 0 2 7 8 1 1 5 0 7 0 0 8 7 0 1 0 1 1 1 0 0 0 8 0 8 0 1 0
split_gain=25.1867 8.77953 6.93906 6.04377 2.36143 2.56967 1.97842 1.40083 0.551075 0.675862 0.504167 0.469444 0.354024 0.408261 0.352624 0.340909 0.395871 0.57483 0.339815 0.211653 0.184723 0.303889 0.256479 0.174664 0.162109 0.159356 0.157143 0.083856 0.0711016 0.0517172
threshold=-0.60355339059327384 5.5000000000000009 13.500000000000002 11.500000000000002 99.500000000000014 28.500000000000004 2.5000000000000004 1.5000000000000002 -0.37940952255126015 15.500000000000002 17.500000000000004 10.500000000000002 14.500000000000002 60.500000000000007 25.500000000000004 12.500000000000002 1.5000000000000002 10.500000000000002 4.5000000000000009 2.5000000000000004 5.5000000000000009 12.500000000000002 10.500000000000002 10.500000000000002 79.000000000000014 10.500000000000002 5.5000000000000009 11.500000000000002 4.5000000000000009 11.500000000000002
decision_type=2 8 2 2 10 10 2 2 2 2 10 2 2 10 10 2 2 2 2 2 2 2 2 2 10 2 10 2 2 2
left_child=1 -1 3 4 5 6 15 10 9 14 11 -5 13 -4 18 16 23 -18 19 -2 21 28 -22 -3 25 -6 -9 -25 29 -8
right_child=8 2 12 7 24 -7 20 26 -10 -11 -12 -13 -14 -15 -16 -17 17 -19 -20 -21 22 -23 -24 27 -26 -27 -28 -29 -30 -31
leaf_value=0.019891411278701976 -0.00027737079296782794 0.0080325109718611242 0 0.0022533000844277224 0.00085309885914291474 0.018201559249297439 0.017692580061838166 -0.00062187879856519766 -0.0031512470955802883 -0.0031512470955802883 -0.00031854484652494327 0.0050562093090515473 -0.0031512470955802883 0.0017037455185647289 -0.0031512470955802883 0.002501948685871272 0.0099234399657544114 0.0027744099537210815 -4.4388760559462002e-06 0.0034793150056836504 0.011927587123760131 0.0096068947931392656 0.015590099405728634 -0.00021839886750614143 0.0043371847594302088 -0.00083196220005735577 -0.0003077301368990678 0.0096950034651125741 0.0097699145975718941 0.013933394160526177
leaf_weight=24 52 42 118 24 27 30 75 99 2161 145 20 36 145 25 30 33 25 24 31 32 26 35 36 20 20 26 21 21 50 24
leaf_count=24 52 42 118 24 27 30 75 99 2161 145 20 36 145 25 30 33 25 24 31 32 26 35 36 20 20 26 21 21 50 24
internal_value=-0.0018795 0.00469785 0.00398203 0.00662465 0.00949416 0.010873 0.00984185 -0.000750001 -0.0046328 -0.00258621 0.004375 0.00666667 -0.00256945 -0.000804197 -0.000172415 0.00560606 0.00674242 0.0103061 0.00108696 0.00273809 0.0126829 0.0134783 0.0103226 0.00463855 0.00116438 -0.00028302 -0.00416667 0.00231707 0.0144631 0.0136869
internal_weight=3477 1026 1002 714 514 441 411 200 2451 290 80 60 288 143 145 165 132 49 115 84 246 184 62 83 73 53 120 41 149 99
internal_count=3477 1026 1002 714 514 441 411 200 2451 290 80 60 288 143 145 165 132 49 115 84 246 184 62 83 73 53 120 41 149 99
is_linear=0
shrinkage=0.05


Tree=10
num_leaves=31
num_cat=0
split_feature=5 0 8 8 6 8 1 8 0 5 0 0 6 1 0 1 0 1 0 0 0 1 1 1 1 1 1 0 0 6
split_gain=24.6209 6.9437 4.2456 1.57008 1.21187 1.0156 0.811246 0.554029 1.01302 0.399509 0.496552 0.381671 0.327997 0.243878 0.197355 0.138528 0.192244 0.136364 0.117395 0.0648465 0.0915814 0.445796 0.0691513 0.0656527 0.0606061 0.0363816 0.0341004 0.0863741 0.0446691 0.0238636
threshold=-0.60355339059327384 13.500000000000002 129.50000000000003 148.50000000000003 4.4500000000000011 28.500000000000004 3.5000000000000004 5.5000000000000009 11.500000000000002 -0.37940952255126015 15.500000000000002 12.500000000000002 -2.2499999999999996 4.5000000000000009 14.500000000000002 5.5000000000000009 10.500000000000002 1.5000000000000002 12.500000000000002 9.5000000000000018 11.500000000000002 1.0000000180025095e-35 1.5000000000000002 1.5000000000000002 1.5000000000000002 2.5000000000000004 4.5000000000000009 10.500000000000002 10.500000000000002 3.1500000000000008
decision_type=2 2 10 10 10 10 2 10 2 2 2 2 10 2 2 2 2 2 2 2 2 2 2 2 2 2 2 2 2 10
left_child=1 2 4 14 5 6 11 -6 -9 10 12 19 13 25 29 18 -17 -13 26 22 21 -21 -1 -23 -22 -2 27 -8 -28 -3
right_child=9 3 -4 -5 7 -7 15 8 -10 -11 -12 17 -14 -15 -16 16 -18 -19 -20 20 24 23 -24 -25 -26 -27 28 -29 -30 -31
leaf_value=0.0055650424403628791 0.00011709939225634515 0 0.017652922526736819 0.0053079238620116764 -0.0018724375395398078 0.017981188469224897 0.0089786970455124713 0.014840825391047292 -0.00030491687321043025 -0.002993684740801274 -0.002993684740801274 0.0032150716735528753 -0.002993684740801274 -4.2169322531489256e-06 -0.002993684740801274 0.0078776625059829124 0.012468770935879317 -0.00026745559604252566 0.0091265500534823026 -0.00067846924145575915 0.0087109848426012351 0.003639263219826347 0.0052111924167177878 0.0036684174446333304 0.0026356894560350275 0.0041498302984826598 0.0095767100648544521 0.016863192529693677 0.0049382785413081614 -8.135619507196528e-05
leaf_weight=37 49 112 34 22 26 22 31 39 38 2161 145 33 36 30 140 32 45 33 29 32 33 34 36 71 33 30 34 30 30 20
leaf_count=37 49 112 34 22 26 22 31 39 38 2161 145 33 36 30 140 32 45 33 29 32 33 34 36 71 33 30 34 30 30 20
internal_value=-0.0019514 0.00455166 0.00715847 -0.00193878 0.00631805 0.00718487 0.0067801 0.00131068 0.00344156 -0.0046736 -0.00293104 0.00523392 -0.00086207 0.000504586 -0.00297794 0.00906926 0.00733766 0.00181818 0.00993506 0.00605072 0.00559113 0.00485401 0.00732877 0.00642857 0.00712121 0.00196202 0.0106 0.0097541 0.0114062 -0.00159091
internal_weight=3477 1026 732 294 698 595 573 103 77 2451 290 342 145 109 272 231 77 66 154 276 203 137 73 105 66 79 125 61 64 132
internal_count=3477 1026 732 294 698 595 573 103 77 2451 290 342 145 109 272 231 77 66 154 276 203 137 73 105 66 79 125 61 64 132
is_linear=0
shrinkage=0.05


Tree=11
num_leaves=31
num_cat=0
split_feature=5 7 0 2 7 8 1 1 7 5 0 0 0 8 0 1 0 0 7 1 2 0 8 0 1 0 0 1 1 1
split_gain=23.7396 8.95217 6.31933 5.3747 2.0421 2.82311 1.40083 1.35531 0.504167 0.472252 0.582759 0.469444 0.354024 0.408261 0.340909 0.395871 0.57483 0.317721 0.304048 0.276979 0.312799 0.174664 0.162109 0.159356 0.145847 0.259615 0.257272 0.840278 0.136373 0.135415
threshold=-0.60355339059327384 5.5000000000000009 13.500000000000002 11.500000000000002 99.500000000000014 28.500000000000004 1.5000000000000002 2.5000000000000004 17.500000000000004 -0.37940952255126015 15.500000000000002 10.500000000000002 14.500000000000002 60.500000000000007 12.500000000000002 1.5000000000000002 10.500000000000002 12.500000000000002 25.500000000000004 4.5000000000000009 11.500000000000002 10.500000000000002 79.000000000000014 10.500000000000002 5.5000000000000009 10.500000000000002 10.500000000000002 3.5000000000000004 3.5000000000000004 4.5000000000000009
decision_type=2 8 2 2 10 10 2 2 10 2 2 2 2 10 2 2 2 2 10 2 2 2 10 2 2 2 2 2 2 2
left_child=1 -1 3 4 5 7 8 14 11 10 18 -5 13 -4 15 21 -17 24 19 20 -2 -3 23 -6 26 -26 28 -28 -9 -30
right_child=9 2 12 6 22 -7 -8 17 -10 -11 -12 -13 -14 -15 -16 16 -18 -19 -20 -21 -22 -23 -24 -25 25 -27 27 -29 29 -31
leaf_value=0.018107693912938944 0.00011124442264352774 0.0076432200120017781 0 0.0019558884491335396 0.00030667552763302274 0.01639242186337132 -0.00074959841328498293 0.01610369691921678 -0.00028386819729747892 -0.0028440005037612104 -0.0028440005037612104 0.0045052476600024845 -0.0028440005037612104 0.001460947804866121 0.0022509230734438913 0.0092129915516541896 0.0025039049832332756 0.0086702225508081873 -0.0028440005037612104 -4.0060856404913749e-06 -0.0035830642644627078 0.0038494920352179513 0.003251739817106965 -0.00077511824639396642 0.010937324642272978 0.01728563994099247 0.0046432032286493089 0.016020032903208994 0.011529763623747427 0.011296561274759906
leaf_weight=24 61 42 118 24 27 30 120 26 20 2161 145 36 145 25 33 25 24 47 30 31 23 41 20 26 26 24 24 48 25 26
leaf_count=24 61 42 118 24 27 30 120 26 20 2161 145 36 145 25 33 25 24 47 30 31 23 41 20 26 26 24 24 48 25 26
internal_value=-0.00198016 0.00440546 0.00368263 0.00620448 0.0089105 0.0101927 -0.000750001 0.00911192 0.004375 -0.0046532 -0.00275862 0.00666667 -0.00256945 -0.000804197 0.00560606 0.00674242 0.0103061 0.0114634 -0.000517243 0.000652173 0.00214286 0.00463855 0.00116438 -0.00028302 0.0123367 0.01 0.0131208 0.0109722 0.0151299 0.0136274
internal_weight=3477 1026 1002 714 514 441 200 411 80 2451 290 60 288 143 165 132 49 246 145 115 84 83 73 53 199 50 149 72 77 51
internal_count=3477 1026 1002 714 514 441 200 411 80 2451 290 60 288 143 165 132 49 246 145 115 84 83 73 53 199 50 149 72 77 51
is_linear=0
shrinkage=0.05


Tree=12
num_leaves=31
num_cat=0
split_feature=8 0 0 2 7 0 8 0 8 1 1 7 0 0 0 0 1 1 1 1 1 0 0 1 1 0 1 0 0 1
split_gain=8.55775 5.40537 15.8771 3.34135 3.90497 2.14396 2.43117 1.70145 1.62976 1.17333 1.01723 0.504115 0.333166 0.310083 0.301185 0.699194 0.520833 0.228151 0.223776 0.340136 0.218917 0.529555 0.190365 0.166745 0.296296 0.102891 0.0833333 0.06 0.039072 0.0287281
threshold=142.00000000000003 14.500000000000002 7.5000000000000009 11.500000000000002 55.500000000000007 12.500000000000002 4.5000000000000009 8.5000000000000018 198.00000000000003 1.5000000000000002 1.5000000000000002 99.500000000000014 13.500000000000002 10.500000000000002 10.500000000000002 12.500000000000002 1.0000000180025095e-35 4.5000000000000009 3.5000000000000004 5.5000000000000009 2.5000000000000004 10.500000000000002 12.500000000000002 2.5000000000000004 4.5000000000000009 10.500000000000002 3.5000000000000004 10.500000000000002 8.5000000000000018 4.5000000000000009
decision_type=10 2 2 2 8 2 8 2 10 2 2 10 2 2 2 2 2 2 2 2 2 2 2 2 2 2 2 2 2 2
left_child=1 2 -1 4 -4 6 -6 17 -2 14 13 18 23 -9 16 -16 -5 -8 20 -20 21 -12 28 -7 -25 -22 -24 -21 -11 -14
right_child=8 -3 3 9 5 12 7 10 -10 22 11 -13 29 -15 15 -17 -18 -19 19 27 25 -23 26 24 -26 -27 -28 -29 -30 -31
leaf_value=-0.0027018004785731497 0.0083640718737110435 -0.0027018004785731497 0.016411472494319207 -0.001945085011635352 -0.0027018004785731497 0.00015146868070952982 0.00010568220151135136 0.0098143815013896109 0.010864893492892375 -0.0027018004785731497 0.011645398206519964 0.0017784790357885155 0 0.004149533183628565 0.0060530994065047033 -0.00011327736493873973 0.0026584726565417084 -3.8057813584665978e-06 0.014260149608423948 0.011571876738552913 0.014679806219483494 0.0023787097340716118 -4.8516156005567779e-05 0.0082367114232677775 0.0016845324949398234 0.010635228565095106 -0.0044655998658241847 0.016122115416548878 -0.00088072162853890267 0
leaf_weight=1121 35 1323 30 24 41 40 57 43 21 21 22 27 66 50 32 30 24 24 98 24 24 25 24 27 27 25 24 25 96 27
leaf_count=1121 35 1323 30 24 41 40 57 43 21 21 22 27 66 50 32 30 24 24 98 24 24 25 24 27 27 25 24 25 96 27
internal_value=-0.00206644 -0.00238381 -0.00080553 0.00385363 0.00568376 0.00489583 0.00664948 0.00772522 0.0173214 -0.000818183 0.00918733 0.0107407 0.000347592 0.00467742 0.00318182 0.00548387 0.000208332 0.00117284 0.0114609 0.0126871 0.00958333 0.0120213 -0.00348485 0.00244681 0.00425926 0.0072449 -0.000833335 0.00928571 -0.00457265 -0.00177419
internal_weight=3477 3421 2098 977 702 672 485 444 56 275 363 270 187 93 110 62 48 81 243 147 96 47 165 94 54 49 48 49 117 93
internal_count=3477 3421 2098 977 702 672 485 444 56 275 363 270 187 93 110 62 48 81 243 147 96 47 165 94 54 49 48 49 117 93
is_linear=0
shrinkage=0.05


Tree=13
num_leaves=31
num_cat=0
split_feature=5 7 0 2 8 7 0 8 8 5 0 0 3 7 0 3 0 7 7 0 2 2 7 7 3 0 0 0 3 2
split_gain=19.4613 9.48016 4.77551 4.02634 1.83496 2.95879 0.855185 0.646422 0.499477 0.399509 0.496552 0.371316 0.396833 0.327997 0.30625 0.243878 0.179958 0.164121 0.15 0.0811027 0.0712252 0.0545455 0.0375 0.0238636 0.0214286 0.0177769 0.0166667 0.0126852 0.011865 0.010509
threshold=-0.60355339059327384 5.5000000000000009 12.500000000000002 11.500000000000002 4.5000000000000009 94.500000000000014 14.500000000000002 153.50000000000003 95.500000000000014 -0.37940952255126015 15.500000000000002 11.500000000000002 1.0000000180025095e-35 inf 10.500000000000002 1.0000000180025095e-35 13.500000000000002 72.500000000000014 25.500000000000004 9.5000000000000018 11.500000000000002 11.500000000000002 17.500000000000004 96.500000000000014 1.0000000180025095e-35 10.500000000000002 9.5000000000000018 9.5000000000000018 1.0000000180025095e-35 11.500000000000002
decision_type=2 8 2 2 8 8 2 10 8 2 2 2 2 8 2 2 2 10 10 2 2 2 10 10 2 2 2 2 2 2
left_child=1 -1 3 4 -3 -6 7 16 -7 10 13 12 19 -2 22 20 17 21 -16 -10 -15 24 26 -18 -4 -21 -5 -14 -13 -8
right_child=9 2 6 14 5 8 29 -9 11 -11 -12 28 27 15 18 -17 23 -19 -20 25 -22 -23 -24 -25 -26 -27 -28 -29 -30 -31
leaf_value=0.016381735592576035 -0.002566710454644492 -0.0045608033096103092 0.0078248758521043873 -0.0013858522218184424 0.016270760020551722 0.0003477663731162992 -0.002566710454644492 0.0053356188920300309 0.0072878219117964646 -0.002566710454644492 -0.002566710454644492 0.0038792816389620886 0.0069012615185990644 0.0001003980914357841 0.0011972821819742465 -3.6154922905429212e-06 0 -0.00031178129824448663 -0.00030359325240223329 0.012176435132738445 -0.0034443313164045555 -0.00027377187026264685 -0.00065611638207951201 -0.00014523829157372421 0.0029604249461560673 0.011929233328293917 -0.0010690102699938019 0.016763465797023841 0.012249901498664402 -0.002566710454644492
leaf_weight=24 36 24 56 30 24 34 105 22 55 2161 145 62 24 57 60 30 112 23 20 54 22 30 20 20 24 59 30 49 25 40
leaf_count=24 36 24 56 30 24 34 105 22 55 2161 145 62 24 57 60 30 112 23 20 54 22 30 20 20 24 59 30 49 25 40
internal_value=-0.00225338 0.00352826 0.00278443 0.00578947 0.00841463 0.0092487 -0.00118056 0.000400696 0.00812155 -0.0046736 -0.00293104 0.00871951 0.00973029 -0.00086207 -0.000937501 0.000504586 -0.00028302 0.00101504 0.00125 0.00839286 0.00196202 0.00181818 -0.003125 -0.00159091 0.0025 0.00915929 -0.0025 0.0128082 0.00591954 -0.00431035
internal_weight=3477 1026 1002 570 410 386 432 287 362 2451 290 328 241 145 160 109 265 133 80 168 79 110 80 132 80 113 60 73 87 145
internal_count=3477 1026 1002 570 410 386 432 287 362 2451 290 328 241 145 160 109 265 133 80 168 79 110 80 132 80 113 60 73 87 145
is_linear=0
shrinkage=0.05


Tree=14
num_leaves=31
num_cat=0
split_feature=5 7 0 2 8 7 1 1 0 0 8 8 5 0 0 1 7 1 1 1 1 1 0 1 1 1 0 0 2 1
split_gain=18.5472 9.59955 4.30681 3.61727 1.70393 2.43907 1.58438 1.22282 0.855185 0.765625 0.646422 0.495182 0.399509 0.496552 0.358272 0.3416 0.327997 0.243878 0.217929 0.214434 0.179458 0.166667 0.105579 0.104969 0.128571 0.102784 0.0937729 0.133333 0.0712252 0.0555556
threshold=-0.60355339059327384 5.5000000000000009 12.500000000000002 11.500000000000002 4.5000000000000009 94.500000000000014 1.5000000000000002 1.5000000000000002 14.500000000000002 10.500000000000002 153.50000000000003 159.50000000000003 -0.37940952255126015 15.500000000000002 11.500000000000002 3.5000000000000004 inf 4.5000000000000009 1.0000000180025095e-35 3.5000000000000004 2.5000000000000004 5.5000000000000009 13.500000000000002 2.5000000000000004 4.5000000000000009 1.5000000000000002 9.5000000000000018 10.500000000000002 11.500000000000002 4.5000000000000009
decision_type=2 8 2 2 8 8 2 2 2 2 10 8 2 2 2 2 8 2 2 2 2 2 2 2 2 2 2 2 2 2
left_child=1 -1 3 4 -3 -6 9 26 10 -5 18 -9 13 16 15 20 -2 28 -4 -16 -13 29 23 -20 -25 -24 -7 -28 -18 -17
right_child=12 2 8 6 5 7 -8 11 -10 -11 -12 14 -14 -15 19 21 17 -19 22 -21 -22 -23 25 24 -26 -27 27 -29 -30 -31
leaf_value=0.015562648812947234 -0.0024383749319122679 -0.0043327631441297948 0.0024448433886516789 -0.00014997475530197842 0.015457222019524137 -0.00028207954462451668 -0.00084895273435974927 0.0037751665770529839 -0.0024383749319122679 0.0056905803270807563 0.0050688379474285302 0.0085989294760250214 -0.0024383749319122679 -0.0024383749319122679 0.0028755628959153275 0.013792069379901586 9.5378186863995246e-05 -3.4347176760159137e-06 -0.0016279171719629278 0.013469659601274366 0.011336991410058906 0.013801020779500548 -0.00060024396498974477 0.0054336281255928549 -0.00032168357683582619 0 0.0067283028888962025 0.004180785607395124 -0.0032721147505843278 0.0094271064726688218
leaf_weight=24 36 24 36 32 24 21 96 30 145 32 22 34 2161 145 26 36 57 30 45 37 36 36 22 35 35 92 21 49 22 36
leaf_count=24 36 24 36 32 24 21 96 30 145 32 22 34 2161 145 26 36 57 30 45 37 36 36 22 35 35 92 21 49 22 36
internal_value=-0.0023109 0.00333333 0.00258483 0.0054386 0.00792683 0.00873057 -0.000937501 0.00770718 -0.00118056 0.00515625 0.000400696 0.00939114 -0.0046736 -0.00293104 0.0101452 0.0112921 -0.00086207 0.000504586 -0.00028302 0.00690476 0.00857143 0.0130556 -0.00085153 0.00021739 0.00142857 -0.00192983 0.00269231 0.00357143 0.00196202 0.0144444
internal_weight=3477 1026 1002 570 410 386 160 362 432 64 287 271 2451 290 241 178 145 109 265 63 70 108 229 115 70 114 91 70 79 72
internal_count=3477 1026 1002 570 410 386 160 362 432 64 287 271 2451 290 241 178 145 109 265 63 70 108 229 115 70 114 91 70 79 72
is_linear=0
shrinkage=0.05


Tree=15
num_leaves=31
num_cat=0
split_feature=5 7 4 8 6 4 8 5 4 6 6 6 1 1 1 4 4 1 1 4 8 1 1 1 1 1 1 1 1 1
split_gain=17.8761 8.44632 3.58231 1.62112 1.40963 0.986363 0.592882 0.399509 0.496552 0.327997 0.296615 0.265848 0.249666 0.243878 0.197183 0.604889 0.241301 0.168104 0.37037 0.280255 0.134016 0.112037 0.0777069 0.0816822 0.0757436 0.298495 0.0510608 0.0444444 0.0363816 0.0325659
threshold=-0.60355339059327384 5.5000000000000009 1.0000000180025095e-35 38.500000000000007 5.0500000000000007 -0.5 153.50000000000003 -0.37940952255126015 0.78656609248549325 -2.2499999999999996 8.7500000000000018 10.050000000000002 1.0000000180025095e-35 4.5000000000000009 1.0000000180025095e-35 0.25881904510252091 0.37940952255126054 3.5000000000000004 5.5000000000000009 0.60355339059327384 1.0000000180025095e-35 3.5000000000000004 1.5000000000000002 2.5000000000000004 3.5000000000000004 4.5000000000000009 3.5000000000000004 4.5000000000000009 2.5000000000000004 1.5000000000000002
decision_type=2 8 2 8 8 2 10 2 2 10 8 8 2 2 2 2 2 2 2 2 10 2 2 2 2 2 2 2 2 2
left_child=1 -1 5 20 -5 -3 11 8 -2 13 -6 -7 -13 28 16 26 -12 19 27 22 -4 -22 -17 -24 29 -26 -16 -19 -10 -14
right_child=7 2 3 4 10 6 -8 -9 9 -11 14 12 24 -15 15 17 -18 18 -20 -21 21 -23 23 -25 25 -27 -28 -29 -30 -31
leaf_value=0.014784516372299873 -0.0023164561853166541 -0.0023164561853166541 -0.0041783574832240091 0.0090579451380481176 -0.00087267762994721026 -0.001248798805000273 0.0048153960500571039 -0.0023164561853166541 9.0609277520795758e-05 -0.0023164561853166541 0.0058957736443097314 0.0027389059733593721 -0.0013650597935839848 -3.2629817922152916e-06 0.0019220320206241592 0.0070623036334483223 0.00039800642933003616 0.010670344831559514 0.010736215472017979 0.0041328620919984238 5.1845541571826768e-05 -0.0009219204856322819 0.0004525483621513671 0.01577014988618251 0.0054323887469908327 0 0.0087697832701034879 0.0060848431190356714 0.0039217036384357933 0
leaf_weight=24 145 145 22 21 21 39 22 2161 49 36 31 30 37 30 56 34 30 45 45 49 30 24 39 33 29 60 45 45 30 70
leaf_count=24 145 145 22 21 21 39 22 2161 49 36 31 30 37 30 56 34 30 45 45 49 30 24 39 33 29 60 45 45 30 70
internal_value=-0.00235404 0.00318713 0.00248503 0.00508772 0.0061336 -0.000949075 0.000749128 -0.0046736 -0.00293104 -0.00086207 0.00557082 9.43384e-05 0.000752211 0.000504586 0.00584071 0.0062532 0.00319672 0.00741379 0.0087037 0.00629032 -0.00171053 -0.000370372 0.00773585 0.00680555 0.00010204 0.00117977 0.00292079 0.0105556 0.00196202 -0.000794394
internal_weight=3477 1026 1002 570 494 432 287 2451 290 145 473 265 226 109 452 391 61 290 135 155 76 54 106 72 196 89 101 90 79 107
internal_count=3477 1026 1002 570 494 432 287 2451 290 145 473 265 226 109 452 391 61 290 135 155 76 54 106 72 196 89 101 90 79 107
is_linear=0
shrinkage=0.05


Tree=16
num_leaves=31
num_cat=0
split_feature=5 7 0 2 1 7 7 0 6 0 1 0 5 0 6 1 1 1 0 1 1 1 0 1 6 0 0 6 6 0
split_gain=17.0005 8.55903 3.2849 2.3552 1.2675 1.00915 1.2647 0.509327 0.504167 0.469444 0.446344 0.682765 0.399509 0.496552 0.327997 0.326667 0.304204 0.339231 0.266625 0.410406 0.294407 0.375 0.520833 0.243878 0.242379 0.181028 0.317393 0.135 0.134547 0.225194
threshold=-0.60355339059327384 5.5000000000000009 13.500000000000002 11.500000000000002 1.5000000000000002 94.500000000000014 41.500000000000007 14.500000000000002 4.3500000000000005 10.500000000000002 3.5000000000000004 11.500000000000002 -0.37940952255126015 15.500000000000002 -2.2499999999999996 4.5000000000000009 5.5000000000000009 4.5000000000000009 12.500000000000002 1.5000000000000002 1.5000000000000002 2.5000000000000004 10.500000000000002 4.5000000000000009 5.2500000000000009 9.5000000000000018 10.500000000000002 5.1500000000000012 6.3500000000000005 11.500000000000002
decision_type=2 8 2 2 2 10 10 2 10 2 2 2 2 2 10 2 2 2 2 2 2 2 2 2 10 2 2 10 10 2
left_child=1 -1 3 5 8 6 10 24 9 -5 18 16 13 14 23 -13 17 -12 20 -20 25 22 -22 -2 -4 -3 -27 -6 -7 -30
right_child=12 2 7 4 27 28 -8 -9 -10 -11 11 15 -14 -15 -16 -17 -18 -19 19 -21 21 -23 -24 -25 -26 26 -28 -29 29 -31
leaf_value=0.014045290553684881 8.6078813644756291e-05 -0.00028787588885979267 0 0.0017156424287277294 -0.0015445019989868414 0.0010060733381000403 0.01325649464268518 -0.0022006333760508216 -0.00061840410228902873 0.0038935684699798663 0.011272574294767915 0.0068903312158699855 -0.0022006333760508216 -0.0022006333760508216 -0.0022006333760508216 0.004688603244446663 0.0118246451939745 0.0086515089930835967 0.0072232112368587221 -0.0012115015756504414 0.0080911530181783133 0.0079816316034333461 0.0018259304195929514 -3.0998327026042494e-06 0.00036273616560142407 0.015395159799257039 0.002676963058304881 -0.00014003921807908615 0.0068465832146765966 -0.0012735468385849302
leaf_weight=24 79 22 123 24 100 30 21 145 20 36 39 25 2161 145 36 50 38 36 22 25 24 48 24 30 20 20 41 20 29 20
leaf_count=24 79 22 123 24 100 30 21 145 20 36 39 25 2161 145 36 50 38 36 22 25 24 48 24 30 20 20 41 20 29 20
internal_value=-0.00241156 0.0029922 0.00228543 0.00410364 -0.000500001 0.00589494 0.00683908 -0.00222222 0.004375 0.00666667 0.00623188 0.00803191 -0.0046736 -0.00293104 -0.00086207 0.00433333 0.0104867 0.0123333 0.00473451 0.00138298 0.00561452 0.0075 0.010625 0.000504586 -0.000104896 0.00343373 0.00483606 -0.00375 0.000696201 -0.000918369
internal_weight=3477 1026 1002 714 200 514 435 288 80 60 414 188 2451 290 145 75 113 75 226 47 179 96 48 109 143 83 61 120 79 49
internal_count=3477 1026 1002 714 200 514 435 288 80 60 414 188 2451 290 145 75 113 75 226 47 179 96 48 109 143 83 61 120 79 49
is_linear=0
shrinkage=0.05


Tree=17
num_leaves=31
num_cat=0
split_feature=5 7 5 0 2 0 7 7 1 5 1 6 2 0 1 1 1 1 1 6 0 1 1 1 1 1 1 0 0 0
split_gain=15.808 6.7852 1.7392 1.65905 1.30191 1.59648 0.98231 0.94664 0.853333 0.675 0.552083 0.524764 0.51556 0.574713 0.368173 0.309228 0.293138 0.273073 0.600063 0.241574 0.221183 0.216905 0.192399 0.10045 0.0833333 0.0774924 0.0697168 0.0669132 0.0644468 0.049247
threshold=-0.78656609248549325 9.5000000000000018 -0.37940952255126015 14.500000000000002 11.500000000000002 12.500000000000002 99.500000000000014 52.500000000000007 1.5000000000000002 -0.9159756150367534 1.5000000000000002 6.6500000000000012 11.500000000000002 8.5000000000000018 2.5000000000000004 1.5000000000000002 1.5000000000000002 3.5000000000000004 4.5000000000000009 5.1500000000000012 10.500000000000002 4.5000000000000009 3.5000000000000004 1.5000000000000002 1.0000000180025095e-35 4.5000000000000009 4.5000000000000009 11.500000000000002 12.500000000000002 13.500000000000002
decision_type=2 8 2 2 2 2 8 10 2 2 2 10 2 2 2 2 2 2 2 10 2 2 2 2 2 2 2 2 2 2
left_child=1 -1 3 7 5 6 -3 12 9 24 -8 14 13 21 -12 -15 29 -18 -19 28 26 -2 -22 -14 -6 -17 -16 -24 -10 -7
right_child=2 4 -4 -5 8 16 10 -9 19 -11 11 -13 23 15 20 25 17 18 -20 -21 22 -23 27 -25 -26 -27 -28 -29 -30 -31
leaf_value=0.014039128911183935 8.1774872962518685e-05 0.012542312317987546 -0.0020906017072482804 -0.0020906017072482804 0.004916584205012238 0.0060154457362438431 0.0057963172267124601 -0.0020906017072482804 -0.00063824831200226409 -0.00012767309906157144 0.001734633898613304 -0.00054244860784296179 -0.00024854456427392084 0.0040800487320757873 0.011739841458567013 0.010184907267257669 0 0.0057062854526259352 0 1.2000777693096621e-05 0.0030463562310153419 -2.9448410674738634e-06 0.013980406827820558 -0.003117343417613389 0.0006801563956069707 0.0053480255134297078 0.013903353985279317 0.011949831624659842 -0.0042149635714428639 9.8265187928685968e-05
leaf_weight=22 61 23 2161 293 24 28 70 56 60 32 37 21 27 23 27 38 62 27 62 22 28 26 37 34 24 26 24 38 38 26
leaf_count=22 61 23 2161 293 24 28 70 56 60 32 37 21 27 23 27 38 62 27 62 22 28 26 37 34 24 26 24 38 38 26
internal_value=-0.00251222 0.00401639 -0.00425319 -0.00183219 0.00316901 0.0045098 0.00680328 0.000841923 -0.000250001 0.00375 0.00599291 0.00726415 0.00223404 0.00362069 0.008089 0.00649425 0.00109756 -3.31138e-05 0.00174157 -0.00291667 0.00701299 0.000747125 0.00567961 -0.00172131 0.0075 0.00828125 0.00970588 0.007 -0.00397959 0.00425926
internal_weight=3477 732 2745 584 710 510 305 291 200 80 282 212 235 174 191 87 205 151 89 120 154 87 103 61 48 64 51 75 98 54
internal_count=3477 732 2745 584 710 510 305 291 200 80 282 212 235 174 191 87 205 151 89 120 154 87 103 61 48 64 51 75 98 54
is_linear=0
shrinkage=0.05


Tree=18
num_leaves=31
num_cat=0
split_feature=8 4 4 4 8 7 4 4 4 4 2 4 4 6 1 1 4 1 4 2 1 6 6 1 1 1 1 1 1 4
split_gain=5.42832 3.08703 2.15429 1.52381 1.36212 2.16757 0.710404 0.701163 1.16074 1.19279 0.516232 0.497853 0.53932 0.372192 0.349247 0.608876 0.34 0.318428 0.26631 0.228172 0.312082 0.183333 0.169014 0.126607 0.121967 0.0969697 0.242424 0.09634 0.119255 0.0747629
threshold=142.00000000000003 -0.5 0.78656609248549325 -0.25881904510252113 1.0000000180025095e-35 94.500000000000014 1.0000000180025095e-35 0.12940952255126045 0.25881904510252091 0.37940952255126054 11.500000000000002 -1.0000000180025095e-35 -0.25881904510252113 0.15000000000000005 4.5000000000000009 5.5000000000000009 -0.37940952255126059 3.5000000000000004 0.91597561503675362 11.500000000000002 1.5000000000000002 0.15000000000000005 -2.2499999999999996 4.5000000000000009 1.5000000000000002 3.5000000000000004 1.5000000000000002 2.5000000000000004 1.0000000180025095e-35 0.60355339059327384
decision_type=10 2 2 2 8 8 2 2 2 2 2 2 2 10 2 2 2 2 2 2 2 10 10 2 2 2 2 2 2 2
left_child=1 -1 4 -2 -3 -6 11 13 -9 19 14 12 16 17 24 -16 -7 -8 22 20 -10 25 23 -4 -11 26 -14 28 -12 -26
right_child=3 2 18 -5 5 6 7 8 9 10 27 -13 21 -15 15 -17 -18 -19 -20 -21 -22 -23 -24 -25 29 -27 -28 -29 -30 -31
leaf_value=-0.0019860716218858664 0.00069415494352813626 -0.0019860716218858664 -0.0019860716218858664 0.011580981017973816 0.012608514517105244 0 0.0037823939536985318 -0.0019860716218858664 0.0005365448545705001 -0.00080742898676237256 -0.0019860716218858664 -0.0019860716218858664 0.0022982290253007946 -0.00077168363716699484 0.0050806242377582217 -0.00057223514852496331 -0.0019860716218858664 0.0074993723631429894 -0.0019860716218858664 0.00025797146283883661 0.011854552551964423 -0.00038808927594624273 -0.0019860716218858664 -0.0015894195598378854 0.0032102548035368044 0.0055686015892556055 -0.00098316441158844618 -0.0019860716218858664 -0.00010273396760710329 -0.0010285166879195479
leaf_weight=1174 24 205 154 32 35 131 66 107 24 86 24 107 33 20 51 50 112 45 411 38 70 22 71 59 79 44 33 51 46 73
leaf_count=1174 24 205 154 32 35 131 66 107 24 86 24 107 33 20 51 50 112 45 411 38 70 22 71 59 79 44 33 51 46 73
internal_value=-0.00258413 -0.00283689 -0.00175123 0.0128571 -0.000715207 -0.000137343 -0.00046494 0.000421686 -0.00020744 0.000658783 -0.000543479 -0.0019917 -0.00113333 0.00377862 0.000457226 0.00292079 -0.00253087 0.00490991 -0.00406475 0.00484848 0.00617021 0.00143939 -0.00288733 -0.0021831 -0.000588236 0.00227273 0.0010606 -0.00334711 -0.00214286 0.000263157
internal_weight=3477 3421 2247 56 1552 1347 1312 830 699 592 460 482 375 131 339 101 243 111 695 132 94 132 284 213 238 110 66 121 70 152
internal_count=3477 3421 2247 56 1552 1347 1312 830 699 592 460 482 375 131 339 101 243 111 695 132 94 132 284 213 238 110 66 121 70 152
is_linear=0
shrinkage=0.05


Tree=19
num_leaves=31
num_cat=0
split_feature=0 0 7 2 1 7 6 6 0 0 0 1 0 1 0 1 0 6 6 6 0 1 0 0 1 1 7 0 1 0
split_gain=4.16216 12.0054 4.56199 1.33914 0.888792 0.818233 0.839141 0.703734 0.642972 0.516962 0.98 0.413315 0.30878 0.295092 0.304953 0.394774 0.317846 0.293887 0.20732 0.235714 0.20307 0.189096 0.369901 0.307172 1.29308 0.427375 0.175668 0.157279 0.107357 0.0879187
threshold=14.500000000000002 7.5000000000000009 5.5000000000000009 11.500000000000002 1.5000000000000002 99.500000000000014 1.2500000000000002 4.5500000000000007 13.500000000000002 10.500000000000002 12.500000000000002 3.5000000000000004 9.5000000000000018 1.0000000180025095e-35 12.500000000000002 1.5000000000000002 11.500000000000002 5.3500000000000005 7.5500000000000007 8.7500000000000018 10.500000000000002 5.5000000000000009 9.5000000000000018 10.500000000000002 4.5000000000000009 4.5000000000000009 63.500000000000007 11.500000000000002 1.5000000000000002 9.5000000000000018
decision_type=2 2 8 2 2 10 10 10 2 2 2 2 2 2 2 2 2 10 10 10 2 2 2 2 2 2 10 2 2 2
left_child=1 -1 -3 5 7 6 8 9 11 -5 -11 13 -7 -4 15 29 20 -6 -14 -20 -17 23 -23 24 -13 -25 -8 -24 -10 -15
right_child=-2 2 3 4 17 12 26 -9 28 10 -12 21 18 14 -16 16 -18 -19 19 -21 -22 22 27 25 -26 -27 -28 -29 -30 -31
leaf_value=-0.0018867680407915731 -0.0018867680407915731 0.01202233520420617 0.0062170626599517258 7.3318868580070015e-05 -0.001875964508619851 -0.0018867680407915731 0.012740154323280135 -0.00099646905606751179 9.3351928532251638e-05 0.0048812012010623698 -0.00042309457463457804 0.0049410581101367841 0.00070511817758455602 -0.0048230103640971196 -0.0011856496189105044 0.0069720824274569857 0.0023310771737104076 5.9169957996308125e-05 -0.0015290000041474083 0.00085219421061140811 -0.00034083489946473423 -0.00054362339109871594 0.013691538137348209 0.0090768702766196481 0.0074516290821854949 0.00078984424986538375 0.0035386263197396562 0.0071757459233889589 0 0.001342695699219569
leaf_weight=1121 1333 24 54 38 145 31 21 24 20 25 25 39 34 24 36 74 24 20 22 20 24 26 25 38 36 36 20 24 61 33
leaf_count=1121 1333 24 54 38 145 31 21 24 20 25 25 39 34 24 36 74 24 20 22 20 24 26 25 38 36 36 20 24 61 33
internal_value=-0.00265603 -0.00129198 0.00262463 0.00210711 -0.000848377 0.003241 0.00394309 0.00258928 0.00344948 0.00465909 0.008 0.00412779 -0.000794394 0.00280669 0.00197674 0.00282123 0.00442623 -0.00318182 0.000921051 -0.00142857 0.00316326 0.00571428 0.00366667 0.00674497 0.009 0.00445946 0.0108537 0.00622449 -0.000679014 -0.000614036
internal_weight=3477 2144 1023 999 277 722 615 112 574 88 50 493 107 269 215 179 122 165 76 42 98 224 75 149 75 74 41 49 81 57
internal_count=3477 2144 1023 999 277 722 615 112 574 88 50 493 107 269 215 179 122 165 76 42 98 224 75 149 75 74 41 49 81 57
is_linear=0
shrinkage=0.05


Tree=20
num_leaves=31
num_cat=0
split_feature=5 8 4 2 1 8 1 4 8 4 6 8 5 4 6 1 1 1 5 6 1 1 1 1 4 1 6 1 1 1
split_gain=12.2555 3.23301 2.22171 1.06259 1.47 0.999692 0.45 0.308141 0.273696 0.355677 1.023 0.446418 0.217763 0.27931 0.184499 0.176028 0.15518 0.15 0.141496 0.135 0.133571 0.405027 0.173077 0.151398 0.166667 0.106965 0.0790409 0.0720521 0.071907 0.102021
threshold=-0.60355339059327384 198.00000000000003 -0.25881904510252113 11.500000000000002 1.5000000000000002 129.50000000000003 1.0000000180025095e-35 -0.5 4.5000000000000009 0.37940952255126054 10.050000000000002 83.500000000000014 -0.37940952255126015 0.78656609248549325 -2.2499999999999996 1.5000000000000002 2.5000000000000004 4.5000000000000009 -0.98296291314453399 5.1500000000000012 3.5000000000000004 4.5000000000000009 5.5000000000000009 1.5000000000000002 0.25881904510252091 3.5000000000000004 5.1500000000000012 1.5000000000000002 1.5000000000000002 2.5000000000000004
decision_type=2 10 2 2 2 10 2 2 8 2 8 8 2 2 10 2 2 2 2 10 2 2 2 2 2 2 10 2 2 2
left_child=1 2 7 5 6 8 -5 -1 -4 11 -11 -10 13 -2 16 -12 -15 -18 25 -6 23 -22 -23 -20 -25 27 28 -13 -9 -30
right_child=12 -3 3 4 19 -7 -8 26 9 10 15 18 -14 14 -16 -17 17 -19 20 -21 21 22 -24 24 -26 -27 -28 -29 29 -31
leaf_value=-0.0017924296387519943 -0.0017924296387519943 0.0054008169950041599 -0.00077979323624073691 0.0017492171687021848 -0.0014789657485895175 0.011025854142056132 0.0024035254515285026 4.7689976959921399e-05 -0.000999496406672958 0.011983867381804347 0.0054732653615437755 0.0067533238993178315 -0.0017924296387519943 -0.0001716144109641632 -0.0017924296387519943 0.0098075926999741207 0.0035593213963984122 -0.00029590807513148122 0.0059312965435621015 -0.00011861810024075474 0.0068527171149864036 -0.00038703343330800943 0.0075986751497269332 -0.0012102480806106247 0.012434542053861752 0.010709952929505792 2.1634178172698302e-05 0.0019652960124480956 0 0
leaf_weight=146 145 21 27 40 100 20 40 35 28 25 40 21 2161 49 36 119 30 30 47 20 24 26 26 27 27 37 21 26 21 62
leaf_count=146 145 21 27 40 100 20 40 35 28 25 40 21 2161 49 36 119 30 30 47 20 24 26 26 27 27 37 21 26 21 62
internal_value=-0.00281421 0.00177388 0.00136816 0.00284722 -0.000250001 0.00403846 0.005 -0.00236842 0.0036 0.00387949 0.00559782 0.00278547 -0.0047348 -0.00344828 -0.00189655 0.0041195 -0.000871561 0.000833332 0.00342912 -0.00375 0.00262712 0.00421053 0.00173077 0.00143564 -0.000370372 0.00511905 -0.000683454 0.00670213 -0.00118644 -0.00198795
internal_weight=3477 1026 1005 720 200 520 80 285 500 473 184 289 2451 290 145 159 109 60 261 120 177 76 52 101 54 84 139 47 118 83
internal_count=3477 1026 1005 720 200 520 80 285 500 473 184 289 2451 290 145 159 109 60 261 120 177 76 52 101 54 84 139 47 118 83
is_linear=0
shrinkage=0.05


Tree=21
num_leaves=31
num_cat=0
split_feature=5 7 5 0 7 2 7 1 0 2 5 0 1 7 5 1 1 1 1 1 0 1 0 7 0 0 0 1 1 1
split_gain=11.368 4.34943 1.26894 0.887155 0.586719 0.549794 0.931281 0.440833 0.432029 0.391549 0.217763 0.27931 0.202121 0.184499 0.16875 0.160069 0.179371 0.450817 0.15518 0.154446 0.211226 0.15 0.128955 0.104167 0.0868056 0.0803571 0.0714286 0.0661448 0.0774704 0.0414338
threshold=-0.78656609248549325 9.5000000000000018 -0.60355339059327384 14.500000000000002 52.500000000000007 11.500000000000002 99.500000000000014 2.5000000000000004 12.500000000000002 11.500000000000002 -0.37940952255126015 15.500000000000002 4.5000000000000009 inf -0.98296291314453399 1.5000000000000002 3.5000000000000004 4.5000000000000009 2.5000000000000004 2.5000000000000004 11.500000000000002 4.5000000000000009 10.500000000000002 83.500000000000014 10.500000000000002 11.500000000000002 13.500000000000002 1.5000000000000002 1.0000000180025095e-35 1.5000000000000002
decision_type=2 8 2 2 10 2 8 2 2 2 2 2 2 8 2 2 2 2 2 2 2 2 2 10 2 2 2 2 2 2
left_child=1 -1 3 4 9 6 -3 14 19 12 11 13 29 -4 -7 -10 -17 -18 -15 20 27 -20 -21 -9 -16 -24 -19 28 -8 -2
right_child=2 5 10 -5 -6 7 8 23 15 -11 -12 -13 -14 18 24 16 17 26 21 22 -22 -23 25 -25 -26 -27 -28 -29 -30 -31
leaf_value=0.011474134768080471 0.0034176081972091864 0.0083528295519942515 -0.0017028081568143947 -0.0017028081568143947 -0.0034768759259339818 0.0029329156037814913 -0.0032026958864803199 -0.0037519717466691378 0.00084738035060940632 -0.0014700629607103477 -0.0017028081568143947 -0.0017028081568143947 0.0039636319367623296 -0.00016303369041595491 1.6012508483903565e-05 0 0.0048143282063844075 0.00071683682917879289 0.0033813553265784912 0.012996072242224968 0.0012611333410278739 -0.00028111267137490709 0.009289082520102224 -0.0032843340248067602 -2.6483780832982189e-05 0.0082432808081205327 0 -0.00081927322777328648 0.0063790158307246332 0.0081327548076262062
leaf_weight=22 23 35 36 148 28 24 22 60 51 31 2161 145 26 49 24 60 26 28 30 57 40 30 56 20 72 56 28 28 23 38
leaf_count=22 23 35 36 148 28 24 22 60 51 31 2161 145 26 49 24 60 26 28 30 57 40 30 56 20 72 56 28 28 23 38
internal_value=-0.00288611 0.00265027 -0.00436248 -0.0012585 0.00150685 0.00197183 0.00284314 -0.000250001 0.00226316 0.00305085 -0.0047348 -0.00344828 0.00477011 -0.00189655 0.00166667 0.000440413 -0.000422536 0.00109756 -0.000871561 0.00351064 0.00207964 0.000833332 0.00446745 -0.003125 0.000729165 0.00348214 -0.00142857 0.000479451 0.00166667 0.00319672
internal_weight=3477 732 2745 294 146 710 510 200 475 118 2451 290 87 145 120 193 142 82 109 282 113 60 169 80 96 112 56 73 45 61
internal_count=3477 732 2745 294 146 710 510 200 475 118 2451 290 87 145 120 193 142 82 109 282 113 60 169 80 96 112 56 73 45 61
is_linear=0
shrinkage=0.05


Tree=22
num_leaves=31
num_cat=0
split_feature=5 7 5 7 5 8 2 1 8 2 5 5 7 5 5 8 8 1 6 1 1 1 1 1 1 1 5 1 1 1
split_gain=10.489 3.44238 1.02833 0.696447 0.607046 0.524456 0.356938 0.3375 0.273266 0.256061 0.226667 0.225 0.257857 0.217763 0.27931 0.19992 0.237863 0.192857 0.184499 0.156442 0.320011 0.29835 0.25741 0.15518 0.153846 0.15 0.135641 0.0986355 0.0815686 0.0761905
threshold=-0.60355339059327384 5.5000000000000009 -0.78656609248549325 60.500000000000007 -0.70710678118654757 4.5000000000000009 11.500000000000002 1.0000000180025095e-35 98.500000000000014 11.500000000000002 -0.98296291314453399 -0.98296291314453399 99.500000000000014 -0.37940952255126015 -0.5 62.500000000000007 29.500000000000004 4.5000000000000009 -2.2499999999999996 3.5000000000000004 4.5000000000000009 1.5000000000000002 2.5000000000000004 2.5000000000000004 5.5000000000000009 4.5000000000000009 -0.9159756150367534 2.5000000000000004 4.5000000000000009 1.5000000000000002
decision_type=2 8 2 8 2 8 2 2 8 2 2 2 10 2 2 10 10 2 10 2 2 2 2 2 2 2 2 2 2 2
left_child=1 -1 3 -3 -4 -6 8 -8 15 17 -10 -9 27 14 -2 16 -5 29 23 21 -21 -12 -23 -16 -22 -25 -26 -13 -29 -7
right_child=13 2 4 6 5 9 7 11 10 -11 19 12 -14 -15 18 -17 -18 -19 -20 20 24 22 -24 25 26 -27 -28 28 -30 -31
leaf_value=0.010309551879943011 -0.0016176677489736749 0.0048269530153943613 -0.0016176677489736749 -0.0017976860612701061 -0.0033405939751959498 -0.0010892614697178447 0.0037417797170356546 -0.0003815638598911068 0.0063525942490450481 -0.0013119709745367588 0.0036278626980442291 -8.846984101962492e-06 0.00023452540649036271 -0.0016176677489736749 -0.00015488200589515723 -0.0015042761067101101 0.0030977780697595938 0.0037654503399242147 -0.0016176677489736749 0.0056122298147018527 0 -9.6747052006717238e-05 0.004999996911012116 0.0032122875602495667 0.0067820748253844231 -0.00026705703780616208 0.0045706934928397515 -0.0040131078062731621 -0.0037922536207822309 0.0083899175957717516
leaf_weight=24 145 32 145 21 32 21 32 32 91 30 84 49 28 2161 49 20 20 24 36 47 52 53 51 30 27 30 25 26 25 35
leaf_count=24 145 32 145 21 32 21 32 32 91 30 84 49 28 2161 49 20 20 24 36 47 52 53 51 30 27 30 25 26 25 35
internal_value=-0.00295801 0.00128655 0.000838322 0.00185315 -0.0016899 0.000633802 0.00151537 -0.000312501 0.00223014 0.00227273 0.00267442 -0.00125 -0.000312501 -0.0047348 -0.00344828 -0.000901641 0.00109756 0.00375 -0.00189655 0.00207964 0.00327814 0.00111702 -0.000673078 -0.000871561 0.00173077 0.000833332 0.00365384 -0.0015 -0.00303922 0.00214286
internal_weight=3477 1026 1002 715 287 142 683 192 491 110 430 160 128 2451 290 61 41 80 145 339 151 188 104 109 104 60 52 100 51 56
internal_count=3477 1026 1002 715 287 142 683 192 491 110 430 160 128 2451 290 61 41 80 145 339 151 188 104 109 104 60 52 100 51 56
is_linear=0
shrinkage=0.05


Tree=23
num_leaves=31
num_cat=0
split_feature=5 7 5 0 2 0 7 7 8 2 8 1 5 0 1 7 1 0 1 1 0 1 1 0 1 8 1 0 1 1
split_gain=10.5563 2.92089 1.14782 0.779989 0.564287 0.62757 0.526585 0.520048 0.373649 0.325798 0.311085 0.269956 0.217763 0.27931 0.213333 0.184499 0.161226 0.189679 0.15518 0.15 0.118095 0.113972 0.153593 0.102083 0.087332 0.0870153 0.207746 0.160947 0.0850205 0.08
threshold=-0.78656609248549325 18.500000000000004 -0.60355339059327384 14.500000000000002 11.500000000000002 12.500000000000002 52.500000000000007 99.500000000000014 142.00000000000003 11.500000000000002 45.500000000000007 4.5000000000000009 -0.37940952255126015 15.500000000000002 2.5000000000000004 inf 2.5000000000000004 11.500000000000002 2.5000000000000004 4.5000000000000009 10.500000000000002 4.5000000000000009 3.5000000000000004 12.500000000000002 2.5000000000000004 2.5000000000000004 1.0000000180025095e-35 11.500000000000002 1.5000000000000002 4.5000000000000009
decision_type=2 8 2 2 2 2 10 8 8 2 8 2 2 2 2 8 2 2 2 2 2 2 2 2 2 10 2 2 2 2
left_child=1 -1 3 6 5 7 9 -3 -7 11 -9 -2 13 15 25 -4 17 28 -17 -20 29 22 24 -16 -10 26 -6 -28 -12 -18
right_child=2 4 12 -5 14 8 -8 10 21 -11 16 -13 -14 -15 23 18 20 -19 19 -21 -22 -23 -24 -25 -26 -27 27 -29 -30 -31
leaf_value=0.010288267731449131 0.0066428187242202124 0.0099874746528113671 -0.0015367843615249912 -0.0015367843615249912 0.0038163796125476159 -0.0010452814873176583 -0.0031360024308774849 -0.0016557001221769619 4.8373526003356322e-06 -0.0013309612639479931 0.0047470093860517634 0.0035771778229280043 -0.0015367843615249912 -0.0015367843615249912 -0.0029532750162942624 -0.0001471379056003995 0.012096268784563114 0.00089761661960489458 0.0030516731822370878 -0.000253704185915854 0.0096844306930667437 0 0.0045157577291027344 -0.0035125665567709709 -0.00024999984555060598 -0.00010395595026330796 1.5654232264806363e-05 -0.00021705018406447437 -0.00073138977031484646 0.01088472883933983
leaf_weight=28 61 21 36 148 30 27 28 20 69 31 41 26 2161 145 48 49 25 39 30 30 105 56 23 32 26 29 25 36 27 25
leaf_count=28 61 21 36 148 30 27 28 20 69 31 41 26 2161 145 48 49 25 39 30 30 105 56 23 32 26 29 25 36 27 25
internal_value=-0.00295801 0.00237705 -0.00438069 -0.00142857 0.00174716 0.00263889 0.00116438 0.00407591 0.000472636 0.00262712 0.00351064 0.0041954 -0.0047348 -0.00344828 -0.000500001 -0.00189655 0.00396946 0.00247663 -0.000871561 0.000833332 0.005 0.00132184 0.00220339 -0.0025 0.00131579 0.000833332 0.00159341 -8.19684e-05 0.000882352 0.007
internal_weight=3477 732 2745 294 704 504 146 303 201 118 282 87 2451 290 200 145 262 107 109 60 155 174 118 80 95 120 91 61 68 50
internal_count=3477 732 2745 294 704 504 146 303 201 118 282 87 2451 290 200 145 262 107 109 60 155 174 118 80 95 120 91 61 68 50
is_linear=0
shrinkage=0.05


Tree=24
num_leaves=31
num_cat=0
split_feature=0 0 7 2 7 8 0 0 1 6 6 1 1 1 0 1 1 0 6 0 1 0 0 0 0 1 1 1 0 0
split_gain=3.04834 9.15567 3.96067 0.925424 1.12737 0.776206 0.452905 0.385461 0.225 0.204271 0.184499 0.159467 0.17265 0.159065 0.192481 0.15518 0.15 0.130208 0.0831826 0.135893 0.0691637 0.0661885 0.0635938 0.0625694 0.0507018 0.333333 0.177632 0.185938 0.0496517 0.047451
threshold=14.500000000000002 8.5000000000000018 5.5000000000000009 11.500000000000002 60.500000000000007 98.500000000000014 7.5000000000000009 12.500000000000002 2.5000000000000004 10.050000000000002 -2.2499999999999996 4.5000000000000009 3.5000000000000004 2.5000000000000004 11.500000000000002 2.5000000000000004 4.5000000000000009 12.500000000000002 4.3500000000000005 10.500000000000002 2.5000000000000004 10.500000000000002 13.500000000000002 13.500000000000002 9.5000000000000018 4.5000000000000009 5.5000000000000009 4.5000000000000009 15.500000000000002 10.500000000000002
decision_type=2 2 8 2 8 8 2 2 2 8 10 2 2 2 2 2 2 2 10 2 2 2 2 2 2 2 2 2 2 2
left_child=1 6 -3 4 -4 18 -1 13 9 -5 15 12 20 14 -7 -8 -17 -10 -6 -20 23 -11 -13 -9 25 -15 27 29 -2 -26
right_child=28 2 3 8 5 7 10 11 17 21 -12 22 -14 24 -16 16 -18 -19 19 -21 -22 -23 -24 -25 26 -27 -28 -29 -30 -31
leaf_value=-0.0014599451434487416 -0.0014599451434487416 0.0096021544837092045 0.0070834403642013218 -0.00076630170034696927 -0.0041491135573142116 0.0059239972912378674 -0.00013978101032037922 3.9068378850105461e-05 -0.0031328283372466662 1.7709081057264907e-05 -0.0014599451434487416 0.00012884855706793395 0.0042899698426475978 -0.0012138825785998533 0.00086990544670531686 0.0028990895231252333 -0.00024101897662006101 -0.0033369382289324223 0.0037696422360707499 -0.00048130955920859466 -0.00023749985327307585 0.00015270085689718979 0 4.5954849703190585e-06 0.010091376449278669 0.003398318931781605 0.01070238866383106 0.0017273057182851756 -0.0014599451434487416 0.0096797537142144716
leaf_weight=1121 148 21 29 31 23 95 49 37 64 38 36 28 23 24 38 30 30 32 23 33 26 75 26 36 24 24 38 39 1185 51
leaf_count=1121 148 21 29 31 23 95 49 37 64 38 36 28 23 24 38 30 30 32 23 33 26 75 26 36 24 24 38 39 1185 51
internal_value=-0.00297239 -0.00180504 0.00211845 0.00159276 0.0026175 0.00214286 -0.00452607 0.00285854 -0.00104167 0.000208332 -0.00189655 0.000965908 0.00196721 0.00385886 0.0025188 -0.000871561 0.000833332 -0.00291667 -0.00246836 -0.00142857 0.0010606 0.00119469 -0.0012963 0.00184931 0.00475 0.00333333 0.00519737 0.00421053 -0.00484996 0.00566667
internal_weight=3477 2144 878 857 617 588 1266 509 240 144 145 176 122 333 133 109 60 96 79 56 99 113 54 73 200 48 152 114 1333 75
internal_count=3477 2144 878 857 617 588 1266 509 240 144 145 176 122 333 133 109 60 96 79 56 99 113 54 73 200 48 152 114 1333 75
is_linear=0
shrinkage=0.05


Tree=25
num_leaves=31
num_cat=0
split_feature=5 7 5 0 2 0 7 7 8 2 8 3 6 6 5 0 6 3 0 0 0 0 2 0 2 6 6 0 3 6
split_gain=10.6133 2.92089 1.16203 0.779989 0.564287 0.62757 0.526585 0.520048 0.373649 0.325798 0.311085 0.269956 0.236877 0.177755 0.169342 0.22069 0.145777 0.113972 0.089476 0.157804 0.0564099 0.0912929 0.0534966 0.0483871 0.0225225 0.0185905 0.0258799 0.016129 0.0139025 0.0121212
threshold=-0.78656609248549325 18.500000000000004 -0.60355339059327384 14.500000000000002 11.500000000000002 12.500000000000002 52.500000000000007 99.500000000000014 142.00000000000003 11.500000000000002 45.500000000000007 1.0000000180025095e-35 5.4500000000000011 10.050000000000002 -0.37940952255126015 15.500000000000002 -2.2499999999999996 1.0000000180025095e-35 11.500000000000002 10.500000000000002 10.500000000000002 11.500000000000002 11.500000000000002 13.500000000000002 11.500000000000002 0.15000000000000005 -0.84999999999999998 12.500000000000002 1.0000000180025095e-35 3.4500000000000006
decision_type=2 8 2 2 2 2 10 8 8 2 8 2 8 8 2 2 10 2 2 2 2 2 2 2 2 8 10 2 2 10
left_child=1 -1 3 6 5 7 9 -3 -7 11 -9 -2 -6 -14 15 16 22 -10 19 -12 -15 -22 -4 27 29 26 -16 -23 -20 -5
right_child=2 4 14 24 12 8 -8 10 17 -11 18 -13 13 20 25 -17 -18 -19 28 -21 21 23 -24 -25 -26 -27 -28 -29 -30 -31
leaf_value=0.0093315272514152229 0.0059565055896466622 0.0092996186674592224 -9.5041043433393357e-05 -0.0013869478862763044 0.00050890968150486707 -0.00096895193499134586 -0.0028073166468809366 -0.0014050530378113698 0.0006624306352352291 -0.0012652986548034573 0.010986883231908037 0.0032284029851925248 -0.0012430870262315572 1.3985484950943419e-05 -0.0013869478862763044 -0.0013869478862763044 -0.0013869478862763044 0 0.0013233004396586304 0.0057263189539144667 -0.00012581465914400099 -3.1557575324003827e-05 -0.0027295519890476309 -0.0032601657004579497 -0.0013869478862763044 -0.0013869478862763044 -0.0013869478862763044 0.00061772347287026956 0.0062038221980155531 -0.0013869478862763044
leaf_weight=28 61 21 81 88 21 27 28 20 118 31 81 26 25 31 25 145 36 56 66 88 30 31 28 31 40 2115 21 31 27 20
leaf_count=28 61 21 81 88 21 27 28 20 118 31 81 26 25 31 25 145 36 56 66 88 30 31 28 31 40 2115 21 31 27 20
internal_value=-0.00297239 0.00237705 -0.00439891 -0.00142857 0.00174716 0.00263889 0.00116438 0.00407591 0.000472636 0.00262712 0.00351064 0.0041954 -0.000500001 -0.00108939 -0.0047552 -0.00362069 -0.00224138 0.00132184 0.00396946 0.00328402 -0.000454547 -0.000934961 -0.00133028 -0.000161292 -0.00398649 -0.00490745 -0.00391304 0.00064516 0.00521505 -0.00361111
internal_weight=3477 732 2745 294 704 504 146 303 201 118 282 87 200 179 2451 290 145 174 262 169 154 123 109 93 148 2161 46 62 93 108
internal_count=3477 732 2745 294 704 504 146 303 201 118 282 87 200 179 2451 290 145 174 262 169 154 123 109 93 148 2161 46 62 93 108
is_linear=0
shrinkage=0.05


Tree=26
num_leaves=31
num_cat=0
split_feature=5 7 4 2 7 6 8 1 6 5 4 6 1 1 8 1 5 1 6 1 4 5 1 4 4 1 8 4 4 6
split_gain=9.33419 3.56903 1.51227 0.67946 0.674946 0.67559 0.630237 0.300833 0.220908 0.217763 0.27931 0.184499 0.15518 0.15 0.148964 0.116669 0.547573 0.114683 0.104167 0.095952 0.137539 0.094719 0.0700973 0.0705931 0.0691233 0.0951816 0.0525974 0.025 0.0190688 0.0185905
threshold=-0.60355339059327384 5.5000000000000009 -0.25881904510252113 11.500000000000002 60.500000000000007 -0.24999999999999997 83.500000000000014 2.5000000000000004 4.5500000000000007 -0.37940952255126015 0.78656609248549325 -2.2499999999999996 2.5000000000000004 4.5000000000000009 29.500000000000004 3.5000000000000004 -0.98296291314453399 1.5000000000000002 3.8500000000000001 1.0000000180025095e-35 0.25881904510252091 -0.98296291314453399 1.5000000000000002 0.25881904510252091 -0.5 2.5000000000000004 72.000000000000014 0.25881904510252091 0.25881904510252091 0.15000000000000005
decision_type=2 8 2 2 10 10 10 2 10 2 2 10 2 2 10 2 2 2 10 2 2 2 2 2 2 2 10 2 2 8
left_child=1 -1 6 4 5 15 24 8 22 10 -2 12 -12 -14 -6 16 17 -4 27 -18 -21 -17 23 -5 -3 -26 -16 -9 -23 -11
right_child=9 2 3 7 14 -7 -8 18 -10 29 11 -13 13 -15 26 21 19 -19 -20 20 -22 28 -24 -25 25 -27 -28 -29 -30 -31
leaf_value=0.0083329768126171894 -0.0013176004919624893 -0.0013176004919624893 0.0058804301995498496 0.0030546440600710337 -0.0014382457836841032 0.0096285261223230598 0.00054076519035900223 -0.002147649436830179 -0.00025796103926643778 -0.0013176004919624893 -0.00012803990763269048 -0.0013176004919624893 0.0027588870991406412 -0.00022421597561738811 0.0023539168014903192 0.0082331923332500234 0.0046925432778699904 0.00072077334022333124 -0.0023869944783892843 -0.0012104674725062451 0.0071801283860633228 0.0041908551219985183 -0.00035374803835733638 0.0034329731766762368 -2.8755821039958692e-05 0 -0.00010348960236159416 -0.0046833684498985119 0.0074479372553388941 -0.0013176004919624893
leaf_weight=24 145 130 21 25 37 20 34 24 27 46 49 36 30 30 20 37 36 24 20 36 102 35 30 38 56 68 35 36 111 2115
leaf_count=24 145 130 21 25 37 20 34 24 27 46 49 36 30 30 20 37 36 24 20 36 102 35 30 38 56 68 35 36 111 2115
internal_value=-0.00305867 0.000945418 0.000489021 0.00172269 0.00268482 0.0035308 -0.00256945 -0.000750001 0.000833332 -0.0047348 -0.00344828 -0.00189655 -0.000871561 0.000833332 -0.00119565 0.00308458 0.00230593 0.00722222 -0.003125 0.00103448 0.000434781 0.00401639 0.00198925 0.00293651 -0.0034252 -0.00258065 0.000454544 -0.00416667 0.00458904 -0.00490745
internal_weight=3477 1026 1002 714 514 422 288 200 120 2451 290 145 109 60 92 402 219 45 80 174 138 183 93 63 254 124 55 60 146 2161
internal_count=3477 1026 1002 714 514 422 288 200 120 2451 290 145 109 60 92 402 219 45 80 174 138 183 93 63 254 124 55 60 146 2161
is_linear=0
shrinkage=0.05


Tree=27
num_leaves=31
num_cat=0
split_feature=5 7 4 6 2 8 8 6 6 5 4 3 8 6 5 3 4 3 4 2 4 4 5 4 4 4 6 4 4 4
split_gain=9.2413 2.88324 1.67598 0.526887 0.451293 0.294859 0.28247 0.434166 0.213389 0.169342 0.22069 0.167456 0.158453 0.145777 0.120566 0.176081 0.180627 0.155069 0.0691233 0.0534966 0.0472424 0.142579 0.0459559 0.0937193 0.065641 0.0350877 0.0311321 0.0266667 0.0253695 0.0208333
threshold=-0.60355339059327384 18.500000000000004 -0.25881904510252113 8.7500000000000018 11.500000000000002 83.500000000000014 28.500000000000004 6.3500000000000005 4.3500000000000005 -0.37940952255126015 0.78656609248549325 1.0000000180025095e-35 129.50000000000003 -2.2499999999999996 -0.98296291314453399 1.0000000180025095e-35 0.37940952255126054 1.0000000180025095e-35 -0.5 11.500000000000002 0.60355339059327384 0.37940952255126054 -0.98296291314453399 0.37940952255126054 0.25881904510252091 0.25881904510252091 6.1500000000000012 0.25881904510252091 0.60355339059327384 0.60355339059327384
decision_type=2 8 2 8 2 10 10 10 10 2 2 2 8 10 2 2 2 2 2 2 2 2 2 2 2 2 10 2 2 2
left_child=1 -1 5 6 12 18 26 8 -8 10 -2 22 -5 19 17 20 27 -14 -3 -12 21 25 -6 24 -24 -16 -4 -17 -25 -18
right_child=9 2 3 4 11 -7 7 -9 -10 -11 13 -13 14 -15 15 16 29 -19 -20 -21 -22 -23 23 28 -26 -27 -28 -29 -30 -31
leaf_value=0.007378838408465184 -0.0012517204673643647 -0.0012517204673643647 -0.0025205809835774219 0.0087196581068228612 0.0017608201552228881 0.00043162592997197756 -0.00028268378248344939 -0.00097033354442147143 0.0022308604450480703 -0.0012517204673643647 -8.3886995880088982e-05 -0.0043057797598764821 0.0016691901639152677 -0.0012517204673643647 0.0039813123658985925 0.00095567709719722883 0.00939439909440609 0.0048557494348552936 -1.3879117402747763e-05 -0.0025866723942136148 0.0041025579163076163 0.0074666500555194849 0.00015797146335906829 3.0974194269021983e-05 -0.00029117258502061319 0.0017607973012517407 -0.0012850411880011839 0.0075188413357749123 -0.00066906640648358112 0.0026945859731659556
leaf_weight=39 145 130 33 20 26 29 21 22 26 2161 81 30 59 36 57 25 24 24 124 28 55 54 27 25 25 57 20 24 26 24
leaf_count=39 145 130 33 20 26 29 21 22 26 2161 81 30 59 36 57 25 24 24 124 28 55 54 27 25 25 57 20 24 26 24
internal_value=-0.00308743 0.000896685 0.000369806 0.00167614 0.0023024 -0.00287986 -0.00131148 0.0007971 0.00351064 -0.0047552 -0.00362069 3.14453e-05 0.00315603 -0.00224138 0.00294045 0.0025 0.00427835 0.00463855 -0.0034252 -0.00133028 0.00172646 0.00214286 0.000813952 0.000339805 -0.00115385 0.00114035 -0.0040566 0.00214286 0.00186274 0.00645833
internal_weight=3477 1026 987 704 582 283 122 69 47 2451 290 159 423 145 403 320 97 83 254 109 223 168 129 103 52 114 53 49 51 48
internal_count=3477 1026 987 704 582 283 122 69 47 2451 290 159 423 145 403 320 97 83 254 109 223 168 129 103 52 114 53 49 51 48
is_linear=0
shrinkage=0.05


Tree=28
num_leaves=31
num_cat=0
split_feature=5 7 0 6 7 6 1 5 0 1 0 5 0 1 0 1 1 6 1 1 0 6 5 0 1 0 1 1 1 6
split_gain=9.82086 2.79956 1.36873 0.380023 0.250287 0.231338 0.374564 0.569221 0.276493 0.231217 0.481973 0.217763 0.27931 0.2168 0.196133 0.222276 0.187013 0.184499 0.15518 0.15 0.138889 0.12611 0.179958 0.119403 0.07127 0.0484848 0.0199446 0.0202914 0.0195833 0.0185905
threshold=-0.60355339059327384 18.500000000000004 14.500000000000002 2.4500000000000006 60.500000000000007 9.8500000000000032 3.5000000000000004 -0.98296291314453399 10.500000000000002 5.5000000000000009 13.500000000000002 -0.37940952255126015 15.500000000000002 1.5000000000000002 9.5000000000000018 4.5000000000000009 1.0000000180025095e-35 -2.2499999999999996 2.5000000000000004 4.5000000000000009 12.500000000000002 7.5500000000000007 -0.9159756150367534 9.5000000000000018 1.5000000000000002 13.500000000000002 2.5000000000000004 1.5000000000000002 5.5000000000000009 0.15000000000000005
decision_type=2 8 2 8 8 8 2 2 2 2 2 2 2 2 2 2 2 10 2 2 2 10 2 2 2 2 2 2 2 8
left_child=1 -1 3 -3 -5 13 7 -7 23 10 14 12 17 -6 -8 -16 -10 18 -2 -20 -11 22 -15 -9 -25 26 27 -18 -4 -13
right_child=11 2 28 4 5 6 9 8 16 20 -12 29 -14 21 15 -17 25 -19 19 -21 -22 -23 -24 24 -26 -27 -28 -29 -30 -31
leaf_value=0.0070098964880419244 -0.00011744356245705148 -0.0022773412691105633 -0.0011891344439961466 0.0047412744142902993 0.00049291311260347666 0.00060643389205952138 0.0025598566745076573 0.00036308321064470219 0.00060063426132078441 0.0051247416182089731 0.0020580843357741736 -0.0011891344439961466 -0.0011891344439961466 0.0006058620921962298 0.0046991329634106047 -0.00073054923543334691 -0.00027661395576958212 -0.0011891344439961466 0.0026251370939776135 -0.0002088108270425139 -0.00022784071877185038 -0.002003761501606588 -0.002460554237919126 0.0030561553938558972 0.0040069362358437317 -2.6624074117823083e-05 -0.00078246866747087656 -0.00079659886041576851 -0.0011891344439961466 -0.0011891344439961466
leaf_weight=39 49 23 123 21 32 71 30 67 45 60 30 46 145 28 59 60 37 36 30 30 30 25 31 31 36 55 32 41 20 2115
leaf_count=39 49 23 123 21 32 71 30 67 45 60 30 46 145 28 59 60 37 36 30 30 30 25 31 31 36 55 32 41 20 2115
internal_value=-0.00301553 0.00109162 0.000572441 0.00133886 0.00151644 0.001375 0.00172515 0.000783131 -5.81407e-05 0.00317844 0.00421788 -0.0047348 -0.00344828 -0.000689656 0.00305369 0.00214286 -0.00119048 -0.00189655 -0.000871561 0.000833332 0.00111111 -0.00202381 -0.000762713 0.00171642 0.00320895 -0.0019697 -0.00136364 -0.00179487 -0.00395105 -0.00490745
internal_weight=3477 1026 987 844 821 800 684 415 344 269 179 2451 290 116 149 119 210 145 109 60 90 84 59 134 67 165 110 78 143 2161
internal_count=3477 1026 987 844 821 800 684 415 344 269 179 2451 290 116 149 119 210 145 109 60 90 84 59 134 67 165 110 78 143 2161
is_linear=0
shrinkage=0.05


Tree=29
num_leaves=31
num_cat=0
split_feature=5 7 0 8 8 8 8 5 0 5 3 3 6 0 0 6 0 0 6 6 0 3 3 0 3 4 0 0 3 6
split_gain=8.46165 2.98958 1.42489 0.500805 0.294859 0.203287 0.341026 0.169342 0.22069 0.147511 0.222745 0.176501 0.145777 0.0691233 0.0649537 0.0593087 0.0804528 0.0195467 0.0185905 0.0258799 0.0124936 0.011336 0.00671372 0.00462548 0.0187917 0.00286447 0.00397772 0.00567658 0.00290187 0.00338935
threshold=-0.60355339059327384 18.500000000000004 13.500000000000002 2.5000000000000004 83.500000000000014 118.50000000000001 72.000000000000014 -0.37940952255126015 15.500000000000002 -0.98296291314453399 1.0000000180025095e-35 1.0000000180025095e-35 -2.2499999999999996 14.500000000000002 9.5000000000000018 4.3500000000000005 12.500000000000002 10.500000000000002 0.15000000000000005 -0.84999999999999998 12.500000000000002 1.0000000180025095e-35 1.0000000180025095e-35 22.500000000000004 1.0000000180025095e-35 0.37940952255126054 6.5000000000000009 2.5000000000000004 1.0000000180025095e-35 0.15000000000000005
decision_type=2 8 2 8 10 10 10 2 2 2 2 2 10 2 2 10 2 2 8 10 2 2 2 2 2 2 2 2 2 10
left_child=1 -1 3 -3 13 6 9 8 12 10 -5 15 -2 22 -13 16 17 -11 19 -9 -16 -15 -4 25 -25 -20 27 -27 29 -28
right_child=7 2 4 5 -6 -7 -8 18 -10 11 -12 14 -14 21 20 -17 -18 -19 23 -21 -22 -23 -24 24 -26 26 28 -29 -30 -31
leaf_value=0.0066594016636398259 -0.00010402128386494613 -0.0023301921185740456 -3.1772468589875073e-05 0.001374306609055076 0.00040618048265348154 -0.00067681576640581077 0.0062252809311059247 -0.0011296777217963392 -0.0011296777217963392 0.0022648661725220504 -0.00092305399362579684 0.0024318638407822752 -0.0011296777217963392 -0.0011296777217963392 0.0048060533340367169 0.0036097322047212799 0.00076827524960237773 -0.00026278325798110295 -0.0011296777217963392 -0.0011296777217963392 0.00073731111950100083 -0.0011296777217963392 -0.00010221026091857128 -0.0011296777217963392 -0.0011296777217963392 -0.0011296777217963392 -0.0011296777217963392 -0.0011296777217963392 -0.0011296777217963392 -0.0011296777217963392
leaf_weight=39 109 30 91 91 29 24 29 25 145 163 33 31 36 95 74 33 82 82 1152 21 32 35 33 107 39 140 73 542 38 24
leaf_count=39 109 30 91 91 29 24 29 25 145 163 33 31 36 95 74 33 82 82 1152 21 32 35 33 107 39 140 73 542 38 24
internal_value=-0.00315933 0.00065302 0.000116513 0.00132102 -0.00287986 0.00160237 0.00176923 -0.0047552 -0.00362069 0.00152174 0.00306451 0.00113682 -0.00224138 -0.0034252 0.00266423 0.000555554 0.000351681 -0.000102042 -0.00490745 -0.00391304 0.00207547 -0.00423077 -0.00258065 -0.00492908 -0.00465754 -0.00494921 -0.0048776 -0.00492669 -0.00462963 -0.00448454
internal_weight=3477 1026 987 704 283 674 650 2451 290 621 124 497 145 254 137 360 327 245 2161 46 106 130 124 2115 146 1969 817 682 135 97
internal_count=3477 1026 987 704 283 674 650 2451 290 621 124 497 145 254 137 360 327 245 2161 46 106 130 124 2115 146 1969 817 682 135 97
is_linear=0
shrinkage=0.05


Tree=30
num_leaves=31
num_cat=0
split_feature=8 0 0 0 7 2 0 7 6 8 1 0 8 1 0 0 1 6 1 0 0 1 1 0 1 1 1 0 0 1
split_gain=2.40311 1.75622 5.42967 1.16932 1.38528 0.832905 0.637397 0.560529 0.401636 0.569164 0.388149 0.353831 0.338847 0.177494 0.241658 0.372804 0.248016 0.145777 0.138505 0.108695 0.107277 0.10107 0.0944767 0.0668883 0.132731 0.0833333 0.0666667 0.0536012 0.0941386 0.0513792
threshold=75.500000000000014 14.500000000000002 8.5000000000000018 12.500000000000002 65.500000000000014 11.500000000000002 13.500000000000002 89.500000000000014 5.6500000000000012 148.50000000000003 1.5000000000000002 7.5000000000000009 55.000000000000007 3.5000000000000004 11.500000000000002 12.500000000000002 1.5000000000000002 -2.2499999999999996 1.5000000000000002 10.500000000000002 12.500000000000002 2.5000000000000004 2.5000000000000004 11.500000000000002 4.5000000000000009 5.5000000000000009 4.5000000000000009 12.500000000000002 10.500000000000002 2.5000000000000004
decision_type=10 2 2 2 10 2 2 10 10 8 2 2 8 2 2 2 2 10 2 2 2 2 2 2 2 2 2 2 2 2
left_child=1 2 11 4 -2 6 7 12 9 -5 27 -1 -4 14 19 18 -17 22 -16 -14 -12 -9 -13 -15 -25 -26 -24 28 -7 -8
right_child=3 -3 5 8 -6 10 29 21 -10 -11 20 17 13 23 15 16 -18 -19 -20 -21 -22 -23 26 24 25 -27 -28 -29 -30 -31
leaf_value=-0.0010731938357065221 0.010968304783053297 -0.0010731938357065221 0.0058683536136632831 -0.00097486751215059865 0.004267580489550493 -0.00023420846263138328 -2.370424698243806e-05 -0.0048345852613608763 -0.00087238207488127175 0.00069584357352826375 -0.00060509711050010014 -0.00010637032014095202 0.0072337928054435931 0.0069253388104543586 0.0049039120669139048 0.0052188308600249539 -0.0012259790583801459 -0.0010731938357065221 0.00050223813996067175 -0.0018397427453833702 -0.0030799609105803937 -0.00023578418028060973 0.0024990813034719804 0.0035088763369530125 -0.00093448760153096069 0.0054215891960170421 -0.00019316922149714146 -0.0015040220072419824 0.0034765834324060789 -9.7099747872642788e-05
leaf_weight=1121 20 1305 21 20 22 32 36 21 37 21 94 49 85 108 22 21 24 36 24 44 42 34 30 23 24 24 30 26 29 52
leaf_count=1121 20 1305 21 20 22 32 36 21 37 21 94 49 85 108 22 21 24 36 24 44 42 34 30 23 24 24 30 26 29 52
internal_value=-0.00320247 -0.003451 -0.00253899 0.00375 0.0104762 0.00072519 0.00174955 0.00247368 0.000128204 0.00353658 -0.00186099 -0.00456556 0.00309524 0.00276942 0.00181818 0.00379121 0.000555554 -0.00224138 0.00695652 0.000426355 -0.00352941 -0.00227273 -0.00133028 0.00393855 0.00274648 0.00125 -1.19209e-09 0.000747125 0.00155738 -0.00215909
internal_weight=3477 3357 2052 120 42 786 563 475 78 41 223 1266 420 399 220 91 45 145 46 129 136 55 109 179 71 48 60 87 61 88
internal_count=3477 3357 2052 120 42 786 563 475 78 41 223 1266 420 399 220 91 45 145 46 129 136 55 109 179 71 48 60 87 61 88
is_linear=0
shrinkage=0.05


Tree=31
num_leaves=31
num_cat=0
split_feature=5 7 0 2 8 7 1 8 1 5 0 8 0 5 0 8 7 0 7 0 1 0 0 1 1 1 1 1 0 1
split_gain=7.71636 2.33853 1.25211 0.787758 0.521814 0.462788 0.403333 0.30283 0.256097 0.710775 0.252083 0.236329 0.19884 0.169342 0.22069 0.150569 0.15 0.148159 0.145777 0.136111 0.114683 0.112022 0.0945923 0.132731 0.0944767 0.0833333 0.0666667 0.0664823 0.0985929 0.287891
threshold=-0.60355339059327384 5.5000000000000009 13.500000000000002 11.500000000000002 4.5000000000000009 60.500000000000007 1.5000000000000002 6.5000000000000009 3.5000000000000004 -0.98296291314453399 12.500000000000002 135.00000000000003 12.500000000000002 -0.37940952255126015 15.500000000000002 45.500000000000007 17.500000000000004 14.500000000000002 inf 11.500000000000002 1.5000000000000002 10.500000000000002 11.500000000000002 4.5000000000000009 2.5000000000000004 5.5000000000000009 4.5000000000000009 4.5000000000000009 10.500000000000002 5.5000000000000009
decision_type=2 8 2 2 8 8 2 10 2 2 2 10 2 2 2 10 10 2 8 2 2 2 2 2 2 2 2 2 2 2
left_child=1 -1 3 4 -3 -6 16 8 9 20 -8 17 15 14 18 -9 19 -4 -2 -5 -7 -11 27 -24 -20 -25 -26 -10 29 -29
right_child=13 2 11 6 5 7 10 12 22 21 -12 -13 -14 -15 -16 -17 -18 -19 24 -21 -22 -23 23 25 26 -27 -28 28 -30 -31
leaf_value=0.0063190804191369356 -0.001019534143921196 -0.0033719484398866701 -3.931645421051134e-05 0.00116041625489401 0.0078275967574201397 0.0051587165529751681 -0.00060229346308679228 -0.0013951695268975114 0.0066900124127265252 0.0068721031651714122 0.00028751976576616844 0.00048159862429365065 -0.00049640168556371934 -0.001019534143921196 -0.001019534143921196 0.004541804322976772 -0.00090692093379273874 -0.001019534143921196 -0.00010105180413390453 0.0028033075576476851 0.00047712623296263727 -0.0008196975762897918 0.0033334325201053619 -0.00088776322145441239 0.0023741272382983812 0.0051505097362161897 -0.0001835107604222841 0.005489138477512593 0.0063000925808511634 0.0034125604740134294
leaf_weight=24 36 24 130 36 20 21 96 20 36 85 24 20 20 2161 145 31 20 138 49 24 24 89 23 24 30 24 30 25 24 24
leaf_count=24 36 24 130 36 20 21 96 20 36 85 24 20 20 2161 145 31 20 138 49 24 24 89 23 24 30 24 30 25 24 24
internal_value=-0.00323124 0.000409356 3.9919e-05 0.00116246 0.00219844 0.00255102 -0.0015 0.00223404 0.00276942 0.001621 -0.00333333 -0.00274306 -0.000774649 -0.0047552 -0.00362069 0.000882352 0.00125 -0.00313433 -0.00224138 0.0025 0.00722222 0.000172413 0.00416667 0.00274648 -0.00133028 0.00125 -1.19209e-09 0.00509174 0.0059589 0.0072449
internal_weight=3477 1026 1002 714 514 490 200 470 399 219 120 288 71 2451 290 51 80 268 145 60 45 174 180 71 109 48 60 109 73 49
internal_count=3477 1026 1002 714 514 490 200 470 399 219 120 288 71 2451 290 51 80 268 145 60 45 174 180 71 109 48 60 109 73 49
is_linear=0
shrinkage=0.05


Tree=32
num_leaves=31
num_cat=0
split_feature=0 0 7 2 6 7 0 0 1 6 6 0 6 1 1 6 0 1 1 1 0 0 0 0 0 1 1 6 1 0
split_gain=2.26578 6.55655 2.92423 0.51098 0.569098 0.625689 0.395927 0.464896 0.279435 0.350649 0.270699 0.182331 0.177488 0.152709 0.140621 0.262714 0.0979992 0.129836 0.114219 0.0714286 0.064689 0.08 0.0496517 0.0395044 0.108825 0.0365236 0.057619 0.034086 0.0254065 0.216563
threshold=14.500000000000002 7.5000000000000009 5.5000000000000009 11.500000000000002 2.4500000000000006 60.500000000000007 12.500000000000002 8.5000000000000018 1.5000000000000002 4.5500000000000007 4.8500000000000005 12.500000000000002 5.6500000000000012 2.5000000000000004 1.5000000000000002 9.6500000000000004 13.500000000000002 3.5000000000000004 1.5000000000000002 4.5000000000000009 10.500000000000002 12.500000000000002 15.500000000000002 9.5000000000000018 10.500000000000002 4.5000000000000009 2.5000000000000004 0.15000000000000005 4.5000000000000009 11.500000000000002
decision_type=2 2 8 2 8 8 2 2 2 10 10 2 10 2 2 8 2 2 2 2 2 2 2 2 2 2 2 8 2 2
left_child=1 27 -3 4 -4 -6 7 13 9 20 11 -10 16 -7 23 -16 17 18 -8 -15 -5 -22 -2 -9 -25 26 -18 -1 29 -17
right_child=22 2 3 8 5 6 12 14 10 -11 -12 -13 -14 19 15 28 25 -19 -20 -21 21 -23 -24 24 -26 -27 -28 -29 -30 -31
leaf_value=-0.00096855743672513619 -0.00096855743672513619 0.0060031263981800871 -0.00096855743672513619 -4.643545876830517e-05 0.0074362169195491329 -9.5999213927209376e-05 0.0044988740319254128 -0.0033406602267850197 -0.00090966554588721915 -0.001090856601258949 -3.1466703987922027e-05 -0.0029239970423408485 -0.00025358266637000624 0.0032351109561934883 -0.0005659072385230836 0.0069609049824148912 -2.0553211922790668e-05 0.0031667608941000932 -0.0012456628137391011 -0.00017433522240117017 0.0036056573840255153 -0.00075302635749886413 -0.00096855743672513619 0.0081766047982391003 0.0014007777152920398 -9.0278937768484982e-05 0.0019133910541748165 -0.00096855743672513619 0.0060118877653442988 0.00045842864835762555
leaf_weight=26 148 24 38 38 20 39 22 24 97 24 32 36 23 28 36 111 35 37 26 28 25 25 1185 21 48 26 25 1095 96 39
leaf_count=26 148 24 38 38 20 39 22 24 97 24 32 36 23 28 36 111 35 37 26 28 25 25 1185 21 48 26 25 1095 96 39
internal_value=-0.00323124 -0.00222481 0.000669598 0.000255254 0.000955677 0.00128655 0.0010241 0.00180851 -0.0015704 0.000357142 -0.00287879 -0.00387218 -0.00087629 -0.00131579 0.0026 0.00315603 -0.000321639 0.000882352 -0.000833335 0.000357142 0.00181818 0.003 -0.00484996 0.000913977 0.00152174 -0.00151163 -0.000833335 -0.00486619 0.00373984 0.00333333
internal_weight=3477 2144 1023 999 722 684 664 470 277 112 165 133 194 95 375 282 171 85 48 56 88 50 1333 93 69 86 60 1121 246 150
internal_count=3477 2144 1023 999 722 684 664 470 277 112 165 133 194 95 375 282 171 85 48 56 88 50 1333 93 69 86 60 1121 246 150
is_linear=0
shrinkage=0.05


Tree=33
num_leaves=31
num_cat=0
split_feature=5 7 0 2 0 8 1 7 7 1 0 5 0 8 7 1 1 1 1 1 1 0 0 1 1 1 7 0 7 1
split_gain=7.71636 1.74946 1.11524 0.440532 0.568056 0.582939 0.336111 0.282449 0.272003 0.212808 0.171053 0.169342 0.22069 0.152872 0.145777 0.0944767 0.0854078 0.166394 0.108397 0.0666667 0.0662485 0.373704 0.237959 0.287891 0.1875 0.0652291 0.0555556 0.0555556 0.0544705 0.0637872
threshold=-0.60355339059327384 5.5000000000000009 14.500000000000002 11.500000000000002 12.500000000000002 4.5000000000000009 1.5000000000000002 99.500000000000014 99.500000000000014 1.5000000000000002 12.500000000000002 -0.37940952255126015 15.500000000000002 6.5000000000000009 inf 2.5000000000000004 3.5000000000000004 4.5000000000000009 1.0000000180025095e-35 4.5000000000000009 4.5000000000000009 11.500000000000002 10.500000000000002 5.5000000000000009 5.5000000000000009 3.5000000000000004 17.500000000000004 11.500000000000002 69.500000000000014 2.5000000000000004
decision_type=2 8 2 2 2 8 2 8 10 2 2 2 2 10 8 2 2 2 2 2 2 2 2 2 2 2 10 2 10 2
left_child=1 -1 3 4 5 -3 26 -7 10 -9 -8 12 14 20 -2 -16 18 -18 -6 -17 21 25 23 -22 -24 -11 27 -5 29 -20
right_child=11 2 -4 6 16 7 8 9 -10 13 -12 -13 -14 -15 15 19 17 -19 28 -21 22 -23 24 -25 -26 -27 -28 -29 -30 -31
leaf_value=0.0057029700782710805 -0.00092012956488887938 -0.0031521469931211285 -0.00092012956488887938 0.0010134147416406912 0.0035393942759915325 0.0071650888667117831 -0.00055414665530102399 0.0019914521610027431 3.9241954678466163e-05 0.0061804527577920959 -0.0027777971902238057 -0.00092012956488887938 -0.00092012956488887938 -0.00081490736297736986 -9.1199253230848934e-05 0.0020936653285737873 0.0030084228493950874 -8.5764990880060621e-05 -0.0001333654515960016 -0.00016561846128111194 0.005045643253639322 0.00043550721593974554 -0.0018086107897308688 0.0029413380620455427 0.006811703595971017 0.0060074665429694571 -0.00030938113010690708 0.0013543043808336775 -0.0004399083138363693 -0.00034398135197024411
leaf_weight=24 36 24 145 36 23 27 78 90 30 70 36 2161 145 30 49 30 29 62 49 30 25 36 24 24 24 36 24 36 20 24
leaf_count=24 36 24 145 36 23 27 78 90 30 70 36 2161 145 30 49 30 29 62 49 30 25 36 24 24 24 36 24 36 20 24
internal_value=-0.00323124 0.000409356 8.98192e-05 0.000775961 0.00148298 0.00256097 -0.00104167 0.00303109 -0.00256945 0.00266017 -0.00368421 -0.0047552 -0.00362069 0.00336431 -0.00224138 -0.00133028 -0.000652175 0.000494504 -0.00155173 -1.19209e-09 0.00378661 0.00309859 0.00479381 0.0072449 0.00229167 0.00160377 0.00125 0.00194444 -0.00231183 -0.00294521
internal_weight=3477 1026 1002 857 617 410 240 386 144 359 114 2451 290 269 145 109 207 91 116 60 239 142 97 49 48 106 96 72 93 73
internal_count=3477 1026 1002 857 617 410 240 386 144 359 114 2451 290 269 145 109 207 91 116 60 239 142 97 49 48 106 96 72 93 73
is_linear=0
shrinkage=0.05


Tree=34
num_leaves=31
num_cat=0
split_feature=5 7 4 6 6 5 6 8 5 1 1 1 5 4 6 4 1 1 6 1 4 4 4 1 4 1 1 1 1 6
split_gain=8.01035 1.72399 1.17081 0.431795 0.344694 0.534028 0.472975 0.738138 0.398822 0.39712 0.278986 0.273 0.169342 0.22069 0.145777 0.130919 0.122981 0.0944767 0.0677596 0.0666667 0.0652142 0.0658464 0.0661765 0.0606061 0.052521 0.034518 0.0227273 0.019931 0.0275238 0.0185905
threshold=-0.60355339059327384 5.5000000000000009 -0.5 2.4500000000000006 8.7500000000000018 -0.9159756150367534 5.6500000000000012 28.500000000000004 -0.98296291314453399 3.5000000000000004 2.5000000000000004 3.5000000000000004 -0.37940952255126015 0.78656609248549325 -2.2499999999999996 -0.25881904510252113 1.5000000000000002 2.5000000000000004 7.5500000000000007 4.5000000000000009 -0.25881904510252113 0.25881904510252091 0.37940952255126054 1.5000000000000002 0.37940952255126054 1.0000000180025095e-35 2.5000000000000004 5.5000000000000009 1.0000000180025095e-35 0.15000000000000005
decision_type=2 8 2 8 10 2 10 10 2 2 2 2 2 2 10 2 2 2 10 2 2 2 2 2 2 2 2 2 2 8
left_child=1 -1 27 -4 6 -6 7 8 11 16 -9 23 13 -2 17 -11 20 -15 -8 -19 -10 -22 -23 -5 26 -24 -18 28 -3 -14
right_child=12 2 3 4 5 -7 18 10 9 15 -12 -13 29 14 -16 -17 24 19 -20 -21 21 22 25 -25 -26 -27 -28 -29 -30 -31
leaf_value=0.0054178215743575292 -0.00087412308664443531 -0.00087412308664443531 -0.001652308087631214 0.0043284758752564776 -0.00039905430996170391 0.0026583169798435587 -0.00094229006857446786 0.0064050429319901601 -0.00021240272953932911 -8.1476741336057595e-05 0.00050866171677129291 0.0029885302665766554 -0.00087412308664443531 -8.6639290569306282e-05 -0.00087412308664443531 0.002858001706925334 -0.00010372787721566273 0.0019889820621450983 -0.00097621813606762217 -0.00015733753821705612 0.0016709040843241145 -0.00071244768573036361 -0.0015933543037092443 0.00039653612976400522 -0.00015060449712396215 0.0046718020199486001 -0.00032678228437173218 -0.00087412308664443531 -0.00087412308664443531 -0.00087412308664443531
leaf_weight=24 145 20 30 33 21 22 30 21 32 45 23 45 46 49 36 188 55 30 31 30 33 32 32 33 70 36 45 20 105 2115
leaf_count=24 145 20 30 33 21 22 30 21 32 45 23 45 46 49 36 188 55 30 31 30 33 32 32 33 70 36 45 20 105 2115
internal_value=-0.00320247 0.000506821 0.00018962 0.000892648 0.00110641 0.00546512 0.000867346 0.00122407 0.000817377 0.000281689 0.0075 0.00355856 -0.0047552 -0.00362069 -0.00224138 0.00186695 -0.000820897 -0.00133028 -0.00336066 -1.19209e-09 0.000151514 0.000639097 -1.19209e-09 0.00560606 -0.00176471 0.000882352 -0.0025 -0.00396552 -0.0042 -0.00490745
internal_weight=3477 1026 1002 857 827 43 784 723 679 568 44 111 2451 290 145 233 335 109 61 60 165 133 100 66 170 68 100 145 125 2161
internal_count=3477 1026 1002 857 827 43 784 723 679 568 44 111 2451 290 145 233 335 109 61 60 165 133 100 66 170 68 100 145 125 2161
is_linear=0
shrinkage=0.05


Tree=35
num_leaves=31
num_cat=0
split_feature=5 4 7 2 6 8 8 5 4 6 6 6 4 4 5 3 4 3 6 8 7 3 4 2 4 2 4 4 6 6
split_gain=7.14486 1.487 1.5166 0.583063 0.546971 0.201908 0.194823 0.169342 0.22069 0.166934 0.265781 0.145777 0.145773 0.125 0.105966 0.281139 0.180627 0.104835 0.0865801 0.0805396 0.0767544 0.0852827 0.0677249 0.0534966 0.0279202 0.027536 0.0266667 0.0208333 0.0185905 0.0258799
