tree
version=v4
num_class=1
num_tree_per_iteration=1
label_index=0
max_feature_idx=10
objective=quantile
feature_names=hour day_of_week month is_weekend hour_sin hour_cos temp_c cloud_cover_pct shortwave_radiation_w_m2 vacation_mode_flag alarm_armed_flag
feature_infos=[0:23] [0:6] [1:12] [0:1] [-1:1] [-1:1] [-5.7999999999999998:13.4] [0:100] [0:282] none none
tree_sizes=2430 2442 2466 2478 2504 2483 2464 2469 2541 2510 2495 2516 2542 2506 2542 2613 2535 2541 2449 2576 2566 2520 2470 2527 2570 2585 2588 2597 2570 2599 2553 2551 2584 2553 2608 2609 2586 2585 2646 2625 2638 2642 2565 2627 2633 2666 2672 2632 2665 2627 2661 2610 2617 2615 2669 2661 2631 2591 2637 2574 2613 2524 2660 2692 2608 2648 2640 2676 2605 2658 2586 2536 2597 2656 2709 2725 2608 2672 2627 2626 2620 2602 2603 2613 2607 2518 2628 2571 2566 2612 2602 2600 2635 2683 2577 2618 2570 2625 2569 2595 2566 2641 2622 2620 2633 2588 2588 2603 2617 2592 2661 2625 2577 2614 2636 2682 2574 2561 2636 2624 2613 2622 2653 2655 2672 2610 2659 2567 2650 2631 2669 2591 2653 2630 2555 2613 2713 2546 2574 2642 2581 2564 2649 2613 2535 2507 2641 2602 2654 2607 2622 2600 2588 2595 2606 2612 2566 2609 2599 2621 2691 2662 2701 2631 2602 2615 2657 2626 2635 2639 2597 2591 2594 2669 2629 2699 2669 2478 2618 2578 2605 2588 2589 2617 2620 2653 2615 2625 2671 2628 2613 2681 2663 2630 2609 2624 2645 2651 2664 2645

Tree=0
num_leaves=31
num_cat=0
split_feature=5 5 0 0 8 8 8 2 2 1 1 6 6 6 1 1 8 1 1 1 0 6 1 2 1 8 1 5 0 2
split_gain=249.924 16.7848 13.8255 13.1917 7.38569 5.99379 4.85077 4.53231 3.1461 6.10639 4.05427 2.29135 1.81529 1.68298 1.59725 1.47136 1.44104 1.42754 1.35197 2.91954 1.33275 1.27219 1.25552 1.20979 1.38651 0.948184 0.943732 0.906765 1.11599 1.61182
threshold=-0.78656609248549325 -0.60355339059327384 13.500000000000002 14.500000000000002 42.500000000000007 145.50000000000003 105.50000000000001 11.500000000000002 11.500000000000002 3.5000000000000004 4.5000000000000009 10.15 4.4500000000000011 5.1500000000000012 1.0000000180025095e-35 1.5000000000000002 13.500000000000002 1.5000000000000002 5.5000000000000009 4.5000000000000009 10.500000000000002 3.1500000000000008 1.5000000000000002 6.0000000000000009 1.5000000000000002 105.50000000000001 5.5000000000000009 -0.37940952255126015 15.500000000000002 11.500000000000002
decision_type=2 2 2 2 8 10 10 2 2 2 2 8 10 10 2 2 10 2 2 2 2 10 2 2 2 10 2 2 2 2
left_child=2 3 4 7 13 21 8 17 18 12 -11 -9 14 16 -10 -13 -1 -2 19 23 -15 -4 -16 -6 -25 -5 -12 28 29 -3
right_child=1 27 5 25 6 -7 -8 11 9 10 26 15 -14 20 22 -17 -18 -19 -20 -21 -22 -23 -24 24 -26 -27 -28 -29 -30 -31
leaf_value=0 0 0 0 0 0 0.0050000000745058061 0.012500000372529031 0 0.0050000000745058061 0 0 0.0025000000372529031 0 0 0.010000000149011612 0 0.0050000000745058061 0.0050000000745058061 0.0050000000745058061 0.0050000000745058061 0 0 0.0050000000745058061 0.0050000000745058061 0.0050000000745058061 0 0.0050000000745058061 0 0 0
leaf_weight=23 28 116 184 221 25 20 64 30 61 51 52 30 20 23 63 61 21 86 52 58 29 32 111 94 158 20 54 3524 240 122
leaf_count=23 28 116 184 221 25 20 64 30 61 51 52 30 20 23 63 61 21 86 52 58 29 32 111 94 158 20 54 3524 240 122
internal_value=-0.0181606 -0.023582 0.00215481 -0.0147059 0.00482273 -0.00868644 0.00628621 -0.0062766 0.00522528 0.00218447 -0.00557325 -0.0130165 0.00696078 -0.00833333 0.00819149 -0.00906593 -0.00113636 0.000877193 0.00846253 0.00962687 -0.0144231 -0.0111111 0.0106322 0.00749097 0.00853175 -0.0229253 0 -0.0246377 -0.0225941 -0.0201681
internal_weight=5673 4478 1195 476 959 236 863 235 799 412 157 121 255 96 235 91 44 114 387 335 52 216 174 277 252 241 106 4002 478 238
internal_count=5673 4478 1195 476 959 236 863 235 799 412 157 121 255 96 235 91 44 114 387 335 52 216 174 277 252 241 106 4002 478 238
is_linear=0
shrinkage=0.05


Tree=1
num_leaves=31
num_cat=0
split_feature=0 0 0 8 0 8 8 7 2 1 1 2 2 0 6 2 1 8 1 1 1 6 1 2 1 8 1 7 0 1
split_gain=58.9454 215.159 10.1085 11.6725 6.15967 5.99379 4.85077 4.24637 3.1461 6.10639 4.05427 2.15111 1.95165 1.88526 1.81529 1.61182 1.59725 1.55152 1.47136 1.35197 2.91954 1.27219 1.25552 1.20979 1.38651 1.09213 1.0723 0.991754 0.962634 0.943732
threshold=14.500000000000002 8.5000000000000018 13.500000000000002 42.500000000000007 9.5000000000000018 145.50000000000003 105.50000000000001 91.500000000000014 11.500000000000002 3.5000000000000004 4.5000000000000009 11.500000000000002 11.500000000000002 7.5000000000000009 4.4500000000000011 11.500000000000002 1.0000000180025095e-35 1.5000000000000002 1.5000000000000002 5.5000000000000009 4.5000000000000009 3.1500000000000008 1.5000000000000002 6.0000000000000009 1.5000000000000002 113.50000000000001 1.5000000000000002 41.500000000000007 10.500000000000002 5.5000000000000009
decision_type=2 2 2 8 2 10 10 10 2 2 2 2 2 2 10 2 2 10 2 2 2 10 2 2 2 10 2 10 2 2
left_child=1 13 3 7 12 21 8 11 19 14 -11 -3 26 -1 16 27 -10 -9 -14 20 23 -4 -18 -6 -25 -2 -5 -15 -19 -12
right_child=25 2 5 4 6 -7 -8 17 9 10 29 -13 18 15 -16 -17 22 28 -20 -21 -22 -23 -24 24 -26 -27 -28 -29 -30 -31
leaf_value=0 0 0.0073750001098960641 0 0 0 0.0047500000707805159 0.011875000353902579 0 0.0047500000707805159 0 0 0 0.0023750000353902584 0 0 0 0.0095000001415610318 0 0 0.0047500000707805159 0.0047500000707805159 0 0.0047500000707805159 0.0047500000707805159 0.0047500000707805159 0 0.0047500000707805159 0 0 0.0047500000707805159
leaf_weight=1869 2114 20 184 21 25 20 64 44 61 51 52 25 30 92 20 122 63 28 61 52 58 32 111 94 158 22 64 24 38 54
leaf_count=1869 2114 20 184 21 25 20 64 44 61 51 52 25 30 92 20 122 63 28 61 52 58 32 111 94 158 22 64 24 38 54
internal_value=-0.0181606 -0.0141999 0.000769231 0.00263819 0.00454764 -0.00868644 0.00628621 -0.0101613 0.00522528 0.00218447 -0.00557325 0.00277778 -0.00397727 -0.0243593 0.00696078 -0.0201681 0.00819149 -0.0154545 -0.00906593 0.00846253 0.00962687 -0.0111111 0.0106322 0.00749097 0.00853175 -0.0247191 0.00147059 -0.0159483 -0.0106061 0
internal_weight=5673 3537 1430 1194 1039 236 863 155 799 412 157 45 176 2107 255 238 235 110 91 387 335 216 174 277 252 2136 85 116 66 106
internal_count=5673 3537 1430 1194 1039 236 863 155 799 412 157 45 176 2107 255 238 235 110 91 387 335 216 174 277 252 2136 85 116 66 106
is_linear=0
shrinkage=0.05


Tree=2
num_leaves=31
num_cat=0
split_feature=5 5 0 0 7 6 7 7 1 1 1 5 0 6 7 0 6 1 1 0 7 7 1 6 0 1 1 1 0 0
split_gain=249.112 16.7848 13.719 13.1917 5.0214 4.33044 3.96048 2.67092 2.43967 0.956649 2.36983 0.906765 1.11599 0.895853 0.796324 0.788668 0.703299 0.640679 1.20421 0.797089 0.591141 0.547958 0.539868 0.483482 0.468287 0.35161 0.474079 0.334366 0.420139 0.260702
threshold=-0.78656609248549325 -0.60355339059327384 13.500000000000002 14.500000000000002 93.500000000000014 6.6500000000000012 99.500000000000014 97.500000000000014 3.5000000000000004 1.0000000180025095e-35 2.5000000000000004 -0.37940952255126015 15.500000000000002 7.7500000000000009 62.500000000000007 10.500000000000002 9.2500000000000018 4.5000000000000009 3.5000000000000004 12.500000000000002 25.000000000000004 99.500000000000014 1.0000000180025095e-35 3.9500000000000006 12.500000000000002 2.5000000000000004 5.5000000000000009 5.5000000000000009 12.500000000000002 10.500000000000002
decision_type=2 2 2 2 10 8 10 8 2 2 2 2 2 10 10 2 8 2 2 2 10 8 2 10 2 2 2 2 2 2
left_child=2 3 4 6 5 14 22 -4 23 15 24 12 20 -10 -1 -7 -9 18 19 -12 25 -5 -2 -6 29 -3 -27 -19 -29 -11
right_child=1 11 7 21 8 9 -8 16 13 10 17 -13 -14 -15 -16 -17 -18 27 -20 -21 -22 -23 -24 -25 -26 26 -28 28 -30 -31
leaf_value=0.013781250559724867 0 0 0.0045125000672414902 0 0 -0.00048750000726431619 0 0 0 0.0045125000672414902 0.0045125000672414902 0 0 0 0.0044468750662636017 0.0045125000672414902 0 0.0045125000672414902 0 0 0 0 0 0.0037812500381842252 0.0045125000672414902 0 0 0.0045125000672414902 -0.00048750000726431619 0.0045125000672414902
leaf_weight=48 27 82 21 20 20 25 34 32 42 52 85 3524 240 20 20 78 183 107 110 28 50 221 174 64 56 81 25 72 24 108
leaf_count=48 27 82 21 20 20 25 34 32 42 52 85 3524 240 20 20 78 183 107 110 28 50 221 174 64 56 81 25 72 24 108
internal_value=-0.0181694 -0.023582 0.00211297 -0.0147059 0.00477059 0.00630381 -0.0062766 -0.00868644 -0.00376712 0.00520134 0.005919 -0.0246377 -0.0225941 -0.0112903 0.0183824 0.000728155 -0.0103488 0.00375587 0.00190583 0.00553097 -0.0201681 -0.0229253 -0.00360697 0.00178571 0.0101852 -0.018883 -0.0169811 0.00578818 0.00364583 0.0115625
internal_weight=5673 4478 1195 476 959 813 235 236 146 745 642 4002 478 62 68 103 215 426 223 113 238 241 201 84 216 188 106 203 96 160
internal_count=5673 4478 1195 476 959 813 235 236 146 745 642 4002 478 62 68 103 215 426 223 113 238 241 201 84 216 188 106 203 96 160
is_linear=0
shrinkage=0.05


Tree=3
num_leaves=31
num_cat=0
split_feature=5 5 0 0 7 2 6 2 7 2 1 1 1 6 6 2 1 1 1 1 1 2 1 6 1 5 0 2 7 1
split_gain=247.492 16.7848 13.5072 13.1917 4.89949 4.53231 4.41909 3.14535 2.67092 2.48856 4.93734 3.69143 2.29393 2.29135 2.07792 1.92923 1.47136 1.45256 1.42754 1.30958 1.86731 1.05478 0.939433 0.909553 1.57342 0.906765 1.11599 1.61182 0.991754 0.818526
threshold=-0.78656609248549325 -0.60355339059327384 13.500000000000002 14.500000000000002 93.500000000000014 11.500000000000002 6.6500000000000012 11.500000000000002 97.500000000000014 11.500000000000002 3.5000000000000004 4.5000000000000009 1.0000000180025095e-35 10.15 4.7500000000000009 6.0000000000000009 1.5000000000000002 1.5000000000000002 1.5000000000000002 1.5000000000000002 5.5000000000000009 11.500000000000002 4.5000000000000009 4.3500000000000005 3.5000000000000004 -0.37940952255126015 15.500000000000002 11.500000000000002 41.500000000000007 5.5000000000000009
decision_type=2 2 2 2 10 2 8 2 8 2 2 2 2 8 10 2 2 2 2 2 2 2 2 10 2 2 2 2 10 2
left_child=2 3 4 5 6 18 -1 23 -4 15 12 -12 -11 -7 -9 -8 -15 -14 -2 -17 22 -10 -21 -6 -25 26 27 28 -3 -13
right_child=1 25 8 -5 7 13 9 14 21 10 11 29 17 16 -16 19 -18 -19 -20 20 -22 -23 -24 24 -26 -27 -28 -29 -30 -31
leaf_value=0.0094192970064992561 0 0 0.0042868750638794155 0 0 0 0 0.0037812500381842252 0 -0.00022562500336207453 0 -0.00022562500336207453 0.0087993751311209057 0.0022562500336207451 0 0.0042868750638794155 0 0.0042868750638794155 0.0045125000672414902 0.0045125000672414902 0.0044118750657420602 0 0.0042868750638794155 0.0043234375653322787 0 0 0 0 0 0.0042868750638794155
leaf_weight=68 28 92 21 241 20 30 29 22 104 67 47 52 61 30 55 82 61 110 86 151 48 111 50 27 22 3524 240 122 24 48
leaf_count=68 28 92 21 241 20 30 29 22 104 67 47 52 61 30 55 82 61 110 86 151 48 111 50 27 22 3524 240 122 24 48
internal_value=-0.018187 -0.023582 0.00202929 -0.0147059 0.00466632 -0.0062766 0.00618081 -0.00376712 -0.00868644 0.00506711 0.00227273 -0.00493197 0.00672269 -0.0130165 -0.0107143 0.00805556 -0.00906593 0.00979532 0.000877193 0.00913897 0.0109438 -0.0103488 0.0130597 0.00398551 0.00765306 -0.0246377 -0.0225941 -0.0201681 -0.0159483 0.0005
internal_weight=5673 4478 1195 476 959 235 813 146 236 745 385 147 238 121 77 360 91 171 114 331 249 215 201 69 49 4002 478 238 116 100
internal_count=5673 4478 1195 476 959 235 813 146 236 745 385 147 238 121 77 360 91 171 114 331 249 215 201 69 49 4002 478 238 116 100
is_linear=0
shrinkage=0.05


Tree=4
num_leaves=31
num_cat=0
split_feature=0 0 0 8 8 8 0 2 1 1 8 0 2 2 2 0 6 2 1 1 1 1 6 1 8 1 1 6 1 6
split_gain=58.4711 213.366 9.88551 10.8694 6.28306 5.99379 4.62358 2.64946 6.10639 4.05427 2.21612 2.85243 2.18011 1.95944 1.95165 1.88526 1.81529 1.61182 1.59725 1.58636 2.42993 1.47136 1.27219 1.25552 1.09213 1.0723 1.00263 0.992063 0.943732 0.840381
threshold=14.500000000000002 8.5000000000000018 13.500000000000002 42.500000000000007 105.50000000000001 145.50000000000003 9.5000000000000018 11.500000000000002 3.5000000000000004 4.5000000000000009 1.5000000000000002 10.500000000000002 6.0000000000000009 11.500000000000002 11.500000000000002 7.5000000000000009 4.4500000000000011 11.500000000000002 1.0000000180025095e-35 5.5000000000000009 1.5000000000000002 1.5000000000000002 3.1500000000000008 1.5000000000000002 113.50000000000001 1.5000000000000002 4.5000000000000009 5.8500000000000005 5.5000000000000009 7.0500000000000007
decision_type=2 2 2 8 10 10 2 2 2 2 10 2 2 2 2 2 10 2 2 2 2 2 10 2 10 2 2 10 2 8
left_child=1 15 3 10 6 22 14 12 16 -10 13 -12 -8 -3 25 -1 18 29 -9 20 -14 -16 -4 -20 -2 -5 -22 -13 -11 -17
right_child=24 2 5 4 -6 -7 7 8 9 28 11 27 19 -15 21 17 -18 -19 23 -21 26 -23 -24 -25 -26 -27 -28 -29 -30 -31
leaf_value=0 0 0 0 0 0.010701236647051846 0.0040725313106854451 0 0.0042981563140475189 0 -0.00021434375319397079 0.0038399726961945999 -0.00018906250190921128 0.0040725313106854451 0 0.0021434375319397078 0 -0.00018906250190921128 0 0.0083594063745648598 0.0040662813105923129 0.0041072656870656645 0 0 0.0040725313106854451 0 0.0042868750638794155 0.0045125000672414902 0 0.0040725313106854451 0
leaf_weight=1869 2114 23 184 21 64 20 30 61 51 52 47 21 94 40 30 21 20 122 63 52 158 61 32 111 22 64 53 24 54 95
leaf_count=1869 2114 23 184 21 64 20 30 61 51 52 47 21 94 40 30 21 20 122 63 52 158 61 32 111 22 64 53 24 54 95
internal_value=-0.018187 -0.0142423 0.000664336 0.00251256 0.00435515 -0.00868644 0.00335897 0.00497497 0.00218447 -0.00557325 -0.00983871 -0.0048913 0.00794574 -0.0170635 -0.00397727 -0.0243593 0.00696078 -0.0201681 0.00819149 0.00903361 0.0104098 -0.00906593 -0.0111111 0.0106322 -0.0247191 0.00147059 0.0133886 -0.0138889 0 -0.0159483
internal_weight=5673 3537 1430 1194 1039 236 975 799 412 157 155 92 387 63 176 2107 255 238 235 357 305 91 216 174 2136 85 211 45 106 116
internal_count=5673 3537 1430 1194 1039 236 975 799 412 157 155 92 387 63 176 2107 255 238 235 357 305 91 216 174 2136 85 211 45 106 116
is_linear=0
shrinkage=0.05


Tree=5
num_leaves=31
num_cat=0
split_feature=5 5 4 4 8 8 8 2 7 2 1 1 7 2 1 1 1 1 1 1 8 1 8 5 4 2 7 2 4 1
split_gain=249.924 16.7848 13.8255 13.1917 6.26243 5.99379 4.93601 4.53231 3.02149 2.43093 5.50154 4.51238 2.29135 2.18011 1.72583 1.58636 2.42993 1.55491 1.47136 1.42754 1.01801 1.00263 0.948184 0.906765 1.11599 1.61182 0.991754 0.81885 0.654934 0.66529
threshold=-0.78656609248549325 -0.60355339059327384 -0.25881904510252113 0.60355339059327384 42.500000000000007 145.50000000000003 105.50000000000001 11.500000000000002 83.500000000000014 11.500000000000002 3.5000000000000004 4.5000000000000009 inf 6.0000000000000009 1.0000000180025095e-35 5.5000000000000009 1.5000000000000002 1.5000000000000002 1.5000000000000002 1.5000000000000002 105.50000000000001 4.5000000000000009 105.50000000000001 -0.37940952255126015 0.78656609248549325 11.500000000000002 41.500000000000007 11.500000000000002 1.0000000180025095e-35 2.5000000000000004
decision_type=2 2 2 2 8 10 10 2 10 2 2 2 8 2 2 2 2 2 2 2 8 2 10 2 2 2 10 2 2 2
left_child=2 3 5 22 8 20 9 19 -4 13 14 -12 -9 -6 -11 16 -15 -16 -14 -5 -1 28 -2 24 -3 26 -26 -22 -18 -30
right_child=1 23 4 7 6 -7 -8 12 -10 10 11 -13 18 15 17 -17 21 -19 -20 -21 27 -23 -24 -25 25 -27 -28 -29 29 -31
leaf_value=0 0 0 0.0036479740613848699 0 0 0.0038689047451511724 0.010166174814699256 0 0 0.0018349082222381546 0 0.0019398109664054354 0.0020362656553427221 0.0038689047451511724 0.0079414360558366179 0.0038629672450626973 0.0038558867761640581 0.0038689047451511724 0 0.0040725313106854451 0 0.0042868750638794155 0 0 0 0 0 0 0.0038558867761640581 0.0088558868506698647
leaf_weight=29 221 240 20 28 30 20 64 30 76 66 51 106 30 94 68 52 39 121 61 86 88 53 20 3524 92 122 24 99 39 80
leaf_count=29 221 240 20 28 30 20 64 30 76 66 51 106 30 94 68 52 39 121 61 86 88 53 20 3524 92 122 24 99 39 80
internal_value=-0.0181606 -0.023582 0.00215481 -0.0147059 0.00482273 -0.00868644 0.00617034 -0.0062766 -0.00729167 0.00510013 0.00242718 -0.00493631 -0.0130165 0.00794574 0.00696078 0.00903361 0.0104098 0.00939153 -0.00906593 0.000877193 -0.0111111 0.0133886 -0.0229253 -0.0246377 -0.0225941 -0.0201681 -0.0159483 -0.00975936 0.0113924 0.0132353
internal_weight=5673 4478 1195 476 959 236 863 235 96 799 412 157 121 387 255 357 305 189 91 114 216 211 241 4002 478 238 116 187 158 119
internal_count=5673 4478 1195 476 959 236 863 235 96 799 412 157 121 387 255 357 305 189 91 114 216 211 241 4002 478 238 116 187 158 119
is_linear=0
shrinkage=0.05


Tree=6
num_leaves=31
num_cat=0
split_feature=5 5 0 0 8 8 8 2 7 2 6 2 6 6 8 5 0 2 7 7 0 2 0 0 6 8 8 8 0 6
split_gain=248.301 16.7848 13.6129 13.1917 6.15508 5.99379 5.022 4.53231 3.02149 2.64946 2.29135 2.18011 1.76838 1.27219 0.948184 0.906765 1.11599 1.61182 0.991754 0.873514 0.783156 0.641504 0.625089 1.14272 0.419959 0.64068 0.418893 0.415129 0.135804 0.102439
threshold=-0.78656609248549325 -0.60355339059327384 13.500000000000002 14.500000000000002 42.500000000000007 145.50000000000003 105.50000000000001 11.500000000000002 83.500000000000014 11.500000000000002 10.15 6.0000000000000009 4.9500000000000011 3.1500000000000008 105.50000000000001 -0.37940952255126015 15.500000000000002 11.500000000000002 41.500000000000007 53.500000000000007 12.500000000000002 11.500000000000002 10.500000000000002 12.500000000000002 7.7500000000000009 13.500000000000002 133.50000000000003 91.500000000000014 11.500000000000002 3.9500000000000006
decision_type=2 2 2 2 8 10 10 2 10 2 8 2 10 10 10 2 2 2 10 10 2 2 2 2 10 10 10 8 2 10
left_child=2 3 4 7 8 13 9 19 -1 11 -9 -6 22 21 -5 16 17 18 -3 -2 27 -4 -11 -24 25 -10 -8 -13 -29 -28
right_child=1 15 5 14 6 -7 26 10 24 12 -12 20 -14 -15 -16 -17 -18 -19 -20 -21 -22 -23 23 -25 -26 -27 29 28 -30 -31
leaf_value=0.0034655753583156266 0.0038689047451511724 0 0 0 0 0.0036754595078936137 0.0023326450849208455 0 -0.00019199863480973001 0 0 0.0038643424403547138 -0.00027135478792565844 0 0 0 0 0 0 -0.00019199863480973001 0.0036630924373558548 0 0.0036754595078936137 0 0 0 0.011577852608326106 0.0036754595078936137 0.0036630924373558548 0.012332645606461488
leaf_weight=20 93 92 89 221 30 20 23 30 29 92 91 24 27 32 20 3524 240 122 24 21 90 95 196 97 21 26 20 160 83 21
leaf_count=20 93 92 89 221 30 20 23 30 29 92 91 24 27 32 20 3524 240 122 24 21 90 95 196 97 21 26 20 160 83 21
internal_value=-0.0181782 -0.023582 0.00207113 -0.0147059 0.00471846 -0.00868644 0.00605446 -0.0062766 -0.00729167 0.00497497 -0.0130165 0.00794574 0.00218447 -0.0111111 -0.0229253 -0.0246377 -0.0225941 -0.0201681 -0.0159483 0.000877193 0.00903361 -0.00951087 0.00305195 0.00418089 -0.0118421 -0.00954545 0.0195312 0.0103933 0.00977366 0.022561
internal_weight=5673 4478 1195 476 959 236 863 235 96 799 121 387 412 216 241 4002 478 238 116 114 357 184 385 293 76 55 64 267 243 41
internal_count=5673 4478 1195 476 959 236 863 235 96 799 121 387 412 216 241 4002 478 238 116 114 357 184 385 293 76 55 64 267 243 41
is_linear=0
shrinkage=0.05


Tree=7
num_leaves=31
num_cat=0
split_feature=5 5 0 0 2 2 1 1 7 7 2 1 7 7 1 1 1 1 1 2 1 5 0 2 7 1 1 1 0 7
split_gain=251.714 17.8668 14.2226 14.1475 5.43141 4.22059 6.33157 4.47037 2.67092 2.64143 2.52618 2.30291 2.29135 2.24875 2.28994 3.05015 1.47136 1.44557 1.13877 1.05478 0.962741 0.906765 1.11599 1.61182 0.991754 0.817238 0.837723 0.78125 0.571453 0.547958
threshold=-0.78656609248549325 -0.60355339059327384 14.500000000000002 13.500000000000002 11.500000000000002 11.500000000000002 3.5000000000000004 4.5000000000000009 97.500000000000014 83.500000000000014 6.0000000000000009 1.0000000180025095e-35 inf 93.500000000000014 5.5000000000000009 1.5000000000000002 1.5000000000000002 1.5000000000000002 4.5000000000000009 11.500000000000002 2.5000000000000004 -0.37940952255126015 15.500000000000002 11.500000000000002 41.500000000000007 2.5000000000000004 4.5000000000000009 5.5000000000000009 10.500000000000002 99.500000000000014
decision_type=2 2 2 2 2 2 2 2 8 10 2 2 8 8 2 2 2 2 2 2 2 2 2 2 10 2 2 2 2 8
left_child=3 2 4 5 -2 10 9 -8 -5 11 -1 -7 -6 -12 15 28 -14 -13 20 -10 -17 22 23 24 -3 -21 -27 -9 -15 -4
right_child=1 21 29 8 12 6 7 27 19 -11 13 17 16 14 -16 18 -18 -19 -20 25 -22 -23 -24 -25 -26 26 -28 -29 -30 -31
leaf_value=0 0.0036754595078936137 0 0 0.0034916865324989333 0 0.0012112198195009067 0 -0.00027058199624218688 0 -0.00018906250190921128 0.016465678454559641 0.0075443642530447861 0.0019344523725755862 -0.00038981585902739935 0 0.0034799378154880623 0 0.0034916865324989333 0.0038843454387426802 0 0.0037055628188501361 0 0 0 0 0 0 0.0037719141968309009 0.0034916865324989333 0
leaf_weight=38 114 92 20 21 30 74 63 64 104 43 43 68 30 22 58 58 61 119 54 50 115 3524 240 122 24 31 30 64 76 221
leaf_count=38 114 92 20 21 30 74 63 64 104 43 43 68 30 22 58 58 61 119 54 50 115 3524 240 122 24 31 30 64 76 221
internal_value=-0.0181077 -0.0235485 -0.0143908 0.00228033 -0.0056383 0.00497914 0.00176768 -0.00536649 -0.00868644 0.00625 0.00840517 0.00814176 -0.0130165 0.00950704 0.00828982 0.00992308 -0.00906593 0.0110963 0.0131057 -0.0103488 0.0111272 -0.0246377 -0.0225941 -0.0201681 -0.0159483 -0.0137387 -0.017623 0 0.00255102 -0.0229253
internal_weight=5673 4478 476 1195 235 959 495 191 236 304 464 261 121 426 383 325 91 187 227 215 173 4002 478 238 116 111 61 128 98 241
internal_count=5673 4478 476 1195 235 959 495 191 236 304 464 261 121 426 383 325 91 187 227 215 173 4002 478 238 116 111 61 128 98 241
is_linear=0
shrinkage=0.05


Tree=8
num_leaves=31
num_cat=0
split_feature=5 5 0 0 8 8 2 8 2 1 1 6 2 6 1 1 1 1 1 6 6 1 1 8 1 5 0 2 6 0
split_gain=253.185 16.7848 14.2556 13.1917 5.99379 5.76726 4.53231 3.64286 2.43093 5.50154 3.18053 2.29135 2.18011 1.81529 1.59725 1.58636 2.42993 1.47136 1.42754 1.33929 1.27219 1.25552 1.00263 0.948184 0.943732 0.906765 1.11599 1.61182 0.840381 0.755658
threshold=-0.78656609248549325 -0.60355339059327384 13.500000000000002 14.500000000000002 145.50000000000003 105.50000000000001 11.500000000000002 42.500000000000007 11.500000000000002 3.5000000000000004 4.5000000000000009 10.15 6.0000000000000009 4.4500000000000011 1.0000000180025095e-35 5.5000000000000009 1.5000000000000002 1.5000000000000002 1.5000000000000002 5.8500000000000005 3.1500000000000008 1.5000000000000002 4.5000000000000009 105.50000000000001 5.5000000000000009 -0.37940952255126015 15.500000000000002 11.500000000000002 7.0500000000000007 11.500000000000002
decision_type=2 2 2 2 10 10 2 8 2 2 2 8 2 10 2 2 2 2 2 10 10 2 2 10 2 2 2 2 8 2
left_child=2 3 5 6 20 7 18 19 12 13 -11 -8 -9 14 -10 16 -14 -13 -2 -1 -4 -16 -18 -5 -12 26 27 28 -3 -26
right_child=1 25 4 23 -6 -7 11 8 9 10 24 17 15 -15 21 -17 22 -19 -20 -21 -22 -23 -24 -25 29 -27 -28 -29 -30 -31
leaf_value=-7.6727392511206479e-05 -0.00037721821265223932 0 0 0 0.0033171022058739869 0.0086673314821839962 0 0 0.00374716912086351 0 -0.00028708801404243471 0.0018377297539468069 0.0033171022058739869 -0.00034362929078918036 0.0071671460403925471 0.0034863550841783249 0.0033059409247136588 0 0.0034916865324989333 -8.9804688406875364e-05 0 0.0033171022058739869 0.0036850969167305752 0 0.0035833184869893558 0 0 0 0 -0.00096314509156412249
leaf_weight=54 28 21 184 221 20 64 30 30 61 51 52 30 94 20 63 52 158 61 86 42 32 111 53 20 25 3524 240 122 95 29
leaf_count=54 28 21 184 221 20 64 30 30 61 51 52 30 94 20 63 52 158 61 86 42 32 111 53 20 25 3524 240 122 95 29
internal_value=-0.0181253 -0.023582 0.00232218 -0.0147059 -0.00868644 0.00503128 -0.0062766 0.00399441 0.00510013 0.00242718 -0.00493631 -0.0130165 0.00794574 0.00696078 0.00819149 0.00903361 0.0104098 -0.00906593 0.000877193 -0.00520833 -0.0111111 0.0106322 0.0133886 -0.0229253 0 -0.0246377 -0.0225941 -0.0201681 -0.0159483 0.00462963
internal_weight=5673 4478 1195 476 236 959 235 895 799 412 157 121 387 255 235 357 305 91 114 96 216 174 211 241 106 4002 478 238 116 54
internal_count=5673 4478 1195 476 236 959 235 895 799 412 157 121 387 255 235 357 305 91 114 96 216 174 211 241 106 4002 478 238 116 54
is_linear=0
shrinkage=0.05


Tree=9
num_leaves=31
num_cat=0
split_feature=5 5 0 0 8 8 2 2 1 7 7 2 1 7 1 1 1 1 1 1 1 1 8 8 5 0 2 7 8 2
split_gain=261.43 16.7848 15.3599 13.1917 5.99379 5.35997 4.53231 2.6186 4.07341 3.25181 2.29135 2.115 2.0162 2.34889 1.90386 1.83205 2.27786 1.47136 1.42754 1.38143 1.35978 1.06624 1.01801 0.948184 0.906765 1.11599 1.61182 0.991754 0.89245 0.81885
threshold=-0.78656609248549325 -0.60355339059327384 13.500000000000002 14.500000000000002 145.50000000000003 105.50000000000001 11.500000000000002 11.500000000000002 3.5000000000000004 83.500000000000014 inf 6.0000000000000009 5.5000000000000009 69.500000000000014 1.0000000180025095e-35 1.5000000000000002 5.5000000000000009 1.5000000000000002 1.5000000000000002 4.5000000000000009 1.5000000000000002 4.5000000000000009 105.50000000000001 105.50000000000001 -0.37940952255126015 15.500000000000002 11.500000000000002 41.500000000000007 17.500000000000004 11.500000000000002
decision_type=2 2 2 2 10 10 2 2 2 10 8 2 2 10 2 2 2 2 2 2 2 2 8 10 2 2 2 10 10 2
left_child=2 3 5 6 22 7 18 11 9 14 -8 -1 13 21 -9 -13 19 -12 -2 28 -16 -10 -4 -5 25 26 27 -3 -17 -24
right_child=1 24 4 23 -6 -7 10 8 12 -11 17 15 -14 -15 20 16 -18 -19 -20 -21 -22 -23 29 -25 -26 -27 -28 -29 -30 -31
leaf_value=0 -0.00035835730201962736 0 0 0 0.003151247095580287 0.0082339649080747958 0 0.0033976913169353473 0 -0.00017511914239340694 0.0017458432662494667 0.003151247095580287 0.0034041525626398884 4.490234420343768e-06 0.0068087887383729206 0.0031406438784779759 4.490234420343768e-06 0 0.0033171022058739869 0.0035058733209690179 0.003151247095580287 -0.00027273361334031299 0 0 0 0 0 0 0.003580612635034021 0
leaf_weight=36 28 92 29 221 20 64 30 68 47 40 30 101 61 28 64 149 58 61 86 56 116 50 88 20 3524 240 122 24 21 99
leaf_count=36 28 92 29 221 20 64 30 68 47 40 30 101 61 28 64 149 58 61 86 56 116 50 88 20 3524 240 122 24 21 99
internal_value=-0.0180372 -0.023582 0.00274059 -0.0147059 -0.00868644 0.00555266 -0.0062766 0.00455307 0.00200422 0.00572917 -0.0130165 0.0074228 -0.00376344 -0.0074 0.0078629 0.00850649 0.0105634 -0.00906593 0.000877193 0.0128319 0.0105556 -0.0110825 -0.0111111 -0.0229253 -0.0246377 -0.0225941 -0.0201681 -0.0159483 0.0105882 -0.00975936
internal_weight=5673 4478 1195 476 236 959 235 895 474 288 121 421 186 125 248 385 284 91 114 226 180 97 216 241 4002 478 238 116 170 187
internal_count=5673 4478 1195 476 236 959 235 895 474 288 121 421 186 125 248 385 284 91 114 226 180 97 216 241 4002 478 238 116 170 187
is_linear=0
shrinkage=0.05


Tree=10
num_leaves=31
num_cat=0
split_feature=5 5 0 0 8 8 8 8 6 0 6 8 1 1 8 5 0 6 8 1 1 6 1 1 6 0 1 1 1 1
split_gain=259.77 16.7848 15.1357 13.1917 5.99379 4.32749 2.82631 2.00447 2.53702 1.31489 1.27219 0.948184 0.910242 1.85205 1.04613 0.906765 1.11599 0.894783 0.804384 0.66031 0.635958 0.578401 0.654354 1.49757 0.518244 0.374001 0.320075 0.391138 0.276215 0.333333
threshold=-0.78656609248549325 -0.60355339059327384 13.500000000000002 14.500000000000002 145.50000000000003 133.50000000000003 1.0000000180025095e-35 17.500000000000004 2.7500000000000004 12.500000000000002 3.1500000000000008 105.50000000000001 1.0000000180025095e-35 2.5000000000000004 77.500000000000014 -0.37940952255126015 15.500000000000002 4.5500000000000007 3.5000000000000004 2.5000000000000004 1.0000000180025095e-35 5.5500000000000007 4.5000000000000009 3.5000000000000004 7.0500000000000007 10.500000000000002 2.5000000000000004 5.5000000000000009 4.5000000000000009 5.5000000000000009
decision_type=2 2 2 2 10 10 8 8 8 2 10 10 2 2 8 2 2 10 10 2 2 10 2 2 8 2 2 2 2 2
left_child=2 3 5 6 10 7 17 18 -9 12 28 -5 25 14 -14 16 24 -2 -1 -11 -8 22 23 -15 -3 -10 -26 -28 -4 -30
right_child=1 15 4 11 -6 -7 20 8 9 19 -12 -13 13 21 -16 -17 -18 -19 -20 -21 -22 -23 -24 -25 26 -27 27 -29 29 -31
leaf_value=4.2657226993265803e-06 0 0 0 0 0.0029936847408012727 0.010685670365682966 -0.00034043943691864601 0.0043989807928073296 -0.0011763009964122686 0.0029836116845540772 0 0 0.0010889885365510613 0.0029936847408012727 0.0029936847408012727 0 0 0 -0.00033782010044606186 0 0 1.3343227675265735e-05 0.0032774951380408869 0 0 0.0029936847408012727 0 0 0 0
leaf_weight=25 25 45 136 221 20 41 25 29 26 93 32 20 20 86 163 3524 240 21 23 121 164 35 155 82 83 60 86 24 24 24
leaf_count=25 25 45 136 221 20 41 25 29 26 93 32 20 20 86 163 3524 240 21 23 121 164 35 155 82 83 60 86 24 24 24
internal_value=-0.0180548 -0.023582 0.0026569 -0.0147059 -0.00868644 0.00544838 -0.0062766 0.00473856 0.00528736 0.00478597 -0.0111111 -0.0229253 0.00594099 0.00670055 0.0107923 -0.0246377 -0.0225941 -0.0173913 -0.00520833 0.00140187 -0.00357143 0.00460894 0.00394737 0.00178571 -0.0201681 0.00116279 -0.0190415 -0.0172727 -0.00951087 -0.00625
internal_weight=5673 4478 1195 476 236 959 235 918 870 841 216 241 627 541 183 4002 478 46 48 214 189 358 323 168 238 86 193 110 184 48
internal_count=5673 4478 1195 476 236 959 235 918 870 841 216 241 627 541 183 4002 478 46 48 214 189 358 323 168 238 86 193 110 184 48
is_linear=0
shrinkage=0.05


Tree=11
num_leaves=31
num_cat=0
split_feature=5 5 0 0 8 2 7 2 1 8 1 7 2 1 1 1 1 1 1 1 8 0 8 5 0 2 7 1 2 1
split_gain=257.291 16.7848 14.8026 13.1917 5.99379 4.53231 3.62903 3.2787 4.25653 2.88098 2.55608 2.29135 2.26755 1.87016 1.96019 1.627 1.47136 1.42754 1.18301 1.06778 1.01801 1.01586 0.948184 0.906765 1.11599 1.61182 0.991754 0.821833 0.81885 0.716391
threshold=-0.78656609248549325 -0.60355339059327384 13.500000000000002 14.500000000000002 145.50000000000003 11.500000000000002 29.500000000000004 11.500000000000002 3.5000000000000004 76.500000000000014 1.0000000180025095e-35 inf 6.0000000000000009 1.5000000000000002 5.5000000000000009 4.5000000000000009 1.5000000000000002 1.5000000000000002 1.5000000000000002 1.5000000000000002 105.50000000000001 11.500000000000002 105.50000000000001 -0.37940952255126015 15.500000000000002 11.500000000000002 41.500000000000007 4.5000000000000009 11.500000000000002 3.5000000000000004
decision_type=2 2 2 2 10 2 8 2 2 8 2 8 2 2 2 2 2 2 2 2 8 2 10 2 2 2 10 2 2 2
left_child=2 3 6 5 20 17 -1 12 9 19 -11 -7 -8 -14 21 -10 -13 -2 -12 -9 -4 27 -5 24 25 26 -3 29 -22 -15
right_child=1 23 4 22 -6 11 7 8 15 10 18 16 13 14 -16 -17 -18 -19 -20 -21 28 -23 -24 -25 -26 -27 -28 -29 -30 -31
leaf_value=0.010555639415098133 -0.00032341746507271374 0 0 0 0.0028440005037612091 0 0 0.0028967872771307147 0 -0.00056235307572314751 0.0063186650644142103 0.0016670620888599595 0.0028440005037612091 0.007572027914599537 0.003147628884582903 -0.00010379076552905751 0 0.003151247095580287 0.0028440005037612091 -0.00022081261210128963 0 0.0028344311003263732 0 0 0 0 0 0.006182730661036584 0 0.0061970995151226704
leaf_weight=44 28 92 29 221 20 30 38 20 63 66 63 30 105 61 61 122 61 86 116 25 88 117 20 3524 240 122 24 30 99 28
leaf_count=44 28 92 29 221 20 30 38 20 63 66 63 30 105 61 61 122 61 86 116 25 88 117 20 3524 240 122 24 30 99 28
internal_value=-0.0180813 -0.023582 0.00253138 -0.0147059 -0.00868644 -0.0062766 0.00529197 0.00461749 0.00173684 0.00551724 0.00765306 -0.0130165 0.00772727 0.00883085 0.0108586 -0.00418919 -0.00906593 0.000877193 0.0107542 -0.00611111 -0.0111111 0.0129237 -0.0229253 -0.0246377 -0.0225941 -0.0201681 -0.0159483 0.0161765 -0.00975936 0.013764
internal_weight=5673 4478 1195 476 236 235 959 915 475 290 245 121 440 402 297 185 91 114 179 45 216 236 241 4002 478 238 116 119 187 89
internal_count=5673 4478 1195 476 236 235 959 915 475 290 245 121 440 402 297 185 91 114 179 45 216 236 241 4002 478 238 116 119 187 89
is_linear=0
shrinkage=0.05


Tree=12
num_leaves=31
num_cat=0
split_feature=0 0 0 0 8 2 7 2 1 8 1 8 7 2 0 1 2 1 1 1 1 8 1 8 8 7 0 1 2 0
split_gain=59.5808 217.56 10.4098 9.65394 5.99379 4.53231 3.5814 3.0985 3.88303 3.00142 2.94583 2.53849 2.29135 2.13598 1.88526 1.70147 1.61182 1.53578 1.95787 1.47136 1.42754 1.22098 1.18301 1.09213 1.01801 0.991754 0.982941 0.919296 0.81885 0.582245
threshold=14.500000000000002 8.5000000000000018 13.500000000000002 9.5000000000000018 145.50000000000003 11.500000000000002 22.500000000000004 11.500000000000002 3.5000000000000004 76.500000000000014 1.0000000180025095e-35 31.500000000000004 inf 6.0000000000000009 7.5000000000000009 4.5000000000000009 11.500000000000002 1.5000000000000002 5.5000000000000009 1.5000000000000002 1.5000000000000002 180.50000000000003 1.5000000000000002 113.50000000000001 105.50000000000001 41.500000000000007 12.500000000000002 1.5000000000000002 11.500000000000002 12.500000000000002
decision_type=2 2 2 2 10 2 8 2 2 8 2 8 8 2 2 2 2 2 2 2 2 8 2 10 8 10 2 2 2 2
left_child=1 14 3 5 24 20 -5 11 9 27 -11 -8 -7 -13 -1 -10 25 -15 21 -14 -3 -19 -12 -2 -4 -16 -23 -9 -26 -17
right_child=23 2 4 6 -6 12 7 8 15 10 22 13 19 17 16 29 -18 18 -20 -21 -22 26 -24 -25 28 -27 -28 -29 -30 -31
leaf_value=0 0 -0.00030724659181907807 0 0.011582382848503421 0.0027018004785731489 0 -0.00024723145312744485 0.0025661567821789978 0 -0.00028622202713355916 0.0060027318111934994 0 0.0015837089844169617 0.0027018004785731489 0 4.9475297550678388e-05 0 0.0030278280595178193 0.0034047405545079806 0 0.0029936847408012727 0.0071934265188695612 0.0027018004785731489 0 0 0 0.0026927095453100547 -0.00020977198149622515 0 -0.00025390739439684444
leaf_weight=1869 2114 28 29 39 20 30 28 21 63 68 63 33 30 98 92 93 122 28 57 61 86 147 116 22 88 24 50 25 99 30
leaf_count=1869 2114 28 29 39 20 30 28 21 63 68 63 33 30 98 92 93 122 28 57 61 86 147 116 22 88 24 50 25 99 30
internal_value=-0.0181253 -0.0141433 0.000909091 0.0028057 -0.00868644 -0.0062766 0.00503128 0.00440217 0.00161795 0.00520478 0.00738866 0.0074263 -0.0130165 0.00841404 -0.0243593 -0.00403226 -0.0201681 0.00947368 0.0113475 -0.00906593 0.000877193 0.0134444 0.0107542 -0.0247191 -0.0111111 -0.0159483 0.0120558 -0.00652174 -0.00975936 -0.000609756
internal_weight=5673 3537 1430 1194 236 235 959 920 479 293 247 441 121 413 2107 186 238 380 282 91 114 225 179 2136 216 116 197 46 187 123
internal_count=5673 3537 1430 1194 236 235 959 920 479 293 247 441 121 413 2107 186 238 380 282 91 114 225 179 2136 216 116 197 46 187 123
is_linear=0
shrinkage=0.05


Tree=13
num_leaves=31
num_cat=0
split_feature=5 5 0 0 8 2 7 2 8 7 2 0 8 8 8 5 0 2 7 7 2 7 0 0 3 8 8 3 3 5
split_gain=250.737 16.7848 13.9324 13.1917 5.99379 4.53231 3.65729 2.96932 2.46009 2.29135 2.05205 1.04268 1.02873 1.01801 0.948184 0.906765 1.11599 1.61182 0.991754 0.873514 0.81885 0.706547 0.518078 0.6356 0.396923 0.365008 0.786681 0.278084 0.201278 0.146927
threshold=-0.78656609248549325 -0.60355339059327384 13.500000000000002 14.500000000000002 145.50000000000003 11.500000000000002 22.500000000000004 11.500000000000002 31.500000000000004 inf 6.0000000000000009 12.500000000000002 129.50000000000003 105.50000000000001 105.50000000000001 -0.37940952255126015 15.500000000000002 11.500000000000002 41.500000000000007 53.500000000000007 11.500000000000002 53.500000000000007 10.500000000000002 12.500000000000002 1.0000000180025095e-35 6.5000000000000009 37.500000000000007 1.0000000180025095e-35 1.0000000180025095e-35 -0.98296291314453399
decision_type=2 2 2 2 10 2 8 2 8 8 2 2 8 8 10 2 2 2 10 10 2 10 2 2 2 10 10 2 2 2
left_child=2 3 6 5 13 19 -1 8 -8 -7 -10 21 25 -4 -5 16 17 18 -3 -2 -15 -12 -14 -24 -11 -9 -27 -25 -22 -28
right_child=1 15 4 14 -6 9 7 12 10 24 11 -13 22 20 -16 -17 -18 -19 -20 -21 28 -23 23 27 -26 26 29 -29 -30 -31
leaf_value=0.011003263706078251 0.0028440005037612091 0 0 0 0.0025667104546444912 0 -0.00023486988047107259 -0.00016897991927077258 0 0 0.002567328808171379 0.0025653353310546856 0 0 0 0 0 0 0 -0.0002978596998857413 0 0.0029793692737234007 0.0025667104546444912 0.00067277833707637057 0 3.9321420074449367e-06 -8.1614743371201395e-05 -0.00024121202467700223 0 -0.00023725114657555799
leaf_weight=39 93 92 29 221 20 30 28 24 33 67 243 99 92 88 20 3524 240 122 24 21 74 38 187 74 24 24 26 24 25 28
leaf_count=39 93 92 29 221 20 30 28 24 33 67 243 99 92 88 20 3524 240 122 24 21 74 38 187 74 24 24 26 24 25 28
internal_value=-0.0181518 -0.023582 0.00219665 -0.0147059 -0.00868644 -0.0062766 0.00487487 0.00423913 0.00719955 -0.0130165 0.00817191 0.00921053 0.00151357 -0.0111111 -0.0229253 -0.0246377 -0.0225941 -0.0201681 -0.0159483 0.000877193 -0.00975936 0.0107651 0.00271883 0.00377193 -0.00906593 -0.00294118 -0.00128205 0.000510204 -0.0128788 -0.00462963
internal_weight=5673 4478 1195 476 236 235 959 920 441 121 413 380 479 216 241 4002 478 238 116 114 187 281 377 285 91 102 78 98 99 54
internal_count=5673 4478 1195 476 236 235 959 920 441 121 413 380 479 216 241 4002 478 238 116 114 187 281 377 285 91 102 78 98 99 54
is_linear=0
shrinkage=0.05


Tree=14
num_leaves=31
num_cat=0
split_feature=5 5 0 0 8 2 7 2 1 8 8 7 2 1 1 1 1 1 1 8 0 1 8 8 5 0 2 7 2 0
split_gain=249.924 16.7848 13.8255 13.1917 5.99379 4.53231 3.08201 2.96932 3.74088 3.30869 2.46009 2.29135 2.05205 1.70147 1.6358 1.47136 1.42754 1.38953 1.79371 1.26391 1.42618 1.13806 1.01801 0.948184 0.906765 1.11599 1.61182 0.991754 0.81885 0.582245
threshold=-0.78656609248549325 -0.60355339059327384 13.500000000000002 14.500000000000002 145.50000000000003 11.500000000000002 22.500000000000004 11.500000000000002 3.5000000000000004 131.50000000000003 31.500000000000004 inf 6.0000000000000009 4.5000000000000009 1.0000000180025095e-35 1.5000000000000002 1.5000000000000002 1.5000000000000002 5.5000000000000009 163.50000000000003 12.500000000000002 1.5000000000000002 105.50000000000001 105.50000000000001 -0.37940952255126015 15.500000000000002 11.500000000000002 41.500000000000007 11.500000000000002 12.500000000000002
decision_type=2 2 2 2 10 2 8 2 2 8 8 8 2 2 2 2 2 2 2 8 2 2 8 10 2 2 2 10 2 2
left_child=2 3 6 5 22 16 -1 10 9 -9 -8 -7 -12 -10 -11 -13 -2 -14 19 -19 -21 -16 -4 -5 25 26 27 -3 -24 -15
right_child=1 24 4 23 -6 11 7 8 13 14 12 15 17 29 21 -17 -18 18 -20 20 -22 -23 28 -25 -26 -27 -28 -29 -30 -31
leaf_value=0.010453100520774337 -0.00043408428741618466 0 0 0 0.0024383749319122666 0 -0.00022312638644751898 -0.00018640338495217671 -3.3638916853818533e-05 0.0018815770263513295 0 0.0015045235351961136 0.0024383440142359222 4.6804925572772215e-05 0.005669459956592366 0 0.0027018004785731489 0.0027602532390970103 0.0031062367602298479 0.0067053887525175132 0.0024298073014918176 0.0024383749319122666 0 0 0 0 0 0 0 -0.00022915142344315213
leaf_weight=39 28 92 29 221 20 30 28 61 63 62 33 30 98 93 60 61 86 27 57 147 51 110 88 20 3524 240 122 24 99 30
leaf_count=39 28 92 29 221 20 30 28 61 63 62 33 30 98 93 60 61 86 27 57 147 51 110 88 20 3524 240 122 24 99 30
internal_value=-0.0181606 -0.023582 0.00215481 -0.0147059 -0.00868644 -0.0062766 0.00482273 0.00423913 0.00151357 0.00503413 0.00719955 -0.0130165 0.00817191 -0.00403226 0.00775862 -0.00906593 0.000877193 0.00921053 0.0109929 0.013 0.0116162 0.0102941 -0.0111111 -0.0229253 -0.0246377 -0.0225941 -0.0201681 -0.0159483 -0.00975936 -0.000609756
internal_weight=5673 4478 1195 476 236 235 959 920 479 293 441 121 413 186 232 91 114 380 282 225 198 170 216 241 4002 478 238 116 187 123
internal_count=5673 4478 1195 476 236 235 959 920 479 293 441 121 413 186 232 91 114 380 282 225 198 170 216 241 4002 478 238 116 187 123
is_linear=0
shrinkage=0.05


Tree=15
num_leaves=31
num_cat=0
split_feature=5 5 4 4 8 7 7 8 4 1 1 6 8 5 4 4 1 1 1 6 7 1 8 6 6 6 1 1 6 1
split_gain=258.116 16.7848 14.9132 13.1917 5.99379 3.96048 2.85299 2.74789 2.04335 2.029 1.53259 1.27219 0.948184 0.906765 1.11599 0.774799 0.737867 0.675433 0.763752 0.59678 0.591141 0.539868 0.518937 0.505521 0.382659 0.358042 0.35161 0.474079 0.333902 0.484574
threshold=-0.78656609248549325 -0.60355339059327384 -0.25881904510252113 0.60355339059327384 145.50000000000003 99.500000000000014 22.500000000000004 17.500000000000004 1.0000000180025095e-35 1.0000000180025095e-35 2.5000000000000004 3.1500000000000008 105.50000000000001 -0.37940952255126015 0.78656609248549325 0.37940952255126054 2.5000000000000004 4.5000000000000009 3.5000000000000004 5.4500000000000011 25.000000000000004 1.0000000180025095e-35 39.500000000000007 0.15000000000000005 5.4500000000000011 8.0500000000000025 2.5000000000000004 5.5000000000000009 -1.8499999999999999 3.5000000000000004
decision_type=2 2 2 2 10 10 8 8 2 2 2 10 10 2 2 2 2 2 2 10 10 2 10 10 10 8 2 2 10 2
left_child=2 3 4 12 11 21 -4 24 16 -10 19 -1 -2 14 -3 22 23 18 -17 -11 26 -5 28 -9 -8 -18 -16 -28 29 -12
right_child=1 13 6 5 -6 -7 7 8 9 10 15 -13 -14 -15 20 17 25 -19 -20 -21 -22 -23 -24 -25 -26 -27 27 -29 -30 -31
leaf_value=0 0 0 0.0099304454947356218 -0.00041238007304537547 0.0023164561853166532 0 -0.00029322635322443728 0.0023176484937192086 -9.4160177970685491e-05 0.0023170451670510139 0.0023164561853166532 0 0 0 0 0.0026285646834435586 7.8164744221671613e-05 0.0016252026254964286 0.0018141749007618134 0.0017329158577329446 0 0 0.0019330079967531588 -0.00032211753326887829 -0.0001477467006081667 -3.19569710111276e-05 0 0 -0.00011852149691128003 0.002985660385526898
leaf_weight=184 221 240 39 27 20 34 23 78 87 172 54 32 20 3524 82 29 20 54 27 21 50 174 34 20 20 110 81 25 20 151
leaf_count=184 221 240 39 27 20 34 23 78 87 172 54 32 20 3524 82 29 20 54 27 21 50 174 34 20 20 110 81 25 20 151
internal_value=-0.0180724 -0.023582 0.00257322 -0.0147059 -0.00868644 -0.0062766 0.00534411 0.00478261 0.00538769 0.00681818 0.00791815 -0.0111111 -0.0229253 -0.0246377 -0.0225941 0.00602981 0.00131579 0.00954545 0.0133929 0.0115285 -0.0201681 -0.00360697 0.00453668 0.00459184 -0.00755814 -0.00115385 -0.018883 -0.0169811 0.00366667 0.00426829
internal_weight=5673 4478 1195 476 236 235 959 920 877 649 562 216 241 4002 478 369 228 110 56 193 238 201 259 98 43 130 188 106 225 205
internal_count=5673 4478 1195 476 236 235 959 920 877 649 562 216 241 4002 478 369 228 110 56 193 238 201 259 98 43 130 188 106 225 205
is_linear=0
shrinkage=0.05


Tree=16
num_leaves=31
num_cat=0
split_feature=5 5 0 0 2 7 2 1 6 7 1 1 2 1 1 1 0 2 1 5 0 2 7 1 1 1 1 0 7 1
split_gain=243.037 17.5024 13.8746 12.9849 4.30657 4.17693 3.47749 3.38871 5.48151 2.67092 2.55564 1.91052 1.39586 1.53409 2.51435 1.20079 1.16653 1.05478 0.940104 0.906765 1.11599 1.61182 0.991754 0.873925 0.817238 0.837723 0.78125 0.552104 0.547958 0.412036
threshold=-0.78656609248549325 -0.60355339059327384 14.500000000000002 13.500000000000002 11.500000000000002 99.500000000000014 11.500000000000002 3.5000000000000004 4.8500000000000005 97.500000000000014 4.5000000000000009 1.5000000000000002 6.0000000000000009 1.5000000000000002 5.5000000000000009 1.5000000000000002 11.500000000000002 11.500000000000002 4.5000000000000009 -0.37940952255126015 15.500000000000002 11.500000000000002 41.500000000000007 1.0000000180025095e-35 2.5000000000000004 4.5000000000000009 5.5000000000000009 10.500000000000002 99.500000000000014 2.5000000000000004
decision_type=2 2 2 2 2 10 2 2 10 8 2 2 2 2 2 2 2 2 2 2 2 2 10 2 2 2 2 2 8 2
left_child=3 2 5 4 12 6 15 8 23 -5 -9 -8 -1 27 16 -2 18 -11 -15 20 21 22 29 -6 -19 -26 -12 -14 -4 -3
right_child=1 19 28 9 7 -7 11 10 -10 17 26 -13 13 14 -16 -17 -18 24 -20 -21 -22 -23 -24 -25 25 -27 -28 -29 -30 -31
leaf_value=-6.491251011284532e-05 -0.00039176106939310668 0 0 0.0022006333760508207 0.0030649642519250818 0 1.0309501826134387e-05 -8.9026799195399757e-05 -0.00027856503556321539 0 -0.00021609600372043811 0 -0.00039202021177356123 0.0062542965056258046 0.0027037973868511938 0.0025667104546444912 0.0021924345117312664 0 0.0064494223562102694 0 0 0 0 0.0024795469947161389 0 0 0.0029891855734513078 0.0022011929086984631 0 0
leaf_weight=38 24 35 20 21 66 34 34 63 45 104 64 67 25 96 64 76 127 50 32 3524 240 122 24 193 31 30 64 82 221 57
leaf_count=38 24 35 20 21 66 34 34 63 45 104 64 67 25 96 64 76 127 50 32 3524 240 122 24 193 31 30 64 82 221 57
internal_value=-0.0182135 -0.0235596 -0.0144958 0.00182008 0.00440563 -0.00585106 -0.00310945 0.00116162 0.00444079 -0.00868644 -0.00405759 -0.00965347 0.00786638 0.00868545 0.0104232 0.0035 0.0126471 -0.0103488 0.0160156 -0.0246377 -0.0225941 -0.0201681 -0.0159483 0.00723938 -0.0137387 -0.017623 0 0.00350467 -0.0229253 -0.013587
internal_weight=5673 4478 476 1195 959 235 201 495 304 236 191 101 464 426 319 100 255 215 128 4002 478 238 116 259 111 61 128 107 241 92
internal_count=5673 4478 476 1195 959 235 201 495 304 236 191 101 464 426 319 100 255 215 128 4002 478 238 116 259 111 61 128 107 241 92
is_linear=0
shrinkage=0.05


Tree=17
num_leaves=31
num_cat=0
split_feature=5 5 0 0 7 2 2 1 6 1 7 1 2 1 1 1 0 2 1 5 0 2 7 1 1 1 0 7 1 1
split_gain=244.642 17.5024 13.8746 13.1926 4.17693 4.05096 3.47749 2.98403 5.48151 2.89055 2.67092 1.91052 1.39586 1.53409 2.51435 1.20079 1.16653 1.05478 0.940104 0.906765 1.11599 1.61182 0.991754 0.873925 0.817238 0.837723 0.552104 0.547958 0.5 0.412036
threshold=-0.78656609248549325 -0.60355339059327384 14.500000000000002 13.500000000000002 99.500000000000014 11.500000000000002 11.500000000000002 3.5000000000000004 4.8500000000000005 4.5000000000000009 97.500000000000014 1.5000000000000002 6.0000000000000009 1.5000000000000002 5.5000000000000009 1.5000000000000002 11.500000000000002 11.500000000000002 4.5000000000000009 -0.37940952255126015 15.500000000000002 11.500000000000002 41.500000000000007 1.0000000180025095e-35 2.5000000000000004 4.5000000000000009 10.500000000000002 99.500000000000014 5.5000000000000009 2.5000000000000004
decision_type=2 2 2 2 10 2 2 2 10 2 8 2 2 2 2 2 2 2 2 2 2 2 10 2 2 2 2 8 2 2
left_child=3 2 4 5 6 12 15 8 23 -9 -5 -8 -1 26 16 -2 18 -12 -15 20 21 22 29 -7 -19 -26 -14 -4 -11 -3
right_child=1 19 27 10 -6 7 11 9 -10 28 17 -13 13 14 -16 -17 -18 24 -20 -21 -22 -23 -24 -25 25 -27 -28 -29 -30 -31
leaf_value=-6.1666884607203056e-05 -0.00037217301592345131 0 0 0.0020906017072482796 0 0.0029117160393288279 9.7940267348276693e-06 -8.4575459235629758e-05 -0.00026463678378505461 -0.00020529120353441623 0 0 -0.00037241920118488318 0.0059415816803445147 0.0025686075175086341 0.0024383749319122666 0.0020828127861447026 0 0.0061269512383997568 0 0 0 0 0.0023555696449803318 0 0 0.0020911332632635401 0 0.0028397262947787425 0
leaf_weight=38 24 35 20 21 34 66 34 63 45 64 104 67 25 96 64 76 127 50 32 3524 240 122 24 193 31 30 82 221 64 57
leaf_count=38 24 35 20 21 34 66 34 63 45 64 104 67 25 96 64 76 127 50 32 3524 240 122 24 193 31 30 82 221 64 57
internal_value=-0.0181958 -0.0235596 -0.0144958 0.00190377 -0.00585106 0.00450991 -0.00310945 0.00136364 0.00444079 -0.00353403 -0.00868644 -0.00965347 0.00786638 0.00868545 0.0104232 0.0035 0.0126471 -0.0103488 0.0160156 -0.0246377 -0.0225941 -0.0201681 -0.0159483 0.00723938 -0.0137387 -0.017623 0.00350467 -0.0229253 0.00078125 -0.013587
internal_weight=5673 4478 476 1195 235 959 201 495 304 191 236 101 464 426 319 100 255 215 128 4002 478 238 116 259 111 61 107 241 128 92
internal_count=5673 4478 476 1195 235 959 201 495 304 191 236 101 464 426 319 100 255 215 128 4002 478 238 116 259 111 61 107 241 128 92
is_linear=0
shrinkage=0.05


Tree=18
num_leaves=31
num_cat=0
split_feature=4 4 8 7 4 4 4 4 4 4 4 7 2 8 1 6 1 8 2 8 1 1 2 1 8 2 1 4 2 1
split_gain=48.3672 54.5592 24.4515 17.1879 8.87344 11.9768 17.9395 17.0321 17.0304 21.3211 8.03965 2.85639 2.47466 1.86884 1.78737 1.68312 1.15957 1.09991 1.11631 1.09185 1.07121 1.39809 1.01724 1.21174 0.792137 0.954273 0.75532 0.634382 0.828987 0.628898
threshold=-0.5 0.78656609248549325 1.0000000180025095e-35 85.000000000000014 -0.25881904510252113 -1.0000000180025095e-35 1.0000000180025095e-35 0.12940952255126045 0.25881904510252091 0.37940952255126054 -0.37940952255126059 15.500000000000002 11.500000000000002 74.500000000000014 1.5000000000000002 2.8500000000000001 2.5000000000000004 105.50000000000001 11.500000000000002 113.50000000000001 3.5000000000000004 5.5000000000000009 6.0000000000000009 5.5000000000000009 65.500000000000014 11.500000000000002 5.5000000000000009 0.91597561503675362 11.500000000000002 1.0000000180025095e-35
decision_type=2 2 8 8 2 2 2 2 2 2 2 10 2 8 2 10 2 8 2 10 2 2 2 2 8 2 2 2 2 2
left_child=19 2 -2 11 10 26 -7 13 -9 24 17 -4 14 -8 -11 -13 -15 -5 -19 -1 29 -22 -16 -24 -10 -26 -6 28 -3 -14
right_child=1 27 3 4 5 6 7 8 9 12 -12 15 20 16 22 -17 -18 18 -20 -21 21 -23 23 -25 25 -27 -28 -29 -30 -31
leaf_value=0 0 0 0.0092492183419344235 0 0.00032119865199330827 0 -0.00016779148118613969 0 -0.00016603924324049693 0 0 0.0028352524713237785 0 0.0021071368673514479 0 -9.0954375772347995e-05 0.0012780322604667466 0 0 0 0 0 0 0 0.0032584000379005194 0.0019588775440659966 -0.0015371766218035918 0 0 0
leaf_weight=1878 342 227 43 28 191 178 22 179 30 87 177 21 62 84 28 45 111 93 98 22 99 51 203 50 94 93 30 690 241 176
leaf_count=1878 342 227 43 28 191 178 22 179 30 87 177 21 62 84 28 45 111 93 98 22 99 51 203 50 94 93 30 690 241 176
internal_value=-0.0182047 -0.0149284 -0.0109273 -0.00905191 -0.0100277 -0.00851244 -0.0100679 -0.00812637 -0.0105469 -0.00793936 -0.0167929 0.0103211 -0.0119048 0.0047235 -0.00896739 0.00378788 0.00628205 -0.0103881 -0.00903141 -0.0247105 -0.0146907 -0.018 -0.00702847 -0.00602767 0.00587558 0.00708556 0.00237557 -0.0239637 -0.0225427 -0.012605
internal_weight=5673 3773 2615 2273 2164 1768 1547 1369 1152 973 396 109 756 217 368 66 195 219 191 1900 388 150 281 253 217 187 221 1158 468 238
internal_count=5673 3773 2615 2273 2164 1768 1547 1369 1152 973 396 109 756 217 368 66 195 219 191 1900 388 150 281 253 217 187 221 1158 468 238
is_linear=0
shrinkage=0.05


Tree=19
num_leaves=31
num_cat=0
split_feature=0 0 0 0 7 2 2 1 6 1 7 2 1 0 2 1 1 1 2 0 7 1 1 1 1 0 1 0 6 1
split_gain=56.9039 207.445 9.16004 7.38732 4.17693 4.1437 3.47749 3.33535 5.25991 3.44353 2.67092 2.14508 1.91052 1.88526 1.61182 1.4294 2.30842 1.20079 1.05478 1.0157 0.991754 0.817238 0.837723 0.743331 0.632812 0.552104 0.526628 0.522527 0.453602 0.412036
threshold=14.500000000000002 8.5000000000000018 13.500000000000002 9.5000000000000018 99.500000000000014 11.500000000000002 11.500000000000002 3.5000000000000004 4.8500000000000005 4.5000000000000009 97.500000000000014 6.0000000000000009 1.5000000000000002 7.5000000000000009 11.500000000000002 5.5000000000000009 1.5000000000000002 1.5000000000000002 11.500000000000002 12.500000000000002 41.500000000000007 2.5000000000000004 4.5000000000000009 1.0000000180025095e-35 5.5000000000000009 10.500000000000002 1.5000000000000002 10.500000000000002 8.8500000000000032 2.5000000000000004
decision_type=2 2 2 2 10 2 2 2 10 2 8 2 2 2 2 2 2 2 2 2 10 2 2 2 2 2 2 2 8 2
left_child=1 13 3 4 6 11 17 8 23 -9 -4 -5 -8 -1 20 16 25 -3 -12 28 29 -20 -23 -7 -11 -13 -25 -28 -18 -15
right_child=-2 2 10 5 -6 7 12 9 -10 24 18 15 -14 14 -16 -17 19 -19 21 -21 -22 22 -24 26 -26 -27 27 -29 -30 -31
leaf_value=0 0 -0.00035356436512727873 0.001523610704789144 -6.6613506676675585e-05 0 0.0026607733939948142 9.3043253980862864e-06 -8.0346686273848275e-05 -0.00025140494459580191 -0.0002110865759573608 0 -0.00035379824112563899 0 0 0 0.0024786065571782926 0.0028414449201524064 0.0023164561853166532 0 0.0020853394817170806 0 0 0 0.005012288769492299 0.0026977399800398056 0.0018812197567327907 0.0022553806172865569 0.0018609336668626972 0.0055552398829266025 0
leaf_weight=1869 2136 24 21 38 34 66 34 63 45 64 104 25 67 35 122 64 34 76 50 63 24 31 30 72 64 82 31 90 158 57
leaf_count=1869 2136 24 21 38 34 66 34 63 45 64 104 25 67 35 122 64 34 76 50 63 24 31 30 72 64 82 31 90 158 57
internal_value=-0.0182752 -0.0143837 0.000314685 0.0020938 -0.00585106 0.00404067 -0.00310945 0.000858586 0.00411184 -0.00431937 -0.00868644 0.00743534 -0.00965347 -0.0243593 -0.0201681 0.0084507 0.00966851 0.0035 -0.0103488 0.0122549 -0.0159483 -0.0137387 -0.017623 0.00685328 0.000390625 0.00350467 0.00841969 0.00640496 0.0140625 -0.013587
internal_weight=5673 3537 1430 1194 235 959 201 495 304 191 236 464 101 2107 238 426 362 100 215 255 116 111 61 259 128 107 193 121 192 92
internal_count=5673 3537 1430 1194 235 959 201 495 304 191 236 464 101 2107 238 426 362 100 215 255 116 111 61 259 128 107 193 121 192 92
is_linear=0
shrinkage=0.05


Tree=20
num_leaves=31
num_cat=0
split_feature=5 5 4 4 8 2 2 8 1 6 1 2 1 1 8 6 1 1 4 8 5 4 2 6 6 4 2 1 1 4
split_gain=233.516 17.5024 13.8746 11.7735 5.99379 4.52546 4.00915 2.51252 2.24738 4.62254 3.25189 2.08572 1.7026 1.42754 1.35215 1.27219 1.2223 1.58735 1.09047 0.948184 0.906765 1.11599 1.61182 0.840381 0.793362 0.78034 0.641504 0.625 0.5 0.49
threshold=-0.78656609248549325 -0.60355339059327384 0.60355339059327384 -0.25881904510252113 145.50000000000003 11.500000000000002 11.500000000000002 31.500000000000004 3.5000000000000004 4.8500000000000005 4.5000000000000009 6.0000000000000009 1.5000000000000002 1.5000000000000002 29.500000000000004 3.1500000000000008 1.5000000000000002 5.5000000000000009 0.25881904510252091 105.50000000000001 -0.37940952255126015 0.78656609248549325 11.500000000000002 7.0500000000000007 10.15 0.37940952255126054 11.500000000000002 1.0000000180025095e-35 5.5000000000000009 0.37940952255126054
decision_type=2 2 2 2 10 2 2 8 2 10 2 2 2 2 10 10 2 2 2 10 2 2 2 8 8 2 2 2 2 2
left_child=3 2 19 4 15 7 13 -5 9 14 -10 -9 27 -4 25 26 29 18 -18 -2 21 -3 23 -23 -14 -7 -1 -8 -12 -13
right_child=1 20 6 5 -6 8 12 11 10 -11 28 16 24 -15 -16 -17 17 -19 -20 -21 -22 22 -24 -25 -26 -27 -28 -29 -30 -31
leaf_value=0 0 0 -0.00033588614687091482 -0.00038152827901652197 0.0019144388054350256 0.0021286845467885147 -0.0010430430819393125 -1.0308524740912796e-05 -7.6329351960155865e-05 -0.00023883469736601178 -0.00020053224715949275 0.0018183481464945233 0 0.0022006333760508207 0.0044595536623133454 0 0.0018973809394537207 0.003747836272227344 0.0053799216804384133 0 0 0 0 0 0 0.00097675560295432009 0 0.0039193160170682929 0.0025628529810378152 -0.0019703789592166576
leaf_weight=89 221 240 28 30 20 172 20 33 63 45 64 80 20 86 21 32 125 58 118 20 3524 21 122 95 61 66 95 20 64 20
leaf_count=89 221 240 28 30 20 172 20 33 63 45 64 80 20 86 21 32 125 58 118 20 3524 21 122 95 61 66 95 20 64 20
internal_value=-0.0183192 -0.0235596 -0.0144958 0.00131799 -0.00868644 0.00377998 -0.00585106 0.00732759 0.000454545 0.003125 -0.00379581 0.00829493 -0.0121901 0.000877193 0.00569498 -0.0111111 0.00928928 0.0108804 0.0126543 -0.0229253 -0.0246377 -0.0225941 -0.0201681 -0.0159483 -0.016358 0.00462185 -0.00951087 -0.00375 0.00078125 0.0045
internal_weight=5673 4478 476 1195 236 959 235 464 495 304 191 434 121 114 259 216 401 301 243 241 4002 478 238 116 81 238 184 40 128 100
internal_count=5673 4478 476 1195 236 959 235 464 495 304 191 434 121 114 259 216 401 301 243 241 4002 478 238 116 81 238 184 40 128 100
is_linear=0
shrinkage=0.05


Tree=21
num_leaves=31
num_cat=0
split_feature=5 5 0 0 2 2 1 7 2 1 1 7 1 1 1 2 0 5 0 2 7 1 1 0 7 0 7 1 1 0
split_gain=231.321 18.6069 14.9314 11.5774 4.2461 3.28455 2.86603 2.67092 2.02497 1.97907 2.89055 2.74424 1.42754 1.287 2.00848 1.05478 1.04173 0.906765 1.11599 1.61182 0.991754 0.817238 0.837723 0.796583 0.793362 0.552104 0.547958 0.5 0.412036 0.390625
threshold=-0.78656609248549325 -0.60355339059327384 14.500000000000002 13.500000000000002 11.500000000000002 11.500000000000002 1.5000000000000002 97.500000000000014 6.0000000000000009 3.5000000000000004 4.5000000000000009 21.500000000000004 1.5000000000000002 5.5000000000000009 1.5000000000000002 11.500000000000002 10.500000000000002 -0.37940952255126015 15.500000000000002 11.500000000000002 41.500000000000007 2.5000000000000004 4.5000000000000009 10.500000000000002 inf 10.500000000000002 99.500000000000014 5.5000000000000009 2.5000000000000004 11.500000000000002
decision_type=2 2 2 2 2 2 2 8 2 2 2 10 2 2 2 2 2 2 2 2 10 2 2 2 8 2 8 2 2 2
left_child=3 2 5 4 8 12 -7 -5 -1 11 -11 23 -2 14 25 -9 -16 18 19 20 28 -17 -23 -6 -8 -10 -4 29 -3 -12
right_child=1 17 26 7 9 6 24 15 13 10 27 -13 -14 -15 16 21 -18 -19 -20 -21 -22 22 -24 -25 -26 -27 -28 -29 -30 -31
leaf_value=-5.3486911248905945e-05 -0.00031909183952736909 0 0 0.0013517082292779357 0.002093773806274513 -7.1906823378224514e-05 0 0 -0.00031703191511853098 -7.251288436214806e-05 -0.00046220599221129732 -0.00021457305687425682 0.0020906017072482796 0.0021672844157080103 0.0053504324046393789 0 0.0019421675145288994 0 0 0 0 0 0 0.0020222503194490889 0 0.0016962413615714254 0 0.0024347103319859245 0 2.0593578614810566e-05
leaf_weight=38 28 35 20 21 59 40 20 104 25 63 32 66 86 64 64 50 191 3524 240 122 24 31 30 179 61 82 221 64 57 32
leaf_count=38 28 35 20 21 59 40 20 104 25 63 32 66 86 64 64 50 191 3524 240 122 24 31 30 179 61 82 221 64 57 32
internal_value=-0.0183104 -0.0235261 -0.0141807 0.00123431 0.0036757 -0.00521277 -0.0109504 -0.00868644 0.00711207 0.000454545 -0.00353403 0.00296053 0.000877193 0.00809859 0.00925414 -0.0103488 0.0116667 -0.0246377 -0.0225941 -0.0201681 -0.0159483 -0.0137387 -0.017623 0.00546218 -0.016358 0.00350467 -0.0229253 0.00078125 -0.013587 -0.00234375
internal_weight=5673 4478 476 1195 959 235 121 236 464 495 191 304 114 426 362 215 255 4002 478 238 116 111 61 238 81 107 241 128 92 64
internal_count=5673 4478 476 1195 959 235 121 236 464 495 191 304 114 426 362 215 255 4002 478 238 116 111 61 238 81 107 241 128 92 64
is_linear=0
shrinkage=0.05


Tree=22
num_leaves=31
num_cat=0
split_feature=5 5 5 7 5 2 2 1 1 6 1 2 1 6 1 2 1 8 1 8 5 5 2 7 6 6 1 6 1 1
split_gain=230.54 18.6069 14.9314 6.08532 6.01526 3.75448 3.28455 2.86603 2.00661 1.82184 1.42754 1.37515 2.59949 1.75683 1.60696 1.24016 1.21271 1.6889 1.15705 0.948184 0.906765 1.11599 1.61182 0.991754 0.793362 0.680362 1.1445 0.49093 0.512543 0.412036
threshold=-0.78656609248549325 -0.60355339059327384 -0.70710678118654757 12.500000000000002 -0.9159756150367534 11.500000000000002 11.500000000000002 1.5000000000000002 1.5000000000000002 8.0500000000000025 1.5000000000000002 11.500000000000002 3.5000000000000004 4.9500000000000011 4.5000000000000009 6.0000000000000009 2.5000000000000004 2.5000000000000004 5.5000000000000009 105.50000000000001 -0.37940952255126015 -0.5 11.500000000000002 41.500000000000007 10.15 8.2500000000000018 1.0000000180025095e-35 8.0500000000000025 5.5000000000000009 2.5000000000000004
decision_type=2 2 2 8 2 2 2 2 2 10 2 2 2 10 2 2 2 10 2 10 2 2 2 10 8 8 2 8 2 2
left_child=3 2 19 -1 9 8 10 -8 -6 11 -4 15 13 -13 -14 -5 25 18 -18 -2 21 -3 23 29 -9 -7 -27 -10 -29 -23
right_child=1 20 6 4 5 16 7 24 27 -11 -12 12 14 -15 -16 -17 17 -19 -20 -21 -22 22 -24 -25 -26 26 -28 28 -30 -31
leaf_value=0.0082952515448374391 0 0 -0.00030313724755100062 -4.3657100606018779e-06 0 0.0017511314536993777 -6.8311482209313282e-05 0 0 -0.00020610292508958263 0.0019860716218858656 0.0019211378034766345 -2.6279496008877553e-05 -0.00020158588297150529 1.6810856803250056e-05 0.0016738080486895979 0 0 0.0011564874076933141 0 0 0 0 0 0 0 0 0.00019543358812646323 0 0
leaf_weight=41 221 240 28 28 50 21 40 20 27 39 86 188 44 21 91 285 78 20 26 20 3524 35 122 24 61 32 62 118 24 57
leaf_count=41 221 240 28 28 50 21 40 20 27 39 86 188 44 21 91 285 78 20 26 20 3524 35 122 24 61 32 62 118 24 57
internal_value=-0.0183192 -0.0235261 -0.0141807 0.00119247 0.000519931 -0.00393013 -0.00521277 -0.0109504 0.000799087 0.00344828 0.000877193 0.00407154 0.00188953 0.00538278 -0.00351852 0.00646965 -0.0082636 -0.0116935 -0.00913462 -0.0229253 -0.0246377 -0.0225941 -0.0201681 -0.0159483 -0.016358 -0.00456522 -0.00638298 0.00340237 0.00457746 -0.013587
internal_weight=5673 4478 476 1195 1154 458 235 121 219 696 114 657 344 209 135 313 239 124 104 241 4002 478 238 116 81 115 94 169 142 92
internal_count=5673 4478 476 1195 1154 458 235 121 219 696 114 657 344 209 135 313 239 124 104 241 4002 478 238 116 81 115 94 169 142 92
is_linear=0
shrinkage=0.05


Tree=23
num_leaves=31
num_cat=0
split_feature=5 5 0 0 8 2 2 1 8 1 1 7 2 1 8 8 8 5 0 2 7 8 2 0 7 1 0 1 1 1
split_gain=228.205 18.6069 14.9314 11.1901 5.99379 3.71408 3.28455 2.86603 2.28572 1.97907 2.89055 2.74424 1.8539 1.42754 1.03991 1.01801 0.948184 0.906765 1.11599 1.61182 0.991754 0.895847 0.81885 0.796583 0.793362 0.579616 0.928854 0.5 0.457553 1.01023
threshold=-0.78656609248549325 -0.60355339059327384 14.500000000000002 13.500000000000002 145.50000000000003 11.500000000000002 11.500000000000002 1.5000000000000002 31.500000000000004 3.5000000000000004 4.5000000000000009 21.500000000000004 6.0000000000000009 1.5000000000000002 89.500000000000014 105.50000000000001 105.50000000000001 -0.37940952255126015 15.500000000000002 11.500000000000002 41.500000000000007 149.50000000000003 11.500000000000002 10.500000000000002 inf 1.5000000000000002 10.500000000000002 5.5000000000000009 2.5000000000000004 4.5000000000000009
decision_type=2 2 2 2 10 2 2 2 8 2 2 10 2 2 8 8 10 2 2 2 10 8 2 2 8 2 2 2 2 2
left_child=3 2 6 5 15 8 13 -8 -1 11 -11 23 -10 -2 -14 -5 -4 18 19 20 -3 -16 -17 -7 -9 -23 -27 -12 -24 -30
right_child=1 17 16 4 -6 9 7 24 12 10 27 -13 14 -15 21 22 -18 -19 -20 -21 -22 25 28 -25 -26 26 -28 -29 29 -31
leaf_value=-0.00040555995529740238 -0.00028798038517345055 0 0 0 0.0016635748810144091 0.0019890851159607872 -6.4895908098847618e-05 0 -6.9004674383917638e-06 -6.8887240144040659e-05 -0.00019237585657242117 -0.00019591070488805541 0.0018899624851000133 0.001886768040791572 -0.00020465199686269775 0 0 0 0 0 0 0.0015589282686567464 0 0.0018250809133028027 0 0.0049347104901445761 0.001761368736367975 0.0022551504450019624 0 0
leaf_weight=30 28 92 221 29 20 59 40 20 33 63 64 66 32 86 20 88 20 3524 240 122 24 84 48 179 61 60 205 64 26 25
leaf_count=30 28 92 221 29 20 59 40 20 33 63 64 66 32 86 20 88 20 3524 240 122 24 84 48 179 61 60 205 64 26 25
internal_value=-0.0183457 -0.0235261 -0.0141807 0.00106695 -0.00868644 0.00346715 -0.00521277 -0.0109504 0.00668103 0.000454545 -0.00353403 0.00296053 0.00760369 0.000877193 0.00854115 -0.0111111 -0.0229253 -0.0246377 -0.0225941 -0.0201681 -0.0159483 0.00779133 -0.00975936 0.00546218 -0.016358 0.00838109 0.0095283 0.00078125 -0.0128788 -0.0161765
internal_weight=5673 4478 476 1195 236 959 235 121 464 495 191 304 434 114 401 216 241 4002 478 238 116 369 187 238 81 349 265 128 99 51
internal_count=5673 4478 476 1195 236 959 235 121 464 495 191 304 434 114 401 216 241 4002 478 238 116 369 187 238 81 349 265 128 99 51
is_linear=0
shrinkage=0.05


Tree=24
num_leaves=31
num_cat=0
split_feature=0 0 7 0 8 2 1 6 0 1 6 2 0 2 6 8 1 8 0 1 1 0 7 1 1 0 2 1 1 8
split_gain=53.0789 193.007 7.66755 8.36302 4.50623 3.15925 3.20675 3.15444 2.46726 2.12851 2.74286 1.90283 1.88526 1.61182 1.30565 1.28785 1.20835 1.09213 1.06639 1.53347 1.03248 1.74136 0.991754 0.935313 0.761453 1.38496 0.679619 0.720647 1.02083 0.549789
threshold=14.500000000000002 8.5000000000000018 12.500000000000002 13.500000000000002 17.500000000000004 11.500000000000002 3.5000000000000004 4.9500000000000011 10.500000000000002 5.5000000000000009 4.0500000000000007 6.0000000000000009 7.5000000000000009 11.500000000000002 6.8500000000000005 145.50000000000003 5.5000000000000009 113.50000000000001 10.500000000000002 4.5000000000000009 2.5000000000000004 10.500000000000002 41.500000000000007 1.0000000180025095e-35 1.5000000000000002 9.5000000000000018 11.500000000000002 2.5000000000000004 4.5000000000000009 105.50000000000001
decision_type=2 2 8 2 8 2 2 10 2 2 10 2 2 2 8 8 2 10 2 2 2 2 10 2 2 2 2 2 2 10
left_child=1 12 29 4 -4 11 7 8 23 10 18 -6 -1 22 -13 -5 20 -2 -8 -20 21 -16 -14 -7 -25 -26 -17 -28 -29 -3
right_child=17 2 3 15 5 6 9 -9 -10 -11 -12 14 13 -15 16 26 -18 -19 19 -21 -22 -23 -24 24 25 -27 27 28 -30 -31
leaf_value=0 0 0.0071432521230791329 -3.479542377389103e-06 0 -0.00019977190655540543 -0.00098063521715802777 0 -0.00021334504830518406 0.0017338268676376626 0.0019826669300722754 2.8703281843349585e-05 0.0037192071092257504 0 0 -0.00016503257568561207 0 -0.00064454424448478142 0 -0.00040802324347929481 -0.00018275706374380011 0.0025858472727196824 0.0014497924776255369 0 0.0037336059268991972 0 0.0018896308601627481 0 0 0 0.0099117191653661091
leaf_weight=1869 2114 20 96 38 40 30 46 33 188 69 20 40 92 122 64 94 67 22 38 36 191 113 24 30 26 27 47 24 24 29
leaf_count=1869 2114 20 96 38 40 30 46 33 188 69 20 40 92 122 64 94 67 22 38 36 191 113 24 30 26 27 47 24 24 29
internal_value=-0.0184955 -0.0147371 -0.000559441 -0.00124909 0.000476603 0.00141777 -0.00124309 0.00179641 0.00340532 -0.00610048 -0.00964286 0.0042233 -0.0243593 -0.0201681 0.00510526 -0.010022 0.00431034 -0.0247191 -0.0125 -0.00878378 0.00543478 0.00268362 -0.0159483 -0.00243363 0.000301205 -0.00330189 -0.00833333 -0.0113158 -0.015625 0.0188776
internal_weight=5673 3537 1430 1381 1154 1058 543 334 301 209 140 515 2107 238 475 227 435 2136 120 74 368 177 116 113 83 53 189 95 48 49
internal_count=5673 3537 1430 1381 1154 1058 543 334 301 209 140 515 2107 238 475 227 435 2136 120 74 368 177 116 113 83 53 189 95 48 49
is_linear=0
shrinkage=0.05


Tree=25
num_leaves=31
num_cat=0
split_feature=5 0 0 8 7 0 6 8 2 6 2 8 5 0 2 7 8 2 8 0 6 8 0 8 3 6 3 2 5 3
split_gain=215.758 43.6227 8.66866 5.99379 3.65132 2.30064 2.15618 1.834 2.49516 1.27219 1.01822 0.948184 0.906765 1.11599 1.61182 0.991754 0.872404 0.641504 0.625189 0.604074 0.779673 0.569164 0.496893 0.589825 0.396923 0.225 0.209143 0.176 0.3711 0.160208
threshold=-0.60355339059327384 14.500000000000002 13.500000000000002 145.50000000000003 13.500000000000002 10.500000000000002 8.0500000000000025 1.0000000180025095e-35 11.500000000000002 3.1500000000000008 11.500000000000002 105.50000000000001 -0.37940952255126015 15.500000000000002 11.500000000000002 41.500000000000007 3.5000000000000004 11.500000000000002 44.500000000000007 12.500000000000002 4.9500000000000011 105.50000000000001 9.5000000000000018 6.5000000000000009 1.0000000180025095e-35 4.7500000000000009 1.0000000180025095e-35 6.0000000000000009 -0.98296291314453399 1.0000000180025095e-35
decision_type=2 2 2 10 8 2 10 8 2 10 2 10 2 2 2 10 10 2 10 2 10 10 2 8 2 10 2 2 2 2
left_child=1 2 4 9 21 7 10 25 16 17 18 -3 13 14 15 -2 -9 -4 27 20 -12 -1 24 -24 -10 -6 -19 -7 -29 -21
right_child=12 11 3 -5 5 6 -8 8 22 -11 19 -13 -14 -15 -16 -17 -18 26 -20 29 -22 -23 23 -25 -26 -27 -28 28 -30 -31
leaf_value=0.0061616101946588425 0 0 0 0.0015803961369636882 1.7397711886945515e-07 8.9392370229380557e-06 -0.0001753349911754415 6.2622481285737444e-05 0 0 0.0013203802251667896 0 0 0 0 0 0.0028471149083681199 0 0.0017140915113995109 4.0628131852334408e-06 -0.00016239662681445389 0.0096615023522573767 -0.00022241484686724266 -6.5442878136838636e-05 0 1.7397711886945515e-07 0 0.00071993934192623392 0.0014396816089410035 -0.00017361921055661009
leaf_weight=21 92 221 89 20 20 25 39 182 67 32 204 20 3524 240 122 24 24 71 38 84 27 20 25 95 24 20 24 83 167 29
leaf_count=21 92 221 89 20 20 25 39 182 67 32 204 20 3524 240 122 24 24 71 38 84 27 20 25 95 24 20 24 83 167 29
internal_value=-0.0183369 -0.00324656 6.99301e-05 -0.00868644 0.00180067 0.00127927 0.00308908 -0.00147702 -0.00245803 -0.0111111 0.00376712 -0.0229253 -0.0246377 -0.0225941 -0.0201681 -0.0159483 0.00145631 -0.00951087 0.00583067 0.00188953 0.00335498 0.0164634 -0.00627962 -0.00416667 -0.00906593 0.00875 -0.0123684 0.005 0.0054 -0.00110619
internal_weight=5673 1671 1430 236 1194 1153 696 457 417 216 657 241 4002 478 238 116 206 184 313 344 231 41 211 120 91 40 95 275 250 113
internal_count=5673 1671 1430 236 1194 1153 696 457 417 216 657 241 4002 478 238 116 206 184 313 344 231 41 211 120 91 40 95 275 250 113
is_linear=0
shrinkage=0.05


Tree=26
num_leaves=31
num_cat=0
split_feature=5 4 4 8 7 4 6 6 2 1 6 1 1 8 8 8 2 1 1 8 5 4 2 7 1 1 1 4 2 8
split_gain=213.951 43.2256 8.46222 5.99379 3.51668 2.21146 2.10227 1.7558 1.44326 1.59658 1.27219 1.25857 2.66713 1.0751 1.82403 0.969661 1.12438 3.07643 1.82091 0.948184 0.906765 1.11599 1.61182 0.991754 0.858426 0.796109 0.953004 0.888013 0.641504 0.625
threshold=-0.60355339059327384 -0.5 -0.25881904510252113 145.50000000000003 12.500000000000002 0.37940952255126054 8.0500000000000025 1.2500000000000002 11.500000000000002 2.5000000000000004 3.1500000000000008 3.5000000000000004 5.5000000000000009 1.0000000180025095e-35 6.5000000000000009 31.500000000000004 11.500000000000002 3.5000000000000004 4.5000000000000009 105.50000000000001 -0.37940952255126015 0.78656609248549325 11.500000000000002 41.500000000000007 1.0000000180025095e-35 1.0000000180025095e-35 1.5000000000000002 0.60355339059327384 11.500000000000002 105.50000000000001
decision_type=2 2 2 10 8 2 10 10 2 2 10 2 2 10 10 8 2 2 2 10 2 2 2 10 2 2 2 2 2 10
left_child=1 19 3 10 29 6 15 8 9 -7 28 25 -13 -9 -15 -6 -17 24 -19 -1 21 -2 23 -23 -18 -10 -27 -28 -3 -4
right_child=20 2 4 -5 5 7 -8 13 11 -11 -12 12 -14 14 -16 16 17 18 -20 -21 -22 22 -24 -25 -26 26 27 -29 -30 -31
leaf_value=0 0 0 0.0064780090071922362 0.001501376330115504 -0.00035318674495974462 -0.00015991207096561837 -0.00016656824161666946 1.652782629259824e-07 -0.0009316034563001263 0.0018215257269119456 0 0 0.0020465317201550921 -0.00011639309841090381 0.0032214159089334229 0.0013676975284939532 0.0019801666905039984 -1.3231376865285721e-06 1.112077134519619e-05 0 0 0 0 0 0.0013830245334974991 0.0035469256305542375 0.001798421461061453 0 0 0.0091784272346445064
leaf_weight=221 240 89 20 20 24 66 39 34 30 115 32 46 24 35 20 303 55 41 86 20 3524 92 122 24 148 30 30 28 95 20
leaf_count=221 240 89 20 20 24 66 39 34 30 115 32 46 24 35 20 303 55 41 86 20 3524 92 122 24 148 30 30 28 95 20
internal_value=-0.0183633 -0.00333633 -3.4965e-05 -0.00868644 0.00167504 0.00116984 0.0029454 -0.00152838 -0.00304878 0.000138122 -0.0111111 -0.00611702 -0.0114286 0.00477528 0.000454545 0.00361492 0.00398894 0.0019697 -0.00413386 -0.0229253 -0.0246377 -0.0225941 -0.0201681 -0.0159483 0.00578818 -0.0029661 -0.000568182 -0.00431034 -0.00951087 0.01625
internal_weight=5673 1671 1430 236 1194 1154 696 458 369 181 216 188 70 89 55 657 633 330 127 241 4002 478 238 116 203 118 88 58 184 40
internal_count=5673 1671 1430 236 1194 1154 696 458 369 181 216 188 70 89 55 657 633 330 127 241 4002 478 238 116 203 118 88 58 184 40
is_linear=0
shrinkage=0.05


Tree=27
num_leaves=31
num_cat=0
split_feature=5 4 4 8 7 4 8 2 6 6 8 5 4 2 7 8 2 8 4 2 2 4 2 8 4 8 5 8 3 8
split_gain=213.951 43.2256 8.46222 5.99379 2.93934 2.10485 2.50171 2.34105 1.29641 1.27219 0.948184 0.906765 1.11599 1.61182 0.991754 0.723439 0.641504 0.621096 0.756233 0.614092 0.72958 0.716846 0.578571 0.550802 0.496893 0.589825 0.426373 0.4 0.396923 0.228571
threshold=-0.60355339059327384 -0.5 -0.25881904510252113 145.50000000000003 12.500000000000002 0.37940952255126054 1.0000000180025095e-35 11.500000000000002 2.6500000000000008 3.1500000000000008 105.50000000000001 -0.37940952255126015 0.78656609248549325 11.500000000000002 41.500000000000007 21.500000000000004 11.500000000000002 59.500000000000007 0.25881904510252091 6.0000000000000009 11.500000000000002 1.0000000180025095e-35 11.500000000000002 3.5000000000000004 0.60355339059327384 6.5000000000000009 -0.98296291314453399 105.50000000000001 1.0000000180025095e-35 116.50000000000001
decision_type=2 2 2 10 8 2 8 2 10 10 10 2 2 2 10 10 2 10 2 2 2 2 2 10 2 8 2 10 2 10
left_child=1 10 3 9 27 8 -7 23 15 16 -1 12 -2 14 -14 19 -3 18 -10 -6 26 -22 29 -8 25 -9 -21 -4 -26 -19
right_child=11 2 4 -5 5 6 7 24 17 -11 -12 -13 13 -15 -16 -17 -18 22 -20 20 21 -23 -24 -25 28 -27 -28 -29 -30 -31
leaf_value=0 0 0 0.0061541085568326244 0.0014263075136097287 -0.00014770509743914056 1.5701434977968327e-07 6.5311012141995754e-05 -0.00020547444960333533 -0.00022342802214860613 0 0 0 0 0 0 0.0015459768073024897 0 0.0013972731254454614 -0.00014098241439195836 0.00068080721457970195 -1.2569808022021434e-06 0.0011511677230536131 -0.00021526640565134176 0.0026271335926866509 0 -6.2170734229996703e-05 0.0013268039679752029 0.0087195058729122813 0 0.0027093098154047229
leaf_weight=221 240 89 20 20 22 41 182 25 21 32 20 3524 92 122 24 21 95 24 31 81 93 186 35 24 67 95 161 20 24 21
leaf_count=221 240 89 20 20 22 41 182 25 21 32 20 3524 92 122 24 21 95 24 31 81 93 186 35 24 67 95 161 20 24 21
internal_value=-0.0183633 -0.00333633 -3.4965e-05 -0.00868644 0.00167504 0.00121317 -0.00141921 -0.00257794 0.0029454 -0.0111111 -0.0229253 -0.0246377 -0.0225941 -0.0201681 -0.0159483 0.00398936 -0.00951087 -0.00151515 -0.00576923 0.0036372 0.00398273 0.00224014 0.00125 0.00121359 -0.00627962 -0.00416667 0.00599174 0.015 -0.00906593 0.005
internal_weight=5673 1671 1430 236 1194 1154 458 417 696 216 241 4002 478 238 116 564 184 132 52 543 521 279 80 206 211 120 242 40 91 45
internal_count=5673 1671 1430 236 1194 1154 458 417 696 216 241 4002 478 238 116 564 184 132 52 543 521 279 80 206 211 120 242 40 91 45
is_linear=0
shrinkage=0.05


Tree=28
num_leaves=31
num_cat=0
split_feature=5 0 0 8 7 0 8 6 6 8 8 8 5 0 1 6 6 1 1 1 7 6 5 1 8 1 1 0 1 1
split_gain=214.553 43.3578 8.53075 5.99379 2.9209 2.17471 2.50171 1.27584 1.27219 1.01039 0.954757 0.948184 0.906765 1.11599 0.886979 0.91905 0.733224 0.756591 0.720734 0.692329 0.591141 0.533824 0.607143 0.414206 0.4 0.35161 0.474079 0.30941 0.276215 0.333333
threshold=-0.60355339059327384 14.500000000000002 13.500000000000002 145.50000000000003 12.500000000000002 10.500000000000002 1.0000000180025095e-35 8.0500000000000025 3.1500000000000008 6.5000000000000009 31.500000000000004 105.50000000000001 -0.37940952255126015 15.500000000000002 2.5000000000000004 5.8500000000000005 5.7500000000000009 1.0000000180025095e-35 4.5000000000000009 3.5000000000000004 25.000000000000004 2.6500000000000008 -0.98296291314453399 1.0000000180025095e-35 105.50000000000001 2.5000000000000004 5.5000000000000009 12.500000000000002 4.5000000000000009 5.5000000000000009
decision_type=2 2 2 10 8 2 8 10 10 10 8 10 2 2 2 10 8 2 2 2 10 10 2 2 10 2 2 2 2 2
left_child=1 2 4 8 24 6 -6 10 28 16 -7 -3 13 20 21 18 -8 -18 19 27 25 22 23 -12 -1 -2 -27 -16 -4 -30
right_child=12 11 3 -5 5 7 9 -9 -10 -11 14 -13 -14 -15 15 -17 17 -19 -20 -21 -22 -23 -24 -25 -26 26 -28 -29 29 -31
leaf_value=0.0058464031289909933 0 0 0 0.0013549921379292424 1.491636322906991e-07 -0.00032641714679824334 -0.00023935658045268223 -0.00017441123314288902 0 0.002660613371985864 0.0018235999698261174 0 0 0 0.00030491782345909023 0.00067511656749430016 -0.00088502328348512001 0 0.0016287174260365637 -1.1941317620920362e-06 0 0.00052846253474506772 0.0012329724536704952 0.0012388806494942645 0.0082835305792666666 0 0 -5.250734638094948e-05 0 0
leaf_weight=20 82 221 136 20 41 24 20 39 32 23 25 20 3524 240 61 23 51 323 160 85 50 32 158 57 20 81 25 32 24 24
leaf_count=20 82 221 136 20 41 24 20 39 32 23 25 20 3524 240 61 23 51 323 160 85 50 32 158 57 20 81 25 32 24 24
internal_value=-0.0183545 -0.0033064 0 -0.00868644 0.00171692 0.0012565 -0.00141921 0.00301724 -0.0111111 -0.00257794 0.00353881 -0.0229253 -0.0246377 -0.0225941 0.00390995 0.00228532 -0.00317259 -0.0026738 0.00162722 -0.000561798 -0.0201681 0.00606618 0.006875 0.0103659 0.015 -0.018883 -0.0169811 0.00241935 -0.00951087 -0.00625
internal_weight=5673 1671 1430 236 1194 1154 458 696 216 417 657 241 4002 478 633 361 394 374 338 178 238 272 240 82 40 188 106 93 184 48
internal_count=5673 1671 1430 236 1194 1154 458 696 216 417 657 241 4002 478 633 361 394 374 338 178 238 272 240 82 40 188 106 93 184 48
is_linear=0
shrinkage=0.05


Tree=29
num_leaves=31
num_cat=0
split_feature=5 0 0 7 0 8 8 6 6 8 5 0 0 8 8 6 8 8 7 8 3 0 3 8 0 6 3 3 6 5
split_gain=209.17 43.9471 8.2846 2.99503 2.0717 2.54828 1.90057 1.71238 1.27219 0.948184 0.906765 1.11599 0.867297 0.653272 0.644005 0.733224 0.612171 1.08597 0.591141 0.4 0.276215 0.185172 0.189339 0.133798 0.102015 0.0711382 0.0392602 0.0368467 0.0315052 0.0331384
threshold=-0.60355339059327384 13.500000000000002 14.500000000000002 12.500000000000002 10.500000000000002 1.0000000180025095e-35 145.50000000000003 4.7500000000000009 3.1500000000000008 105.50000000000001 -0.37940952255126015 15.500000000000002 12.500000000000002 33.500000000000007 6.5000000000000009 5.7500000000000009 59.500000000000007 89.500000000000014 25.000000000000004 105.50000000000001 1.0000000180025095e-35 9.5000000000000018 1.0000000180025095e-35 34.500000000000007 11.500000000000002 4.7500000000000009 1.0000000180025095e-35 1.0000000180025095e-35 0.25000000000000006 0.60355339059327384
decision_type=2 2 2 8 2 8 10 10 10 10 2 2 2 10 10 8 10 10 10 10 2 2 2 10 2 10 2 2 8 2
left_child=1 3 6 19 5 25 8 12 20 -4 11 18 13 24 15 -7 23 -18 -2 -1 -3 26 -23 -9 27 -5 -17 -6 29 -12
right_child=10 2 9 4 7 14 -8 16 -10 -11 28 -13 -14 -15 -16 21 17 -19 -20 -21 -22 22 -24 -25 -26 -27 -28 -29 -30 -31
leaf_value=0.0055540829725414442 0 0 0 1.4170545067616414e-07 0.0010783634457279777 -0.00022738875143004812 0.0012872425310327805 -0.00013444092189610947 0 0 0 0 0.0011537615763646287 0.0020839096447959125 0.0025275827033865708 0 0.0011003427525306067 -0.00056759333867219264 0 0.007869354050303333 0 -5.9062197518496863e-05 0.00080247246960586356 -0.00023867974777842923 0.0010683142995415844 1.4170545067616414e-07 0 0.0041598984528488673 0 0
leaf_weight=20 188 136 221 21 139 20 20 20 32 20 51 240 199 25 23 134 26 34 50 20 48 136 54 21 182 20 50 50 3416 57
leaf_count=20 188 136 221 21 139 20 20 20 32 20 51 240 199 25 23 134 26 34 50 20 48 136 54 21 182 20 50 50 3416 57
internal_value=-0.0184338 -0.0035757 -0.0164046 0.00154941 0.00108319 -0.00152838 -0.00974576 0.00280172 -0.0111111 -0.0229253 -0.0246377 -0.0225941 0.00382353 0.00517677 -0.00269784 -0.00317259 -0.00321782 0 -0.0201681 0.015 -0.00951087 -0.0026738 -0.00157895 -0.00792683 0.0046496 0.0103659 -0.00380435 0.00383598 -0.0249149 -0.0240741
internal_weight=5673 1671 477 1194 1154 458 236 696 216 241 4002 478 595 396 417 394 101 60 238 40 184 374 190 41 371 41 184 189 3524 108
internal_count=5673 1671 477 1194 1154 458 236 696 216 241 4002 478 595 396 417 394 101 60 238 40 184 374 190 41 371 41 184 189 3524 108
is_linear=0
shrinkage=0.05


Tree=30
num_leaves=31
num_cat=0
split_feature=0 0 0 7 0 8 2 8 0 6 2 1 2 0 1 1 1 6 8 1 1 2 7 2 1 1 1 1 1 0
split_gain=54.1365 196.997 10.056 2.99503 2.0717 2.54828 2.19184 1.90057 1.88526 1.71238 1.61182 1.39364 1.93717 1.44118 1.32727 1.27333 2.41681 1.27219 1.09213 1.04074 2.08619 1.00782 0.991754 0.641504 0.481208 1.05361 0.412036 0.406509 1.16716 0.622071
threshold=14.500000000000002 8.5000000000000018 13.500000000000002 12.500000000000002 10.500000000000002 1.0000000180025095e-35 11.500000000000002 145.50000000000003 7.5000000000000009 4.7500000000000009 11.500000000000002 2.5000000000000004 11.500000000000002 12.500000000000002 2.5000000000000004 3.5000000000000004 5.5000000000000009 3.1500000000000008 113.50000000000001 3.5000000000000004 4.5000000000000009 6.0000000000000009 41.500000000000007 11.500000000000002 2.5000000000000004 4.5000000000000009 2.5000000000000004 1.0000000180025095e-35 1.5000000000000002 9.5000000000000018
decision_type=2 2 2 8 2 8 2 10 2 10 2 2 2 2 2 2 2 10 10 2 2 2 10 2 2 2 2 2 2 2
left_child=1 8 3 -3 5 -5 14 17 -1 11 22 -6 21 19 -7 27 -17 23 -2 -14 -21 -13 26 -4 -25 -26 -10 -8 -29 -30
right_child=18 2 7 4 9 6 15 -9 10 -11 -12 12 13 -15 -16 16 -18 -19 -20 20 -22 -23 -24 24 25 -27 -28 28 29 -31
leaf_value=0 0 0.0059287983900793862 0 1.3462017814235591e-07 0.0011323239850585796 -0.00015222890814851203 -0.00084077211931086408 0.0012228804044811415 0 -0.00011089039023764281 0 -0.00015105883450263109 0.0010244452734415788 -5.882250399221887e-05 0.0017271838899592482 0 0.0019071900473785442 0 0 -0.00065517937546659541 0.0022842888494019361 0.0015845493584524537 0 0 0 0 0 0.0033695793490265248 0 -0.00010480044542101345
leaf_weight=1869 2114 40 89 41 258 75 35 20 35 101 122 28 26 51 131 53 27 32 22 26 50 156 24 46 25 24 57 34 26 36
leaf_count=1869 2114 40 89 41 258 75 35 20 35 101 122 28 26 51 131 53 27 32 22 26 50 156 24 46 25 24 57 34 26 36
internal_value=-0.0184338 -0.0146381 -0.000314685 0.00154941 0.00108319 -0.00152838 -0.00269784 -0.00974576 -0.0243593 0.00280172 -0.0201681 0.00382353 0.00170623 -0.00245098 0.000970874 -0.00627962 -0.01125 -0.0111111 -0.0247191 0.000980392 -0.00197368 0.00516304 -0.0159483 -0.00951087 -0.0123684 -0.0158163 -0.013587 -0.00324427 -0.0015625 -0.00564516
internal_weight=5673 3537 1430 1194 1154 458 417 236 2107 696 238 595 337 153 206 211 80 216 2136 102 76 184 116 184 95 49 92 131 96 62
internal_count=5673 3537 1430 1194 1154 458 417 236 2107 696 238 595 337 153 206 211 80 216 2136 102 76 184 116 184 95 49 92 131 96 62
is_linear=0
shrinkage=0.05


Tree=31
num_leaves=31
num_cat=0
split_feature=5 0 0 7 0 8 2 8 1 8 1 2 1 1 1 1 8 8 8 5 0 2 7 2 2 5 8 1 1 1
split_gain=209.17 43.9471 8.2846 2.79921 2.25755 2.00642 2.27271 1.90057 1.36848 1.27991 1.30889 1.64028 1.27333 2.41681 1.1004 2.44907 1.02255 1.01801 0.948184 0.906765 1.11599 1.61182 0.991754 0.81885 0.71946 0.658537 0.645913 0.457553 1.01023 0.414206
threshold=-0.60355339059327384 13.500000000000002 14.500000000000002 6.5000000000000009 10.500000000000002 1.0000000180025095e-35 11.500000000000002 145.50000000000003 2.5000000000000004 133.50000000000003 2.5000000000000004 11.500000000000002 3.5000000000000004 5.5000000000000009 3.5000000000000004 4.5000000000000009 100.00000000000001 105.50000000000001 105.50000000000001 -0.37940952255126015 15.500000000000002 11.500000000000002 41.500000000000007 11.500000000000002 6.0000000000000009 -0.98296291314453399 76.500000000000014 2.5000000000000004 4.5000000000000009 1.0000000180025095e-35
decision_type=2 2 2 8 2 8 2 10 2 8 2 2 2 2 2 2 10 8 10 2 2 2 10 2 2 2 10 2 2 2
left_child=1 3 7 -1 5 -5 8 17 -7 16 25 24 -8 -14 -13 -16 26 -3 -4 20 21 22 -2 -19 -12 29 -6 -25 -29 -11
right_child=19 2 18 4 9 6 12 -9 -10 10 11 14 13 -15 15 -17 -18 23 -20 -21 -22 -23 -24 27 -26 -27 -28 28 -30 -31
leaf_value=0.0064313702648759498 0 0 0 1.2788916923523814e-07 -5.0261747790055848e-05 -0.00014461746274108678 0 0.0011617363842570845 0.0016408246954612857 0.0016223880571048033 -0.00010001711615500189 0.00097322300976949994 0 0.001811830545009617 -0.00033915089274293674 0.0013023617934548775 -0.001149195669326384 0 0 0 0 0 0 0 0.0015053218905298309 0.0010607894594476426 0.0015388919319601257 0 0 0.001066904702789543
leaf_weight=33 92 29 221 43 87 77 131 20 132 25 21 38 53 27 36 72 22 88 20 3524 240 122 24 48 155 164 21 26 25 57
leaf_count=33 92 29 221 43 87 77 131 20 132 25 21 38 53 27 36 72 22 88 20 3524 240 122 24 48 155 164 21 26 25 57
internal_value=-0.0184338 -0.0035757 -0.0164046 0.00154941 0.00114126 -0.00156587 -0.00261905 -0.00974576 0.00107656 0.00293696 0.00396127 0.00186335 -0.00627962 -0.01125 -0.00205479 -0.00462963 -0.00153846 -0.0111111 -0.0229253 -0.0246377 -0.0225941 -0.0201681 -0.0159483 -0.00975936 0.00511364 0.00670732 0.000462963 -0.0128788 -0.0161765 0.0103659
internal_weight=5673 1671 477 1194 1161 463 420 236 209 698 568 322 211 80 146 108 130 216 241 4002 478 238 116 187 176 246 108 99 51 82
internal_count=5673 1671 477 1194 1161 463 420 236 209 698 568 322 211 80 146 108 130 216 241 4002 478 238 116 187 176 246 108 99 51 82
is_linear=0
shrinkage=0.05


Tree=32
num_leaves=31
num_cat=0
split_feature=0 0 0 7 0 0 2 6 2 6 1 1 1 2 0 2 1 6 1 1 7 1 2 1 0 1 1 0 1 1
split_gain=54.1365 196.997 10.056 2.79921 2.44125 1.88526 1.61182 1.42424 1.93944 1.32121 1.31683 2.51207 1.30493 1.87537 1.22789 1.14664 1.26873 1.11631 1.04572 1.5625 0.991754 0.930273 0.835757 0.765625 0.654183 0.644854 0.66784 0.888013 0.463555 0.412036
threshold=14.500000000000002 8.5000000000000018 13.500000000000002 6.5000000000000009 10.500000000000002 7.5000000000000009 11.500000000000002 3.5500000000000003 11.500000000000002 2.8500000000000001 3.5000000000000004 5.5000000000000009 2.5000000000000004 11.500000000000002 12.500000000000002 11.500000000000002 2.5000000000000004 6.8500000000000005 3.5000000000000004 4.5000000000000009 41.500000000000007 2.5000000000000004 6.0000000000000009 4.5000000000000009 9.5000000000000018 1.0000000180025095e-35 1.5000000000000002 9.5000000000000018 5.5000000000000009 2.5000000000000004
decision_type=2 2 2 8 2 2 2 10 2 10 2 2 2 2 2 2 2 10 2 2 10 2 2 2 2 2 2 2 2 2
left_child=1 5 3 -3 7 -1 20 8 21 12 25 -12 -6 22 18 -4 -17 24 -15 -20 29 -5 -14 -18 -9 -10 -27 -28 -24 -7
right_child=-2 2 15 4 9 6 -8 17 10 -11 11 -13 13 14 -16 16 23 -19 19 -21 -22 -23 28 -25 -26 26 27 -29 -30 -31
leaf_value=0 0 0.0061098017516321521 0 -0.00013738658960403273 0.0010135594676500658 0 0 1.2149471077347623e-07 -0.00079873351334532093 -8.8576780192337344e-05 0 0.001721239017759136 -9.50162603472518e-05 0.00092456185928102498 -3.8923834155461088e-05 0 0 -0.00010690286187081585 -0.00060546286205611873 0.0014452160291686335 0 0.0015476641522399869 0.0014287729656378681 0 0.00010503719357160509 0.0032011003815751991 0 0.0017198020568668559 0.0017062166995170964 0
leaf_weight=1869 2136 33 114 69 247 35 122 22 32 130 47 25 25 26 49 58 32 35 24 48 24 122 112 32 21 32 28 30 37 57
leaf_count=1869 2136 33 114 69 247 35 122 22 32 130 47 25 25 26 49 58 32 35 24 48 24 122 112 32 21 32 28 30 37 57
internal_value=-0.0184338 -0.0146381 -0.000314685 0.00154941 0.00114126 -0.0243593 -0.0201681 -0.00167387 -0.00292208 0.0030086 -0.0064433 -0.0118056 0.0040493 0.00194704 -0.00221088 -0.00974576 -0.0131148 0.00448718 0.00102041 -0.00208333 -0.0159483 0.00065445 0.00545977 -0.0179688 0.00988372 -0.00327869 -0.00111111 -0.00431034 0.00687919 -0.013587
internal_weight=5673 3537 1430 1194 1161 2107 238 463 385 698 194 72 568 321 147 236 122 78 98 72 116 191 174 64 43 122 90 58 149 92
internal_count=5673 3537 1430 1194 1161 2107 238 463 385 698 194 72 568 321 147 236 122 78 98 72 116 191 174 64 43 122 90 58 149 92
is_linear=0
shrinkage=0.05


Tree=33
num_leaves=31
num_cat=0
split_feature=5 0 0 7 0 8 2 8 1 1 1 8 1 2 1 1 8 8 5 0 2 7 2 2 8 5 8 1 1 1
split_gain=209.17 43.9471 8.2846 2.79921 2.44125 2.04876 2.12729 1.90057 1.27333 2.41681 1.24766 1.10715 1.30889 1.64028 1.1004 2.44907 1.01801 0.948184 0.906765 1.11599 1.61182 0.991754 0.81885 0.71946 0.667301 0.658537 0.645913 0.457553 1.01023 0.414206
threshold=-0.60355339059327384 13.500000000000002 14.500000000000002 6.5000000000000009 10.500000000000002 1.0000000180025095e-35 11.500000000000002 145.50000000000003 3.5000000000000004 5.5000000000000009 2.5000000000000004 133.50000000000003 2.5000000000000004 11.500000000000002 3.5000000000000004 4.5000000000000009 105.50000000000001 105.50000000000001 -0.37940952255126015 15.500000000000002 11.500000000000002 41.500000000000007 11.500000000000002 6.0000000000000009 100.00000000000001 -0.98296291314453399 76.500000000000014 2.5000000000000004 4.5000000000000009 1.0000000180025095e-35
decision_type=2 2 2 8 2 8 2 10 2 2 2 8 2 2 2 2 8 10 2 2 2 10 2 2 10 2 10 2 2 2
left_child=1 3 7 -1 5 -5 10 16 -8 -10 -7 24 25 23 -15 -16 -3 -4 19 20 21 -2 -18 -14 26 29 -6 -24 -29 -13
right_child=18 2 17 4 11 6 8 -9 9 -11 -12 12 13 14 15 -17 22 -19 -20 -21 -22 -23 27 -25 -26 -27 -28 28 -30 -31
leaf_value=0.005804311664050545 0 0 0 1.1541997523480242e-07 -4.3319821390936194e-05 -0.00013051726012383095 0 0.0011036495650442305 0 0.001635177066871179 0.001481400253076222 0.0014905906808670593 -9.0265447329889199e-05 0.00087833376631697366 -0.00030608368070050043 0.0011649829023237018 0 0 0 0 0 0 0 0.0013586171477214457 -0.0010873070468504485 0.00095707201309275724 0.0014663761743717364 0 0 0.00096288149426756249
leaf_weight=33 92 29 221 43 87 77 131 20 53 27 132 25 21 38 36 72 88 20 3524 240 122 24 48 155 22 164 21 26 25 57
leaf_count=33 92 29 221 43 87 77 131 20 53 27 132 25 21 38 36 72 88 20 3524 240 122 24 48 155 22 164 21 26 25 57
internal_value=-0.0184338 -0.0035757 -0.0164046 0.00154941 0.00114126 -0.00167387 -0.0027381 -0.00974576 -0.00627962 -0.01125 0.000837321 0.0030086 0.00396127 0.00186335 -0.00205479 -0.00462963 -0.0111111 -0.0229253 -0.0246377 -0.0225941 -0.0201681 -0.0159483 -0.00975936 0.00511364 -0.00115385 0.00670732 0.000462963 -0.0128788 -0.0161765 0.0103659
internal_weight=5673 1671 477 1194 1161 463 420 236 211 80 209 698 568 322 146 108 216 241 4002 478 238 116 187 176 130 246 108 99 51 82
internal_count=5673 1671 477 1194 1161 463 420 236 211 80 209 698 568 322 146 108 216 241 4002 478 238 116 187 176 130 246 108 99 51 82
is_linear=0
shrinkage=0.05


Tree=34
num_leaves=31
num_cat=0
split_feature=5 4 4 7 4 8 8 6 1 6 8 5 4 8 6 1 5 1 7 8 4 1 6 6 1 1 1 4 1 1
split_gain=205.03 42.5238 8.2846 2.91466 2.11723 2.09156 1.90057 1.27219 1.21431 2.08636 0.948184 0.906765 1.11599 0.686216 1.31008 0.7629 0.604788 0.829885 0.591141 0.493355 0.476088 0.682004 0.896095 0.58369 0.412889 0.353313 0.461955 1.10048 0.35161 0.474079
threshold=-0.60355339059327384 -0.25881904510252113 -0.5 6.5000000000000009 0.37940952255126054 1.0000000180025095e-35 145.50000000000003 3.1500000000000008 2.5000000000000004 4.7500000000000009 105.50000000000001 -0.37940952255126015 0.78656609248549325 11.500000000000002 5.3500000000000005 1.0000000180025095e-35 -0.98296291314453399 1.0000000180025095e-35 25.000000000000004 76.500000000000014 0.25881904510252091 4.5000000000000009 4.1500000000000012 4.7500000000000009 3.5000000000000004 3.5000000000000004 5.5000000000000009 0.60355339059327384 2.5000000000000004 5.5000000000000009
decision_type=2 2 2 8 2 8 10 10 2 10 10 2 2 10 8 2 2 2 10 10 2 2 10 10 2 2 2 2 2 2
left_child=1 2 10 -3 8 -6 7 -4 9 16 -1 12 -2 14 -7 -16 17 -5 28 -11 21 23 -23 -10 -22 -17 -27 -28 -14 -30
right_child=11 3 6 4 5 13 -8 -9 20 19 -12 -13 18 -15 15 25 -18 -19 -20 -21 24 22 -24 -25 -26 26 27 -29 29 -31
leaf_value=0 0 0.005514096080848018 0 0.00095190209374293802 1.0964897647306229e-07 -0.00029901645830788289 0.0010484670867920189 0 -2.1673458412663007e-05 -0.00022906346975775768 0 0 0 0.003472850983964939 -0.00075879683767805491 0 0.00090921841243811962 0.0010056102983549212 0 2.826022735511434e-05 0.00083441707800112482 0.00090431176240594326 -0.00041293111193151989 2.804275874170537e-05 0.00016324399665158936 0 0.0015534182135276201 -0.0005552317663622922 0 0
leaf_weight=221 240 33 184 27 43 21 20 32 118 21 20 3524 82 21 51 167 172 60 50 22 35 105 20 20 98 109 26 25 81 25
leaf_count=221 240 33 184 27 43 21 20 32 118 21 20 3524 82 21 51 167 172 60 50 22 35 105 20 20 98 109 26 25 81 25
internal_value=-0.0184955 -0.00378516 -0.0164046 0.00125628 0.000839793 -0.00178186 -0.00974576 -0.0111111 0.0025788 0.00496689 -0.0229253 -0.0246377 -0.0225941 -0.00285714 -0.0033208 -0.0026455 0.00666023 0.0100575 -0.0201681 -0.00523256 0.000757576 -0.000475285 0.0022 -0.00289855 0.00319549 -0.00175841 -0.0034375 0.000490196 -0.018883 -0.0169811
internal_weight=5673 1671 477 1194 1161 463 236 216 698 302 241 4002 478 420 399 378 259 87 238 43 396 263 125 138 133 327 160 51 188 106
internal_count=5673 1671 477 1194 1161 463 236 216 698 302 241 4002 478 420 399 378 259 87 238 43 396 263 125 138 133 327 160 51 188 106
is_linear=0
shrinkage=0.05


Tree=35
num_leaves=31
num_cat=0
split_feature=5 4 4 7 4 8 2 8 6 8 5 4 2 7 6 8 8 8 2 8 2 4 8 3 8 8 8 4 2 6
split_gain=203.855 42.1214 8.2846 2.37302 2.04824 2.09156 1.98667 1.90057 1.27219 0.948184 0.906765 1.11599 1.61182 0.991754 0.85647 0.975095 0.708042 0.662294 0.641504 0.580149 0.508501 0.496893 0.589825 0.396923 0.384334 0.465385 0.49 0.273698 0.692349 0.2136
threshold=-0.60355339059327384 -0.25881904510252113 -0.5 6.5000000000000009 0.37940952255126054 1.0000000180025095e-35 11.500000000000002 145.50000000000003 3.1500000000000008 105.50000000000001 -0.37940952255126015 0.78656609248549325 11.500000000000002 41.500000000000007 2.8500000000000001 21.500000000000004 139.50000000000003 95.500000000000014 11.500000000000002 12.500000000000002 6.0000000000000009 0.60355339059327384 6.5000000000000009 1.0000000180025095e-35 32.500000000000007 50.500000000000007 72.000000000000014 1.0000000180025095e-35 11.500000000000002 4.7500000000000009
decision_type=2 2 2 8 2 8 2 10 10 10 2 2 2 10 10 10 10 10 2 8 2 2 8 2 10 10 10 2 2 10
left_child=1 2 9 -3 14 29 19 8 18 -1 11 -2 13 -13 15 20 17 24 -4 -7 -5 22 -8 -23 -16 -26 -27 28 -22 -6
right_child=10 3 7 4 5 6 21 -9 -10 -11 -12 12 -14 -15 16 -17 -18 -19 -20 -21 27 23 -24 -25 25 26 -28 -29 -30 -31
leaf_value=0 0 0.0052383912768056169 0 -0.0001831764246129435 1.0416652764940916e-07 -0.00038199260041770378 -0.00017913968084279309 0.00099604373245241822 0 0 0 0 0 0 -0.00018776573378634956 0.0012967623948180443 0.0029506144989865759 -0.00094682186680670327 0 0.001245810664562188 0.00085909617428564587 0 -5.610908764257202e-05 0 1.4612443100211755e-05 -9.9309108230957393e-05 0.0013380561295921189 0.00086375749181621388 -2.0589785492029858e-05 1.0416652764940916e-07
leaf_weight=221 240 33 89 22 23 20 25 20 32 20 3524 92 122 24 24 25 20 21 95 189 80 67 95 24 20 20 25 348 93 20
leaf_count=221 240 33 89 22 23 20 25 20 32 20 3524 92 122 24 24 25 20 21 95 189 80 67 95 24 20 20 25 348 93 20
internal_value=-0.0185131 -0.003845 -0.0164046 0.00117253 0.000796727 -0.00178186 -0.00285714 -0.00974576 -0.0111111 -0.0229253 -0.0246377 -0.0225941 -0.0201681 -0.0159483 0.00250716 0.00334507 -0.00115385 -0.00272727 -0.00951087 0.000598086 0.00290055 -0.00627962 -0.00416667 -0.00906593 -0.000842697 0.00115385 -0.00166667 0.00321497 0.0015896 0.00872093
internal_weight=5673 1671 477 1194 1161 463 420 236 216 241 4002 478 238 116 698 568 130 110 184 209 543 211 120 91 89 65 45 521 173 43
internal_count=5673 1671 477 1194 1161 463 420 236 216 241 4002 478 238 116 698 568 130 110 184 209 543 211 120 91 89 65 45 521 173 43
is_linear=0
shrinkage=0.05


Tree=36
num_leaves=31
num_cat=0
split_feature=5 0 0 7 8 0 8 1 8 8 8 5 0 8 7 0 1 1 5 1 7 1 1 1 8 1 1 0 1 1
split_gain=205.03 42.5238 8.2846 2.34305 1.90057 1.84715 2.00642 1.46751 1.96185 1.01801 0.948184 0.906765 1.11599 0.649624 0.591141 0.579825 0.67196 0.579295 0.859297 0.46993 0.515357 0.412889 0.35161 0.474079 0.331903 0.276324 0.672004 0.870748 0.259652 0.269422
threshold=-0.60355339059327384 13.500000000000002 14.500000000000002 6.5000000000000009 145.50000000000003 10.500000000000002 1.0000000180025095e-35 2.5000000000000004 57.500000000000007 105.50000000000001 105.50000000000001 -0.37940952255126015 15.500000000000002 11.500000000000002 25.000000000000004 11.500000000000002 4.5000000000000009 1.0000000180025095e-35 -0.98296291314453399 1.0000000180025095e-35 80.500000000000014 3.5000000000000004 2.5000000000000004 5.5000000000000009 112.00000000000001 3.5000000000000004 5.5000000000000009 9.5000000000000018 4.5000000000000009 5.5000000000000009
decision_type=2 2 2 8 10 2 8 2 8 8 10 2 2 10 10 2 2 2 2 2 10 2 2 2 8 2 2 2 2 2
left_child=1 3 4 -1 9 6 -5 8 -7 -3 -4 12 14 19 22 21 24 -10 -19 -8 25 -9 -2 -24 -17 -21 -27 -28 -11 -30
right_child=11 2 10 5 -6 7 13 15 17 28 -12 -13 -14 -15 -16 16 -18 18 -20 20 -22 -23 23 -25 -26 26 27 -29 29 -31
leaf_value=0.0049764717129653357 0 0 0 9.8958201266938707e-08 0.00094624154582979717 -0.0002098558452504811 -0.00059083846560809288 0.00074950834951025772 0.00084452409247604693 0 0 0 0 0.0032369179015385822 0 1.2986493541889336e-05 0.00081614136557136359 0.00094173440519301006 0.0007994705219477573 0 -0.00017018269680065342 0.00016447008350832737 0 0 -1.9560296217428362e-05 0 -0.00052747017804417754 0.0014785527572333682 0 0
leaf_weight=33 82 29 221 43 20 20 54 35 88 138 20 3524 240 21 50 24 125 67 127 160 33 98 81 25 114 103 25 24 25 24
leaf_count=33 82 29 221 43 20 20 54 35 88 138 20 3524 240 21 50 24 125 67 127 160 33 98 81 25 114 103 25 24 25 24
internal_value=-0.0184955 -0.00378516 -0.0164046 0.00125628 -0.00974576 0.00088286 -0.00156587 0.00250716 0.00513245 -0.0111111 -0.0229253 -0.0246377 -0.0225941 -0.00261905 -0.0201681 0.000505051 -0.000855513 0.00620567 0.00773196 -0.00307018 -0.0023913 0.00319549 -0.018883 -0.0169811 -0.00326087 -0.00176282 -0.00328947 0.00153061 -0.00975936 -0.00663265
internal_weight=5673 1671 477 1194 236 1161 463 698 302 216 241 4002 478 420 238 396 263 282 194 399 345 133 188 106 138 312 152 49 187 49
internal_count=5673 1671 477 1194 236 1161 463 698 302 216 241 4002 478 420 238 396 263 282 194 399 345 133 188 106 138 312 152 49 187 49
is_linear=0
shrinkage=0.05


Tree=37
num_leaves=31
num_cat=0
split_feature=5 0 0 8 0 6 2 8 6 1 1 6 8 1 2 1 0 1 1 8 5 0 2 6 1 2 5 1 1 1
split_gain=202.683 41.7209 8.2846 1.90057 1.82 1.85837 2.34178 1.32325 1.27219 1.14449 2.61981 1.11639 1.92474 1.7556 0.98063 1.15071 1.07509 1.125 1.5625 0.948184 0.906765 1.11599 1.61182 0.840381 0.834591 0.641504 0.621942 0.5696 0.5 0.494152
threshold=-0.60355339059327384 13.500000000000002 14.500000000000002 145.50000000000003 10.500000000000002 3.5500000000000003 11.500000000000002 1.0000000180025095e-35 3.1500000000000008 3.5000000000000004 5.5000000000000009 2.8500000000000001 131.50000000000003 2.5000000000000004 11.500000000000002 3.5000000000000004 12.500000000000002 3.5000000000000004 4.5000000000000009 105.50000000000001 -0.37940952255126015 15.500000000000002 11.500000000000002 7.0500000000000007 2.5000000000000004 11.500000000000002 -0.98296291314453399 1.0000000180025095e-35 4.5000000000000009 1.0000000180025095e-35
decision_type=2 2 2 10 2 10 2 10 10 2 2 8 8 2 2 2 2 2 2 10 2 2 2 8 2 2 2 2 2 2
left_child=1 4 3 8 5 6 24 -7 25 27 -11 -6 -13 26 15 -15 17 -16 -19 -4 21 22 23 -2 -1 -3 29 -8 -18 -14
right_child=20 2 19 -5 11 7 9 -9 -10 10 -12 12 13 14 16 -17 28 18 -20 -21 -22 -23 -24 -25 -26 -27 -28 -29 -30 -31
leaf_value=-0.0001860509011122761 0 0 0 0.00089892946853830724 0.0010377180031281763 9.401029120359177e-08 -0.00069131507251374747 1.0698010651980611e-05 0 0 0.0014046251193716996 -8.9761411644010108e-05 0.0010509724363815622 -9.8733037667330523e-05 0.00071203293203474455 0.0038631894218705181 -1.8582281406556944e-05 -0.00060101172177759389 0.0011854955516043403 0 0 0 0 0 0.0013991748044146256 0 0.00077834341260160091 0 -0.00050802847468179777 0.00077418230978597779
leaf_weight=71 21 89 221 20 39 31 32 49 32 47 27 113 24 50 24 131 25 24 48 20 3524 240 122 95 124 95 161 92 25 57
leaf_count=71 21 89 221 20 39 31 32 49 32 47 27 113 24 50 24 131 25 24 48 20 3524 240 122 95 124 95 161 92 25 57
internal_value=-0.0185308 -0.00390485 -0.0164046 -0.00974576 0.00108878 -0.00132135 -0.00273537 0.005625 -0.0111111 -0.00656566 -0.0114865 0.0026699 0.00219941 0.00338313 0.000993884 0.00345304 -0.00205479 0.00104167 -0.00208333 -0.0229253 -0.0246377 -0.0225941 -0.0201681 -0.0159483 0.00115385 -0.00951087 0.00661157 -0.00362903 -0.008 0.0101852
internal_weight=5673 1671 477 236 1194 473 393 80 216 198 74 721 682 569 327 181 146 96 72 241 4002 478 238 116 195 184 242 124 50 81
internal_count=5673 1671 477 236 1194 473 393 80 216 198 74 721 682 569 327 181 146 96 72 241 4002 478 238 116 195 184 242 124 50 81
is_linear=0
shrinkage=0.05


Tree=38
num_leaves=31
num_cat=0
split_feature=5 0 0 7 8 0 8 1 6 6 8 5 0 8 6 1 5 1 7 0 1 6 8 1 1 0 6 1 1 8
split_gain=202.683 41.7209 8.2846 2.21379 1.90057 1.62492 2.00642 1.56627 2.08636 1.27219 0.948184 0.906765 1.11599 0.649624 0.891117 0.798796 0.604788 0.829885 0.591141 0.553628 0.610917 0.754381 0.493355 0.420591 0.461955 1.10048 0.417068 0.35161 0.474079 0.351082
threshold=-0.60355339059327384 13.500000000000002 14.500000000000002 5.5000000000000009 145.50000000000003 10.500000000000002 1.0000000180025095e-35 2.5000000000000004 4.7500000000000009 3.1500000000000008 105.50000000000001 -0.37940952255126015 15.500000000000002 11.500000000000002 5.3500000000000005 1.0000000180025095e-35 -0.98296291314453399 1.0000000180025095e-35 25.000000000000004 11.500000000000002 4.5000000000000009 4.1500000000000012 76.500000000000014 3.5000000000000004 5.5000000000000009 9.5000000000000018 1.9500000000000002 2.5000000000000004 5.5000000000000009 112.00000000000001
decision_type=2 2 2 8 10 2 8 2 10 10 10 2 2 10 8 2 2 2 10 2 2 10 10 2 2 2 10 2 2 8
left_child=1 3 4 -1 9 6 -5 8 16 -3 -4 12 18 14 -8 -16 17 -7 27 26 29 -22 -10 -17 -25 -26 -9 -2 -29 -21
right_child=11 2 10 5 -6 7 13 19 22 -11 -12 -13 -14 -15 15 23 -18 -19 -20 20 21 -23 -24 24 25 -27 -28 28 -30 -31
leaf_value=0.0051914991889077874 0 0 0 8.9309776643412187e-08 0.0008539829951113916 0.0007663442880220993 -0.00025699177106416996 0.00079759658856758196 -0.0002033600555801558 0 0 0 0 0.0030745371059290542 -0.00065674931888806004 1.0163110119381581e-05 0.00073942624197152057 0.0008089325581888151 0 1.6825239446995376e-05 0.00058217482619927 -0.00042427472176415808 3.8702853812506295e-05 0 -0.00057132792511055365 0.0013343938634031148 -0.00040453541758334331 0 0 -1.7653167336229097e-05
leaf_weight=32 82 184 221 43 20 27 21 108 21 32 20 3524 240 21 51 167 172 60 50 24 105 20 22 109 25 26 25 81 25 115
leaf_count=32 82 184 221 43 20 27 21 108 21 32 20 3524 240 21 51 167 172 60 50 24 105 20 22 109 25 26 25 81 25 115
